1.1768150072257404 -0.27627974866113536 -1.5604243850405308 1.125516246672551 -0.09918898245262232 -1.826689938109924 0.815037376004241 -0.8778402490258367 
1.0230495051863078 -0.27456011453025364 1.0963081594239237 -0.9475506015167755 2.447602229052304 -0.653175772883762 -0.1039200969307167 -0.15785269298865445 
1.3416652491934087 -1.0489763922426818 -0.6549666845907886 -1.0329630826441252 1.207054703021409 -1.7506309832301372 1.1604959129762293 -0.409725101913509 
-0.5692779624189868 -0.5184299066356389 0.15160935881904436 -0.6782086325912123 -0.6522586806902635 2.0397957257037937 -0.05468531702219778 -1.3652170121393628 
-1.4126510253537488 -0.013612266593710863 0.39080333923100924 -0.9275966632623819 -1.8222734503868017 0.15546688486310062 1.8361255300394614 -1.0474272510162865 
1.2355037800532283 0.6961022751544838 1.001159922674373 -0.7496525355024255 -0.980467556645351 -1.0539082066702168 -2.000434783755453 0.6258454615217277 
0.8224609457194859 -0.04070708913891362 -0.6346404121804171 -0.383239517962352 1.0011438367656145 -1.023040728561705 0.04222920948366219 -0.6497407686452649 
1.5650777475461224 0.6120601837112857 -0.9169140802765909 -1.0671935052422705 -0.7929579622620881 1.0502254257457646 -0.9695149048140668 0.3411916073151525 
0.010417567064202393 0.15921928795523194 1.8563273209833189 -0.034520971946268034 0.3826598376966559 -0.9804573942534281 -2.0755098037339446 -0.5869395044371527 
0.7690598932998641 1.4206440878773734 0.4769205905519922 2.009218807654109 -0.4885488386295847 0.12937423896679734 -0.05766708631790828 -0.5593651170852364 
1.8881417967851832 1.0298132695262363 -1.5476469806344668 -0.3906341830928706 -0.30688444918909363 -0.5308628272868475 1.9236413530713494 -0.26676100143250786 
-0.5758063434443418 -0.725619961055244 -0.7399217583070106 0.20660941666859164 -0.45706591867931495 -0.26079279285217044 -0.10664801705168203 0.9242677922797222 
1.0282343200098871 -0.006714378150435141 0.47107543355484155 -0.6367979384178756 -0.9691123041449882 1.5512689673345847 -0.9097065974362138 0.20515652717821958 
1.1395683547283073 -0.4605553918334232 -0.3215492400263794 -0.3558958013739406 -0.29163349127576893 0.9870555136995164 -0.009125487962801984 -0.8303689566414256 
0.3692653302110338 -0.7668846213028518 1.1050406781978772 -0.10661354097152946 2.586123419170154 -0.0855487153998483 -1.1418983041607096 -0.36059048493715157 
-0.854255980929129 0.5987860247049468 -0.7435606330248692 -1.6712421452001687 -1.085440624949005 -0.9995476646488602 -0.21829473855777956 0.7373009392506669 
-0.5080379072726566 -1.0136514921096795 1.6487880609598542 -0.419081813967966 1.5086906910590858 -1.5602627370032978 -0.375422052341685 0.027527957230228835 
0.3819804130798295 -1.8565880882879304 -0.11043485187662111 0.20842814846746346 0.3735735649839555 -1.88354321050319 0.9852445177266408 0.7720771425857337 
-0.5961529301116897 -0.6764255610849479 1.5497404401924426 -0.054977284782265254 0.6134252306388437 0.2575369643999162 -0.14683934708811458 1.9840380797520343 
0.9011010533115823 -1.385917812014647 0.7074550925510514 -1.316105833529518 -0.5353109828129242 0.9463440134355425 -1.6445963219453248 -0.15908797992660026 
-2.255474309044765 -1.1108916246902596 -2.699318812370093 0.8330050983934347 -1.0282407136765674 -0.5378779955930412 0.051753961910499795 0.8118104783115879 -0.47393433659367984 -0.17602251725985024 -0.9369941872843992 -0.5563189686112389 2.389205964154354 1.4306465452431991 -0.5278864882056891 -0.1719510835975321 -3.412111907994597 -0.04567025873764615 1.9348893469194473 0.5406035393580523 
-0.29458050477397796 0.40809811432921356 1.5752774758038386 -0.4526532074343358 -0.06312051408573978 0.43113018211511134 0.9945416486299533 -1.2369261257611806 0.969661889492705 -0.7115528441453005 -0.666089127086176 -0.9454520189221778 -1.8852780710370123 -1.4744335218981848 1.5414115863705924 1.2118933671665437 0.7786615812446176 2.095401435651856 0.07390508518307681 -1.4748445240183001 
