-0.7185382399506475 -0.4605417513484298 0.6231237645982354 1.804935170745662 
-1.7898552578910463 -1.0124119670618672 2.975072528265788 0.24076211145233614 
-0.7176639878840547 -0.12695151640232585 -1.0830353082573219 0.6077567380185334 
0.40515199280132985 -0.7158234986441749 0.19566138396712324 -2.5564637631320775 
-0.3829194210044892 -0.872227469677684 -0.6641114111042437 0.9122520570970435 
0.584023338584861 -0.9238107837548533 0.47575451528218804 -0.6902978993046296 
0.11150419723167825 0.8642381611546074 0.15911365086038118 -1.345420588555579 
-1.8063645917294893 -0.13295945765965606 -0.751769180481346 1.4630450771071666 
1.2659815873998774 -1.6079888358702616 -1.3406201377002085 0.9665401890151657 
-0.5887132068084303 0.11382078223840242 0.7886084847712963 -0.48742889222527824 
-0.18848512197153044 -1.5409548819819596 -0.5871422429144643 0.5053092071651718 
-0.881332610231839 0.5957845353437558 0.9615779692357664 2.1721494506189307 
-2.954492662080075 -0.6639505974933437 0.1918919287026064 -0.510162852328614 
0.2877044409547543 1.6970841304565378 -2.3477196683901695 0.6010863625293185 
-0.36067479130713964 -1.790937248595484 -0.8461596272529286 -1.0287852834892117 
0.4794687028297761 0.55400486701232 0.46543843045916333 -0.1799155668280606 
0.19241932028479064 -1.0745706573153155 -0.6994311847317688 0.27211076552962055 
0.21752114460012734 -0.3005907473530687 -1.306232033974011 -0.26973498121507267 
-0.5928096156437881 -0.2825518711451566 -0.0009396500039569305 -0.28077496959184806 
0.894887479427272 0.4402969657256518 -0.6675982096664338 -0.3511019644614165 
-0.49971065164403355 -2.0532339672877677 0.45224004883324254 0.8426449463197556 1.1786362802043129 -0.5136191876229417 -0.31862181135848955 0.3034120560677284 -0.002019034822973052 -0.25203283448426017 -0.5735856164356739 0.220873899771822 -0.6329521271927948 0.9567750622190911 -2.4791397299703486 0.17225400552819736 -0.4912048563160287 0.019074424468513523 0.04735927164794381 -0.9891268781157768 
-0.37187359698980327 0.6356201717264478 1.2467791420353922 0.24562429991214893 -1.2160520199335185 1.7372696075799017 -0.9584495897923461 0.3839196597167386 1.8873355511261924 0.23953051594437713 -0.09198983271706741 -0.41990649354964815 -0.18497897386493986 -0.8749191585657065 1.2839800710339413 0.4307622067735495 0.05597243716039777 -0.7925632248154982 0.7187121049995782 -1.8074468986337269 
