-0.7445929728296101 0.3004629905087733 -0.42791828919874403 -0.2795506681963382 
-0.5397038224965722 1.4176621110358525 0.763168632593684 -1.5338956764157212 
0.02011971664659636 0.24052589228192287 -0.03711083767041814 -0.5688898281662192 
0.6570778345612267 0.7586583196932992 -0.7854904155849909 -0.026491576436316673 
0.6672673501097448 0.5093135923621832 -1.8136817285651154 -1.2361878129618744 
2.6722957664542917 -0.5165426925754683 -0.8173317117720614 -1.6787131982208614 
-0.267394087221102 1.2008504356273026 -0.438277719986222 -0.6603806140341066 
-0.8108694583891046 1.1476286986100355 -1.507981439182925 0.15453083999321984 
-0.8553869936400563 1.3032967379044431 -1.1592727172726003 -0.8689455103553229 
1.3151276350415304 -1.70325343119304 0.10651886838712697 -0.6980906755389648 
-1.6563224036360173 -0.7049184015697516 -1.7688994709392358 -0.5838377023860624 
-1.2173936833620653 -0.37474760667033585 -0.2905087382496343 -0.0040937212830731125 
1.4841835029051753 0.17544975745522007 -1.7657327518991242 0.16625853316211628 
2.1804002005349936 0.9103092090730716 -0.2858939519920548 -0.6524048727087145 
-0.6705239487547114 -0.17973069090869553 1.2379788766679218 -1.8178974812848203 
2.7907254960189145 0.5332087011767003 -0.5902498835511724 1.1462864220300528 
0.28153824848043263 0.36806468906603373 2.325019847683863 0.1163371128103903 
0.8897330384191997 0.6142681209396533 0.00039859881917953 2.022531144419168 
-1.067178982609056 0.806177164911954 -0.8122930591003341 -0.6022874924997795 
2.4732220225786383 -0.7432149729401033 0.9848765606966425 -1.6707258169930916 
1.9930058972396636 0.4260391951532939 0.04887129549386253 -0.528996147060262 -1.7642016487480723 0.2712556719674621 2.4153649126118877 0.1818148280428328 -0.9569588048082851 -0.15992097734637312 0.03552260411641422 0.0924427040706302 1.0484008044660091 -1.6852782774729231 -1.3614655075451467 0.7025124665427274 1.0715933207029709 -0.6586739129595499 1.3380609562360288 0.19640711915306458 
-1.2140726803511501 1.5308006565136734 0.08017397570073176 0.0007681388867569371 -1.5429952139754304 -0.043333707026150185 -1.306814882512394 -1.7904331970301641 -0.7025913906335439 0.6284031600985136 2.0711653156669088 -1.5739697188602164 -0.16929255650650413 -0.12287287111975456 -1.3090575046274269 -0.41692556934533365 1.2391472312242025 0.3369459722568354 -0.3159832782108112 0.8499383384035919 
