1.1792960882533605 -2.0570497165577786 1.4747468855051542 0.1566292107972693 0.12944609144657815 -0.8934360360751621 -0.5861727617614434 0.9550096336614295 
0.06773094079464068 -0.1365403971824891 0.7570492673052938 -0.5548217921226904 -0.9378274652742817 0.5859010225987706 1.8945702178375519 -0.5520298434546604 
-0.23035423834179625 0.826738298371479 -0.5368276992722514 0.5572383159654557 -2.203633969524891 0.038218054521026466 0.5007616780509566 0.8942167781220036 
1.2694591524900332 -1.2302864272478462 -0.32391960168374456 0.21396707595477454 0.5775149928123505 -1.1378790689890839 -0.47292707773911374 0.2840878961673707 
-0.2961378583027018 0.7752289327064282 -1.044864861024653 1.8358467710852102 -2.019903472360459 1.1296183370438346 0.6810345629235577 -1.0831792490783196 
0.47503833130406414 -2.2911284037449913 0.6192672823019221 -1.742462376562877 1.4900918078455392 -0.13270157786398118 1.3570048096192038 1.1659264831849612 
-0.5963304024817416 -0.9732502347765227 -0.10150645859627457 0.42260408097720426 -0.34794481603340466 0.9920215455243531 0.27246090989135063 -1.6449937426365335 
-0.6173611063033508 -1.1503017312694317 -0.3634377822572783 0.11628814711125336 0.3144580428408337 -0.03815829657698286 0.28882708290951087 -1.3333721543569275 
-0.03626748597519302 0.7008504983984205 0.9830159623919394 -0.7135367210844996 -0.6004045149049859 -0.9364830493546483 -0.7238604519453049 1.9188795801289842 
0.7576571170027728 2.2184036267255935 -1.7570833415828937 -0.6813436750495988 0.7477851760090233 -1.7828341816013566 1.6860827473108826 -1.3898734505253398 
0.6592865012983535 0.9520511141018236 0.7345451924515027 1.0617030106647791 -1.2540528088845428 0.7764318320569377 0.12417012137732182 0.2794582701870952 
0.9787077635476684 -2.3546214897356634 -1.31899870780625 0.7280806112320115 0.5075091225127912 -1.6453942553240752 1.030395390325934 0.16663905812446067 
-0.1806738989122426 0.8840102433904885 -0.2581133122305489 -2.531463664905287 0.23962661368598268 0.295880324575692 0.22987610056845645 -0.2176623696937016 
1.6113241715003594 0.339005525896565 -0.8894591627326452 0.3339818333140323 0.36168126177747034 1.0217578833529202 -0.10121252871835673 -0.8870818226032512 
-0.7303751299958031 0.49125542154137164 -1.5378057665566982 1.402289817879936 -0.4944340380331646 0.02466046432456172 -0.660936872895738 0.6536214888815515 
0.5175885353365233 0.3437180803327545 0.3452876806421909 1.4185079420163937 -2.036997677802811 -0.9584079204433965 -1.2027918591034115 1.059351786232745 
-2.6124219856163204 0.07974925222489407 1.0728974250534693 -0.2915055744688919 -0.26279313564602014 0.14890948002892102 -0.48389180350991673 0.01447050839937033 
0.49740251594155044 0.5211663195287359 1.03822425573681 2.22321781498105 0.6793151302443486 -1.4087571023176837 1.3905318225969518 -0.4255945473020383 
-1.1561567380346125 0.6374527442081865 -1.7951138024300988 0.6017899199155932 -0.6118488207290319 0.39114838859630074 0.27469282357663544 -1.3478531664207305 
0.2924421930586774 -1.9133227016861867 -0.18468783586400966 0.04900568743873993 2.032778887792561 -1.0447253500910678 0.9879718808302494 -1.5536848759775834 
-0.9657770974006092 -1.0026566669250359 2.5789835093141473 -1.6273713826301164 0.5652941408250763 -1.5312479716842573 -0.6744966741853127 0.03184978064242199 -1.1448603750237039 1.471637985161807 0.6769813857980458 -0.39949701248007 -1.6155406550958327 -0.8436816396628897 0.15934203158608948 0.7537323135661738 0.7986097066072109 0.5082793899692069 2.610525945967844 -1.643882413726428 
2.737741335996276 1.2213727191156294 -1.4221949634219762 0.6949104390598765 -1.432042251820803 3.2264921282183288 -0.5928186876930002 0.2528134638111912 -0.8644768419095227 -1.1063466381640794 0.14207964757099606 1.2056757828986924 -2.1000951319683145 0.7712462120667305 -1.0521329333571225 0.3160745857590626 -1.9281979260424267 -0.7260609627765643 0.9296571626267608 0.31465591481738164 
