0.9658127343461664 1.4875415513819217 -0.8572842161716335 -0.05046600827362547 
0.07532825147919454 0.4454722003318052 -0.7396261148311662 -2.188940584871684 
-1.280531709687622 -0.9807349167765815 -1.2177449925810375 1.0133431711793313 
2.272223325128756 -0.3111050339056332 -0.6347429357096613 -1.151126738537399 
0.6017744181240892 -0.3748143669113424 -0.32650745618692245 -0.15331553173716092 
-1.3815325914205605 -0.7944771530239092 1.1827951707909043 0.5961869522777837 
0.9320793226612464 -0.4543234889527321 0.20224203144649316 0.22075588055710937 
1.5140385342353042 0.32337508526819814 1.6088140495419705 -1.0452135193930159 
-1.4492515981728917 -1.7813573927640414 -0.19643631960726715 -0.48095985466081087 
-0.7113831400299777 -1.6083881299951408 0.31274214191384936 0.5081410411094508 
-1.123168102850155 0.6780166241322895 -1.927660565713371 0.333147188368952 
-1.1745343245870064 -0.5609057378182711 0.025597019587141577 0.7949423168993787 
0.9704886867162961 -1.3202465065658942 0.7789876787144047 1.6594173387074784 
-1.4276450589498573 -0.5315762717382829 0.8299605745037499 -1.112618357541197 
-1.305807241715516 1.3694144357164089 0.5930029168536485 -0.3705610816933681 
1.145728838546067 -2.0761275209025243 -0.7883255413514624 0.9501900748434897 
2.0769418569974762 -0.5510276457814107 0.6690702040203712 1.4223564694337052 
0.4764291875195971 0.9911579434926957 -0.7526963458274348 -0.43193419889956547 
-1.135666139654957 -0.1673537617449753 -1.3526921933913822 -1.3842602538703146 
-0.3270713918518778 0.01755277755704234 -0.10482172070744854 0.9852499994958382 
-0.5777781560434657 -1.3300898500742746 -1.2046768509458736 0.07564337075165906 -1.1474559635198098 1.7104150932419928 0.4168942915973575 -0.8676407771022904 -1.2840284254822092 -1.024982303194591 0.474284280906974 -0.6112928958528147 -0.10579347747465745 0.7262918198642505 2.1122989811646624 -1.8490465724852605 1.1532830370138338 0.6799411680350957 0.821468177961238 1.260701141587481 
-0.22160094153945423 1.4694078228005851 0.23328936561562458 1.6713579603291278 -0.34147546275101204 -0.5538066136982696 -0.18471967191252478 0.9968961351067156 -1.7317108296521444 -2.4766872764569667 -1.091752454079709 -0.7383788364350109 1.5502118269935672 -1.7783965749117157 -1.4890945102921829 0.5624870620645783 -1.0210814066615614 -1.13391872602254 0.051382440676414606 0.9250203012588517 
