1.1476544402292645 1.1771983427386687 -0.10044772337670659 0.5995814116740711 0.916109191160665 -0.4577637254175157 1.5035587550465253 0.29642888826020986 
1.6754122479467344 1.5289333665936489 0.21646214095074 -0.5334296384914331 -1.3186789996916726 -0.34172248377220243 0.14255359149528612 3.134745014919142 
0.176919294536341 0.5078831200551008 1.5553194364740428 0.45492601492342644 0.34239298682666924 -1.4078043463451941 -0.875813711149348 0.9673430865265978 
-0.7433187918430209 0.5572903320442385 -0.4800739195504843 -1.9580770868943689 -1.097936701773106 1.3766557988473254 1.101233895049354 0.554621221321657 
1.2756180683580869 0.5733073484590616 0.9418288032017931 -0.5222722199016463 -0.5770381867138276 -0.7175602839800098 -0.7455721055266685 1.8261317861891675 
-1.4349213360444255 -0.19285435802356646 -2.63012980562165 0.5717050146484808 -0.3003570641487197 0.22181367129614582 -1.8453607332133362 -1.0882855608884439 
-0.47715804290383146 -0.9496788585192626 -0.8218116519924444 0.9375705135478636 1.2529410341304665 0.42232045805172624 -2.0734860874105374 1.0059576911456416 
2.0010102455833496 -2.1222184749985433 -0.8634216841591428 -2.1907316061471755 1.0597121710436441 1.419975296098619 1.5961277509305156 0.18104780076486582 
1.0420390143272134 0.8159192821814044 0.34771237264366656 -0.4269750386596382 -0.5027271820756999 -0.12543441340089015 -0.43458199585793816 0.71540095189547 
-2.36394598346513 1.4220221135455549 0.6682033877551259 -0.5132762082804393 -0.6476848758931665 0.686786086546682 1.3721315804317102 -0.5850069534445942 
0.14058154862895406 1.3450095850712762 -0.5863755170834789 0.23389397274412854 -0.25617622106674764 1.8503649827390893 -0.4842009279861884 -1.282160103087365 
0.1488687481214041 1.4122766214113849 -0.3201032619676575 -0.2286707863455893 -0.5954617978907821 0.415019523108293 -0.893736478912864 0.33791204535266517 
-0.46845375217982393 -2.435892658623116 1.892300084800976 -0.6211110201752751 -1.1436372105908397 0.8392728241775355 0.7049881560795871 1.0577125709237027 
-1.3928155001777778 -1.210063946592893 -0.5873867876766147 0.543876179433392 -2.0230777684535064 -0.5209400873840397 1.4807485189471814 0.4780084627406476 
2.269465608384437 -1.2766334952247433 -0.31744623626234825 -0.10663915300357751 0.5912556217933842 -0.9180328512517486 0.8433108366487263 0.41560725162757944 
-1.1492977367103379 -1.1106966355545567 0.31195417498210315 0.8110519815866164 0.12030636675172525 0.7958914220433242 -1.3356765547721916 -0.005543191780120426 
-0.728194561712904 0.5930540126567185 -1.1817647327797736 -1.0868039258145408 0.970830914396453 -0.4946437955285694 -1.9671779602783381 1.2594227063108638 
-0.2124915093901181 0.10052747357482981 -1.816963106996885 1.1447968180153547 0.9852300969190234 0.24067391610318914 -0.35306384231730065 1.2450300325576522 
2.711509223846781 -3.666341244594674 1.323443159706383 -0.2824005027899749 -0.5022594392313113 -0.6986503224062875 -0.21997449728183455 0.7260709129786729 
0.37526289921200284 -1.0116308214598382 1.1467840263757916 -1.172043546610215 -2.2467097266147444 -0.0490259591021174 1.0386618447710743 2.4474404688135003 
1.2143019403907447 0.4133714507705379 -0.5359015962852306 1.264532588316839 -1.0305792808505956 1.7437508534169472 -0.4596655867923134 -3.018627196241613 -0.9295545295084606 1.0935302897474928 1.2235149519241724 -0.10844298814355875 -1.7506207716778999 -0.429107861291246 -1.761205630658641 2.608750699088736 -0.38418654089529963 1.7622644972318235 -1.953427825311249 0.725965724908639 
2.0270740270219423 -1.750553224611812 0.0615066260701617 0.313240526921285 -0.3098940102088623 0.08122327042678405 -0.24911954858987964 1.2519329047009025 -0.2853389048329767 -2.5440301192566497 -1.1408153211658634 -2.4331688492686485 -0.06838681966232256 -2.093900136386228 1.1168163947390488 -0.1024379178489766 -0.10496501976407843 0.9519237977153727 3.5224694332114166 2.124133406622738 
