0.5059387822957392 -0.23109283495185803 0.2814370996584048 0.8608772667981087 0.441462618970369 0.15203056825194175 0.9146480407207799 -0.441216248121817 
0.3086149001348893 0.14851643238651532 -0.34418123525464644 -0.005722119907240482 -0.6260216368071805 -0.6575057126633138 -1.0837501217761158 0.5874721740968206 
1.0734784895960945 -0.24072552865270877 0.5343101663768843 -1.7489278187081714 -0.2311159519550884 0.14884579603916723 2.084150818624118 -0.4133327058469213 
0.7444780175686292 -0.766688044274703 0.10103342552615131 0.5128805803900243 -1.148211768593853 -0.39214891887998854 -1.2438357142746805 0.09799981234258395 
2.11875213944093 -1.3357766535885365 0.3902033969464633 -2.5869626043175677 0.8202865701721449 0.19129268572133656 1.5247368525976632 0.2831850193719854 
1.4430401048471735 2.800956644008918 0.03827456846936429 -0.0719035771683968 0.041095235828617384 -0.951976380218057 -0.3793570865401534 0.8397763462827861 
-0.354577261521011 0.6080142972732759 -0.12452169717484243 0.023337586692615455 0.8533172327437776 0.4703502571305216 0.337199927254992 -0.72782120156223 
-0.10859393194902175 0.3101353565893358 -1.1373488885257077 0.8384871726151139 -0.9182711453578525 1.481294360192319 -0.032254145407683066 -0.8489226895067743 
1.25371122945453 0.9602404202139768 0.36926905582385616 -0.5168057331279349 -1.7291339536505468 0.423887824523542 -0.5889630528882924 -1.9267348987784043 
-0.2616507023740463 -1.2893174875674454 1.1318039866350957 -1.1406274057407306 0.1314311316723527 -0.06349648620609777 0.48643888534737323 -0.9289333213539764 
1.3704937383304743 0.4112022474411257 -0.7006219822207821 1.392694562553504 -0.7512168970547124 0.9387227706103431 0.8612671827607465 0.7243362467750674 
1.3174119498114885 2.209486032661155 0.5234560222641319 0.23978400973014646 -0.0035098318987898157 -0.8078899040405513 0.4913694373766072 -1.2791548182088301 
0.4525600986847681 0.1594781329603992 0.06352224737097305 -0.5612888341358262 0.23348467829871455 -1.586162738125766 -0.5720365427442959 0.3225549266614154 
0.5498086342874369 1.7755493650840837 2.081970864266168 1.2608208503395368 -0.3293123041141857 -0.3370986869324913 -0.6882823729565349 -0.657507873914345 
-2.1383775929162465 -2.1911840281060306 0.0976588043007915 -0.8101833544684358 -0.22307558477574593 -1.095666776605284 0.334643424806596 1.0879323584323584 
-0.762050904512337 1.6484569715423598 1.4306616559610015 -1.6932050806209198 0.09015901030924744 0.2625455203196405 -1.1126973941654716 0.8706912533256965 
1.2107385709494944 1.3165315929822583 0.12761518084119708 -0.2679676620963255 -0.07994671161838877 1.4260234149074476 0.29309480528244725 1.8299070110875777 
-0.24308775121937695 1.5361043590825099 -1.1448032433872688 -0.3579893005303097 -0.8482649924418525 -0.4233711407212506 -0.011054474579950183 0.6045391213802872 
-0.9314539271780016 0.2638016740920797 -0.7510430393366743 0.685268754095939 0.004816696294745242 -0.6449346945436459 0.4564421300648127 -0.8012909273140936 
2.601344669548706 -1.0223562234462553 -1.7904277745049744 0.9560187978797963 2.0071663987232524 1.8183634049918496 -0.3101827392610864 2.5130351424603394 
0.23849075616816603 1.3934412885098044 -0.42195682952956926 1.0800494157599523 -1.414322536166983 1.8481934422291248 -0.3693534843062041 2.26646212135579 0.32898145872739937 -1.5259399705041075 -0.41278517094416095 -0.44878534431773925 -2.0688194248794143 2.1039459504390234 1.5098645469363865 0.10940261884269963 0.1508344548984275 -0.4146515488410532 -1.3635981439077416 -0.4637436995464833 
-0.014211949167272824 0.8549811223058473 2.109591496187884 -1.0997435049816968 2.324365642199793 0.5268736582182304 -1.0096114829598912 -1.1509410852364597 -0.8429381807687536 1.1637394035127022 -1.6662174275107013 -0.047022185162465695 0.705696164707467 0.8069696981093072 0.9303145346680816 -1.4996046039256254 0.04906169755828962 -1.0140532750881703 -1.6651158719793164 -1.467366020576011 
