1.3125728743905771 -0.6043126953163969 -0.6830785749483519 -0.7020497447890373 -1.099187695004918 -0.34347053001650074 -0.9812169736753164 -1.2320535914476665 -0.017399908799299472 -0.29252067099464474 -0.6991690719429144 -1.4112747723676509 -0.08330607211097811 0.3066617790166762 0.7915649580011344 2.3574981135382522 0.14388182932431368 -0.21493286958353577 -0.27960046057489824 -0.11501650080388326 -0.848180927509213 0.12899500109477174 0.7126599879074725 0.9939104410805313 1.3206140531861994 -0.27713418549726976 -0.8977819731481529 1.4003636153409114 -0.8847188821131727 -0.5096252907301343 0.8887026160440882 1.4145120141103775 6.314748552795404 -7.7630843343468285 0.09178674529024455 -0.23793252972651868 0.45150845719971466 -0.5564470636442516 0.09479891005503631 0.7902471887917409 -0.6722567599501734 0.8810475965197935 
-0.5437377582508229 -2.101878159167475 0.12024983429814108 -1.6869296096442645 -0.0112053658744695 0.5978015552858533 0.7114182131930474 0.5982978808035189 0.23151977729793885 -0.3827377766878882 0.351072536668726 -0.2869103980423239 -1.655545224993787 0.45271320583539104 2.2425131293903147 0.3724517912421609 -0.7624322476608151 -0.1454209057850078 0.7341508159906445 1.2718473115195652 -0.7512852094188336 0.6733419482097339 0.7566377325647455 0.3848087422493898 -0.9702837092309943 1.8569946855108304 0.6236756214615812 0.217649014995968 -0.3879653176924488 2.0106246203697644 -0.3856452563378418 -1.4734824198554533 0.03690653131528822 0.5248921317991333 1.0706781182357754 -0.6374841868478845 1.457381335812953 0.642756215122452 -0.46771441025053634 0.7901554751977702 -0.6443127393672392 -0.9071723103146176 
-0.2122897782581977 0.31854441192855143 -0.7357662747720736 -1.7240129327592126 -1.6568314599105338 0.7259218497535337 -1.117397005480514 0.2255156456600053 1.7467419124792083 -0.3551752804836634 0.5657436307504529 -0.8677391328360005 1.136031372169787 -0.30470346026509515 -0.12407165698331864 -0.909278409705797 0.15645716345445998 -2.1989920207388587 1.3785307227716757 0.8861265036415383 -0.5629023523834716 2.224782423078569 -1.7192075050534232 -1.0038715287015116 -0.2132659387577192 -0.2569696992766098 0.9574161565569395 0.39572068918043984 -0.013295269037231109 0.27011523794377706 0.5522191226894724 -1.297478277063927 -0.23999451703170682 1.5161813077115558 0.07543339781160789 -0.7774558982546416 0.2564427210806483 0.400311385854033 1.1442009462702212 0.7691857774357242 0.047056458982216234 0.38036588914954705 
0.19416575066560282 0.24829756680643408 1.5835009257712367 2.692002208861497 -0.604648553515778 -0.18619616279240322 -0.3144737737767856 0.45385038133025085 1.8350802562672985 -1.0492506861389008 -0.8184567747791237 -1.1992427230105311 -0.936858843786564 -0.6106447821583901 -1.0426581383890516 1.0196824622195397 0.10514339288214315 0.14096548965413253 -1.4712006135689264 -1.0773907156067373 -0.08026890911874626 -1.5000092025055702 1.1493167160519977 -0.04410953741627075 0.27737900602609833 -0.1401865378712101 0.08584304657952148 -1.225873203210161 -1.2015898624260637 -0.21812089602576643 -1.1740582093044158 0.5465712103449293 2.0408563091670073 -2.7098474414138054 -0.7261565940734372 -0.5780421333344385 1.1207226431641484 -0.03616577440705875 0.39736887010573435 0.2001723420326178 0.30586024278126556 -0.10688254907375044 
-1.4179250326866737 -0.24198509085395672 -0.10540102282434803 -0.40230947540829826 0.2585827839706503 -0.08396892548677996 1.0947846367868133 -2.5275434606869496 -0.05806266263101668 -1.1571876639649095 0.9417794636990655 0.42135220469657775 -0.2911008076270588 1.069341264349064 0.6570693050906218 -2.3481690141446148 -0.7824393004273102 -1.3069200384967752 -1.8236957826482292 -0.8039044935127704 -0.37971381775915275 1.0459115732540802 -0.7873845487481009 0.0345464965989928 -0.3525676392956235 -1.5652683293880503 -0.04349044893635617 0.1517949220479944 -0.5228826508899616 -0.5572683338234987 -0.5160329312320723 1.0208907121356172 -0.36482544374456916 0.20763477518335877 -1.271529841212183 0.43388845864961245 0.44933763051294767 -0.26234193138883916 1.2965510101305835 -1.0156948693562902 -1.3816767548098614 -0.5576126781797808 
-0.4724340874835208 1.440643306305835 -1.5484063291041246 -0.15301707248979432 -1.4391553396442878 -1.8684173880764927 -0.47315975365237745 0.6823266473127242 1.5448261852421812 -0.9912528720675633 -0.49744445381934765 -1.9633115820311433 -0.18254254324228056 0.6817213291034585 0.047790504743592276 -0.3857362344601103 0.10285827365020378 -0.8017902086919998 -0.4699336799731435 2.0249075690502623 1.2822728656085933 -1.1926231913658085 -0.058570996267423445 -1.0428987555409674 -0.28172770149888626 1.9409608499731656 -0.0973059913212533 -1.6155791389138077 -1.2659819104741363 -0.03768901675630623 -0.07441359705435187 0.988111592552233 0.22684938719396155 1.7685300798538766 -0.5723000975547515 0.4590875681896215 -0.595363295639842 -1.6716729209257015 -0.032506260276757716 0.8695068721183129 -0.41065185802747933 -0.5160007025558695 
-1.0885822512158552 -0.9081651131138754 -1.1226336866230662 -1.2167772325424397 -0.16589145602590846 -0.1922706060894121 0.15881551254358137 -1.095601701311872 -0.49874437359177864 -0.05365879438211844 1.173839023514919 -1.008975226494406 0.7397203734410834 -1.4489239847576372 0.6671748211994246 1.5632786628805713 -0.22582068719187962 -1.4090249308804335 -0.8857627843337205 1.2658045748566078 -0.9909360099756281 2.591728777788499 -0.8617802465404204 0.26992463292441443 1.0021008684303567 1.1242659789157878 -0.9413712827951677 -0.2879971812198226 0.9956460549610143 0.5210413453966326 -0.07577402100412058 -1.3454086915876098 0.2400651892020173 0.30232814811753245 -0.7023955857891097 0.26685349519625995 -1.2343232805292286 -0.31300215812848314 2.125570622168304 0.17839833544056447 -0.31599770572906954 -2.0802273959514723 
2.3526654128684594 0.9489076567082689 -1.6532598033254422 0.7890449723603723 0.19370090738493217 -0.39781179521143145 0.946219337517881 0.4107590899539972 -0.10465903543444104 -0.08654463246562426 -0.312881598180457 -1.8079148644489305 0.6870847529214917 -0.4859050371411471 -0.4620919974763612 0.4651022393844139 -0.5142998849780177 -1.4054734247767486 -1.368391428210864 0.26236213670837394 1.596213596168841 -0.20106602007434038 2.2040525913164104 -1.5302495166714887 -0.15110168937379173 -1.2582378026733658 0.7958691642387067 1.141747753488625 0.9926978230514703 -2.0239729550257515 1.6298233706113388 -0.9641718008071444 1.5038002179266803 -3.1695927360485334 1.0541021089011142 -1.2860633565466297 -1.3456077486566582 0.5341075376795079 -0.9772189077713019 -0.062322231870171274 0.18527384592122922 -0.4769464434761875 
0.34065724286365273 0.1308448304199027 0.7169437135995398 -0.81539825822018 1.1848484885616908 -0.3529255527696524 0.6151192750306377 -1.1129726247581941 -0.6561462439718135 0.1980590599757776 -0.3201670505452047 1.0080235401327502 -1.0282435891540846 -0.8028612978936366 -0.08267582652822372 0.17901123502670888 -0.02061878227006337 -1.0345611406583999 1.313344889705272 -0.7221174799388252 -1.7531276454423885 0.6549019744646354 0.0363256589968385 -0.5829783998681072 1.383575641320119 -1.8383549658285352 -2.48073398161843 2.418722710666447 0.027903307989520253 -0.16704601316429368 0.7100679633173599 -0.26473961500099596 5.379067177863602 -6.284189125854612 -0.06931529282100776 0.11255935998565428 0.13110352821311905 -0.23774256048140235 0.1731957160358988 0.21445954648615806 0.0433225132430604 0.403251050288173 
1.0128579077360584 0.1576945719058012 1.2281327097017154 1.6886827614211217 0.8554764328353849 2.286701738833714 -0.984781348074032 0.23756486406315463 0.37036075032394983 0.7557299859709877 0.7830801078082174 -3.0211841579673306 0.36728143508822336 -1.4453431853850898 -2.9678765706629266 1.9809484810512492 1.0152992988467169 -0.812350299568927 -0.6162056450109583 1.4319221501685335 0.2920558763278715 -1.6495930059219166 -0.7708829500928356 0.5605486200396167 0.6490533697296187 -0.03425356448549307 -0.7741390535917799 0.915645469923707 -0.5906731259322553 -0.43984421920416367 -0.6251540559165291 1.2719653162920457 0.3263869971472935 -1.0213966355224804 0.16111244675153277 -1.715353499480583 -1.5667471512992661 1.1700516978879307 1.4724487620754743 1.984685701437574 0.9190038118478153 -0.4100216150454104 
0.2911588487295912 2.1367535220511455 -1.010432865930762 -0.9337402858345409 -0.16988869479273133 -0.7865963969184451 1.9828973203102147 0.7850495232062279 -0.13236545946485323 -0.18627157786904988 -0.6606854054642342 -0.25722345486732845 -0.7963104680896638 0.7098201542171754 0.32098521022591764 0.5552809226748033 0.8207671918881758 -0.5414746600722343 0.3369597858571952 1.1387344873051506 -0.24088129889721163 0.2977425057326509 0.5499705675846166 0.39645156673480314 -1.0716489822092876 0.6088845924408421 -0.04184533846392446 -0.48076182186290817 -0.28786967126207585 1.0993040854641811 -0.6750988320517862 0.64757449898358 -15.120805121021345 12.042852090874254 -0.44239842970652243 0.3743243093855276 0.3775209455306312 0.3643405137364179 0.28773984063022084 -0.1285403907605565 -0.530783601232897 1.2508250073709175 
0.9657967006391364 0.585843947609931 0.43498293902894725 1.3226531555338392 0.5289782646708525 0.07588798979305758 -1.0024334807185542 -0.17698045053452427 -2.272868339746734 -0.5073786253946562 0.09357767832814498 -0.3196700867126462 1.2634550804214353 -0.09926615389640074 0.5406840296458029 1.5333842671923377 0.902258049048872 0.6303898386829137 1.843515290056581 1.3064152832273024 -0.5325396169380169 -1.2411881062378856 0.8185772855315737 0.3428470508115162 -0.20622815368236938 -0.07529421314599888 -0.609433598410645 0.23392209327696348 0.8750733429835869 -0.2592871500713307 -2.0256139231009542 -1.387198198631492 1.1669602556378604 0.39857118105907147 -0.4079702078448545 -1.0401536595118448 -1.1771225165811943 -1.3658425287642115 -0.5976715504351117 -2.0615445951711147 -0.012132076019651753 -0.15777187175178486 
1.2551551328417538 1.17798469104491 -0.6426893880833168 1.27390210014885 -0.2988566099696786 -0.5305471911695012 2.236629381239707 -0.052357496101414235 -1.8766568738878824 0.2377446417141567 -1.628657852495503 -0.7564345137726278 1.048465687180889 -1.6354636443458361 1.0263338289323254 -1.2241541080443226 0.5961941465565846 -2.66504667100523 1.3198156593731551 1.203813205322434 0.4584056850981823 1.4866325669651896 -0.011861388553019018 0.49801675481076413 0.08848574908408335 0.14239666659242337 -0.3514155688130678 -0.05251370763973217 1.2623667451854461 -0.08811844343982887 -0.9654117189977809 0.580139382870067 1.3367748863965623 -1.143541769609444 -1.490102739301304 -0.9794752562537553 0.3815041309163971 -1.9075167534049142 0.7316824455542008 -1.1519603664157325 1.0520745706717123 -1.968028923686165 
0.3924727811588176 -0.2905831080055224 -0.5077609096862457 0.8835720043926366 -1.1822160602711562 1.8852248965091263 0.1278725902902145 -0.6349089997492424 -0.143531469967004 -1.873929102754209 -1.150198867375584 0.22645048612991767 -1.4909553284237616 2.296495582331855 0.6179486468183499 -2.285748348298789 -0.4013373135529259 1.548616244815808 0.8514778449623174 -0.5046893366760428 -0.45588973821231493 -0.7851477695449474 0.30076458837068515 -0.44718081175368296 -1.9414398995973265 1.9171246260425185 -0.6239186545937 -1.3429636138610868 0.32382615590049835 -0.5311224868534841 -0.5994032738816504 0.08406638443310666 1.389383787497577 -2.070404680637306 1.098385677382243 0.9279208925232244 -0.08975969847078895 1.2812850710983634 0.8982173293033613 -1.48582618856522 0.15638010457158996 0.43466755423211434 
-0.5226390761871175 0.2561770855529253 2.0322413713326797 -0.5010331745261636 0.2886365584654233 0.2546455463857523 -1.3946523576721572 -1.33693911770982 -1.1545453662157326 2.7681606859061563 0.486006217105096 -0.6308882552645844 -1.83115944829165 -1.645343208900167 -0.2383485606649864 -2.120296211964867 -1.255839810031724 -0.752753901028863 0.5836924313497732 1.1329493319877453 0.5846240692586067 0.17656172717574561 -1.3185819181866576 -0.619342878220686 1.4959809896229814 -1.6309164799627207 0.22994567643143554 -2.0719797243800024 -0.032493663597889653 -0.7572798989668019 0.1709701936734922 -0.12972994837205662 1.05226115934737 0.3893463467215152 0.6843860766737087 0.7352946203889803 -1.2041842150913318 -1.0214845718988712 1.4877154165724855 0.8076842881102801 -1.6563871551971456 -0.35397972550287693 
0.129088502891658 -0.4986477514707905 0.7342227866251088 -0.3116856386644731 -0.3013814808669428 -2.103876409749211 -1.4624187802129485 -0.6469210581607794 -1.0805921629417345 1.8691733339491583 -2.259285199744159 0.8568724675164128 -0.4569182062426447 -0.8483248870524404 0.5333010640621494 0.13382233612140307 0.9327189682310951 -0.5669274317358443 0.6508072731408617 -0.21192273637877232 -0.5824846615184983 -1.1783423287338135 1.0905399454365714 -0.2545171639617512 0.941509225008904 0.04521453340759706 0.5136322897709487 -0.35328662363270247 0.7942667691106644 0.2396100050637849 -1.4884572877488613 -0.05580859101331653 -2.1949273156580467 0.5946326941859865 -0.4320807939421746 -0.5556732484751074 1.082447320375081 -0.40855499743202506 2.3348907195718636 2.339974528755335 -0.8326016364213136 -0.30260276281553317 
0.6380858510417032 0.3167729516221196 0.9732813252484388 -0.24844213499287218 -1.3720510676592705 1.230385994693675 -2.0490327918068325 -0.2012032599087358 0.1516443158454543 1.4854315164593999 -0.8789229293661347 0.2792226672971656 0.7709280421722133 -0.9830393710266491 -0.24008585710591646 0.6334944652370247 0.16608299016204917 0.01756023379312558 0.028325934744819842 -0.2545301774452942 -1.4507490957210107 1.1591429788359675 1.0113823098581374 0.05600569274682937 -0.08390350351554791 -0.9812791933573588 0.7557760067420802 -0.10830600267401792 -0.9946838717150421 0.338516290373403 0.6715531496870192 0.8423371681789305 -6.866145365988545 6.74202543910467 -0.36444625023910576 -0.8619476478023642 0.17197674129809554 -0.6417092658820926 -0.08102218025547248 0.6012253366856438 -1.5677983124757018 0.08494345131603123 
-0.3891645124502842 -0.002622466653590373 0.7572616924724633 -1.9812031416607092 0.7666138344177196 1.584566511913467 0.4791203189560922 0.7266189703651874 -1.4882098647885327 0.34397922818405335 0.8618356767066417 1.7012583661535592 -0.286441790496009 -0.38163944653729426 -0.41248029543670073 -0.6864657871608664 1.0675787029977915 0.8207705743641471 -0.006028318365338157 -0.5531212604965919 -0.17067118385076246 -0.26750557915825096 0.13679557536145714 0.1836648099143704 1.346523316250416 -0.6709139473452123 -0.8556913940920583 -3.012987408725143 -0.6692224203127103 1.434480068995813 -0.24074237108671256 -0.3165159517919787 3.805240595363952 -7.429778489814931 -0.7604543541791127 -1.3530598213119231 0.22406123448378407 0.8952970971789541 1.2891664742539581 -0.19690553807383096 -1.7039035942196905 0.008335870983931386 
-0.2753499057158895 -1.589740411354163 -0.6263052830526379 -0.19607879249627036 -1.9916153327611654 -0.24143870165575199 -0.8553124730628181 -0.8052539952388665 1.3294626974393824 1.578917117178809 -0.672120391471126 -1.705163223580907 0.6981065186684982 -0.22326785741381416 1.0739219025746678 0.10236815789705875 -0.16768109868424205 -1.1085155387503034 0.12094287607889935 -1.3850560397277754 -0.35492536503253014 0.1340764622643144 -1.6231002654632032 -0.5741070227890105 -2.1150610222722683 -0.024464842381988195 0.1961488174653754 1.2071899074531116 0.12986229730817445 0.8785861613490182 0.26081883115221577 0.4096890960909922 -0.6327398301557394 1.1032035032989738 0.6105405888365656 0.12764191657626817 0.8470429089506271 -1.8019463406815286 -1.202970054530828 -3.2335933488660635 -0.5426328200076183 1.7943615181042576 
-1.5608870260752925 0.16967212751698782 -0.9008514335410265 0.3950756175206722 -1.143934526181282 -1.3022888548420308 -0.5587053408974626 1.7535568537261632 0.5674378699341586 0.5325421037878862 0.7809965327266724 -1.4049809838328806 -1.3317902796580348 -2.073263479548411 0.027695072613171008 0.944158090520671 -1.0417030139116723 0.28933920963185034 2.1791848945364025 1.993106118398391 -2.191169660350052 1.455212285256638 -1.7470565210977183 -0.7739123884483379 0.5490009990069434 0.1894737324215916 -0.5050260727346458 0.6090503548747629 -1.694675391686709 -0.3371113390382484 1.0806377617518512 0.36129150193374227 -4.333970920295644 4.231506819507499 0.6669025296369789 -0.5279112856440381 0.027771994183564103 -0.6946633767579046 0.7522854358024668 -0.19947804089138535 -0.4668452952438603 -0.3542698686881886 
-2.8323019399290543 0.1342889239097847 0.7285743800968949 -0.961079913449193 0.7127080158678635 0.6966637738134834 0.05146462348260862 -1.0598597451609797 -2.523004418169376 -0.629970448756155 4.3910556506311424 0.24229479037699075 -1.0343288715134527 -1.1359809343257499 0.01617994640006741 0.7794821818659685 1.6939276872519293 -2.0602091824478865 0.6827442554280609 1.7610119962824586 
2.322658928653193 0.33734107292386595 -0.2054008607371216 1.0067812544579737 0.2570098820886455 -0.6713288051527315 0.28013291810012314 0.8323496167033304 1.5805861148124638 -0.13206297162380662 -4.633014851085807 0.5515431423684751 0.1431132507659615 0.30116499442035255 0.4772351005386279 -0.2854797548095372 -2.978798484362765 2.0272682388422125 2.186328604033743 -1.3573002822693614 
