0.8373880251440978 -1.6187623219718832 1.1349304351293188 0.22265199839748454 1.5659141708117676 -1.1337655125287314 -1.4721133776108604 -0.7088233159166568 0.5884827686121056 -0.27244343885355693 -0.9355954342941455 -0.4627684017386086 -0.214363935993883 -1.022568225671082 0.6224465149819244 -0.22172600037453202 0.42988042938997884 -0.1781815415246317 0.011564816306846783 2.288611533740317 0.02872089899006288 1.7025946513277095 -0.8181441317248238 -0.35519033770593805 1.3420919602475943 -0.3260385221896263 -0.8122274814457934 0.7901502830597937 -0.5241604725236201 -0.7016407832089154 
0.41785124286542774 -1.6590401353117257 0.12589453549680324 0.16334347178415362 -0.05631448337117398 0.5873602259933799 2.5297471111322993 -0.33016333354517186 0.03168842969914128 0.7817448247842432 -1.0397144522955477 -2.4736070246550454 -0.5295774011380574 -0.6591443679914063 1.0147972670987802 -1.1142157456613502 -0.14323750557127585 -1.00902647472103 0.09280525166522915 -0.4769338823349518 1.4767179379099749 -0.932687690501115 -0.6744637977407258 -0.08655930057757853 0.5023194561761306 -2.106125882044761 -0.5795400434715939 -1.4253777116251036 0.13427156136787471 1.6285208640782052 
1.1218047456520275 -1.015756212841368 0.07118418040379984 0.35940803884736366 1.7993137464734081 -1.4063582812826692 -0.616678782014882 -0.23853905109924417 2.2684509307113574 -1.1216484400232964 -2.5444573884742425 -1.4575182469816608 -0.7907737812035758 -0.058943583210108556 1.3227057061872698 -0.23504193223622155 -1.1016465277624523 -0.8157670742025556 -0.548671512274749 -1.848601022211862 0.27175096443204005 -0.22650268667709184 0.7408917190525816 -0.34750738056000124 0.6881878298949321 -2.54497127955126 1.1866681655154452 -2.410970186242012 -1.3177207711848162 -0.14534042382683832 
0.3579353091256914 -0.24022529986974864 1.2030148441716608 -1.0094616928524316 0.1701897393203942 -0.834897176256573 1.0205531150116085 -0.3061436777370175 1.0451459250160242 -0.3567305095988548 0.8504695808317144 1.134376598405649 0.9834839993482518 -1.1405859448540743 -0.44094128603548205 -1.608357924715679 0.2345241041439458 -0.6576638722040372 0.027813294991569794 -0.29888354032661907 -0.7529462352024741 -1.1026756246576528 -0.47489268605901375 0.5227479048352934 0.48603352826587415 -0.891728400218501 0.7797472346007047 -0.06252476116720786 -1.149720429946163 -0.5427846897208388 
0.5516486217445399 -0.10998539472878884 -0.7025971639924252 -1.4141060885284498 -1.1252710361889549 -1.831800284151607 1.13740333312051 -1.3843010230860426 -0.5070664420963809 0.8820684567385043 -1.0600475438899608 -0.5235798235484935 1.2290814333670814 1.6374041230297138 -1.2071611098598567 0.5474753741583509 1.1450609648206407 -1.024009783265824 0.812464992811186 0.6982996935187479 0.0825727211784487 -0.43838398717199867 -0.024211247281061 -0.7958258234040051 -1.093694382284288 0.4269118864812996 -2.892474303050594 -0.009706392191140644 -0.558694518388508 0.20308410606635005 
-1.2426355339651036 -1.1660165115035186 -1.3981199303106653 -0.007454980092836702 -0.6829011391208023 -0.29434715021102265 1.0369684925298064 3.010254866266914 -0.6668336427842486 -1.0811416828397657 -1.6366750816579274 -1.7997381844063844 -1.168493412966898 0.7069572600428039 0.8337729825411847 1.8233722954976312 0.5529314039716693 -1.2955410549235864 0.01999240581042574 -0.05938781256764842 1.627217083092498 -0.6656225607779986 0.5315209999996462 -0.0712778580268217 -0.4445677786098018 -2.3457004281115337 1.3143482267440414 -1.5340602001771713 1.306511224445785 -1.3211750584591926 
0.46273612260516384 0.16052229400470644 1.0606344294525663 -1.3920169110783314 0.7215200676431631 -0.5274974871265953 1.299083800433688 -0.4555943002585713 -0.40165332781363 -0.35741592025960045 0.8674951578401262 0.8351952062104259 0.3595973820854114 -0.10847843112351603 -1.2221552637307993 -0.8938492784000914 -0.7973803532101985 0.6366875362411735 -1.0842110468251445 -0.17079652677092444 0.8733990321552626 0.031656194480303504 -1.0560861243835211 -0.08240360621933632 -1.3149118401227025 0.4967991604725059 -0.9281072352921961 -0.6524331867642075 -0.8674665145010216 -0.16498418879129886 
0.7747113402073512 -1.3493709781579382 -0.7578356562372377 -1.4697163815993866 0.24115160949672262 -0.4661035303621107 0.17922104278562545 0.025899577828025367 -0.4677914418212735 0.7439538840141281 1.1245437263878106 1.7456030025158245 -0.5244379322816869 -0.5154230592977946 0.23415148001714417 -0.48894170136171067 -0.5593779580150421 -0.6100536752769997 -0.8891196023088488 -1.0834037038235675 1.4652793581178971 1.339235189954691 -0.3631459354181251 1.2288657034082853 -0.924727522337225 -1.1488929481473529 -0.04653543408847601 0.018567612646454054 -1.2133001078578176 0.9561851170906537 
-0.05230402675482159 0.659815737625645 1.0399528526377178 -0.4741510469829676 1.2437474759398546 -0.12496504553413534 -0.2072682917182559 -0.4042476557540264 -0.45549501377460866 -0.5784570679345774 -0.8191906953853837 -1.0073380169669806 -1.0269975830137363 -0.19321418590413475 -1.770952599782392 0.27443533839216355 0.8368723499448573 0.9071838397602594 -0.8639101615542902 -0.47995368491346013 1.1769711100914717 0.41926334613477034 -0.8570055636101929 -0.1194716362437537 0.21021028245319812 -1.7198283247542894 -0.6768649596143027 -0.9421139506389921 1.9564291320225384 0.2663861097290942 
-0.23730261953431853 -1.3658458973059828 0.12832576712888613 0.44136828112005183 -1.5609516644280315 0.6796068325982063 -0.16028376175485876 -0.45168017229028046 -1.0659837604333067 -0.6762715322086323 -0.9438914833266017 0.06691189430099678 1.1443493180950073 -0.9438900030219557 0.5541302485899299 -0.4991052938349197 -1.8419115396242276 -1.3685190782418866 -0.4242058232237299 -0.0618047784140439 -1.713274190647997 -1.0574825190281951 2.04585033027811 0.25694799026565085 -1.5843307990866948 -0.2895997128680117 -0.46574007010409374 0.3166531856699525 -0.4931531017883939 -0.20380269373484017 
-0.43350835125738485 -0.6039002819647005 -1.3617099594046185 0.9285919317435167 0.49505009726591837 1.4391151541186116 0.49208988001257364 -0.9001311148870298 -0.1888096893629189 -1.8629523271884194 -0.5790410326549803 -1.7304647245763891 -1.9926207155154554 -0.15024713521166158 1.1438359336322863 -0.4521801358455914 0.13089828134398696 -0.07755354791677829 -0.21350943009529438 -0.4967553355229381 -0.40487050837034233 -0.7680669497311894 -2.7779388179177986 -1.4329380378704635 1.8773406414011304 0.25428960677317697 -1.03643978263116 -0.9864312655373906 -1.7073527278978222 0.13673579799243468 
0.538893085421867 -1.7330025955898045 -0.5969683751459874 -2.4401551407940207 1.1098105290207378 0.2386848269665467 1.1704686464661636 0.19697427154728514 -0.2916403250375628 0.7623157284822826 0.5748563619117141 -0.9252992208617905 -2.0488968737898174 -1.753129598484632 0.10959243592960324 -0.3171417570673772 -0.38986905784709835 1.0427245035315453 0.6701868351127843 -1.3942280467814354 -1.0355639609752825 0.17664578729640298 1.0786721768670258 0.38456324714456186 -0.29466191908626166 0.882324278665576 1.119764011624517 -0.7936642810053972 -0.3742255000897873 1.8807038108393246 
-0.8540832838002266 -1.744856770559148 -0.5870645218238235 -0.3412417350085249 -0.1908218377548213 0.24461932210837165 -1.3705578598509303 0.7766646774714105 -0.6366953947326784 -0.5952324066203706 -0.8103705488593479 0.2436573649976515 0.20760661215010606 0.5462950516559467 -2.8648855010569134 0.30578649949598935 0.5285297839779205 -2.420258811364132 -0.6035088566631843 0.05755539169158069 -0.18181700104377554 -0.34809968077264725 -0.3771294179616638 -0.22792135435192679 -0.3359044365510222 -0.24011665999158952 -1.5613066812862217 -0.11883787718133852 0.6771157003576929 1.5798974821546687 
0.2924498425889569 -1.8468326238094883 0.07871876905685038 -1.8219733691598863 0.36965875303989754 -0.04156829651188805 0.5073224840470284 -0.9576561366590366 2.323925727088901 -1.4857461054725953 1.4018576036354955 -0.2741758161000218 1.2782708432499532 0.8460421093541971 -0.06355640070177611 -0.6816639673439029 -0.16177692950135095 -0.3089675628162099 0.026877956794849705 0.8390720485914951 -0.8669314656023551 -0.20116693194275903 -1.0255852910865566 -0.6126119780662419 -0.592559005421558 1.1971335483782437 0.44936097120493623 0.05994331502925374 0.9876731704909897 -1.008000634610577 
0.6640587900201891 -1.2016693929342162 -0.6560240228198332 1.5179052370331136 0.6985610301527176 1.7472175149966445 1.069990665700943 0.47726080266466586 -0.47475696297049014 -0.5423177823472844 1.0894156048048598 -0.95783109318809 -2.10302426750308 -1.6197909618001667 1.0366887317523492 1.623267503797168 0.8486514394930034 -3.1914209094977712 -0.3081881104106842 -0.6860946022714517 -0.9189190250022096 0.5168272999598029 1.6465072328892099 -1.160900911145012 0.43559863529381676 1.2893516352746535 0.6974490139011673 1.4783222616179623 1.0519069881163265 0.8871139251664651 
-1.9485651034512104 -1.4173994095953566 -0.1771247749309729 -1.367382896294362 -1.3819741671844818 -0.9906775616124123 -0.5827760461943212 1.1182627548010897 1.1575544497047565 -0.2635554782856999 -0.6180140606897925 0.44313435226933706 -0.7110540736951962 0.668066016870273 -0.731466720061097 0.18880217413351535 0.22294996159423472 -0.5781985713902847 0.3577244811788879 -0.14329783137394903 0.2072936165373961 -0.021518707880999976 1.7096846070315497 -0.6281760642183113 0.2049232634408161 0.7318073850359397 -1.0255845624065574 -0.9332167148849917 -0.8070336797790427 -1.4755022771089008 
0.932247037338692 -0.2922681840507506 1.3334551758656172 0.34800532107682774 -0.08818028167712091 2.6502183537842345 -2.1051938548599667 -1.712332721904343 0.4216800593175347 0.5463522764044723 0.3517319739273433 1.6598676261043357 -0.7485380571155883 -1.5782171809407082 1.0014104001632764 0.284669469597436 1.7486983172885788 -1.391925320414722 -0.9471871935440522 2.364792029352485 -0.4734669907560485 -0.885764380121478 0.5313210929696001 0.7352275654729834 0.6596134404047718 0.1276100289453113 -2.778875814834437 -0.8644556950062888 -0.5776328398372783 0.02757851079022951 
0.4385329841419433 -0.35265091428969964 0.8255915001685944 -2.0412719418159133 0.698888203318404 -0.2493812089653838 0.000846815174042107 -3.8033674917800084 -0.6491784247165945 0.763350776956091 1.16961931151394 0.620839320352776 1.2913667439501744 -0.2886172797049407 1.6512498188282856 -0.7014534568580145 -2.589159050205271 -0.7124775645540306 -0.47553617885087945 -2.033118497811953 -2.004618965522032 -0.30796685438374966 -2.7570355576897874 0.34516738796033986 -0.34689761993345886 -1.334116179258357 -0.782066861533604 1.118469622502747 -0.9380045718567281 -1.350318898460712 
0.780533326468456 1.6539834330910144 -1.323383735733358 -0.10407298755809895 -1.5260380120414185 -1.7045463258863514 -0.6060698345764625 -0.2698409565712822 -0.003990574550963836 -1.7943516892660087 1.2250167745545686 1.1987867553569969 1.0296875255764306 1.1370040496584417 -1.3932985558997701 -0.21251042168957412 0.09063202975652601 -0.858485920711683 0.5859214519894617 -1.1606562431157155 -0.23036947916888031 -0.20967332523370902 -0.7597886515325543 0.11711094187232497 -0.2987610466958508 -1.4195303102049859 0.12197035040925375 -2.115796003595442 0.21865630660535282 -0.8990038314715881 
0.21054600039205293 0.33941052768201685 0.28643480703938434 0.4937490761255764 -0.3188686831822698 0.6790876583301372 -0.3085133392448985 -0.7885139241251664 0.06988049126020562 0.9326094758207404 0.0021018078773055015 0.8283865738070242 -1.4541775282921823 -0.05338976934902595 0.2660650234450871 -0.1670045123685093 -1.812850023226442 1.0036944277279458 0.37172495155824464 -1.2804369221203864 -1.7910574245245718 -1.3045818373136193 -0.8212462909396634 0.6895687089230556 0.8749669426217207 -1.5426440593156159 0.4494415416913045 -0.01743170757612258 1.1841423828164537 1.1356927915390278 
-1.052595704901691 0.6591516762900479 0.9892734384300726 -1.7819001443290665 0.9947870292992921 0.8641326826482211 0.14145175295390944 -0.01965214534506237 -1.0060874847131003 -0.49844727623912644 -1.7123382752168619 -0.980176521065458 0.15647143341955266 -1.2430990033199802 0.09737475811047484 -0.6802327794745723 -0.24988133335996496 0.8839282273473302 0.2990681592261079 1.1964871208809367 
2.3569906486535075 -0.03281061405384383 -2.012423294175719 0.8891414129977144 -0.7955574671633219 1.7957369390351272 -0.5336788226332091 1.8363309566039663 -0.32504085522216936 0.8062785706724512 -1.1240435184984514 0.12486979042604827 -0.16799369527411226 1.4078975939915281 -1.469338774244525 -0.5410526657612559 0.48018137796030946 0.49660438380153704 -1.1596615728247064 -0.34095723352777 
