-0.7708079614798612 0.7262821568823912 -0.4680888177952965 2.143914821081305 -1.2828042609412673 1.175470238102752 -0.7297468473666322 -0.010723834119970112 -0.745158234399782 0.4579761411599182 -0.3402267054938425 -0.657841211701959 0.6307333883353771 0.06333588798151868 1.2086482780553456 0.5416087071879843 -2.7781790630259433 0.7053332123693784 1.538233674579354 2.178271990679833 0.6697563847812384 -1.0876538716543511 0.21300031448740397 0.17993960080899754 0.2939414657756595 -0.9237030973660636 0.5126703089583453 0.5372798930557221 -0.301829656225265 -0.5153669423497339 -0.4456464713114694 -1.2177738016699002 1.169232618938238 -0.841378038359789 -0.5445941699963429 1.0872982867253662 -0.49292410355847405 0.8753967735818534 -0.6169574409581375 -1.0013417823214992 -0.6873756757895854 0.36495716615948326 0.10269480502606645 0.6165742159340108 0.6200898334253121 -0.27993498399367617 1.2200495710606711 0.8378459437353165 0.3490872680602777 -0.04840104597931956 -1.0386461449608793 1.6956804169906292 2.1395224618605595 1.3082218748076742 1.1209549821713825 1.7232612200200472 0.3090139127349405 -1.0377256220716717 0.11054771880954405 -1.3925642912377607 
1.1141912370843863 -2.090571559848351 0.2019800227635967 -1.4667709494938612 0.47019790698411756 -0.6750339976638584 1.3964902185868415 0.4900723801246102 0.4785744499510448 -0.6652095245346716 -1.4631268091334457 -0.3625974000464985 -0.42798963626332254 1.5187666457746505 -1.2051404289813274 1.9447654911885932 1.111905897383609 1.5400327559922136 0.9898812893490625 -0.28482240399628905 -0.8587242119018618 -0.4058380120456773 -0.16834618093937279 0.09043006817820601 0.29160232483661397 1.9736232573777486 -1.1198594807254931 -0.5898630697124474 -0.9158187342153531 1.1779891777559643 -0.9461041260553767 -0.0055039401950344406 1.642580806648258 -1.2431144909772385 1.6943538868910435 -1.228302755895722 0.11491985461269935 -0.032852683484576095 0.44843820604868917 0.24046764552808092 0.8771846422373614 0.3861147141993426 0.7200212566533015 1.3341936719341092 -1.5519310114446856 -0.4687770104567143 -2.2542748382706845 0.49042743628888913 -1.1426719775674727 -0.336704522528895 -0.16045964987281977 0.40836776549027604 0.0626487346186147 0.46019090835358883 0.11970307046484184 1.4072979303975253 0.20742664347110867 -0.5244220839337684 -0.6966268399254283 0.6823170221908524 
1.4067636024632864 1.0287881102358383 0.7251569698355802 0.6933680485478417 -1.3388322553430132 -2.272107832522223 -0.2354041602567778 1.2506937930474888 -1.5555178917494512 -0.5380241161127399 1.3014197331974113 1.1948182944583745 -0.4040562641221968 -0.4123903067415693 -0.9187331995497785 -0.672690626666036 1.5971583122958528 -1.9348873632546189 -0.9271502462792224 0.7014864208659206 0.5156931870236879 0.10445156523637408 -0.5426279921788366 0.22344613232954652 0.5613911537517661 0.6290701541208849 -0.625094965417404 0.44053377795109655 1.554870028452653 1.2218701098942903 0.29902247277504834 1.2616536920162504 -1.6038927152653004 1.085696300315663 -0.17197116527183032 0.4840111649566324 1.3253853012232624 1.5046526628246617 -0.7876084550356149 -0.4899776432952458 -1.3681588343879307 -0.6705913192231941 -1.4634015864850707 -0.11704067745532404 1.3127431267986187 0.26085829824931267 -0.09144489670325956 -1.553026343462745 -2.3571390716543448 1.1775677696144 1.634071607990953 0.9597625966833354 -0.023726230664977484 0.2989492116632786 -0.7783376131524687 -0.7297150217635953 -0.6572888992012265 1.1119654512958124 0.4849468831049045 -0.23103002281781645 
1.730039341233202 -1.0301819726555346 0.7840589303250093 0.8479973909244445 -0.1583447772905524 -1.2475174248297218 0.558188822983956 -0.7959443773719764 1.5653355732515946 -0.779569239181661 -0.23339600041467626 0.3829382934295874 -0.5243459909801668 0.8555299286375211 0.42251461550775443 -0.09712797001465798 0.5359186132651509 -0.7168055866705355 -0.2423375133236713 0.393205298337529 -0.7327658688055513 -0.011898425709917115 -1.416196752889633 -2.1149001501164872 -0.4103249369045021 -0.9795364665151713 -1.7817498417186866 0.5037148368048971 -0.726957402537307 -0.034299832822282536 -0.24489894034313772 -1.0115030761188215 0.9771950205702177 1.2051427947117737 -0.7012154991939756 -1.1610281389972428 0.18706423794753282 1.5973367730242785 -0.6316205435447014 0.7127732919949787 -1.2051528222728962 0.6015730665676506 -0.8133505691508198 -0.9662116727010411 1.2047233986775017 1.0216091282289808 1.4607921401501567 0.32030375376955067 -0.3696565468688501 1.4358984359602236 -0.21704250902892092 0.8154055663796786 -0.07006913353984838 0.46884702380436255 -0.12631926712764516 -0.5517016206771745 -1.8209045225184086 -0.7165678615078241 0.1947993203383231 1.2182328153863624 
0.666600281593303 -0.5673207170349159 0.1051374301532032 -0.09998380674977203 -1.2740385105395124 -1.5822613587720042 1.0261443222064723 -0.6944888848310963 -0.41078184228781384 0.41448404302482145 -0.5468719010186035 1.312142283999131 0.833228945114935 1.2823520687538987 0.6036970720132246 1.4544010453964107 0.09442843923251265 -1.0093790854669076 0.444854681911442 -0.3133192528286924 -0.029124944463887012 -0.49498848636026216 0.0510315357010808 0.757290539972324 0.45101280547183786 -0.886265330432668 0.4022858372931517 -1.099472533695259 -1.0900569170931578 -0.5754290046486488 -1.6568707489272048 -1.0200751490330324 -0.6871089600551273 1.4897109194588953 0.6221367178974194 1.3258969154324844 -0.3134565547604201 -0.4166731971381145 -2.127748066003056 -0.3947068053755008 0.07633489508204193 -1.4453318742307573 1.2408922500321404 -0.7363812247519237 1.4953422281414686 0.874268330056453 -0.4649246886147412 -0.6934354582477341 -0.10025157469898677 1.0220826657220918 -0.3453901516338826 0.41764251977469147 1.406589851405138 1.4306147133018696 -1.0632312222742641 -0.008483225610753639 1.7302372732429012 -0.3687873110628841 -1.504644397229432 -2.2101861401189873 
0.09759972775862272 1.2306432362826851 0.3442415026803261 -0.906696380676361 -2.2640569223687774 -0.31076858664926343 0.00032832081016031866 -0.5716962197181786 0.8938968869471624 0.031536371296902996 -0.34835608347275276 -0.5248648898286162 -0.4870374979712932 -0.9762517569963769 -1.1553127485750425 -0.6808312433426946 -0.2920902458111343 -0.4734593119657196 -0.5631021483272345 0.07998128932927032 0.4871094548954756 -0.8799701288496122 -0.5946946378707695 -0.6075889182533228 -0.5172499670783842 -0.2695768377150141 -1.0901354312821063 -0.020555808460197163 0.23263093234818813 1.0402196265345474 -0.6381147821077217 -0.7761996026324454 -1.0104361920920384 1.0082548929598363 0.328217668657399 -1.2971091947938445 1.4873613347419492 -0.021790743368634832 1.3429657787766467 -0.4404084724869838 0.9699376940490003 -0.7662043517862501 -0.1891032729520941 0.9543902351303831 1.7348876296538505 0.6237939692766938 1.5120937548111526 1.2725511088784276 0.32962569269008424 -0.41122921571110077 1.1316686363533177 -1.2184391767517526 -0.9943345302175169 0.0007120503198464365 -0.3659933648751362 -0.612167471458189 0.5571250813793732 -0.5979348308929288 -0.6649270824847876 -0.5332661839680937 
-1.0172398547515051 1.0650391255608893 0.9463679678229403 -1.3696122763436116 0.44632674299783104 1.3019140829241733 -0.669441203667625 0.2992076197247706 0.3924590316069658 0.3241591417797316 1.3882262741670195 0.5741274570008248 1.9373178550208034 -0.4967806398120708 -1.2223658321746127 1.3268819768869646 -0.07456852415778221 -0.4938735084661869 -0.42829883047902484 -1.4345769095655885 0.63525069156411 1.3876529585598856 -1.1466301088792352 -0.20184361018050337 -0.3108711776047167 0.3300746510338058 0.9219814009497043 0.2502717559940417 -0.3033405971555702 0.20408385769211598 0.9324424451033632 0.7068922688509699 0.31370308900077576 -0.8363733181894566 0.4312324947493638 -0.49775884353946287 0.8470151062625677 -1.0294170613837523 0.09518890812762482 0.3995771951662367 -0.6124899350421875 0.748346765133507 -0.738710236622592 1.2789936670735564 0.7919820411781395 -0.6750208272511609 1.2740696368256836 0.3324861932056959 -0.5396409712719694 1.0788738156251048 -1.459740785170875 -0.5316335917961554 0.38251500726826726 -1.0666560276789065 0.2910470091512251 0.4717821366766039 -0.5125782502962122 -0.8903549648369029 -0.9104946191637554 -0.4988757224277932 
-0.26386197198621564 0.128911417635116 -0.9798291456111302 -0.9585120389162481 -0.4562247138592644 -0.6072084074109318 -0.6613190872388152 0.7712068285498427 0.01451449008733531 -0.2239851879540067 -1.613642081291512 -0.5241613249128747 -0.3064878355019371 0.08644204916951992 0.8708050520682273 1.215785264265048 0.9703727225162463 -1.0593643143719658 -0.0712826149289423 0.2775983262261507 -1.1026213894303185 -0.03357494922685871 -0.5217772412081159 0.43226734622403656 0.009230218217973863 -0.22319195926385235 -0.2551833708547773 1.3618791568897373 -0.9621560993520336 0.04296017188059207 2.5189747232026534 -0.902234240250999 -0.6134378364280336 0.30012793415742484 0.5304329144884561 2.2731779244106636 0.36510446543760133 0.5147183312869262 -1.0215298341484438 -0.09182416618550722 -0.48991351123456256 -0.9157867317562107 0.561305317467559 1.0379523390415129 0.886170280700962 1.6004875065941786 1.4256773430632377 1.8387395784282319 2.0038630713879226 0.5965623158987697 0.32308445388380336 1.6971226182642793 0.6753473792519564 0.5893991662718095 0.14860854088708608 0.17509994960916195 -0.0775952949526573 0.6252305826805772 -0.35865395257557 -0.7828627066642456 
-0.2795267909456947 0.4175969652516396 -0.46255153207593397 -0.14376576304376232 0.3633850186629048 -0.9934216907377076 1.8212909678991533 2.4165211214868094 -1.1881169204520343 -0.38866503374421557 -0.23403160106845372 0.19314306739189452 -0.5105635192293285 0.2556377426897507 -0.8160114499782232 1.194426288934263 0.640470085641367 2.310700923553489 0.5037820963159942 0.215753272416179 -1.0997433505454741 -0.23190346346294574 1.3354530413248966 -0.6784646957098432 0.09007647312272432 0.48838973536975866 -0.1324420809488998 0.2822497795228081 -0.00620077676354092 1.1705135826390474 0.9447496917986892 1.5836257057900647 0.8533145966581801 1.3425525683866648 -0.09264082673870805 1.86163497158831 1.99033111550632 1.5912249836672676 -1.5391706825241311 -0.729318310892398 -0.4980736213018584 -0.7861924947770472 -0.31827496503315256 1.0867740788415352 1.0627846166226693 1.4427485773994815 -2.0402327542190486 -0.03982000179730055 -0.3915817202351509 1.9527749787761002 0.4122609154213456 1.232676419122654 0.16164585143468513 -0.2890083042079644 2.075455185305359 -2.1646902054790957 0.006806323276829981 0.03951731803624844 -0.18216655869891754 -0.0944753477512247 
-0.8715564252309064 1.3224728156168357 1.0250668864904202 2.4982138396378617 -1.5166915414788664 0.5158058022663892 -0.13222628158771596 -0.8292358040218986 0.924551728205236 0.9955135914339872 -0.04418902763077242 1.626880715818537 0.16114881545443888 -0.1484728879450608 1.2991423977987036 -0.21259850692362953 1.1137666130818902 0.4356591490165168 1.8803706868987717 0.31454344361671316 -1.2700112863209794 -0.7526710967524203 -0.10398121770769972 -0.2305880185254513 -1.2410565858440763 2.0983886651412966 0.9211403964829028 -0.9064621570345268 0.5728596327831824 0.1817226435610326 -0.20897747776803585 -0.9788595027601308 0.023760084733621664 0.40946221348513046 1.664246582240726 -0.16325571294658575 -0.6236998625859898 -1.1888659144989637 -0.9882809062749252 0.7875354073267865 -0.713278112358377 -0.5598436334683035 0.028025015669298006 -0.2255885021025433 0.08686531661381224 0.14582339086939958 -0.9869722117691286 0.5044013478770977 0.7857499697660554 0.37224533037787805 -0.09078218755345502 1.0442970275430914 0.8289568430598742 -1.442066260621469 0.3512505745506529 -0.17358839829411363 1.0499398794066048 1.346272887416408 -0.5775020823080058 1.9981018174326595 
0.8392373327768385 0.020354525525355556 -1.895205903487673 -1.1394940286230844 1.3430982347846159 0.8684487825977212 0.8266364821398915 0.055086867282417885 -1.0442456114086376 0.8130330862722407 -1.7850182965198835 -0.5493745659792718 0.26091678053063055 -1.0262811160776464 1.4035937140554917 2.3045253272299924 0.43730279988165405 0.26035511861852895 -0.7209183662089627 -0.6410534500235603 0.3501937953626555 -0.9250427002409912 -0.21242202754972755 0.33354655183550536 -0.08609981303795078 1.2548300969179926 0.18713008762111275 -1.1990527848038306 0.2785184648004969 1.2383485010355184 1.7518414080510978 -1.407753405669296 2.3596272438731765 0.012190235041842254 0.34539963680913255 0.28904335521630586 0.24146527086895403 0.8160845909170057 -1.5357417500363952 -0.4367160649836856 -0.3621751829967859 -1.206933197078607 -0.13638195145152437 -1.2248000715863856 -0.9398998423275992 0.24253611944620504 -0.7662589504101169 -0.5392404561932508 -0.08677529922819946 -0.9983325867820442 -1.5242511445747902 -0.8298485944375006 0.37551064062791145 0.021454728430259848 -1.1054888006372838 0.7260585190113555 0.48795483788278443 -0.7440349561672491 -0.31075285247282164 -0.16484879681442088 
-1.065920102632723 -0.836903717367931 -1.0460331900013937 -0.9469579643296548 -0.4049231571481546 0.5443548440609286 -0.8298423215347782 -0.7151575057453812 -0.4412493469096203 0.014257726019399865 -0.001156834720141546 -0.9775459099306186 0.21119781136678978 -1.2671985757436135 -0.3354511274698398 1.52115759001229 0.45323257979660153 1.0780962181132054 -1.728115481107197 0.38863505266531045 0.39511975534470345 1.712365270921633 -0.6379310095212423 -0.9663591869999881 1.33990633569403 -0.8017177924281845 1.153191370417524 -0.6553788537776486 1.0516340397616661 1.0730822391980375 -0.48611016440060606 0.8303237502143345 -0.6868797234623557 0.5187751594283 -1.1701155206756149 0.6079557189670788 -1.2810693076906112 -0.2564362274647799 1.1522924045591576 0.5760864608024534 -0.6180176971389436 -0.08812097416271439 1.0640468074032838 0.5873062630852083 0.06099171801662658 -0.26633007863472763 0.9476275664863913 -0.5714648777352942 -0.5005202374926491 -0.5055692126361826 1.5619083616995888 -0.2742705092009808 0.08119378743955546 1.213450410957423 -0.32519382019657467 -1.3778940291728545 -1.7510611479570948 1.7490842286279114 -0.29286614517725906 -0.5990167656633529 
1.1464982490941389 -0.6004895664778899 0.6652366847296208 0.001851614392469841 -0.8710590008685082 0.3254707453252649 -0.11250545937069036 1.0010981046437568 0.46662786233667797 -0.4097648967501557 1.2017076380743434 -1.3904144036023511 0.7400518474548126 -0.5299540205074752 -0.0762744145212875 -0.3801398438268846 0.6665287001374725 0.5553549890568259 2.966927537021724 0.16955519203164196 0.6053609744544756 0.12848227429021605 -0.20325908552802668 -0.13799800807724338 -0.8691751477493062 0.44307130086299273 -2.1916859295437368 -0.51194497474565 -0.3886029498326885 0.3292578913823423 -0.7821552149536944 0.566115295766772 0.1274686273613028 0.4465044351493672 -0.14889234897508874 2.2790806983456178 1.1770182478112328 -1.1429570457495983 -0.8527653293764808 0.1373282671211431 1.8281159991666864 -0.9101536545502645 0.25888033686731254 0.9453712096039723 0.6695324747699679 -0.4246187125015482 -0.21130204667864547 -0.3729793998247807 0.1721802504227461 1.3000567525264939 -0.13373875725948578 1.4964365979867291 -0.1778796065638184 0.8049206194629546 0.5254076214638016 -0.705310244559515 0.531086990396754 0.5161742931081525 0.04790685145821961 -0.20267445837118736 
-0.8482428495817302 1.6106213393767415 -0.35749139579593286 -0.10073317449712783 -0.3587706899341886 -0.04507334675528155 -2.121536340511079 -1.785596317621747 -0.014163685656889692 0.11780114622757448 -0.6243219777868136 -0.6504834767987835 -1.5451864125316774 1.3149583079007043 -0.8066742014461712 0.1999874704549601 2.051918915250352 0.21876102149417603 -1.0996843972516384 1.9143762287941717 -1.1799460743220946 -0.8914339923809195 -1.2867194009818763 -0.10437559376526427 0.4163571109448907 -0.7758700401091557 -0.2757918328365716 1.1610963130909984 -1.8109671506762048 1.6959194542420248 -1.3372602862904688 1.0794239237048031 -1.1628726751193528 -0.5209016427526234 -1.0920694970733391 -0.08148266994730913 0.589204570544061 0.5293924617152324 -1.2016604666349997 0.8075366078021259 -0.2638565783325535 -0.16006728645384138 1.4229414632802648 -0.9061168987744145 -0.7604974809676681 -1.7958878936188991 1.721663664526202 -0.8755686355462803 -1.8860745379369646 0.11093826886653593 -0.45743249331093605 0.04202207431775813 0.861582148678721 0.39797964709069195 0.5339914996073719 -2.2966093968231354 0.6308870032094456 -0.615912814566336 -0.9637496485011667 -1.4537885968005653 
0.39258672414330653 -0.3360359860502749 -0.7681885225080625 -1.2454807911649548 1.717536437235467 -1.0509348896339556 0.5594736411489005 -0.37210759561240253 0.06369182088025667 0.28166807340913846 -0.33095439505932905 -0.08017040667817739 -0.15966629574895708 -0.5424221433180363 -0.6211294264425794 0.8517248577238368 0.2938945974051576 -0.6655157052340986 0.311422047052481 0.08339241536529127 -1.7250003766439022 -0.9596283613009448 -1.069945639116435 0.46986587023178655 -3.3331701466395 -0.40616647099822456 -1.1826471095534135 -1.0135666997095696 1.1620441470661775 -0.6485305298680323 0.012823574411449358 0.41307015819295656 -0.6742365671273707 -0.40587616831693946 -0.20995833356991267 0.7555566724957886 0.09977623326654862 0.8084873886473323 -0.04383403014815569 -1.12585673404941 -1.6664836549423283 1.5880306880439716 0.5082476786392314 -0.5119842322547604 -2.438541768681652 -2.0743933788667936 -0.125753444690308 0.2268546887126817 -0.32650168268976165 1.3185912357833998 -0.3559389300193892 0.2637217257034513 0.043851994028006776 0.4163923446117038 -0.9835727673379321 0.6120322352207749 -0.7337860068756963 1.624348915413141 -1.6995002083847903 1.2767070548050905 
0.35446849138377245 0.07400056486838788 0.17800874860342422 -0.41500789831924506 0.23088684287762165 -1.332555425160018 0.4532655302998391 0.12512821871939803 0.8461104668908809 0.45893971112770715 1.141000920555833 0.07016858252635282 0.6810060113928325 -0.09584190450213721 0.5372362045710402 -0.1498280689872355 1.3368633829945087 -0.7377474423137136 1.3424398294492 0.3381162878260392 -0.3032945650041462 0.5759540508210976 1.149702522634063 -1.0227076883647752 -0.13708183722264503 -0.2654047980526292 1.5390102611198568 -0.17973582324006074 -0.2811560352638269 -1.6108544067444779 -0.11924473334749272 -0.4198709745662765 0.10235886294964161 -0.25837747510882525 -0.6165785130227772 -0.11038387280531985 0.6650302034734584 -0.6319986709799326 -0.5065604168062534 -0.7663601936773733 -1.1912237962408736 -0.4580113821436721 -0.9226794515632054 -1.5419212859654576 -0.14287516133077346 -1.3875408357831551 1.3388432735649944 0.5113415719484572 -0.14608016344431266 0.39913007286780583 -0.441487536758592 1.2914631558803653 0.8777572615314277 0.35328629523425037 2.1025717187926403 -0.2588217466898929 0.24075244988015476 -0.5929494010132779 1.3904254630653134 -3.8351039048404845 
0.5119794923551757 0.7835068351602871 0.08302848415667582 -0.8562809825565268 -0.8755372583325776 -2.1716762226045616 -1.2185359757694711 0.3210400590548688 0.3710378196616953 0.8543479687008295 0.2999153170313056 0.34047475228826146 0.016836363051990513 1.6598619272373998 -1.2645740979507902 -0.40043246225470247 -0.5569464033451332 0.6478471321093583 -0.9382489223191136 -0.0005673644156914617 -0.4919588964831253 -0.8918021804464568 -0.4996864007263411 0.6289386714048114 -1.3288342708340435 1.1863407404913349 0.3989825709754991 0.8812558967460253 0.7265872581459994 -0.8122017973835355 -0.3706199309853206 -0.4998952710830831 0.12725098277042513 1.2218239037805347 -0.16370141964946847 -1.426984716200778 -1.5242358054313718 -2.1438629044008644 1.0419511748717138 -0.10859526551546095 -1.8465298128997207 -0.45054943579112466 0.6002773965868341 -0.1174197946918292 1.0313974867007185 -0.5695157989146039 0.06249500697325159 -0.4851433159384816 -1.5147003929827696 -3.304884613653635 1.858316411982084 0.5656583231268201 -0.705658992727841 1.1197216466281255 -1.0001995988881025 -0.3500367611143908 -1.0332091573736817 -0.39433785896690865 0.26115355408980445 -0.007136817784856861 
-0.9320484647248468 1.8649509284697734 -0.2786744004556455 1.507835870165735 0.8567008738496241 0.7353144850803148 0.5019578552053864 1.1581889779535095 -0.8277370891547725 0.3324006580086816 0.7665473863300297 -1.5958407076255265 0.17174564720455382 -0.5970014384545739 0.42201959079709783 -0.2025613857515735 -1.7135052364348842 -0.6015335865636288 -1.9316515750391134 -0.1932292943763319 -0.0016672840490776332 -0.22339761324637875 -1.164034379786173 0.03971512855081483 -0.7457212163183451 -0.2609098087779992 -1.471302015881597 1.5006444422020226 -1.9140539864002415 0.21877803945310706 1.6978311974213307 1.2923673603543269 0.7084147138971891 -1.2852163061241215 -2.033809978036606 -0.40560863528102203 0.1926571885477863 1.6400282691312393 -0.14203135815912948 1.4269359619435074 0.9912625405560392 0.7141375951793172 0.8832822809729367 0.012588031133584848 0.042416969767016734 0.35144211845054213 0.83682489951931 -1.5832360199872295 0.5999418757331156 -0.492759082565559 -1.0734736196133405 1.327892083554983 0.33731597667836377 -1.0554877666000606 -0.13319234872186664 0.42341983847987974 -0.2110143876719256 -0.2918457494820506 -1.3307769242734908 0.5510591808921538 
0.3846994585890355 2.5310345969796364 -0.4928927698595403 1.4761304366097074 -1.1078319205993044 0.6127640936945657 -1.8996981722262862 0.2690771306904531 -0.3843203847356426 -0.739799435864664 -1.3256770315105735 0.03310417131980157 -1.8824253261982073 0.19848517761145199 0.13298196039162535 0.6194668180766094 0.11878953897077703 0.12377888666450823 -1.69179445519488 0.8086078974014976 -0.2311280529572616 -1.3914412737650603 1.0697641711652082 0.056923092835587843 -1.0521912376358855 0.5014599480520011 -1.3146119450596996 1.9089193432298224 1.1928978433175454 0.5136924085510449 1.3775513726524895 0.15565679597542145 -2.707341514483136 0.1424206889090501 0.5499553170061021 -2.037176959606573 1.8217209887459997 -0.7999220095332159 -1.60083853952891 2.24960555541334 -0.581338063303536 0.5183179173027804 0.1968905181679918 -0.47229657684824333 -1.1886415535657346 0.5058599270102321 -2.194001072021413 -0.6872889626905554 -0.3693197596930158 -1.5474525425438626 -1.2993103258170717 -1.4983253608370188 0.8529134763725987 -0.8226541637211444 2.3117589645737926 0.9578821248666242 -1.0292476379405833 1.0208110484494555 1.2324485089026926 1.4058447232942766 
-1.0025116715630917 -1.51464320952251 -2.0071431933896444 -2.235934415917703 -0.15948210320366735 -1.796547643583925 0.06942556754523953 -0.8198255441689404 -2.489737807981991 1.027256512574586 0.28312016644199467 -0.44882733497761834 0.14888472129739633 -0.7138725641702863 -1.7768927324803154 0.5594762341668428 1.1098043229329688 -0.04931350373573634 0.07182710249946767 0.4729416170832496 0.6542048795020226 1.4289096345455428 -0.6385651284458307 1.2114282250442325 -0.9561830228568969 -0.185252554590402 -3.1955360249798015 -0.25366330712763635 0.3940651198570514 0.005178360597599544 0.8691150631156829 0.9600066206137269 0.6489852370161654 -0.045635912173506175 0.695898406592004 0.19660660871656047 -0.5954468503913491 0.7159839444621501 -0.18360645758226551 -0.1227595201169566 -1.3705652217712732 0.6162582888784477 -0.056407681565358365 0.6408640238545485 -0.6272342297156428 1.2524245105915572 1.1806141310011233 -0.3500222860990935 -1.8927152254942077 0.5538542894656785 1.281326979085488 0.10807537568476104 1.5486343658565511 0.12749313757221767 0.9837513532445867 0.21974778239414028 1.6581306882625668 -0.2135794121863891 0.5073538546865471 1.2355408350253525 
0.489551775143868 -0.22245931290708265 -0.21818482785560492 0.36517965226415783 0.4143344528882072 -0.1791245873389255 0.5380684740221331 0.34465164362153694 -1.038745617479331 1.479338204162781 1.8337427020436343 -1.390467921524966 -0.6743729257422084 1.703529306975858 1.0704347415753213 2.0018867475847832 0.724561194513168 -0.4544249647291395 -0.16435937588801625 -1.1274115884809472 
-0.05628930050521901 -1.047685631478673 0.6408953934171852 -0.8516004563272485 -0.2686681761954424 -0.2465816504389695 1.5357394395466342 0.997236710537415 0.3622566962813917 -0.3549225732415811 1.147095578329265 2.2589921278299583 -0.5479098924113104 -0.00022336138214259122 0.11419154043561866 -1.833259574109969 0.6512900664421585 0.3165135745361216 -1.2595813315624627 0.7139225172450114 
