0.5472878091214926 1.4796551182048692 -1.114682395102612 -0.42669376401481507 0.05945125837038677 1.3401961181283895 0.008775806976624933 1.0409386629809376 -0.439887892120612 0.1916936292896959 -2.285842041162777 -1.3565144430078124 -0.8839369969364363 -0.011861641137211852 -1.9056311237133454 -0.04780292003442015 -1.8367142728425814 -0.8575829212962983 1.4121867631423102 -1.5987904679596059 -1.789141526752283 1.9239714686818514 -0.8036332280368929 0.8294961627189757 0.582673105423068 1.3852071229895286 -0.152450764552232 1.0344054457572198 0.41983443048244407 0.2415914951659548 -0.6915933891844033 -0.6339380704966134 -1.048624482884177 -0.781302382548925 -0.49044234737314063 0.09018956072507861 -0.93851495757571 -0.5956038393607526 1.3339655039544946 -0.987002717613117 -0.9673153496300564 0.26749537700534853 -1.8405029003194793 1.0609106792986953 0.216236903300066 0.20150923850495295 -0.5847108011851423 -1.9038122242827358 0.1317484756860413 -0.05100333498642136 0.7876669530680969 -0.8886843431938636 -0.33907276894051763 -3.077571054753181 -0.6653288110654089 0.616994472821649 1.0109687084110173 0.7040232019333449 -0.7874968114066437 1.6617604708973988 -0.2276803809192733 -0.9196878564597637 
-1.9235604498763015 0.559175971075155 1.0337743853391366 1.0533016661791572 -1.301552852549216 -1.3698359338664687 0.7166982086318919 0.7485772265578113 0.0007019484360155063 -1.4567562227294268 0.15259409081386344 -0.46562149449611895 0.28832169708832756 0.9082870840462273 1.332459612822437 -0.3843768650524975 -1.231259754944432 0.7823565307708362 -1.3669518093731776 1.5563108886745518 -0.5931750018197136 -1.343039113485778 1.4922025559260996 -2.2832084878895005 -3.181742393102167 0.5996522933081114 0.5549504515683827 1.3120289905873181 -0.6838382183487062 0.6929599869050997 1.4037832475801124 -0.9271507046515671 0.586824169893548 1.124060253696496 0.841758499223643 0.41730491268969466 -1.0692999532591652 1.034089294784293 -0.6116343296733943 0.11318482944839088 0.7887296014098696 0.8388076092569411 -0.11887914886451265 -0.2641501498638884 0.8748949566046993 -2.3006400395025968 -1.413344338789498 -0.1739345817464374 -0.5127942894613867 0.9737965789947504 -0.31093478359034504 0.909620721626376 -0.6007764214770581 0.4512826332237811 -0.2738230964676802 -1.7335309517410145 -1.5504842491591078 0.008504680066069347 -1.4511672606550843 -0.5026342519974908 -0.43814626593003514 0.09489856475645679 
1.5814687752253027 -0.9359384631299171 -1.0568128017144094 -1.1032910402972216 1.4072260004393105 -0.6629233832265706 0.05680975899999797 0.5383400593994813 -0.9097798268370927 1.1932868311427802 -0.4425842761385251 0.6812261911059745 1.155744408707752 0.9076380885865999 0.42982799056097865 -0.3204759980263472 -1.5549875685133743 1.1712165695604368 0.002220650457357363 0.1062787004687432 -0.5781124837226408 -0.9329577687806045 0.9876170474794418 -0.18295407506580896 -0.3981475224216849 -0.6628096619137361 -1.0785753521819597 -0.2638517162675268 0.5833921125342075 0.7473314915381749 0.009576930094978545 0.6519890121927157 0.958391544622521 -1.0215898863072055 -0.5208498458392918 -0.8191312164994676 -0.7965085744347672 0.8022594908736473 1.8582146396433432 1.4288140502390294 -1.4859784399846592 0.9489870348838177 0.25071452644125375 0.6011073969719501 0.5439364152622502 -0.7742178468427663 0.03545125676577512 -1.6622365927929026 0.10699445672191164 0.3656969597460749 0.5043340561489787 -2.283904875332176 -0.8817532537447359 0.7759522657353398 0.16842140134609032 -0.19985546266737406 -0.05630506767351735 -0.90163949252256 3.6206310554859176 -2.7695487997667754 0.7944431305198507 -0.4400360062076188 
1.2487138981291783 0.35762782130228393 -2.3438055063041188 0.9830590594403208 -1.017707814071966 -2.3610421855918498 0.3623049644460178 -0.6424039233727622 0.48445356222519803 0.947778327866866 1.6136033613054384 -0.47258682275428426 0.9624912672610271 0.2525486924323484 -0.8147722777126595 0.6620692905346709 -1.1813984684349044 -0.9919304586108053 0.593200640273343 0.12496434382644425 0.4670506023508838 0.29300643435783585 -1.145830949400222 -0.01700870481966511 -1.1366495797633902 0.9942264254409635 0.058166004434634905 -0.1860404256253544 0.9895668468896787 0.7583885123899397 0.6415692628245748 1.9304115758270493 -0.21489053221221172 1.0960342694966878 0.3190155738074084 1.0796839274741377 0.02457516881503138 2.8832172847369786 -0.24902918576144065 0.3474195327786301 -0.037755856647114165 0.5213011013635617 0.08559543592100484 -1.7546622861965346 -0.9204895340394814 1.4505770970740968 0.20303559780154745 0.42125751018038576 -0.004035190629862481 1.640096133410287 -0.07726593451011055 -1.7207424608368869 0.7546282912789429 0.17128681859903144 -1.1170939897817767 -1.2385629122518393 -0.6069161048504287 2.44285857835592 -0.5919502500862018 -0.5876483964589685 0.8794246035087442 -0.7703453139834014 
-0.6441210560580907 -0.3290117210508685 -0.2496417791938982 -0.994435031794021 0.28392197999643526 -0.7106303472100785 0.44830170035436023 0.8011435770722058 -0.9138455518301001 0.816904828983979 0.2195892054029071 1.2468608602992635 0.02097725925919625 0.5030365334979869 0.33633805578305437 0.29722740165777234 2.0924121111659493 -2.4283319580093417 -0.6374173504527559 -0.3679641501544668 0.5496480946992393 -2.480802585868303 -0.7463742885735513 -1.1265615858058273 -1.0222718304882585 1.143914259020798 -0.44310861284113334 -0.18397870995916799 0.3235033241366119 0.40341747268692346 0.1886195145334579 -0.6649933522788913 -0.7706124576659068 1.115922217537942 -0.5185177825524098 1.5106165186227085 -0.87446977246865 -1.0911519725617453 1.0779670027726906 1.6020343826545598 0.6530650380542177 1.5584658138264509 0.4879387934332349 -2.4993078956214085 1.0983970379612076 -0.17745028169646093 0.0016557444340723228 0.5717036074800926 -1.0413675702376888 1.3564327911809924 0.601944784875045 -1.0669049029045168 -0.35877552038190513 1.4829490682603035 1.5873072408803348 -0.7559624645969887 -0.8239429620987009 0.4567367918095752 -3.4124004912300756 4.061583498979212 -0.30459507334722113 -0.24249838057902512 
0.832720669722879 1.3067936294309306 0.41997488006285727 -0.7692540968641012 0.7155025172896541 0.532996022051827 -1.818554219095183 0.3490077618624457 -1.0700231696515887 -0.6172774583134292 -0.5268521475334551 -0.19139980811478363 0.41389396856211175 -0.4015221193825167 0.34538896892619625 -0.03397421003222852 0.23761244545933682 -0.688280600805151 0.9919495301620114 -0.15623421886337818 -0.998006838883807 1.8099354274466186 -0.6242954837912786 1.236420390835419 1.111672825658729 0.6663599457497204 0.7062057259533083 -0.0018402634072253838 -0.209378050853109 0.955748692716036 0.37229711296432544 0.790146155796645 -0.44798943831544763 0.5216264421579675 0.9693593288853782 2.6821120322744822 -0.1670294073817001 0.20221653175438845 -0.06243435340670542 -0.141636169331786 -0.10291887027990954 0.10945455792414509 -1.2381354907650646 -0.18636598978291583 1.3229745723405573 -1.165477566009345 0.08154758442908037 0.41466739720899315 0.20770310481036083 -0.11150617495639621 1.1909844945054835 0.6820901564392301 -1.294290253062848 1.366946229800645 1.2483990667128722 0.5380443583667398 -0.15075470490113868 -0.671084311657765 0.5226246803580068 -0.23559360898213969 1.176157169283033 0.7876010483703476 
0.3644050116047666 -2.6674391297334936 -0.9840324566019183 1.080321666770951 -1.0320395664392876 0.36615351059134127 -2.065500642394619 0.8349985116828692 -0.7310467552803364 -0.06617286252012697 -0.30450661898573816 0.14162568384185628 0.45125463579931874 0.40976262259861346 1.1224726804738916 1.7282846210753144 0.22660336528018452 0.8239961606007546 -1.4533331679273656 0.581941528708279 -0.28131274504290094 0.2742033863390713 -1.0729707613358594 -0.7048906239776362 0.07486338852292805 -0.03775391315256582 0.29452543103664486 0.7731927246830593 0.22483310355368394 0.3685266648346208 0.478158904727833 0.8871876678951355 -1.3837333430214356 1.0487558849926852 1.0971434733240646 0.8151827946282126 0.08985615812337902 0.5453636492767224 1.0423553970132922 -0.7845277532146628 1.0474705908288726 -0.2637691560065495 -0.7108532774370098 0.9680069443103384 -1.2989982592065328 -0.7740917221320757 -0.4599411458469563 -0.9212808674170084 -2.1765942677842482 0.9854354203191086 -0.28479930274054344 0.46574951674585136 -0.5749166077253458 -0.18067567435327817 0.9835692320278584 0.5233266090941472 -0.9841073041430949 1.413646828123431 -1.8394027516515883 -0.6849081840261518 0.8544704004968585 -0.6651770574383723 
-0.7769628348533412 -0.19787875368644614 -1.2112600926449222 -2.0617414064424633 -1.7616430616772087 -1.150864812425758 -0.2437463789457068 0.40173438582551735 -0.5394700079679631 -0.5638128575493465 0.687387674043628 -1.0241676013468133 0.9001081950981902 0.5193292048868028 -0.18733337471357908 0.010407547437319496 0.10277919432671612 -0.2172769681265791 -0.30866069631546295 1.6167789078141095 1.0968368938759743 0.9310663101885364 -0.6581251571887395 0.5098709538863984 0.5104467987774767 -0.8086129923240843 -2.049734140521425 -1.207411015269298 -0.21076376604060656 0.24770399133373175 -0.4083601458169631 -0.44525839299237746 0.7614848985473573 -0.6834622905525016 -1.2958474285649735 -1.1954219009151237 -2.3306433938573217 0.26421563502806883 -0.5452130014759722 0.0005865771060350487 -0.11709297789825523 -1.8531659515204526 0.552840494914009 -0.9761326253842547 -0.001239285859846172 0.1433711591786411 1.8505275606389682 -0.8471738354687549 -0.5422214136415497 -0.10748070484092455 -0.13814421104287739 -0.03610434785253115 0.7185981642330715 -0.5789824728107685 2.676116810596539 1.3028585958029901 1.4098545723719753 -0.08725856486349202 -0.07489292782675065 0.45910838946009674 2.3597375386157866 0.09639954855130346 
-0.004603919067630313 1.4862420162539254 0.4935639903618523 0.048735999940867615 -0.4148806686973537 0.3684387048866874 -0.46667717061073694 0.23908636189251917 0.80303754628272 0.18848936161738986 1.3527849633315645 0.10391602314626572 -1.1502071241051832 -0.25492597891173147 -1.8420968060891378 2.207350838333911 0.9350492496615024 2.8149240696461355 -0.7439983836134999 0.5743332810244726 -0.19385343855866 0.6745664550114306 0.3771264359006366 1.0040729657349898 -0.2197307861991337 -0.9928185193788449 -1.5191506144179543 0.4928769787974848 0.5770921947857892 0.3558881226535287 1.307550333705764 -0.0017807135467556873 0.8608669562478078 0.7580836590845048 -1.2143531025147971 0.13727487738249286 -1.1277325742097821 2.1469207794453125 -0.45455067673540855 1.1062248147801992 0.7719349755061647 -1.2548090937961323 0.41013009870908645 0.36804676919637674 -1.3437839918193386 -1.4002396279957947 0.8461659735626494 0.7834670469616475 0.4958745996409757 0.37310610092597296 1.6213075009667195 0.11114979522925288 0.004443776527928808 -0.22665368988880663 1.2145266951069345 -2.0267626201020925 -0.677670191644633 0.01893515437072881 -0.407192611965834 -0.6129084824754949 -1.961420443603324 -0.5118211226817622 
1.2372464526569087 -1.559057787857964 0.23804878543331887 -0.8822300709532247 0.24382805273087144 0.23806820873126255 -0.1452627540481777 -1.1243939159199468 -0.45146107644118766 0.053335370732520364 -1.4723640374452016 -0.39085310765200526 -0.2024955936118349 -0.7174544170540665 -0.342910897986245 -0.8762452562968885 1.5450635191498714 -0.5972499261705424 0.4366914477205146 -1.334570718247002 1.1709134180319491 -0.5399999975372124 -0.8614600640266107 -0.82737005613829 0.41032378066236974 -0.8647949532548209 0.08201881246330944 1.2374070703722975 -0.09202174838732836 -0.7753453441541778 1.447927841018579 1.089201223168662 -0.67235205578158 -2.2278095876847126 -0.17795848023389657 -1.037428148214342 -0.4410239747734988 0.45251472953450644 1.2322959270090248 1.0067322266862935 -0.5888898935262104 -0.13756240571806638 -0.05245442527710408 -2.762790433439292 0.31174043920318306 1.072155090476807 1.0341908502668014 -0.10034802169629163 -1.382850634503313 0.4816217485657305 -0.9036149536491811 1.2379697903492812 -0.9600178585594947 1.134212343503817 -0.3311817937140101 -2.2176223729814852 2.403372122032813 1.5220558198485226 -0.3620949351431904 -0.49116322863687656 -1.097582208678772 -0.5341218352471645 
-2.2950482890568775 -0.6650361069741079 1.5605633168584767 1.6111909539120175 -0.9815307286032555 -0.4684939272952414 0.6379021624749321 -0.7892880356774297 2.6760967218440856 -1.9306895442504248 -0.9395874266485145 0.6700557235567888 -1.3157083105341933 0.3992851992094221 2.3172690291785343 0.3147357550612671 -0.18020674896336455 1.6693591385527733 1.5599656137778557 -0.25553352112963246 0.9141220411366033 0.06616703043076515 -0.2970201773128394 0.4597626524151635 -1.169909757080738 0.1915842491012588 -0.43955490910536155 1.9659870844485683 0.1854260932451789 0.45137772623850997 1.1518777235272981 0.7307621484325793 1.1833841940103067 0.09660673354226398 0.5718295887174363 0.07486153970051901 4.824034898954008 -1.399042237054699 1.9304748632783206 -0.9623447456045147 -1.424145954925046 -1.1958589271680409 -0.33940811890017003 -0.5913709266629559 -0.513567713787578 0.45235370004180203 -0.6556838035164821 -0.38149075055095966 -1.7718257275437748 0.9493722208172726 -1.1394915071431995 -0.2148804895270672 -1.574310078110491 1.546831550409961 0.6384697691073442 -0.8285333874502429 0.5597564512983845 -0.3560499960324452 -0.13530534218773196 2.053319753154548 1.2034827582329237 -1.7779820750020476 
-0.052751054225618814 -1.3525482155001407 -0.17275122828665662 -0.09916745353210787 -1.130626699788776 -0.6825647612856816 0.9197427439043234 -1.0901498423657274 -1.3237874063356045 -0.3726842338468693 2.051742786457201 2.3646584399437756 -0.9433230359824237 0.5832559444628179 -0.35140086221219863 0.9614546430555118 0.08559299454252858 0.09191119103536247 1.2513787044087232 -0.7518240314975908 1.2274998946081648 0.28460191269159657 0.27679784848068356 -2.0948943416839976 -0.9335038400430852 -1.3594810130898343 1.2353265347192812 -0.8952400789308256 0.19278307885946278 1.3810477975047057 0.2403298613933738 -1.0884135919964373 1.2992458764234305 0.7501092411654473 -1.2781721191103368 -0.15750304945781382 0.0891465699007913 -0.9426319234327727 -1.266736256716953 0.6506184231414702 1.7254109827373465 0.03613080333623881 0.2736422616597941 -0.5484625728172258 0.6793835729136856 0.554530876190755 -0.7838241035251344 0.9247510405940902 -0.9718252241688707 -0.9526738920347168 -0.09637340233488595 0.8135733985040737 1.2413791134913934 -0.6537865141922035 -0.8158168298080205 0.36588325212828027 0.44425588813381034 0.09653973330032435 0.33905770999329754 -1.041714943890583 0.6308757137775858 0.01917780577734866 
-0.9275600464396216 -1.8251042541154343 1.1152148169893217 -1.0576844437644255 -0.03294575950936546 0.9624233143767793 -0.4113646840939567 -0.17394537287613368 0.9389361300134897 -1.7017927495670395 -1.3528950935125224 0.1942365705267588 -0.16290083703506603 -1.1835420496429967 0.5950407024512766 -1.1868447077931792 -0.14904814075197675 0.24702891004269129 -0.11541909171633354 1.1606540244429846 0.18405984689548568 -0.5402227119717942 -0.5960952663155857 2.924799065570479 -0.31977427554515975 0.10262662705631373 -0.06545803343007395 -0.9892127129478187 1.3359838695497126 -1.016111089213285 0.016315357409848404 0.9423003768693234 -1.4126870863735128 -0.6803779940060058 2.8771519878334013 1.9520049410195395 -0.17341867206824102 -0.06517387025970782 -1.0903814266216727 0.2555630295859711 0.3804997433218069 -1.134702693238783 0.7231086349006043 -0.5770926716431832 0.2153249919283769 -0.19361917085401528 0.8237581389545421 2.315615534329839 -0.40083774744007744 0.23353506731328258 -1.1228611488239497 1.9804461484745146 1.1804816788462493 0.284398554123706 -1.3329433236385926 1.0545283609091625 1.0296641392995698 1.1229085665722276 0.8945672211764458 1.4416816185640562 0.5674442598394397 -1.1770562764689445 
-1.567911912822652 -0.46992400967252806 -0.75101105011797 -0.6571716339130858 0.6739613461030507 0.9206219613275213 0.40325289604840936 -0.6577037721874299 0.5138011563470438 -0.0018965595344636456 1.4072590907559843 1.7671448380344874 0.6169566240487134 1.7223839863624621 -1.0908455978313023 -0.6994887835283732 -0.8537716524369213 1.6407543877582318 -0.844410074294869 -0.7257384090858126 -1.1839026652433524 -0.2427295776826767 0.32500008040266176 1.362976161471075 1.2111941440871983 -0.2787367341756822 -0.6035568478218468 -0.6157074302980515 1.8804895941950583 0.5754912034440782 -0.5594842398112826 1.561669930626728 0.9761627321116815 -0.37714301405683437 -0.028131164970835773 0.0038666217150556854 -1.6550060658092185 0.12345951510583059 -0.9810466896141655 -1.5255109625451873 1.1986458287832982 0.676546877674859 -1.426596489499607 -0.7997057651180333 0.254860572075117 0.628525885812226 0.37099028235663606 -0.34923940543661997 0.07272666351842291 -0.4766972858816243 -0.3382103632813788 0.5305895899303609 -0.08018355057793672 -0.48964317282629793 0.4138558951120541 -0.6992011910726166 -0.33789909141046204 0.5936135649275813 1.1661220048743053 -1.6915164070757922 0.6767163406412655 -0.5668238063440453 
0.406090063431285 0.0365093393614564 -1.5316007525656288 0.7034233401238409 -0.2819735303037368 -0.05268545513827717 1.6238794316639786 -0.968400740486738 -0.24333898688869116 0.18894911360010552 -0.8689408580962984 0.7319805281270264 0.13458860473274384 0.9239053130041862 1.098719040243691 0.4753107655183497 -1.071969936329052 -1.4153832521844545 0.12517656373441696 0.33308645493534295 -0.34537681807480386 0.8605898399672525 0.18131062690597208 -0.4763941532628563 0.9419851922452457 0.03828507925748878 -0.4702214862903885 -0.09817564731705825 0.8381485709190083 -0.29492527127465823 1.619769094290754 -0.8143856722434356 1.8438121116760797 -1.0499691856902174 0.34491096417632017 -0.8405383059506052 -1.650662377549805 -0.5728326569574947 -0.9108987583435787 0.1746779744213742 -0.7135802624022569 -0.20122977975179024 -0.33734529553878173 -1.7062644393778028 -0.8203350980807043 -0.814978007991665 1.0693313933013362 0.42082735644267305 0.9793281278572742 0.3714809994204427 -1.4245281925509774 0.1419833264880242 -0.6126788823646333 -0.2071707395519253 2.1226784275832205 -0.46015023425221546 -0.4510940578191509 -0.0729417599980169 0.22130235867000542 1.2860096291486254 0.36939910907877377 0.6573755587972709 
-0.1840985185115939 1.4453751840887712 0.5550948908416062 0.3257374779331294 0.636955506065533 1.0701406735685304 1.1366797805666218 0.024033661005965774 -0.20113272771849294 1.6699920190935489 -0.818973561810992 -0.039431836860994836 -1.5963388657809943 -1.1644942124954463 -1.147548411888404 0.37297559083461773 0.88296057371579 0.9599906452788451 0.11832282410954725 -0.18940708081915333 0.7507184461370966 0.8742221109613766 -0.20741070092814648 -0.5789744605623866 -0.11787658166112502 -1.2573911916754346 -1.5758079168458012 -1.9375463803807313 -2.576074606803864 -2.2426700928257883 0.44415696599577636 1.3790926935345016 -1.047554041333376 -0.7282957039433193 -0.9533620784827281 1.0786345462130618 -0.431074328591235 0.7809531170519756 0.22747498807747268 -1.455505577103887 -1.1315950827996644 0.6690218072860873 0.11000868649937684 1.4922205845489263 0.4055978209828518 -1.32201701371253 1.4800208671927524 0.30894623333898275 0.8810561228537397 0.15272975656458404 0.5089354673442615 1.3565947779027514 -1.3679918477820066 -1.4895745143346293 -1.6839191555494233 0.22870288947145714 -1.6959925434644 0.25093871771903353 -0.23148550865266274 1.1631954767459958 0.13121694768934666 -0.9090665333808314 
0.9095666923340521 2.3513965224836393 0.09433876246296405 -0.6838828751096789 -0.5092152106335701 -0.5203818545619882 -0.06302097514561604 -2.5228141207828974 0.3928513843170243 0.24501519070893985 0.3609006579459917 0.3241235038579467 -1.1467615790977532 1.1403798779746337 0.895283653594283 0.6140208114526735 0.9657587236019541 -0.3372995686652222 -1.455447201402721 0.7164084997449535 0.6017865673608261 -0.6570118985641933 -0.7487339662591798 0.9609734543421838 0.0985794966377281 -0.7441153188782867 -0.41642146524330004 0.11159762695303335 0.6033498518129466 1.6678359825658127 1.1637779121481866 -0.03397841188273121 0.9763733731250622 0.19906309212062756 -0.18695255791245535 -1.0972546012357234 2.45706603684417 0.17866435349251505 0.08262753359510883 -0.1591671658915023 -0.27673934365464353 0.3016166307775402 0.9203339828658039 -1.8258582134613186 1.263480569779174 0.44596754543778944 -0.21087638152597038 1.212878596795571 -1.6424248854707404 0.08636912113457541 1.2217099025096991 1.3516318648244747 -0.056702598342708334 -0.4550858087886739 -1.0915043013123307 -0.42988087574876527 0.008814432603611089 -0.6359699041547262 0.8907807808788949 -0.20836780805310107 -0.03804963133578621 1.6492257579699412 
-1.0783064899901629 2.2966293096638335 1.6067360286862329 -0.28606488862298307 0.7463261283979038 1.30434666025908 -0.4627873326208675 1.9738436794731002 -0.09396896692303963 0.15201913611469098 0.015754661503713865 -2.1602402926494175 -0.9177589372062661 -0.01664254699996829 0.8506603873457188 -0.4925740881112971 -2.6791447569246887 0.857483274484624 -1.2697319149647437 -1.4454762404051147 -0.0015434698597823566 -0.20912630389593476 1.2208282490192182 0.1566623066224598 -0.7426719782758886 0.24939968837336696 -1.076406048218183 2.0614073332377765 -2.6127966795145365 -1.1844275970687574 -0.41439001852629337 -2.799577200118659 0.07569183059091246 0.017074271066229444 0.6076467872604728 1.8061863914369973 0.7743734487479126 -1.4887228665761743 -0.45915563005722615 -0.41354931359741864 1.319645575118568 -3.097463955179455 0.019115940400288987 1.6055002570269044 -0.2595100313137997 1.1331332756741954 -0.39899184573775004 -0.07066131288948897 -0.5609375486807499 -0.9601231745968583 -0.8899943136512699 -0.03438713544245999 -1.60801064296203 -1.5795635119237346 0.8679500562044831 -1.0235456863752854 0.4421721005425999 0.6154233556812616 -2.168449232535723 0.754839359154294 0.35422193381149003 -0.001986707284367511 
-1.0182873012357445 -0.6273782950772905 -1.1419787668725228 0.2517570050157835 -0.14462064920033382 -2.544243327378232 0.048536022646343754 -1.3075641261457889 0.5550685709750671 1.3808351891201476 -0.9970166359557395 -1.0805403639714177 0.8546133600325653 0.5886577597522715 0.0684692886835962 -1.5007025042137891 -0.3920089939775976 -1.9443069053741049 -0.4077640863262761 0.2557812516577855 -0.9105125635941943 -0.3328738754860837 -0.022342986057868598 -1.31100404712937 -0.23994561930623587 0.9352014969656991 0.16370952662076682 -1.1904827796099224 0.8987227922366905 0.24744785410069373 -1.8662136191779974 1.5482753526997943 -1.6798320043554404 -2.563231533574683 0.6881216569038303 -0.4804674977218354 1.1714576944952608 -1.484970773071143 0.4286813575534285 -0.3013794695617167 -1.2920266000704643 0.49103561806651724 -0.017532074090282367 -0.38854282836078485 0.6275990140068719 1.2743229012730994 -0.8722844559130953 -0.2773546263059957 1.0545542836543038 -1.3433032625580117 1.685631476086098 0.4795188507322363 0.16579906357173824 1.5697410046876734 1.169585245924274 -1.3668646577587202 0.03095888334332136 -0.038492030910521745 1.3892494438273104 -0.8705541130339225 0.07210409497115645 -2.1017805116195882 
0.799012413709829 1.1367727213342538 -2.054479943449712 -0.18828866968125899 -1.1565897221579695 1.0116062225484967 -0.10654898879235344 -0.7581276347772614 1.010289221231083 0.3056898083122846 0.2556613997181727 -0.8541079733280916 0.515750438153178 0.6877368451871015 -1.2978647694427314 -2.220390516017624 1.4756500353718278 -1.1612301332598658 0.03608115638142247 0.8809989918264003 -1.8478865672713098 0.3846846685941807 -0.05877483462242185 -1.4931714414391695 0.35789159914558083 0.46378318113609196 -1.5604416046351048 -0.8248683178956727 0.31968128056296624 -0.6974211565302694 0.4172891209431194 1.8262755909319355 -0.674036763646231 2.2534111993275756 -0.5817708571320225 0.9126351210428839 -0.6870311454261807 1.303112896631981 0.670838977249609 0.9268742697393622 0.6113974099873962 1.550835543094175 -2.093446713577493 0.008595608562074575 -0.3543845869562751 0.15103354834861768 0.5016518851478248 -1.4784638395455423 -0.16136973032706517 1.0064960564284962 -0.24115724487873536 -0.0989351942166515 -1.0247007383212074 0.3749285329652122 -0.833840208794408 -0.6367137248027501 1.3235907865652465 -1.5333608370056857 -2.9575233153588543 2.595703381583162 1.100641307467321 0.04528343278581685 
-0.954008954628061 0.5412961030467949 -3.082796825788924 -0.8461979504693519 3.6095614999933097 1.0367370440717936 0.46963918196163257 3.18585446938993 -0.13222530537436064 -0.1137431250294246 -0.9051214947699225 -0.6798006189416453 -0.2088484550612394 -0.6995153550515103 0.21868611269325108 1.5702743483117418 0.2464097069234317 -1.0705226356701925 0.9513094291629911 2.7184739390582546 
0.9295455946088588 -0.04247823649556644 3.21639205575095 -0.0577092739446648 -3.2975657928267723 0.45591953571386795 -2.185603991160732 -0.7013162784871473 0.16256447836959587 -0.9732444191053605 0.5763179294250216 0.4931016596357113 1.1693454483697534 1.5367658915181521 -0.6669888148461716 -1.4647660696662788 -0.4081702380947075 2.8052609294586355 -0.11272791188617048 -2.3008391880862433 
