0.1630362514309076 -0.6250072285248601 -1.0992629128866156 -0.6997757902618224 -1.0233707398729848 0.7566882898311472 -0.6456745682968436 0.45873997484151985 -0.4556163942542174 1.272700014195301 -0.13740648155142818 0.7150322390903744 1.580909867487838 -0.3601531194794478 -0.8647591967396805 -1.9153851703069482 0.06994544014325238 -1.0010839936543665 -1.1462202051832002 -0.5753170549415462 0.45133265015590907 -2.586892404835351 0.642628478538727 0.6091410660320906 -1.866116680447014 -0.030402197318615116 -2.8214768568680655 0.6785784685327193 -0.24696028661495667 -0.5632806657277808 
0.11274735065981827 1.721565476526404 1.1673708840717347 1.0085563131745627 0.24751244537997377 -0.582590232139473 -1.3816396034777518 0.7966625920804539 1.6345913421134257 -0.09221710317366606 -0.4433913376229854 1.0633978191838833 -1.1766353412875108 -0.42902144390327107 0.19711869641526666 0.8394838018314785 0.06761875241338522 -0.2607651251860273 -1.0758077169108025 2.684186304115363 0.8197913040886511 0.5175250572646695 0.684415445582287 0.781998230477563 0.8037330216428741 0.767427273210672 0.29357611368786707 -1.317060635264427 -0.7401955340493852 -0.30835513140034343 
-0.22416941766913268 0.10219811567824547 0.2505795294046176 0.32100273624028625 -0.16559196154503103 1.3692413531860994 0.58443782041821 1.3375956503715558 1.5957882868382642 -0.9316351390422041 -0.3838296687498843 0.6239828429646959 1.1363722978752817 -2.6329627635292048 -0.683751649815515 -1.454125441566909 -1.9351860206527696 -0.4248352941452297 -0.43173495800005157 -1.177439667828812 0.7595765823701426 1.9028321341346324 0.8364464589741334 1.396863542682001 -1.1873663466181685 -2.4220897638671617 0.8567059438463703 -1.9240714960850551 0.5999342054940399 0.47680587835953353 
0.2750078679720422 1.6030786244354953 -1.6740562830904737 0.20611597256188666 -0.6885563222880959 0.40101618436827924 -0.3629907008374475 -0.3117453837441018 -1.2268424640184885 0.20460108261302984 0.09947460415447093 0.8622927916289206 -2.2121092441588033 -2.63071257649278 -0.26404694605735046 -0.2568582426575772 -0.3651561641690741 -0.3286787960639392 1.8151513443531468 1.88358119617561 1.2931320394019878 0.43765590009185196 -0.1099831120943074 1.962843499553771 -0.18030382833702552 -0.43576493127284094 1.0854088520225293 -0.25378236620381694 -0.28634394950751396 -0.1563338462339534 
0.6953846341276038 -0.4573452017305679 -0.2469265383522909 -0.29673212574117364 0.2528686522725912 -2.219911039415178 0.06691145877180223 -0.07132661195782225 0.7996248212549152 0.24991783896281042 -0.22381057458293627 -0.7687143989895264 -0.6260699125652722 0.6418897072745331 -0.38915113488152664 -1.007110848491767 0.15937584710175826 1.557390528591736 -0.11965845003443988 0.3046246039623673 -0.6341171735656937 2.132322109051034 0.44297183481260577 -0.36445079960356996 0.18781658906340704 0.09821464702213874 0.7604485993669948 0.372724290407544 -0.30735695815590325 -0.8587743881351804 
-0.9619820550285582 1.324453058550134 -0.80091042906199 0.905095491668313 -1.994197543868298 1.3011998729557968 -0.016167871718585032 -0.3783812545861992 0.603864517271731 0.04718876344804495 -0.13579408695233353 -0.5857877188604426 -2.3130097721664953 -0.4446321259312403 -0.22944689172130558 1.473458014640469 -0.22559711310824176 -0.06025866029694703 1.5059101597017317 0.22268028736552958 0.4666462707989855 0.10815062426572293 0.6753788591569713 -0.9363494049541141 -0.6330028828858317 1.2510793783002974 -0.7036826278111981 1.7240235757080602 0.1283687184423135 -0.04413578172432669 
1.144090279886078 0.5952271247933046 -0.32545611955642184 1.2507055129655278 0.8531086280239847 0.8675627480419823 -0.42729813258605176 1.7564992292407078 0.42622791998796267 1.3921421946041463 2.551516531602859 0.2071014236880728 -0.4691142490875022 -0.023370859436435385 0.9719668406514875 2.196263781989081 0.12255890744952391 -0.9623986504585821 -0.8607640248638152 0.9634844579111213 -0.8216374880566851 0.7378997079792726 2.0895960123626227 -2.307822284838237 -0.0025980559056118617 -0.4612481061988677 -1.2584973983884584 0.6003690532109075 -0.12484637239658981 -1.5176091735126118 
-0.38824908458374424 -0.7806826508393023 -0.3156540945551485 -0.5660274530411485 -0.32749946397780844 -1.8322609415602522 -1.3099236690175693 -0.2494783987956997 1.8137161121062546 -0.8266424895272635 1.1109469176377176 0.18255903849207064 -0.728195028736824 -0.5346970593503518 -0.840848136808861 1.4877460160614249 -0.611290633647527 -2.5778314214190208 -0.9832823769910289 -0.6999988315745851 0.12112688528518753 -1.250398909146662 0.12970165265865286 0.6085875051076013 -1.330502342739873 0.16452577839918092 0.09104793646962087 -0.8251453556264747 0.9264053242780522 0.8364809729096926 
1.5580707538438112 0.4658536718898759 1.7937705680918037 0.03561347189119812 0.77179465408369 -1.0188176239771485 1.1198019866635525 -0.09588276693896787 0.6241448709350038 -1.1636218047332527 -0.1466501265307631 -0.698553695388021 0.3411903073057143 -0.25111049073804426 0.35819153656284614 1.662513659162786 1.860814928256174 1.7265296159198045 -0.8315069043449081 1.3020149383259303 0.1236249843213677 -2.001957517220183 1.5019195962286676 -1.715657429024258 0.1660397112484995 0.42309457481307106 0.9284172394304158 0.6935973269963949 -0.07602557176755183 0.5958565655217591 
-1.0074042050611167 0.08191313215004536 0.2374796668276453 1.3221000399172362 0.4585882438010155 0.4185596971902802 1.7432022348941962 -0.9676584679509094 -1.3436791980400387 -0.7856445808842349 1.390717005142636 1.6209760595578064 -0.3595603207184357 0.6372123987659166 0.9464144238611226 -1.7577320520347564 0.14942700593206576 -1.464190013992098 0.41267505671404897 -0.4906907588692018 0.6304537774647393 0.4561363324098613 0.4450331408033634 1.6239916960052685 -0.04931625010105368 -2.1262571615564276 -0.5033807815954611 1.4912614945338807 -0.21180331392465207 -0.16331790684149733 
-0.36139206556927156 0.12000303873655795 2.5148899658313195 1.2151266749536873 0.5420210305145919 -0.10365278436489289 0.4404998006503406 1.7245395152010714 1.0757274203030243 0.18429219569681554 -0.15635964146436762 -1.312193793174224 -0.19881473259270327 1.001114460493546 -1.6379359378834926 -0.7929474894370732 0.7050350152641621 0.04783964389613008 -0.31902417692134655 -0.7201768478692965 -1.050718448211132 0.33338723477188864 0.6781896721331832 -0.1614918260369042 -0.45764581433711254 1.132488730378929 1.563842722770373 0.3303930114986929 -0.14042765002575322 -0.46171233000752887 
-1.3717419556487827 -0.6016288886444003 -1.0139586853325626 1.6025654909484013 0.06464847750452932 1.9342952926958512 -1.1700420671486687 0.48295197167473347 -0.22864234584122484 0.6440569069710834 -0.35329486788143255 -0.3726223716195581 -0.9176927448146146 -0.41519608533198016 0.12176913725917543 -0.6257764256085857 0.26768242835482187 1.262700482060743 -1.0643930435936606 -0.6425535303067943 -0.5303232644163927 0.9343838446148429 -0.7696564517015281 0.045569897087203035 0.9485063718691069 -0.5401108796308549 -0.009603959142795757 -0.8603435255107315 0.7292644610001511 -0.06801674495077804 
-1.0438043178433056 1.1169926201900273 0.5141881870181897 -0.2809964535604889 -0.8593969720825206 0.5525959592462865 -0.1863376047560968 1.5499149244683375 0.6090203628862892 -1.0832041059083952 1.9771115771323495 0.6728095915013238 -0.5361205392844351 -0.17630655018107622 -1.8703508447926973 -0.7826617185795107 2.090807951923078 -0.5914364128862416 -1.0650547958874326 -0.6083902895506544 -1.4401309247853822 -0.9501300998738249 -0.6894248657730898 0.7112029490701354 0.9424316688001637 1.6596370976124462 0.5901410521955668 -1.1114799721982278 -0.7130461378763988 -0.4909599169592408 
-0.19832114940533888 -1.2250094057908227 -0.28409163818036565 0.962686128509938 0.026139067025694063 0.531568782708558 -0.19495695929396553 -0.03652363389877905 -1.5051081761438847 -1.394559892739204 -0.6848503447947768 -1.867885009814707 -0.5486669052086284 0.8020929971742211 -0.48765022349842346 -0.5037553343568772 -1.4655114312017283 -0.15302367747485407 0.34342460138993336 0.23179564884373846 -0.6929444482751578 -0.43892718538931197 -0.5474544092051259 -0.6064945498281965 0.8559544790138385 -1.8632422481879527 -1.5637429383304018 -0.7008555838396104 0.6807961471608894 -0.4722976379437511 
2.3303477081524746 -0.47346072514576487 1.5703209281097057 1.8322756593722793 2.102163485603568 -0.7674929076405586 0.3352651684994356 1.7816168952153277 -1.359381105287006 -0.9125291565547221 0.21653416730613784 -0.41923292618048436 -1.4026294328878806 0.7542454690512923 -1.079102410876627 -0.035838082029073334 0.39755252094980126 -1.3866206278173359 0.7074685044693548 0.37461929619131623 -0.9597423076237822 0.29276196412153 0.12337864189289183 1.4750511679834823 -0.31807952306967596 1.8448391461370357 -1.6340732281466608 2.3765952979301357 -0.4297803913771441 1.1843826428662387 
1.9646854711069084 -2.6082966497554474 -0.16037512471176738 -0.05340855995965432 0.8363439541314579 -0.23634677014689265 1.2697320539704706 -1.2610182035157163 2.132476500078648 1.5403437713294033 1.798031593028137 0.6889346797618653 0.5420732222357625 -1.3548214368457385 0.5464542592238888 -2.2465319361549083 -0.27383443608887814 -1.1314801324720478 0.5326752938765015 -0.5541031340294859 -0.5089881860979317 -1.3616720723134499 -0.07300262843921485 -0.3444293430887471 2.048107864836027 -1.1088564313953952 -0.027845724491011668 -1.0415588506313587 0.4106840362705577 -1.2557645705322888 
1.6297764271144797 0.2535561476004794 -0.6763576085733985 -0.8620091862600711 -0.04913325735327644 1.2013058862686867 -0.35418171730068443 0.5328169715528538 1.6972669016337227 -2.9673080818952986 0.06322901254630098 0.8727967354354033 -1.0186691066947628 1.2139602600296666 -0.4927967581897505 0.8313232736920583 1.553548031747827 -0.0658938107942855 -1.0326816791839692 0.2440541358700795 -0.6815487712933203 -1.390658180731406 1.5388371239611611 -0.006516433825821616 -1.118942663536831 0.40776606746003446 0.737236049272863 -0.7452774385739881 -0.9338307372941839 -1.9779087920144183 
-0.5901715213310911 -0.14067301694349568 -0.2002827711596871 0.11711395038775436 -1.299539643643232 -0.1346264557203711 -0.8643451699958657 -0.7092463991587131 -0.17440048009783937 0.3366218832059136 1.3260526492831946 1.2059885200428055 0.443453579268362 -0.44464655683406434 0.5310228836163817 -0.3787575849928517 -0.9046687809474455 0.3256658368170326 -0.5893424577241133 -0.08343791404494964 -0.7068756060688318 -0.37918300203106525 -0.708739363245991 1.8886018968223268 -1.6057891274849863 -1.6321556037774274 0.038454853881804356 -1.1201495404253767 -2.0395387730189 -1.2616662374032084 
-1.1374383484090502 -1.440036004148976 -0.4849170601445825 -0.024292264681860607 -0.762458631741329 0.8944874282657056 -0.7515450294869018 0.03018596697683499 1.4904261933968692 -1.156204315820863 -0.528565724216406 -1.4728111625606592 -0.495448338184264 -1.4483885802158853 1.025739417288947 -0.6784045224405807 0.16181386280334112 -0.4085410849939184 -0.9606885224327345 -1.5512421794909703 -0.5780582448596596 -0.8950287680427009 -0.6224291765280022 -0.838499255966343 1.556908432463278 -0.6644642193596041 0.6673096278228914 0.7066335889815273 -0.5071648441385603 -0.6594282864165413 
0.5627245533953813 -1.1946754315607662 -0.6589633123729051 0.41799136312509616 -0.15594183791239516 -3.0313830282676753 -0.8021583705532324 -0.25902898396213325 1.18685105444233 1.8072838323568032 -0.7443838009414815 -2.5320307668221145 1.5215431767765493 0.30294843562221424 -0.8075624024557821 -0.6474920557323218 0.9390100783667865 -1.1272836500872074 1.5542306462159727 0.97374299852824 -1.5130234071417248 -0.4706651553492517 0.736729264581848 1.2804256811489438 -0.5285637573320242 -1.5370862742597378 0.22450721217675457 0.5122409511572384 0.04345088398289572 -0.2645111497862416 
-0.7275575848369716 -0.11013802173573198 0.19256053821254765 1.5720526889040847 -1.4689196932594326 1.043946745098656 -0.2568468951125227 0.4912987927801807 0.8131352252568611 -0.24827364375113245 -0.13538054408587938 1.4106331488865185 -0.3885993293951111 1.1582621942378013 0.6744399218880291 -1.5419932069933213 -0.512431217454397 -0.17175357954989515 -0.09606552142738925 -0.9771319463790009 
0.4611195481380269 0.5805951628015862 -0.08803958325652857 -0.29665557860480285 0.9514099726126809 -1.8253735108929738 -0.07620485804052045 1.2889614065073203 0.8968653272632001 0.09072933503240264 0.12566633138382488 -0.910076068062075 -1.3942419477806816 0.5070462786598551 -1.6001119113245847 1.7391745127474467 1.8849949537649633 -0.8251027258599897 -0.11069960569774177 0.5593749489124676 
