0.3804806227232933 1.2735130525724283 -0.5496522652264133 -0.059499048360290775 -0.8083422046911264 0.2720345487394416 1.2645313914199015 0.2989615859893235 1.488324754049731 -1.6089633747884324 1.6675144307018794 -0.8841879402865469 0.3211496869486166 0.7042283628022582 0.856665790139262 0.5500301683505563 0.9983292717466996 -0.3367732872934601 -1.574726139227718 0.5909687547006891 -0.5570428191787414 -2.3517161177387114 -0.40709362445578257 -1.7053186553671469 -0.1079784548571239 -0.20836548294433896 -1.0011208050045797 0.212395589647673 0.8640026620440158 1.4550192831299584 -1.0411422136208512 -0.11078328494582024 -0.38817653934660107 1.0217821097146291 1.1393080569529144 0.004612285527372432 1.0414867637582401 1.2821813350049869 -0.20047541152756052 -1.2475759885120812 -0.8232428257943183 0.6167389551263778 0.735445582284966 1.6225401485331614 -1.1355040808512715 -1.292722265925155 -0.8826658960109065 -0.44812905573772877 -0.43468882287643995 -1.344160367069838 0.25794105088023034 -2.642595948268662 0.8458561726960792 -1.1779931745530487 -0.2981947769456421 0.5133015256204934 -0.36180464524114714 -1.2798234439639964 -0.5971129060915169 0.10067900855076775 -0.053683893421141375 0.20873071502882445 -0.21048853600717493 0.06272126579094955 0.023115734346089246 -0.46564006403198294 0.5971937434351716 -1.757254081507266 -0.5584434679449766 -1.1246817541640448 1.1414773267681833 0.07505731460279479 -2.4429242375437568 0.19478927902136017 -0.9657236341361131 0.6990046762391265 1.0043746045232282 -0.17614174410057928 0.4925675475127398 -1.9422449732890947 0.13135404182691598 -0.5690888705748403 0.6038433700082844 0.6399215931248798 -0.2213147488822332 -1.1783352596090755 -0.8290435355468949 0.35213111794836927 -0.5142834717297315 0.9405142884480884 
0.4021454871831281 -1.6650795374992542 -1.3822304390575015 -0.5700435675479627 -2.2399841407858947 0.26289027121579567 -0.1023144123409985 0.4484432416101345 1.9557357647668843 -0.053477788802940567 0.34173440819191825 1.1633382579733416 1.3644728280303933 0.14139582758471503 0.7920625433732975 0.10072352595489205 -0.49066313438712605 2.028876203426898 -0.5159073937587266 2.1420433584659153 1.1213025996886168 1.1494728862064048 -0.06870786231710783 1.1148416159079566 -0.7546545869963862 1.3709090742647767 -0.04531485578212368 0.05214925055130214 -0.8698212125219396 0.25923963412159745 1.9813294110821809 1.728786977948629 -0.9971832496737822 0.5323966100043184 0.8078137340870094 1.197471625573135 -1.190182981112352 1.8237597070479799 0.4786554195816116 0.48773182911808066 0.4489827125250143 -0.757476032342898 -0.3103471748000813 0.1640083885219326 0.8788550595988203 0.09689137319473676 -0.9370875704076576 0.2178467786151818 0.4780129648546098 1.2108591836491582 -0.47344987850735154 0.01832400150841652 0.7908616409940561 2.25094677886065 0.6232243842988519 0.8739903855446992 0.8365960689070542 0.5621668839771713 0.1407830421877973 -0.0422119987681405 -1.080820526734066 1.463691706701405 0.3321655285676588 -1.3213640367425594 -0.40108273342010764 -0.659682009862999 -1.261299438271896 1.754046648563908 -1.6816127628411963 -1.1419482397698246 1.105344898524422 0.23361495445332936 -0.698139143934094 0.5067082107394706 1.734194581414242 0.00464248740781211 1.1982913689705654 -1.8928273657762384 1.6493140333100635 -0.5145804390342027 -0.48151075876011074 -0.9991903091596702 0.2825770894942525 1.4231959988378664 -0.8993659417579408 0.7977912446391355 2.4796328768994425 1.3238975378265474 0.8370852462602173 0.005119733571519684 
1.0286942780124473 -0.9486392034392919 0.8224447493377782 -1.0112946473134354 -0.5228917852057566 -1.3521792657891245 -0.19204857767515934 0.8475015378596458 0.09963447049067846 0.29573875901147434 -1.5729643618019709 -0.004856132297624058 -0.07326013109072825 0.326919438050179 -0.10596366630542507 -0.3089622020632031 -0.7015901281862417 -0.6618363508365526 1.8338064385564137 0.8164222219516546 -0.21897471196576926 0.06613732027554554 -0.64807971320047 -1.2559528981366157 -0.5933777750689571 -0.8106561000226575 0.7605584694814024 0.2673957189627333 -0.5962888106853281 -0.958090590611933 2.049109095899971 -0.4274935174787257 -6.23002175443893 5.407751010934558 -1.566609072082085 0.49883427154781484 -0.3677017563772231 0.9697826761176275 0.45072020314204825 0.6134409190071447 -0.18556167215488653 1.259520367721702 0.4109805435177908 -0.4358380500626764 -0.10802871736058654 1.4228686869774305 1.5972793140600068 -0.8522720229706648 -5.501957504354323 6.729188458215779 -0.8455717554031511 1.474131019975822 -1.2254344220269362 -0.43315979782331154 -0.7837724933110557 0.30680395642816016 -1.603019693039978 0.03602851657199883 0.043406939911630464 0.08229766884480379 0.31439328080584367 -0.7399422246305895 1.371946789919229 -0.16149728073377823 -4.008782791199355 5.474459527293309 -0.17031460961978961 1.254819185234052 0.3519550153360268 -0.425513998087308 0.07944927375225451 0.03901576163974077 0.7692989832699394 1.588883344491718 -0.8679977493792808 -0.4007786696965546 1.4138322302568254 -1.494005495213728 -0.8326699880708527 1.0282367901806782 0.6549780032257981 -0.01622527689763304 -0.22533069292937397 -0.26670276971569196 -0.1372604014016668 0.25385536516604706 2.2074613365794726 -0.9305759528407863 -2.781623853758577 1.0755187156807862 
-0.46623750031082906 1.4003488922776823 1.024717706431488 -1.2832814616661286 0.5385519266839673 0.4692590272078899 -1.2230515924144632 -1.6306912657784192 -0.6914446540833985 1.9395358597743544 1.395776149422481 -1.6743004078495765 0.5105488037420803 0.6434029102704754 -0.2871744089217186 0.5380701208233314 -0.007255943856249484 -1.950180723991798 0.326100747275464 1.16084601572565 -0.49625083571028394 0.42907893588234963 -0.4957091257972823 -0.3337201822409726 -0.3752595978965053 1.469443933957197 0.4548801010120673 1.7606405756675017 0.03278528309608465 -0.7152835739007098 0.475383301142552 0.3750737668332832 1.056374220123803 1.0344162900199074 -0.28195429374162434 -0.9352742076943076 2.1869657599380488 -0.7853867310664427 -1.9776812186011252 -0.24580672028865952 0.9803553821654175 0.040165408338354226 1.1194212456920607 2.13522315711757 0.7750025761401964 1.852314071146014 -0.30802148486029024 1.0697233510436348 -0.0318288629350035 -0.5467618551665635 1.2229682323118125 -0.617779112974425 -1.541759906593108 1.6346866787096825 -0.03170627927753482 0.3451183179873813 -0.6009433362444931 0.1743323957660015 0.432575797706055 0.4808752126363724 1.4186312123064393 -0.6564452466373437 0.34337812875781865 -0.038980096002660634 -0.22092989158955384 1.2043792474550115 -1.7258042400626181 1.7789494859090969 -0.10645943091278788 -0.8066381445736898 -0.2303565785201545 0.007678312116870878 0.20371680439472295 0.8773999498549556 0.20141295454677166 -0.08598177406067799 0.7401272276045212 -1.1427053215655765 0.16903076453583635 -0.2264139926685778 -0.5064592167821298 -0.952584662719904 -2.0963722427800096 0.15649631290678548 0.09311935949388102 0.13581911426877455 0.9802152481088771 1.2503774164254158 0.6681419833915436 0.33021291949103304 
-1.0681401878330512 0.9868389795745569 0.7622835789276793 -0.8510516029909323 -1.0493319500871723 1.5775036752008431 -0.410546667886569 1.8089608790821061 0.362670120398517 1.2932906191731515 -0.28082151223359714 0.27052653364621126 0.45682772759526574 0.5130256109329934 0.23745282407677168 0.8704313735176951 0.5021841152853151 -0.5176938561966872 0.2765062246934305 0.18031321147641785 1.3127499426016693 1.2380161876470919 1.965931969742737 -1.2791496576793815 0.7995812351715601 -0.04642769839095367 -1.9395108904515728 -0.9187132846950952 0.8785589876266894 0.7594085646849701 -0.5069986094627505 -1.079480318749294 -1.086893857875935 1.355624720717006 0.9618981309083783 -1.3567138929582447 -0.8912830939085652 -0.49449976775826826 1.6039948793278036 -0.5586850666500894 -0.5649909338034788 -0.6407646676325068 0.44776290916605865 0.11828945902570379 -0.8557813992177528 0.3471580944818538 -1.9901368150530452 -0.6315458828367843 -2.08956668672896 0.9984842573211722 -0.9848517174411767 -0.6917641825116785 1.9114747047720935 -1.1822862408596972 1.3701407453349457 0.6330370343959124 -0.22582453800197888 -0.8822926988043671 0.6978645198889013 -0.8537611124973881 0.21865425921164183 -0.977242356051082 -0.1215416131157752 -1.4589159296962928 0.16712928097198873 1.4430340432474338 -0.2278633911719619 -0.46475004797686753 1.1136636393390096 1.284973026810449 -1.3581001575583245 0.7208530029105696 0.7153778728679342 0.18650703948480613 0.5564310478006247 1.2837726711223845 -0.02998789182095759 -0.3151309800068764 0.613616984126915 -1.6779937714050446 -1.467566658621339 2.6064863605736788 1.406217224076494 0.036664839883567286 0.5445481127788163 0.1825993463557866 -1.5941583528639578 -0.4388723112822907 -0.6149449108268424 0.393920748298711 
0.46101555331465066 -0.1002630939068894 -0.7778761187782064 -0.27633792616633585 2.726153754324817 0.27413114804237204 0.4086811128338132 -1.8973242456317914 -0.15432648614610334 -0.5933007772010128 -1.4686065352093955 0.5319474629234922 1.3213107801342967 -1.1482247647703954 -0.05234149006207523 0.0677928135817419 0.8024777021274203 0.9626748640798255 0.776274618187826 0.5252680130946465 -0.35872839501737036 -0.011319814428491295 -0.22226658922002954 -0.35719678591503806 -0.30626850757618407 -1.126452152832266 0.30024493582526546 0.3498305455563872 2.5728693582100433 -1.450768671315133 -1.0392569999286623 0.2915316948885422 -1.032809326342793 1.481736180069643 0.3622301348927777 0.06226033279703943 -0.25765624096337175 0.8551095076601315 -0.9970187004252762 0.9815316405453335 -0.5396005098243819 1.6175950335826639 0.6345537209549342 1.3573815382786416 -0.26690441433999773 -0.1471057727493418 -0.5085127040076312 0.5497228427850547 -1.3856803173930088 0.16706588977899764 1.0991752180328462 -0.4313632524851141 0.60376345780509 0.35034088166306737 0.6135495482500176 1.1544289834236148 -0.20967071135563561 -0.8082434482972681 -0.5906758742554511 -0.47035057799897945 0.009666728049886957 0.010949650840951343 0.8144662939256185 -1.3702171031778134 -1.140119803521732 0.9852650533585632 -0.09612059971796051 -0.9078866445375194 0.17013554988340665 -0.5789068059116302 -0.9216305964512975 -0.2040027728173679 -0.9942677418121328 -0.7471714329621638 2.059529333080134 -1.65747559744355 0.5099347507302839 0.05744571007726688 0.2858473800606664 0.7912543040532516 -0.6077385360909107 -0.04713212248166008 -0.9345430935729894 0.18177940446478622 0.5669068716381367 -0.5678082552222243 -0.2507692804539916 -1.377658240148055 1.1756999061762436 0.27828744072674305 
-0.6490189375938294 -1.5328876279287553 0.31143686151626315 0.577666344097924 0.41088325875658355 0.9592796010761705 -0.31163498641763776 0.3245186796157305 0.30515467733973217 1.2973725236713032 1.147733624100527 1.2361615820025635 -1.1785873931701416 -0.9104546938211908 0.6797286817478243 -0.5966976077895116 -2.0449001608371984 0.7767528291046346 0.7623977182996049 0.9757155256065699 1.1412670242169474 0.11941711155596775 -0.28213227690516757 1.1964044419922748 -0.6528827027545653 -0.19883692596484154 -0.8540371166648798 -0.4040013691159161 -0.9659575325122061 1.0296811274925755 -0.3984608555187608 -1.2423634425797192 0.38973861304613294 0.0702026808159609 0.30024614507878356 -0.34888674645559503 0.9841215779003742 -0.41067053163659145 -0.7423288815037817 0.7543971343573747 0.37485850399712684 -0.8510570565257899 -1.2073312291182006 -1.0001464883921412 -0.36276701910723325 1.5809788060820686 -0.5069484644884629 1.885575442246588 0.12283761992504273 -0.8620512840791548 0.9153432119510632 0.4889894720645243 0.17782893306706235 1.5358026119876547 -1.3362654079282328 1.4603612941875366 0.40987277305456515 0.260101580752683 1.8698139653114358 0.6550648463735493 1.490530151331181 1.2658156700475316 1.59261798602947 1.357585204487676 0.5971354578125551 -0.17850838097806723 1.5667529171616148 1.2463873481841963 0.29888044579372675 -0.34303358187029537 -0.8551405683874835 0.07894773148729863 0.1978662857634647 -0.9837862208866784 -0.009695606652807484 2.0489737738500033 0.3941816501776839 -0.7320303220578082 -1.0717752316734293 -0.06786753461115956 0.4420492080602875 0.8976117142602823 0.333725552939532 -1.209904795017846 0.5882483807125702 0.0721328656936875 0.26161299828080226 -0.4111354504683235 0.29579308918615305 -0.20996143522315425 
0.6225870299678702 -1.3881404950835703 -0.11900710105446176 -0.4067195250083349 -0.9003826053877705 0.8150208868823503 1.054140488799398 -0.20576493314093094 0.5247742664405192 -0.7715695162376408 -0.22860725277820457 0.10796299482460545 0.18408956932940074 2.128194936803445 0.19727081878494193 1.1088727903817814 -0.3758202263380816 2.2548762710832637 0.977792924872582 0.004518952839921009 -1.261383019970133 -0.026479647923576176 -0.5298431433829922 2.2603233043865316 0.30955842223679375 -1.65940848706634 0.10628128748997825 0.4393230945159082 -1.137856941808398 0.5406186908937763 -1.1752866047768302 2.3707521685883797 -0.04061505630631277 -0.30393529384575246 -0.5323819482793788 -1.3921696730242845 -2.673722056294456 -2.3225098799334343 -0.3595894721470115 0.7299941733401235 -2.320216401240519 1.0333586694270744 1.6734241369048373 -2.993172153497415 -2.1561205260868643 -1.589943661633795 -1.7654953838631824 0.11921029987721149 -0.08200965313315312 -0.18271694605632388 -1.1362596482465106 -0.2669570081498716 -1.2409327451143406 -1.3554740752228585 0.3863788261984316 0.10217736516170206 -1.406038040874821 -0.2636202229718489 -0.05604101852393995 1.3218844436293082 1.0489804658388595 -0.0618949185018199 -1.1182548623799173 -0.31043923734743795 0.45695088415096535 -1.1710428579585135 -1.3572503238770695 -1.4110786107756157 0.9638183864452703 0.4625283143792424 -0.9205300775548673 -0.68192999051769 0.8657281789094254 0.8784782326876589 -0.39977946589005847 -0.46178583637071546 0.9792362150231869 -1.4525139595244068 0.34048765935054853 -1.708711745356981 -0.9081023679257415 1.5805175815025883 1.1987608370326825 -0.1125811956199987 1.2471774442050694 1.6349417537313344 0.933651640757518 1.022978201450816 1.5134326682899797 0.480425684875581 
0.6998057088460312 0.6598986578446799 2.3994660969643893 0.5334056241666236 0.5529839668090774 1.852977096242631 1.2523126900404196 -0.4911274442224677 -0.3297423251217995 -1.6894070987560956 0.6710181742443948 0.3830106724051001 -1.1463674552043837 0.6050348649842268 -0.4149682615454944 1.383648509545042 -0.059202398386640966 -0.23526495148893778 -0.8506627419136792 1.1919976714093898 0.17191115656880968 -0.02815368324901514 1.2971518074239317 -1.9185009331936584 2.1522052836482986 0.9118079912878027 -0.9942671462968992 -1.1453065543330216 1.5698785101329593 0.9276391719740045 0.07698958482881212 -0.30545593822954337 0.03075101310418351 -0.9431064034408886 0.7059966767889692 -0.6073071440557241 2.058895626329745 -0.14548648594369668 0.767056931704225 0.34199522873495886 -1.5389919708147204 1.4964888564279593 1.3748844223083945 -1.3784127022087749 -1.625864475406586 0.6398447064769025 0.13558192619044984 -0.92702509536576 0.705190798523203 0.17048330337429654 1.5631745936930004 1.053429802069984 1.5463177311412102 -0.8874474942134521 0.7177965102368465 -1.6592981659820922 -0.6623391573852081 0.5216120666171558 0.5534223223085389 -1.408479670016212 -0.09006073168031307 1.0803660876348784 -0.0408344872416204 -0.7290153418343687 0.02572111847909267 -0.36577377942533124 -2.3387737947162544 0.24759063997031078 0.32115355677821383 0.2885104698872187 -0.7019905221256476 -1.303848547520606 -0.004141140282887414 -0.12649451059222758 -0.20718182075028999 0.7683288886404173 -0.04424777929333688 1.5390644783164535 -0.5794962962942452 0.2171807382268415 0.4220567336876106 -0.4404740854055546 -0.9886539303261477 0.26547265811448933 -0.8253575572428371 0.5150203058966548 -0.9564727399370337 -0.7482898978561948 -0.2096319380498459 -0.26622291362995065 
0.5386801801762668 0.4339346909409776 0.21600226204412415 0.27469214339915343 0.37845786427604383 0.025938881947350136 -1.5010863027216201 0.6008745065296811 -0.21292616213149154 0.26941063769957696 -0.8078355648663339 -0.9674915647714109 0.7248832349101749 1.4615768694605513 -0.18390238346594784 0.1154778590512883 1.502231105417642 -0.019635167982592527 1.6895226750888337 0.089144334421066 -0.9180386587782766 1.097981877771575 1.4017187773400046 -1.2404330846935316 0.4189437447997066 -0.5986736873474933 -0.9777775141953977 -0.3599740985882877 0.3274283091181371 0.23730468709096184 1.019953848320001 1.49735322153564 -0.6833073323284583 1.0786992568753297 -0.33555619369757983 -1.134840656069109 -1.1560788164600515 0.8114066047362861 1.0466717508839536 -0.7723448014834826 0.37157222596004363 1.1318024887119444 -1.2357062736759616 0.5036282295237239 1.5549374926065673 1.0825567448491666 -0.4226859654510713 -0.7457900516326683 -0.6271250718289724 1.2096067313982775 0.22083018145248584 1.4224821997321289 0.8645873533892614 -1.799542538985848 -0.6781534633795558 2.032840091600984 2.4322644216382283 -0.08352246004261872 -0.34521860188056097 -0.657330600187981 -0.41536046562436973 1.3013265534844753 0.22609944010513977 1.1971380770740019 1.006237198353412 0.343920636771412 -1.6968414021764568 -0.5751722682307031 -0.6153243562823335 -0.40780595251605584 1.534689889234919 -0.676797009639322 -0.5289904930687989 -1.1706716356931055 0.21834776435991696 -1.2264621353209084 0.02279547081890546 0.34944391649719275 1.1083086870831163 0.46715400615272296 -0.4221381109817407 -0.48254565094825375 -1.2995501422180247 -1.3180258895773145 0.32392333314949223 -0.4404704050509607 0.5492144111105699 -0.3751965877887874 0.5586182435203393 0.8336641285238772 
0.5996474794679066 0.04244653810635618 -0.29380777681369485 0.037045391198521176 -0.5556219098044328 0.2670230068482231 1.2731677682790699 1.2263854356390147 -0.020604467458176283 -1.8767919398910533 0.5099105410406413 0.7585169524170436 -0.8241067245130999 -0.19075937722741348 -0.0996319252737919 -0.31164241087917915 -0.38803751044229223 0.5607585130923816 0.8706194310421161 -0.4193605455317912 0.7693937880124393 -0.09103839505108381 1.3801739301155682 0.4587385770023279 -0.2916077180629756 -0.2645031742768306 -1.1447929841745628 0.6598270594714392 -0.2710455363651773 -0.005825567137363624 -0.08751447263618986 -0.1771587672924593 -1.5498640927097664 -0.7948132947317819 -0.32379354265189325 0.4049037416932543 0.7344118432927738 -1.5246767635183631 0.3827679886555553 0.06760276456862346 2.725172537675107 -0.30525906790799817 2.9016174683150626 -1.3036888040748578 -0.09131064520844809 -0.28721885151702853 0.20425450759668357 -0.9471364877939978 1.995347759830509 0.08638958118545097 -0.07052010460557068 0.10251258567984646 -0.8387053666613274 -2.1213359299093333 0.08652957122745608 -0.6294219382767771 0.33434157093318123 0.7863579674875094 -0.39283855180026933 0.41410801073543957 -0.6713592434464919 0.24370606071842188 -1.0944135786782063 0.3046887067225464 1.006186858188575 0.489180553606155 1.7042283347497778 0.44211648117245145 0.632617211690203 0.8966597391336444 -0.03189418572493968 1.42180311270067 0.32645536088348687 0.5244475587524984 -0.23469378398254048 0.07232481847638582 0.004271349640125368 0.256294728536654 0.46193470740615894 -0.4051934824031778 0.49935819952685034 2.42259422429678 0.4978345916352442 1.0131356649208298 1.3934118201792263 0.364066680057343 -1.6640882421054135 1.0555558475046023 0.6259822179532376 0.42539575936503526 
2.0424558612914883 0.3923206852683543 1.0190666128212251 -0.06542457684941122 0.08006410754834659 1.0244541492067327 -2.1558086695037204 0.48872644106387986 0.11479137239508638 -1.9045105700944223 1.2648447362916444 0.7131454165870417 -0.0005524860722440249 -1.458603484590492 -0.9797429619181858 -1.2076721547704714 0.2766165033304544 0.1531637194443268 0.8439832165543973 0.6501901587906668 -0.46487357433488063 0.795477206506442 0.4386301542456037 -0.5115276146115985 -0.4711622171022208 0.1769240531542269 0.8734830673778995 0.13073250281467488 1.2054767667237185 0.01400747452787723 2.0216543851383495 0.9453886485150405 1.6715255591308014 0.21887417214181673 1.1151429529060664 1.368926569973747 -1.0532403045676977 2.2526912224337523 0.3783626595508317 -1.5059630144854537 0.23465911815508828 -0.3601411012792009 2.13596459908283 0.6095751037323524 0.7425303447749354 0.594137059278718 -0.0428406497562683 -0.466425944903769 0.8601499977678241 0.8408519975128336 0.04833766032378357 -1.5308505575096114 -2.6007934915771695 1.7214531406423912 -0.3324545243584354 -0.3876442279247667 -0.25069206038730535 1.3604311194713778 -1.3554621567424547 -1.659433929839837 -0.4736806483659189 -0.45501960649958695 0.8925494698735194 0.8491375668931815 -0.3929798070532521 -0.11041233283446138 -0.9805158167210728 1.3185884695606906 0.758164310340864 -1.9697713954721698 -1.3524286939504107 1.4714057384976251 1.54610508605154 -0.2239020476761385 0.2697165214252663 0.3019800460969401 0.6059473690184081 2.3251017976707202 -0.07467267336342652 -0.45384154432880724 0.10176696988894737 1.16807718193619 -0.874970949527922 -0.7212646994230679 -0.1297708537966582 -0.3649989491360563 -0.4552761728741232 -0.044384713299142516 1.1145346169705597 -0.9425305598362247 
1.1105545970159032 1.4399681687029784 0.16746486067803723 0.8428955920754962 -2.4144750088409546 -0.5332246497553315 1.0046036935885545 0.43654564906241644 -0.0647587633651111 -0.7082446863566366 -0.005610810083469976 -0.5482964061250422 -1.1077902543998122 -0.802161345760222 0.03155669615223573 0.8042883567854194 0.3976141424922796 -2.843146114654006 0.7329613241036373 -0.3633606487000775 0.3684981389633618 0.9836959312280048 -1.0421058873845566 -0.8372249225691056 -0.21139451009486251 -0.9085361824906067 -0.6696314592779273 -1.8228363666993797 -0.41722969916250935 -1.263854639546456 0.9975135938349738 -0.2412586854034897 -0.7146910955143019 -0.6431994341958633 -1.015494036710073 -1.4116009985573865 -0.2040933038714648 -1.1789810238428051 -0.815261930627638 1.0144969219810598 1.706612462229698 -0.3013358649484611 -0.005027459325632722 0.39965535076232317 0.04907028153850415 0.6066513364364232 0.6501309522706817 -1.3096465050006567 -1.1120564622493077 0.7401850484644866 1.4230389116517062 -0.27536563197973857 0.09249412024032998 0.7944059580217134 -0.6506092375662379 -0.08606591107751141 0.08862439095689259 -1.1947278169241031 0.33220111356697785 1.4695435557566994 -0.5216958138462324 2.4004126436614897 -0.7568469792662462 -0.45412986803941424 -2.1739609409620306 0.5884187276867479 -1.2940174001019478 -1.6892592084084863 -0.22852845259010468 -0.5345817894484338 0.7205744468044402 -1.4086320403332258 0.03418210125752785 0.29648411096847427 -1.0070261151395903 0.8740103958737774 -1.274664084201364 -0.2287430953320196 -2.4289527818933503 0.08652227148974412 -0.13736356340614825 -0.12635178386054732 -0.9544170473329011 -0.18177764070467772 -1.275858234841433 1.0776559169565751 0.6447819689164948 -0.330125643281403 -0.2091670404679959 -0.08145379465942681 
2.418272878356237 1.155377977793426 0.5760399585442045 1.3746891950329103 0.41286184998643854 0.7425097258602996 0.9868594863634881 0.3269655452109033 1.1462873613445348 -1.4132157310987146 -0.9582225304485371 0.9341026659621843 -0.1811325368820285 0.43284620857172185 -0.6393456750150347 0.7738177700196375 -1.6617401023079756 0.32602586953852575 1.074430745525709 -1.5246890239278865 -0.6095498553592765 -0.5023082175205098 0.8707238253071876 -0.2339248553688254 0.15584717029971054 0.1146026665876994 -1.7195396023555545 0.9266307000019275 -0.6410244322648558 0.6549382966332712 -0.5835317010039954 0.1530693260728856 0.05180880702257257 -0.057100301707478415 1.0130368332038984 -0.14856933103249162 1.9928337207746614 1.230050549155083 -0.6459229777137611 -0.37904768251046944 -0.4705019354413117 -0.3114927596436343 0.5167343040857802 -0.6147805934243439 -0.008452053615443628 0.08089404296001851 0.30537905716543995 -1.2930765882800686 -0.4151110519956282 0.02766300155294901 -2.00011602045445 -0.13060180299547605 1.2026805023199425 0.8094386731216382 -0.5378062064798702 0.555397614789046 -0.7128195953325411 1.664608248637268 -0.1739163846821465 -0.16517811937158028 1.5010321893892926 -0.3950889678190741 0.13759721419928803 1.025287178037037 0.2505012153641871 -0.5265638702255265 0.8610454331946089 -0.19022914127800344 0.7646480098322079 -0.04993770751490627 0.099751292813275 1.0742884063761666 1.9696676311164634 -2.3508890714289707 1.5647177735867002 -0.40330123137397367 -0.5862783220765686 0.7924214768298934 -1.1015895720182125 2.0269248810440996 -1.2100756074855046 0.7412798313754827 0.6948882584559635 0.16013724023845358 1.46687698065855 -0.47230596052999785 -0.3383449072020003 0.3073565677156594 -1.2129712656495601 0.3368143350275309 
0.9509202157441333 1.645740719400788 1.1161835461713396 0.2673337200538193 -1.3098807983370355 -0.16497315302066812 0.8397449026577001 0.2925187612789933 0.12946100036091293 -0.9729211613498986 0.08581131022418662 -1.395917063138194 -0.21024248307143426 -0.23714749742056113 0.08399563862637097 0.1895843897957131 -0.06827911810903624 0.8927549014814876 0.5707831975951682 1.5151301160735207 0.3445221822677798 0.08769247489397393 0.15250244716778738 0.2100593654840588 -0.9967683012465204 -0.4156776542679947 -1.0638429594402852 -1.116670403569676 -0.47242838009350685 0.6681284079551407 0.10208102100894327 0.9376296426285329 -5.306938187420938 5.045132637553988 -1.3256442674024598 -0.07972187604340178 0.43780388795868264 -1.8375125511127037 -0.7297728159860095 0.6557079560904852 -0.6536781979605508 2.001822780016719 0.5588498708718944 0.7215161229159811 -0.005373426521178157 -0.8060977546456777 1.0182717901472673 -1.1008701961573506 -6.567613474826802 6.921697371824596 -1.0081582670045128 0.5397324764665138 0.42571093898873946 -0.1690235125448863 -1.5359452602679575 0.42053914512854756 0.19050030250204011 0.576840419890836 0.4929798201840625 0.31267155078651016 -0.4312465719046863 0.9702390299510779 -0.27863185791273026 -0.23581776235161458 -3.837456767527796 4.083825997067333 0.13265107100257714 -0.053351134507846114 -1.1762603091898334 0.003679474668868893 0.4874426889411307 -0.5322838488063478 -0.3261441046692498 -0.77741781396005 -0.10796718516135488 1.0813028196444534 0.37438864710136915 0.19270301372189347 -0.5935464354022967 -0.445702464502341 -0.7146266198034791 2.044301981848258 -0.7901559907968886 -0.688400272335302 0.06424464811434387 -0.2303757077828061 1.0411502177186684 -1.939484071240232 -1.6607328242802477 2.206796105480043 
-1.4325024542776823 0.39112936363308015 -0.09459163781988496 0.6389179606755366 0.10471344525856895 1.1486209945201256 0.6885278653824897 -1.1993730946674477 -0.0752237085810092 1.5473199875770842 -1.6669804088056628 -0.33344285108202254 -1.2075755526346788 -0.6178982712225054 -0.05516262638471559 0.6863820965782385 -0.39332695898032455 -0.5950609983982512 1.967539409061588 1.0755129808522217 -0.028274823821756515 1.1930694904925951 -0.9396663197761044 1.6695054426967617 -1.3062069685445847 -0.9071398324252565 -1.1318972800053066 0.2675987564203817 -0.523117702524287 2.045866068608052 -1.8276307630829047 -0.09011266796687936 -2.263900070263326 2.612470526551055 1.1796587115315789 1.9630587975729576 -2.2576866249390846 -0.7805559573298105 0.4759995651418093 -0.05213545157506544 0.19364047407000645 -0.17979269441235868 0.31371758456851173 1.2191951372510161 0.8095845292695296 -1.512103905629113 -0.6847037899950846 0.19774256140389335 -1.4320299304874855 1.6982587741568673 -1.4839565294682842 -0.5620991097258761 0.5722937956481102 0.9806809968299599 -0.3658430810560959 -0.5826570184218374 -0.39445537511759415 0.8057135569273771 -0.22143879393057123 0.664241625198684 1.0550887393715453 -1.1746010042897765 -0.3321940661477956 -0.3534089210240778 -1.9012153504073126 2.1067014066896115 1.166093459878587 -0.549999863285872 -1.1727628534308014 0.6238282197312509 0.7140115213998451 0.3782312671733024 0.06278686893048807 0.006165491836675802 0.5165207528855876 0.16249667152966266 -0.7727444720414527 1.5434271331213592 2.0072818688841303 1.6515683923113205 0.6134120184978196 -0.8626592952589558 -0.8073923286871053 -1.1560750493474543 -0.8181347947361498 -1.4454867004865826 -0.021275328497384827 -0.7521032801491498 -1.9676065686811584 -0.0762237072331004 
-2.3388595278549964 -0.7676524640720478 -0.37487255501134575 0.22742893703259928 0.05233573316650692 1.0117598996992985 0.6321191230602428 -1.483242160297198 1.4483714985853753 -0.1661885635270618 -1.493236532323195 -0.4224421024900379 0.05979332929457657 0.26671685445425025 0.19902664027035774 -0.23636043353462624 0.8551693957155203 -0.8091109026660142 -0.8398186595993706 -0.1965886907786352 1.4046092036304905 -1.6274168441985506 -0.35902727450968314 -1.7633778583730406 -0.5776629086944035 -0.5415254021857431 0.5967224758004617 0.37004373265250146 0.5160256875471857 1.4191243522276802 0.9783638258483547 0.658228005713869 -5.796282243557361 7.035702022336556 0.667391383766406 0.22164585704458867 -0.7629665513552852 0.8361063108646932 1.233127419605175 -0.5185800713774719 -0.9487920379646828 0.5348139027032566 0.5935312867083234 -1.7375374640455112 -1.6133311654342848 0.8710931652324868 0.44999070200101754 1.5231439417408545 -4.897890781394123 4.579179680508618 -0.6391578181741434 -0.4035309427186522 -0.33066384598638304 1.9737737495840475 0.9266593048383355 -0.46717207368366 2.912779380855855 -1.1657455837706454 -0.41597619278402176 -0.14353848963867163 -0.29745325388170957 0.2653187758647519 1.2901750821592393 -0.4688300973434733 -5.113486689439068 3.4955277556635376 -0.2875850388024811 -0.6682556203469543 0.8107998353758211 0.12377486493425227 -0.2178607668480738 0.4036621805469542 0.26307979804921644 -1.1870704367870761 -1.7029608244468522 -2.715035294268915 0.029368758732358377 -0.14698836774396024 1.0177997982697509 0.3486997169406902 -0.6782758466249883 1.2069597162827141 0.9475482573120231 0.8637750176142506 -0.031223717749552404 0.1854554736819639 0.5364115284658187 0.5071476838947686 -4.427136572224379 5.661784855677005 
1.8659998262970134 0.5920036595610103 0.5496629208625936 0.13597829618796425 0.5052381152396412 1.1869501689755069 0.7530662376176187 0.5279713657862601 -0.9295875188271889 -0.34404530286639745 0.08418158577527468 1.0214791326063426 -0.7827528730214369 -1.723137059694204 -0.344485645406387 1.343699258143701 2.0365238788062356 0.7446431747766571 0.4209620042677095 1.8153457807267988 -0.4746796594091476 -0.08045026456780206 -1.0852587161688858 -0.3533399958828637 0.7209938481053783 0.42410794145265546 -0.039240041595000295 0.1708863370594567 0.304692809780726 -1.0025436316669045 -1.522858608585906 1.1414969247286681 -0.8220150816574262 0.5041289041747969 -0.6310291440553172 -0.04942686171218819 1.0069604475761937 -0.8690636218434032 1.1206952139837627 1.797495823675244 0.6615426038575437 -1.922831278320963 0.15641174276014874 -1.030256636943192 1.2959549107925474 -0.9507437065454583 -0.47521778759699307 -0.6053100010522063 -0.7821001296989172 -0.7572256725133071 -1.1301542053746723 0.5195942366816625 1.781952642882457 -0.9059735093372725 0.44309674126247794 -1.3657649205099398 2.368772549822222 1.5220358839193475 0.5661023752346472 -0.25727592812258 0.2231685618311291 1.3703495208238292 0.2602612625386874 -0.1344728665788249 -0.9476970137181625 0.6503502301759971 0.9151290328257705 0.8350319641329288 -0.9354687623246976 1.3186565751115582 -0.8610920344012771 1.630446059561312 -0.10809020808932861 -0.10761538038597122 -1.668016912560211 0.6291845186790165 0.03011218572615807 0.29192824226424663 0.88805352132169 0.12902050786901176 0.29574521948479493 0.5684583783594114 1.5731180935447118 -1.1270096151433828 1.018687637758899 -0.21076876959607782 -0.41775755150837673 -0.6291328226528368 0.361157451586454 -1.1142566213239395 
-0.4092912182043851 -1.0424979497800981 -0.9110770528388582 0.2932909540601718 3.3970886178915256 -1.3966409912368696 1.0405219479181043 0.7542884619464209 0.9745387644923507 0.11059223364040367 -0.4909741744530759 -0.3491989067402392 1.0609021686265898 0.1282410723405216 1.819746710620046 1.1537756239412897 -0.5060567504837965 1.0766705390103175 -0.14866439994655223 -0.1652679257078353 -0.25634174984141084 -1.1386548943989163 -0.8575034997996367 1.2411106892718295 1.0045799025325743 1.2966976148711158 0.030529159456236334 -0.2561601677843707 1.0999958259741227 0.05593509260262641 0.9262347274868595 0.5435106485092999 1.1320658566586415 0.48998423859759704 0.9444885005050796 1.5379959969843475 0.1922886771806256 -0.6127814587567506 1.1937360048704673 -0.349430315971677 -0.2477882118047188 1.2259661873300907 0.29717153095608656 1.4214224422369897 0.5523264290760892 1.8993724500083426 0.24053236152949076 0.29356363182226697 -0.7365747374173708 1.3439891555393972 -0.8198193383438195 -0.5048909605771165 -0.6080659475738464 0.6467689223638152 1.8496802328891377 0.6271717612291619 0.7091878898919834 -1.181031058068692 0.01612532043046049 0.5365916150194684 0.20572852236135375 0.3328595198333278 0.6086695588093419 1.4200356740987488 0.49995950419472873 0.3078388188733158 2.715945733824702 -0.054451578463703305 0.1647882537377954 0.5475431130790391 -1.796928233590315 -1.130757078120846 0.16222708795775725 0.3764853791929298 1.645909735366372 -0.3456104916887428 -0.04232747096059638 2.1931802443087856 -0.3095330608505844 0.5874598945488615 0.5287248351328324 0.3051789117520218 -1.3630909007296503 1.3633569665782646 0.005595224298717229 0.1089479901858499 -0.769556591674592 -1.4185997510185684 0.599087275589536 -0.9596748837479661 
-0.15408390330178243 0.9613030635239287 1.3624292495487142 1.8106554739664722 -1.0863104673225876 -0.9173455051424135 0.07335323917950592 1.1999787516373182 0.2704184907229206 0.414699912587794 -0.21996620646435558 -0.00504751232915887 -1.2593483089637343 1.3400269730924586 2.048379875506763 0.691607772610027 -0.4927474449452743 1.3151656454412914 -0.3123441440935086 0.17340598458713097 -0.9881298076663844 1.9923100873380222 0.6329104688275781 0.2320536075397702 -0.08784312618677305 0.15215879164943555 1.3344606768593203 0.7279018296011612 0.17355623551756463 0.7693523794127283 -0.6207087142126397 1.6650218556914422 1.919710074010984 0.7303797382916987 -0.10938169158879077 -1.3137628615281596 0.8459728619635499 1.3994377580600037 0.5812613302771531 1.1572513139754081 0.38251096431699755 1.3081255468494712 -0.9032158778749669 -1.1563625246001694 0.5305632788099 1.5065820657550308 1.0590987166517316 -0.7116693678124513 1.4764349344807597 -1.2549633338661594 0.20304209873122883 -0.05438856009593518 2.3587605871280157 -2.013734965251043 1.4714950530645863 0.26393503440980837 -1.568117370848433 -0.961342238417356 -1.3631426322809974 -0.0006205053165008682 -1.0408216944503292 0.7329005484753586 0.20105460054825805 1.8291978416877879 0.2121038473060453 1.8693462468156374 0.7008545707772107 0.22720771914449386 1.2955497535348475 1.1285093376186526 1.5056839421038304 1.4513768843954142 0.4501934816713664 -0.5053495200086581 0.32110452220461155 -0.12220770608157289 1.8529258218940936 -1.2303041113575681 -0.8368075538301848 1.4919664688461982 1.0724917978251443 -1.0725753277613748 -0.048434199413026846 2.526310508309088 0.8643036001379821 1.212743332879167 -0.251252492572607 -0.4383546371853399 -0.31011986977995476 0.389748183410861 
0.6977289433158689 -2.640851671718015 5.545948882513147 -0.8874349290416006 0.8991135296865863 1.1622561030686063 -0.5789508911772319 2.142817404485973 0.9063586754361367 -1.2132931966567257 -2.5318750322754404 -0.911683827476771 0.33892235486353445 -0.6625221601838371 5.5796990189048365 1.489513424373999 4.958096490812185 -0.8696390941007717 0.7708019008218792 -0.7079938123088341 
-0.008016771637251514 1.1303432615962847 -5.82506638774803 2.6463943003018486 -0.9062143027404044 -1.6268677715992756 0.12466836179832695 1.0790722932234864 0.8249881429955498 0.0745133128846284 0.9625955096606098 -0.827253197581658 -0.024701037477795684 0.9625233358713526 -5.551461242841001 -1.5770186783105171 -4.724959975975879 1.400273435214775 1.182632364915119 0.3478463015678999 
