0.9137871627051838 -0.24848940272680595 0.5114062749368271 0.5567884977714466 -0.5843719103882924 -0.4744735482731134 0.27942371626402696 0.16439863669556573 0.905225814719415 0.842479127289375 1.3750595201648312 -0.8003756964850517 0.541952918334274 -0.349684619790114 -0.26733819470241815 -1.5128544697949322 0.01694923346339017 -1.86328144082598 -1.794732181997821 -0.763437650846886 1.0007876478489794 1.482773132706624 1.5642266998173993 0.10535047792534968 -0.2773565919640348 -2.131252016178754 1.9195476435509173 -0.43573909106087494 -1.7172092464356978 0.8532381476771388 0.06296758609800328 -0.12298240044481595 -0.3425906294033112 1.027386705566026 0.39771742286034656 -0.2269614302172079 0.33154936967825127 0.5574473489051099 -2.3684865347953017 0.39584133984343667 -0.6743127028233473 0.4716079722003495 0.8578071768167563 0.37792959367328227 -0.6366330402822459 -0.4469065663786116 0.21594156937474038 -1.075251809851908 0.8117320892485793 -0.01153129467168729 0.6154587443531327 -0.420747610579563 -0.33991959127873356 0.7312851767348408 0.22828483639128574 0.39700576616418615 -0.6234705453987788 0.6176815017640672 -0.7817773671034907 -0.6908583233285701 1.4467224826979188 0.17973308132521887 
0.46373053917409607 -1.118684499633983 -1.2341306699326533 -0.14222235483589904 -0.24228745694431014 0.40624190550293193 -0.048073548984927876 0.1541400720173756 0.34401558452367526 -0.4573478277737876 1.0858875768925098 0.483288763668673 -1.2581502845341415 0.052048028031887135 0.4175500964741885 -1.033390702110282 -0.4972508673627366 0.8011111566348571 -0.13998962317476304 -0.6793041585152322 -0.3594365687240347 -0.2377541742261674 -0.03290766001441099 -1.1053470004087484 -1.3210290324311498 -0.17899999383139512 2.0657172201105523 0.541680322016452 -0.4163274006470653 0.1731265967306903 -1.475184053063056 1.5708298110220058 -1.3676787826144443 -1.2626144524699818 1.9806258154209986 0.2141467582404422 -0.8416012467061699 -1.5198903588572616 0.19933520024871684 -0.11030130112873349 -0.31138748650241704 2.320939863094989 -1.6787019089354256 -1.3608170076083494 0.20293929094378416 0.28906714571112746 -0.156486214463496 0.15547784590101843 0.439528956660226 -0.08394501525052996 1.0590033343412142 -1.0217465658389704 -1.7105041894084636 -0.7779099825467571 0.6994176346812191 -2.210851966117708 0.13466809004141034 0.08489456974796306 -0.2584755377616879 0.23607787747360948 1.718064342304753 -0.04072281115650875 
-1.2607910591206382 1.3109553066994362 0.29489750939807136 0.3396220320747241 0.054377287340954386 2.173326936508358 0.07529081105667693 0.2242385249124121 -1.99669353670517 -1.1641495213979476 0.25890307937771945 -0.7194535287975208 0.01800940284591274 -1.0432196991109501 0.9197915892962818 -0.6749293550027455 -1.3721322971045584 0.34407027488925696 1.7941373392219047 0.7713059430280768 -0.15690005728717238 -0.3860498878009029 0.49722226496095717 2.0041763920354496 1.098150807855804 1.1740217893995897 0.022769685919314137 1.5063033747940502 1.301695694627842 -0.47099930669660933 -0.5991267424874754 0.7859672393061967 1.8264820393679653 0.43220373132490736 -1.1849413436196132 -0.4823149536079577 -1.0059180653233188 0.8491837165260346 1.2671952803638395 -0.852071378435159 1.0815160376089448 1.1320560289009083 -0.38833679707872315 -0.4131940391888792 -0.08915092595077662 -1.7114108008710274 -0.9597779033746848 0.39492701187706253 -1.2373796766459044 -0.8481619713440322 -0.4409962539127736 -2.97135343230497 -0.7818025985290921 -0.7677094208459612 0.2563925582816728 -1.167047786202027 -0.4138091911374747 0.2620813278030485 1.020898309783235 0.6665723787483354 1.3739708610907893 0.11213829021465863 
-1.7716726427606557 0.0424737217340975 -0.3293730843546123 1.4920111256388875 2.0393720160966122 0.02081721990241266 -0.6155105509189903 0.6908695934795409 1.701620235961734 0.3260456250441951 -0.34798050558092347 -1.7524237407696677 -0.8501069578169828 0.4251828507817828 -1.4878814269037224 0.6599646788544933 -0.900021596934158 -1.8609988634867678 -0.9201315259439554 1.8374073869917067 -0.34864501695193584 -0.32003178289770917 0.04113474947727397 0.70828490249914 1.4999532741058632 -0.20147381356883748 0.08596739813787255 1.2669798482965153 0.9250842893336735 1.7744192484828967 -0.9416427956865748 -0.504099505579885 0.8391383584029293 -0.10050251173642794 -2.1859519417356106 0.110874618854671 1.1361096021209565 0.13620726019389284 -0.3911998796964526 0.4672577542105153 -0.08181306806027229 -1.917976123466158 1.1451064753325428 -0.5948417083027745 -1.121838446702618 -1.1252784478344284 -1.7895095220982586 1.4742511675299939 -0.46186168830015906 1.2843486819693117 0.5923023859918732 0.25625034320455786 -0.33544868553648166 -0.9816678089805666 -0.6208999717090116 1.0998679267677975 -1.3280553791088587 0.8808099854604348 -1.5628051693244658 -0.2513429048895573 -1.5146661071836032 -0.5788391795178593 
-0.5461902448826677 0.29838829201471256 -0.5165102589092121 -0.2120707218734923 2.0628011394677483 0.07658880210377489 0.17637938464294442 -1.7020995290865708 0.24634494862893977 -1.6022038391190148 0.2438024036284511 -1.2156807852028275 0.6964631328389482 -0.7419532803687993 1.5304888174571343 -0.08483845692606437 0.26000728794227507 0.9140000208117247 -1.6485477522247332 -1.877176166435825 0.773299826082823 -0.7772589120452716 -1.3266913458847887 0.2751032811619064 -0.629443434986858 0.40632579447883477 -0.5151236424630266 -1.009194015409749 -0.02363664437978739 -0.42114511486861844 0.6401598539513685 -1.6307474992237783 -0.39006185098096013 -0.1758709203640921 -1.82252735762435 0.37498734785393506 0.09807171342736187 -0.4498734838190447 0.7978084781731373 0.6758148821430126 0.7254963557987486 0.7792290887615667 0.7453303895146538 -2.0672846832056657 0.05730371304074146 -0.4916802418844005 -0.7454682872404049 -1.104581302258053 0.29998387744980637 -0.3849921131460576 -0.48158351950513373 0.9818251055116914 -1.446419583305565 -0.8817991145156024 1.0035344437527671 2.478809693591079 -0.10896145535443579 0.6200647843538111 -0.7922045819014001 -0.7186043688182514 -0.29041930839370494 -0.17975304084704263 
0.2651785318542214 -1.269416154948196 1.640966228628481 3.434008273342115 1.2860431957629397 1.2796919760201086 -0.3762961804726223 -1.7529779089728899 -0.9794242430045419 -1.5444907498539275 -0.9448995719893009 -0.8765445404565098 -1.0579130542751696 -0.5066961808454712 0.8553794078417892 0.2735538854571869 -0.8663499343975286 -0.9166400595656777 -0.09122886655489856 0.6419841071662391 -1.5731618062670845 0.9665875700620576 -0.5375319534250556 -0.06307512296103437 0.03608388202550756 -2.5423650961903657 -1.4430405484297502 -1.0597814214002284 -0.5346524431101746 0.6161050702819713 -1.9114007988299462 -0.03301866404999045 -0.2875545654697212 -0.5793369702240672 0.5881548724635582 -0.9040413077070708 0.16753389188735854 -0.5518899930402497 -0.1976189025927939 0.5514049061654553 0.365836836129703 -0.08282008452595403 -0.2750785626620443 -0.6988193490682318 -0.956654283387974 -0.63111197792872 0.8113897477688296 -0.02269330613801029 -1.3718876635320503 1.788294971835894 2.1872996008131973 -1.007404286664404 0.2646007834785197 2.1539893000853367 0.6986195358622709 -1.9570226480135142 -0.7601840073708831 0.4323775682457916 -0.46597538379625936 -1.16098111099955 0.6654047068035059 -1.0317575403805115 
1.5074684889659264 -1.2033096785985014 0.36201814974457797 -0.9662221801421297 0.11602690887560806 0.35708394822475253 1.1384731630016935 -0.41657841939127943 1.4407926326943035 1.0413505824676308 -1.2878492250934261 -0.020226343806725385 0.8849096041655158 -0.8837959552933322 0.87349964033218 -0.11870958831592861 0.49512792661594224 -2.443878486946757 -0.08707134738048719 0.339802998336985 -0.029293904715522484 -0.2787008092651539 0.3148720825026939 -0.6687307302956353 -0.6350156748557682 -0.5062696652129901 -0.49501655762365454 0.7331825915923325 1.2714880579685028 -1.3101472227807254 0.7182112959222635 -0.6854480681316294 -0.2038741500915589 1.2794822623678817 -1.6514247678784464 -1.8187822604206323 0.026935485888174144 -0.3155720511864549 0.21721906472194155 0.3329132052213499 -0.09690727270220169 0.5600190325260005 1.3866374174172347 -0.07496078898011699 -0.179866635535237 0.1866854635133385 0.9894859607116521 -0.18636128349739112 0.3449474956069668 0.9581565931726039 -1.7351167943573853 -0.619616277847212 0.28493838147678097 1.1391511360378856 -1.049187737567308 0.5936405827846299 -0.8067875136666585 -0.0811819436675522 -1.1795777250114774 2.545868552502586 -1.5906410719308284 0.3054671555074114 
0.6066719743905709 -0.8032840076563906 0.33432629322401086 0.5807506494765042 -0.21256508159461285 0.5465411555102552 -1.0499862032368004 0.19290760532940252 2.2097229457218446 -0.33393141156457834 -0.4893294830236744 1.3755272052962175 0.1857553091072763 -2.161217740635378 0.08666899285704321 0.5067777142194493 -0.47220078455518355 -1.402744361822512 1.3184132917529376 -0.110945097819541 0.607450455642771 0.9214921093061766 1.4260273862548771 -0.49091693463767105 0.25736000755088034 -0.04153005953446181 -0.46441927645552744 0.7100445153913446 -1.2265771295855845 0.6455773328704076 -0.790585598115391 0.3979867723803732 0.2949293096577212 0.5354628721296426 -0.9553896787382963 -0.7102985512152983 -1.1363363997362455 0.9839277529852702 1.080488331509416 0.44208523631085894 0.7042082539204632 1.2841356742689407 -0.1403223174385642 1.147795446840826 0.15903728495477015 -0.8314706367852597 -0.13011868875884738 0.3713495256668404 0.1992375220847473 -0.7881333641986812 -0.830660188096529 0.885753728490608 0.3386067372581901 -1.2865343256792077 0.623360891264599 -1.3032027085876206 1.466112988473193 -0.3252278682335918 -0.8997466512980987 -0.5383310151326641 0.484400262365172 -2.0822011919470182 
-0.181127511387935 0.5186628759395073 0.9008908603247067 0.12646521416675438 -0.07869556125890755 1.2616281396899116 -2.0436734142030417 -0.024626449678153584 -3.552725506172071 -1.5663366391822642 -1.196902933399776 -1.9994429555054203 -0.6966076219459947 0.5876749443510908 2.342063876272457 0.20782083011434163 1.2960750820540003 -0.6842140758674093 -1.5698893931609395 -2.026975680525021 0.3650648361694179 -1.0426319151803904 1.076140501247207 -0.5122745992572496 1.153230579307803 1.2540790540846638 -0.05147706696799295 -0.3893218098553261 0.6850607958498625 0.5149936822332871 -0.7595214331948691 -0.018324082861200602 -0.10747405890121321 -0.37692322573685644 -0.17025977407000945 -1.8540795695924108 1.560452471091512 0.11040263528118502 1.1686724893303981 1.005136072218833 -0.3630487281915755 -0.41575775955686445 -0.9794585685066693 0.26382634885581535 -0.20307889498831166 0.7210825486038235 0.18468514713728756 2.303984671848252 -0.8820916178069884 1.542102522878573 0.6421571173709002 -1.7769121251902793 1.394849612666507 0.4972665153241796 0.9677839867168896 -0.1082353519778981 -0.08648351811032348 -0.6213372619355583 0.46366219546823373 -0.2049416379607431 -0.6010824454898662 -0.49703040241637914 
1.5141452792499466 0.5870535183485727 -0.5152977994269857 0.17586001410255037 -1.6574797068728482 1.189194667863967 -1.4511091986863398 0.09675285731140608 -0.5408915225662416 -1.0728785170370865 -0.7729185638870829 1.1524204970159924 -0.37829081584743585 0.16117125199425802 0.21284975215938634 0.2896162481339215 -1.9048749002849579 -0.7167600405760275 3.106343786325592 -0.16954538928542273 -0.013786246682729125 -0.33580760200603343 -1.5465996497426469 -0.7736018911471276 1.0400764068468793 1.0465962437763807 0.17269821453334697 -1.2147879394018302 0.01380406308674099 0.3271557459712011 -0.6469138977385122 -0.017886471150949632 -0.18398979259496617 -1.1254728861161596 0.8936355977094047 -0.029831325419471692 -0.2871036008792773 -0.3661377545604171 -1.224592362853735 -1.045679271755676 -1.2699797136662616 -0.7732707091663501 0.6002125036641723 0.2953653400181503 -1.9031104388118003 2.1173072445739938 -0.0770890250361552 1.1113224553205316 -0.4303449218229583 -0.25026791161795503 0.3875731452271214 0.727960559730595 0.6750471593834776 -0.9435308205561251 0.6860369447733173 0.6853389398203513 0.08659080486242804 0.4859867609125421 -0.9240404398253899 -1.7940339060114745 0.03464411485672115 -0.28442586083131494 
0.3281601844601058 -0.42578026743663533 -0.09710324227679391 0.06902410638078114 0.4245075601650807 0.5416539141526284 -1.3213990394218036 0.17560317500917988 -1.9339055514916592 -0.2561290768776273 0.5668517153073456 0.745305540434631 0.21320918714328704 0.37591641263032977 0.5328631032241095 -0.7925194878665998 -0.5377756513258971 0.9146897516671469 0.9913231211337858 -1.4292000662056448 0.22209832154117468 -2.0256385514737327 -1.7645885554295202 0.8933718661334813 0.49965415605105123 0.8422178272552328 0.6764719904203865 -0.44118408875691983 0.6032079622442298 -1.2784492574611381 -0.4309617862006465 0.7715909702052999 -1.2107942338122613 1.254708834718514 0.5066219236635221 -1.3789722474524924 -0.8508013685123653 0.70623790092648 0.00969279622800319 -0.8629771616964811 -0.3037939938628273 -0.40491837517108653 0.21841752180815308 0.6985447188107271 -2.3073630806240106 1.0221254341185027 0.48604428860488336 0.4365297830416881 -0.0702142549713469 -0.7308277008422823 -0.9191272562242527 1.2152295654910046 2.2803530571189676 1.109667899138764 0.5231181109345356 1.399497743071924 -0.6108150991681137 -0.942802229813119 1.933642881854568 -0.6268954019620483 -0.9186138258942631 -2.3052485993007195 
-0.3748315185455339 -1.252729762562955 1.6641437816767306 -0.6062540094635329 -0.016594901809269584 0.8309850247575181 0.2641663773497259 -0.582741891726918 0.8839687585429917 0.46331776035756456 -2.147533565709777 -0.5890643195759498 -1.1001297957856262 -2.282968755286746 0.6572928089693681 -1.2624810942608469 0.7253992553007967 -0.4898555349420975 -0.8386933145380709 0.8828584817921901 0.6583798205017859 -1.0902155479322606 -1.0088844275444246 -1.9682861340750915 0.34559562185157244 0.9736979754926812 -0.5221962781781787 -0.6141248739444349 0.41767500343846137 -2.4146572697323467 -0.4709275547051633 -0.9395174591354563 -0.6010364469300474 -0.22433952265892873 2.5084761070720054 0.7449364521454941 1.80881041301852 2.1026141782640626 3.1786401901150265 0.8168571266433191 -1.580688981079892 0.782710440914088 0.1349704714109019 1.2433919826870519 0.8024360974554025 0.6044833161916707 -0.5578917994074386 -1.5822631983950846 0.807918076419068 -0.6556754272394394 0.37851328548558394 -0.9325038547917611 0.920373900690885 -0.935541824924468 0.9714699506895634 1.4976872232440899 -0.6560345023878914 2.0855330075496017 -1.7842351590232235 -1.191470798904499 0.42027386838517644 -1.976289206777045 
0.26660821689502995 0.3724780306121341 -0.6697871479692189 -0.10151333702200702 0.7528879564936356 -0.44632750939971566 -1.1557612323606241 0.12675580956807214 -0.07663286068674359 -0.8475616307234136 0.3041454614365353 -0.5971425008978706 0.44966451459713763 1.3086499211539013 0.42575182172806947 1.396725233979799 2.601356446162993 0.1376195805586741 -2.178020662166495 -3.192027665388129 -0.8719167806502203 -0.662802818148079 0.5836960463636234 0.409816428836392 -0.6842390206351046 -0.9713097614955895 0.23816653092129372 1.2812451846575568 -0.5324252164976689 0.18505350383595892 -0.13467590085859987 -0.43610795369813554 -1.0640187891870962 -0.3795423820315438 0.5276834029916471 -0.012066767770965329 0.4195952799234322 0.6109101081342159 0.20804707263118305 2.2805555383091547 0.15458530765500542 0.6920888174648347 -0.5742551413558747 0.614117819319063 -1.114951387552119 -1.9057849349925704 -0.004912814481184005 -0.3562391791298976 -0.2873722208336627 -0.5370074030230565 -0.2515371933027245 -1.6329385756780472 -0.7908640295403819 1.7661263879601132 -0.9777871261358911 1.537357855238462 -0.4154847900475046 0.9660579984644767 -0.9424956443730619 3.5270511816565433 0.3722688140850973 0.601901781567193 
-1.4244776763809783 -1.291573015188301 1.706726258947642 -0.7113063197114102 -1.1405592671592506 0.9568576339024346 -0.9509358139711444 0.6971649795420567 -1.767264226629949 1.1319404826364297 -1.6588017027402338 -0.8014134525012238 0.012009272990850157 -0.04828412240406202 0.09871622548948074 -0.6785057160197348 1.4765765014545575 -0.6545738462727103 0.8631791900605995 -0.3606112659196475 -0.249072734941938 0.07176064227119934 1.89062750764188 -0.2657265156002826 2.2110307516715944 -0.5847383067721994 2.2694846540386546 -0.8229413838586905 0.9293864898849218 -0.32113831636379453 0.4230485013637803 0.5595868929284504 -0.21926409466299696 -0.43311757437024806 0.2879119573641612 -0.36060996053232625 -0.28514420197050855 0.8295686158064751 1.8556181188895517 -0.27021095328765343 -0.803145228372736 0.8255734657726633 -1.4674803184968084 0.27101494732387066 -0.1570298568586985 0.8991975435465714 0.6711606596290175 0.5122012966245396 -0.7158493340484318 0.8962826681022464 -0.5155278548620449 0.8271292845082646 0.47865745915543007 0.7570324340741604 -0.7077026093650727 1.352637174003484 -2.590190064196647 0.12400767041631507 -3.3292941410628254 0.5560782279783105 -1.3575318105863894 -0.6344964591250344 
1.324338850177286 0.5128897050004914 -0.6989244916270216 -1.0738248542764686 -0.3639594764908917 0.25401472630359123 -1.7659803496204005 1.0636412707872773 1.131517622457701 -0.21583610611799195 0.6781400236493362 -0.977101950564358 -0.25106744663130726 1.545411690140146 0.3206112321177156 0.12169505656838253 -0.9430386236235239 -0.1589371269414567 -0.8860065511890698 1.0507251533151016 1.837749395684643 1.0482296617663804 1.3044884016025589 -0.47237467363314245 0.7609697453320656 0.6825830111592361 -1.8042504877324896 -0.275917192060247 -1.1175984734342386 2.9926488259073536 -0.612382094216551 0.43660352538184066 1.4616385864460657 2.6985788888770403 -0.6834309447937749 0.21058434047214142 -0.1540316121568829 0.08183816849038139 0.8725778270085418 -0.6710092217240227 -0.5577567945697175 0.3996900204422732 -0.6334044858876269 -0.49382549772169826 0.9177057938881452 -0.9418465749177323 -0.2665354633143103 -1.1242805822231476 -0.8540862449713372 -1.552689457071904 -2.974907366104104 -0.07499910502762568 0.0005480944212400318 1.4011445933899465 0.21827549076870315 -1.1661796794612742 -1.1671041598352134 -0.6680316075086649 2.7530682364757113 0.08321042913360177 0.7425685508931245 0.43452261855945484 
-1.7592136816333739 -0.11292355269776903 -0.3092463090166175 -0.2375253258172185 1.25810254957894 -1.5609379138606352 0.11137555921522918 -0.07511954583806493 0.9734986852601907 -2.8601994826369608 0.5851292778476025 0.1056336860924448 1.5560779539522314 -0.8939849502561202 -0.4997578044383019 -1.07102257160705 -1.295970939609004 1.0788368065734273 -0.6543887174348924 0.22041862239880214 -0.5437028923719142 0.9592181360478007 1.44622183792804 0.6962848388172055 -1.8357088339719945 0.37826455533474657 -0.5795165471680479 1.1081502012150726 -1.038297183350829 -1.265436933207768 -1.3939811350761069 -0.07987213657461599 1.9658957881246995 -3.439602495518439 -0.6721684465954405 -0.37084449305308864 -1.0445547879445338 0.2038707542296375 0.2451592811516058 -0.030819298500459065 1.6894452153708452 1.81279225878599 0.8783836294161669 -0.42730405165784835 0.5077382179946321 -2.5725316265631446 0.2139667755408389 0.7941754025745745 -0.20130105371101162 -0.510795461553111 0.24517831775605647 1.0738029346340576 0.06007460166466872 0.5745744547855546 -1.212256389998356 0.5558598073121711 -1.465103967641981 0.46750398032010015 0.21728449557474536 0.8102708556367697 0.37212745310551343 -0.1010169119271869 
-1.4900673027868945 0.7971775615762929 -0.862582999124527 -0.3744097641471074 -1.532401399855934 0.5583040798008887 -1.620555672112815 0.634430597599204 -1.5279018428587139 -0.5552275775698086 -0.8996243172678021 0.6221040963081613 -0.0049307301087969935 0.43112849267151243 0.978065664251074 -1.2895671000474913 0.6154526420646266 -1.167431081327586 1.3339643332878939 -2.0364028001676777 -0.4684410932533065 1.3625646614481834 -0.7378100067393022 1.0303869445629328 1.0605569819478016 1.020854516104263 1.9792244182858152 1.2771887012046625 -0.3188082538759028 0.0758396172195257 0.1581488778964592 -0.5643666388382051 0.8034162937413253 0.17398331109865833 0.6712461847271033 -0.3496853443211762 0.6581063529476026 0.5575125627218124 0.07160325513332527 -0.43264522630280117 -0.9007249100457758 -1.1244977689812101 0.18352391974908536 -0.7613140317241153 -0.5061666125716769 -0.6218169438615961 1.2633030330362922 -0.8118913140546519 1.0502574638992541 0.2628492324162623 0.7943437252813242 -1.2927900818920965 -0.5113565880846613 0.8395430823662846 0.9733144141544194 0.008625803313487885 -0.9598209571922804 1.6246384316082458 1.0439170771204904 1.2361122260855828 0.4402405726311086 0.34129153823442765 
1.0695044469433586 -2.4364673173058145 -0.013150455326548066 0.4225397180685043 -0.7828885105186226 1.826528966403419 0.9841270365456605 0.6136529442848311 1.2966158001946495 0.4092523898031903 -1.038233831702347 0.2804243372247823 -0.7933228901714969 -1.4838618210126544 1.55776251138442 -0.6838640995453554 0.7779739758161246 0.0024769158835422364 -0.19673219204053255 0.35114870696396083 0.4081628621217465 0.8534355612045036 -1.9809346730121733 0.5411281834114692 0.4207525491701358 -0.7813676380036441 -0.46646226113603484 0.1053075856608941 1.0909564519639243 0.7078622466226373 1.2127857359357745 -1.170493778439568 -0.8913116990273008 -1.1857159774487496 -0.34013406607909225 -1.0526390136703747 1.1023753002734795 -0.2367369127906459 0.7332089629972874 0.15804991970897256 0.40539294712671375 0.05459917960526655 -0.9336058821453491 1.1680189936225065 -1.0588059341280132 0.028177642079448284 -1.3685717597810596 -0.9159269080425059 0.45181271577812854 -0.05625154085025302 0.519714092948364 0.559459008701059 -0.11831045852178891 -0.5321344478399211 0.15387300641494706 -0.2925393908059113 -0.03042718385961441 -0.09713694511011668 -1.5475106386306459 0.943865685083102 1.802895577884468 -0.73868996905589 
0.8458174503000212 0.6807993761709694 -1.0367224313354082 -0.7562087709934912 -0.5859466995535018 -0.5397589495237487 -2.763179428918294 -0.5207093410274173 2.3242919110674656 0.2031339035387225 1.6426927781739922 -0.72002554126733 0.1824715448515963 -1.0283887298082461 0.43780427358008844 -0.06516524739544259 -0.6919453216448642 1.0669510611895898 1.4001345191293895 -0.9670087480148261 -0.04302029381177298 0.422442756088443 -1.0378949527278047 -1.6733612742629003 -0.3287278323495638 -0.8165379106255376 2.3915386831919805 0.08125882236800336 1.0601467043727377 1.274715190087181 0.3850976808340407 0.46761909986171857 -0.009996409511045344 1.6608358723327628 0.04982906476863069 0.6491011406382495 -1.6711072454234939 0.5863228896499112 -0.10162579606763962 0.6612004563706905 -1.9497311403551176 -1.0091289449362961 1.3749887936220615 -0.09375657046965116 -0.18589006781780892 0.3472010569892275 -0.5993144915778753 0.804445119867123 1.3671829274261116 -0.19259002188223073 -0.08535257549353456 -1.930763505864743 -0.2169069893613666 -0.39118314364656254 -0.14503555786156694 -0.8013575238802337 -0.8709185238128143 1.2788774572652988 2.5299067818652348 -4.309588856805419 0.5674325956027582 -0.4199895181099745 
-0.3773944741203328 -1.2560410910432744 -0.16783451560025017 1.3028933732294223 -0.7513184376691818 -0.38251995577808623 -0.19915725332826226 -1.3329178968637538 -0.04780611076758393 1.0432028143667775 0.4337659242579653 -1.3307133881882467 0.9725414783223707 0.1824681073428219 0.8263890219473824 0.596454505918596 0.6172613269955645 -0.17700995992059526 1.8145039804675562 -0.05707553947740192 0.3591406816424767 0.6438533547520793 1.4699898590964067 1.1616428144354312 -1.2391021355393834 -0.22595388505737335 1.2283592345943224 -0.6459134818237751 -0.8357092287070561 0.19738467137098561 1.032187977344731 0.7784245940136564 -0.5298634995212417 0.21486804644413296 -1.0479406099027166 -0.8383562166155314 -0.22629692171285443 -0.5541691343891537 0.2933473256514973 0.13538690324432326 -0.2533529427252137 1.9294957782683027 -1.566481072678161 -0.7204766226204533 1.698461951994927 -0.894150063221532 -0.7580353777956639 -0.21851153461027337 0.3395033437347045 0.2466637199465101 0.9534652846825197 -0.03910540872428396 1.0451045738865774 -0.01602781668606032 -0.7927501453544403 0.8349287816019604 -1.8357201568957364 0.22650224315116346 1.4958742731242887 -0.8495963287445963 0.05591422738639654 -0.8908454224813322 
0.13119930053909135 -1.2016699034090446 0.4903722441730031 0.1454854404601311 1.5268212022103915 0.6473766233763696 1.8616137862579516 -0.3718027041556476 -1.54698529577534 0.7107438381670622 -1.3672129769621686 0.206014174656914 1.899802129952657 1.9532741028932057 -1.6848912162027379 -1.511329735061086 0.536756007851279 0.7197921937991715 -3.2463597197466045 -0.9022146612417297 
-0.11153050007353321 0.7704304555083544 1.226604374864127 -0.793684362484121 -0.12826350594953848 0.1230838607587152 -1.3958314797370333 -0.550841946516123 -0.7631667691708771 0.15421468001527325 1.7989042595465137 -0.47927568444268837 -1.222562150533617 -2.226168662720591 0.2997051601595582 0.37402863257717683 -1.2001897278534008 -1.3643449553439446 3.999550965720405 0.6713329563766403 
