0.5704563234910675 0.42307728350974066 0.3323336723756743 -0.9622657019031428 -0.039477567873602105 0.15325125864014075 0.3688109602703859 1.6529293943504562 0.7685723225909319 0.31593064190353126 -2.695854085389775 0.49329205630458617 0.040354407332284875 0.9191379668439768 0.12415966723148028 0.6752685452977928 -0.4534853634822731 -0.04781022802888253 1.1665290600136402 0.6219197423629677 0.8306703091554021 -0.2897043575989301 0.27671264601933726 0.294502215907247 2.400619562114144 -0.6054239327451666 
-1.2156273639711888 1.3420605837157444 -0.28538210353371873 1.59880643210091 -2.420767449394337 2.3995661872504592 -0.21722472851981608 1.5883036130864465 0.06303341797648318 1.8565807420221379 -0.9417095214458467 0.9736724177462018 -0.8799172426040696 -1.2708765151471129 -0.8100314404617722 0.3759980597200964 -0.5211922554920769 0.7488945408971521 1.8232152352901436 -0.5589405172521165 -2.501484513337243 0.4911398794861559 0.7743506921299372 -3.3136656981795465 0.3391338937662995 -0.21622301654166415 
-0.8147522602751801 0.09821798707752867 -0.26137941008711685 1.6142112628439407 0.4604483875489112 2.2323857583155506 1.5821631630065935 0.9319345624057495 0.013314505446503283 0.7305690831061753 0.6512594339978683 0.9803057963368369 -0.7504086197011355 -0.27464908860640724 -1.723373178167366 2.274133929242399 0.7529361323947343 -0.062171770407286144 -0.3936237020530938 -0.890560680070686 0.31897660077597456 0.37328006516728857 0.2716716112333108 2.393042848876583 0.3546255782442212 0.7555632510505822 
-1.7605159106558943 -0.2797878028945977 0.6701509470723261 -0.39137325908561266 1.1945158097127389 -0.16163784611898535 0.33336592298493367 -0.6064232706283839 0.20886446671229625 1.6703349383138961 0.017768942585643033 -2.814718427363931 -0.3101223168843271 0.707820831487477 0.7210821772957813 1.4614629230306226 2.1707491454598467 0.5810270463909804 -0.3156322500585657 0.14400101059530804 0.16457857999336886 0.5482744502993049 2.4745327544142466 0.6296341834329988 -1.6340717298700103 -0.7678935577470568 
3.094704974414452 0.4608782214110791 -0.4505088636244458 1.502549101186365 0.922095972990804 0.34505492710005764 -0.577103282104217 0.3458883795279772 -0.5048920811570147 0.5392271392821743 -0.46196049361018926 -1.7360854194576685 -0.10486478188534677 0.6638293351529435 1.916024587815571 -0.5091289154202118 -0.5763186616275165 0.16540199546179515 0.8063397408332379 -0.6987859049388752 -1.3628935563539137 0.02094047728926441 -0.02525043221405149 -1.049826163132223 2.426401904023213 0.23747189836502022 
0.2017659720044615 1.7287418904115859 -0.4150120336505077 -1.3655427634676809 -0.13512149528016087 -0.9524522627738579 -2.502771020918624 -0.7779631012603568 -0.07025519380876186 1.303197731094018 0.33524407995917677 -0.3624388817724165 -2.1956875453637927 -0.38005109000052595 -1.694345966163449 1.7581718179408696 -0.4684344382972773 -0.17940559981823748 -2.7581494896797802 1.1980487948395513 1.8750969648312634 -0.5786327271506478 -2.011179082808705 0.7648416453255822 -0.23513191735737196 -0.7050505967737409 
-1.0142631937534783 1.428021238316478 -0.21638903929599795 1.577914362428096 -0.06005184869180489 0.3503486746135965 -0.6767722771115295 -0.33845227138207384 -0.26888977631122196 0.7544847010512498 -2.2582139670306614 -1.27334196015388 1.6647077544793485 -1.3327068129132311 1.4320523322996617 -0.2220862851819753 -0.6531677909236312 0.7537472239640043 0.5345014745879131 -0.14704650660215376 -0.038558898311364276 0.7126521324261746 -0.2356914824685323 1.0262683694901151 -0.9547773085204153 -0.8323036449871535 
-1.175990290213924 -0.37129889656482606 2.0788312454789923 0.7934600068382909 -0.2951514886338515 -0.08617447874627664 1.3491379712081193 0.005515053824880783 -0.21985623829965148 -0.8893823953741171 0.06388661477278557 2.406688553209956 -0.14359004806647757 -0.48256977581560473 -1.0253392461415183 0.5002617258573515 0.35878946723129235 0.44533184548486077 -1.4384525551030658 0.33863664938301097 1.776870092635647 0.07335707594211308 -1.552932968136341 -1.0730428132320082 1.2561443492999684 -1.079311186241766 
-0.6488865082264608 -1.3437446348160091 1.3130616958809858 -0.8734172344237804 -0.5509224009321375 0.776487498137619 -0.6671413866490161 -0.20704345186505904 -0.8122528519014113 -0.6513385379635087 -0.3825955540975423 -2.1132955946779073 -0.7319439741546744 -0.08832315837410029 0.22466677882039968 1.149099152579168 0.43746368163780996 0.5507126483666823 2.7013755703761237 -0.9557281926572784 0.31636855760184746 -0.18721239350297622 -1.1671920606574184 -1.5674694761566124 -0.2574762606717204 -1.5749790341165266 
-0.5123654524280207 3.7177908635525254 -0.36609762249858036 1.4899303233058963 -1.2320978282011963 0.8824701347795642 -0.2694455361549569 -0.18245383846630822 -0.4741858820373565 1.3469755709419493 -0.4508448898412779 0.9944283559153574 0.5232163637177129 -1.618836447535917 -0.6218765634622674 0.5668311373357809 -0.13370555464980205 1.288594374333192 -0.40315376844152445 1.100975841358645 -2.4628637089751786 0.034971661274074646 -1.207637017128724 0.4839247140458778 -0.44648923365250237 0.9584571495906671 
1.5281082700541906 -0.8871059675353196 0.14518812620920615 1.2205386128046865 -0.17007093217102656 -0.8425391232247873 -1.381103663908756 -1.2618285137919856 0.9201242964490245 -0.1257867244233981 -0.354725378043231 -2.1045785897476206 -0.6075556176970232 -1.300541441026974 0.2898402060061367 -0.2067067527608502 -0.6823787203191032 -0.7996715949280813 0.9241268174496495 0.32476938071670763 1.5394071119096246 -0.8598624469605544 2.9134822199186656 1.0933141496335994 -1.0399285032693888 0.4906848916789202 
-0.17341682049103965 0.45122726980884226 0.6324579996936424 -1.0020623259741135 0.23200390152444192 -1.4315854132904817 -0.4710532371869147 -0.17595019041317536 0.03237602480605251 -1.7072581823781479 -0.10543890407672732 0.5118187736079752 -0.515915491887731 0.46060264576727317 1.6413976005489044 -0.9658647247417494 0.8875632434631281 1.693073188382991 -0.4450962801533368 -0.8489705104925126 2.423657594067755 -0.2785469944393991 0.1308983628757941 1.3826776830838852 1.9266263353551571 -0.5602110075591564 
0.5949485240915403 2.037975237073851 -1.7675470114196274 1.1892455357554332 1.5750051977963535 2.0654106327845936 0.11054839707687367 -0.647747705442493 -0.07717491437096871 -0.016288492266837255 -1.81196478313205 -2.5982730215251104 0.6516034357024777 -0.1915547975135185 -0.33015220739421763 0.012110374624366446 1.0195327183803973 -1.5616361151547988 -0.2960145530918399 0.49418382515405074 0.6754309992092716 -0.9522391472812274 1.4520435140744277 0.7089668103174 0.43866546682881236 -0.9410257136084141 
-0.4942748849694703 0.4174137217817341 -0.16424571659233886 1.1419015580375886 -2.3849183618852323 -0.23468524671883645 -1.2076134520495716 0.09784294934460865 -0.08181391828436489 -0.46500742741179935 0.018607576641356264 0.4585900620825341 0.7400334957522258 0.1641033910228689 -0.8701957431871818 -2.119326298990874 -1.955474649193087 0.25022492924360085 -1.1353093319591092 0.8615331074356251 -0.2615653198447843 -0.02111587695491945 -0.3445044184001446 1.7629473582109705 0.06604800713644185 -0.7326890874357219 
0.5078613222854291 -0.2979388347152901 -1.347561386427226 2.108698754849412 -0.6923898471783942 0.13850785173086502 -0.12995350395212593 -1.8462751591595774 0.10886924076514726 1.079915782339045 -0.9987217341085468 0.4686889737950084 0.0979021085506277 0.35724217497738203 -1.131903010079311 -0.082347515151297 -0.03419847053040714 0.6809213789865713 0.5827285727831721 -0.13296992603650565 1.460819227171597 0.3820074006559357 -0.2696105999710393 0.6255419143014181 0.2960217450513614 -0.19527665242509212 
-1.8494598898824237 -0.9882036921302009 0.2727556445610134 0.5668652627054348 0.1812862722331463 -1.59611669119764 -0.17306581777309174 2.1120507097070766 0.6673014318164406 -0.3016724182573679 2.4004825454481744 -1.2956182451772507 -0.12265149706716967 -0.2552834497859921 -2.07529814501168 1.2202593620132407 -0.6692567350404957 -0.3276503998989704 1.4275174849186238 -1.3832608169815035 -0.03990626623491304 -0.39743039851061646 1.8966362985357834 0.10421989434991777 1.616760174990742 0.5744915057314527 
0.14643705885966538 0.16717063303725788 0.9039933146951437 1.817440587855456 1.4403996489835502 -0.486670981096106 0.11259662422700123 -1.442330161364682 -0.4945462479850697 0.1716924783945037 -1.8827063475368269 -1.4483452502623555 1.5095934478665365 0.9124356140021569 0.7020641920000044 -2.1454803261643343 -1.5074900243846396 -0.8271851779851986 0.7693513934999242 0.14998765903118988 1.3324663982424938 -0.1949942143379567 0.6551266053135258 0.7802805533292364 -3.2210606567338105 -0.3369928730939247 
0.40204787700162914 -0.6547918913232809 -1.0679612148699948 0.9288081624822533 0.6541221304138365 -0.6671685922603916 0.2508401489444282 0.05691881871927541 0.35579560327920584 -0.8448265947028173 0.6774127537911984 0.0847101603132884 -0.013589243379889345 2.069838477653393 0.7292515906277638 -1.500082580152689 0.5292658885347489 0.18864041493198933 -0.21306572074903737 0.026763130796999213 -0.8065224365578989 -0.9213816879377387 0.07384704453946522 -1.3665206578800688 -0.785634403903544 -1.220869130888561 
-1.2956019567217114 0.6503815104279486 -1.6971222650672835 0.4879720951373712 1.1310809063406304 -1.0371110825040588 -0.27930880004617986 -0.49999290811400343 0.28833795520178135 -1.6540906158990778 0.648541168450122 1.3464556899339766 1.552659139222528 -0.5167323265263803 -1.395523044910749 -0.42094104924425574 -0.6328818268406953 -0.3645927254505614 1.1263583346867578 -1.3685522652788533 -1.4422506764554213 -2.1410412618642525 0.40541715421185276 -0.1179377598269744 -0.06404023987527933 -0.4245265813711798 
0.8052923143453282 0.9675401575517464 -0.5779980640315118 0.395973944900851 -0.8612556701404439 -0.5937049586336487 0.021344446347836447 0.24976759053998754 0.5074438942144455 -0.027213450354552447 0.9864937035165646 -0.11849897437904297 0.5638244231802776 -0.6414980453075017 4.078429331631828 1.0492958307687237 -0.6231322061288112 0.5385822410612305 -0.24437575578516008 0.11666849018610716 -0.11220956439892174 1.4324929059837392 -1.2789564147747885 0.23562161669262438 -0.12652962964603273 -0.09863607840101059 
1.1944989915127988 3.3348386598629833 0.16981781016553668 -0.9333630168960503 0.27278875255756047 0.5478604095957152 -2.146503553379692 0.4171262308434859 0.8361464882769569 2.533244271524232 -3.4314283480760928 -0.8849948803214855 -2.0149487261479155 -0.1384539534824342 0.4991361168407466 2.4353390088872766 -2.509599787072433 -1.7429170942442536 -0.7272759310123716 0.945411343144556 
0.1473414932095863 -3.1149216581521038 -0.649473190405153 1.4546874369570983 -1.4658942800240038 0.3077798695205805 1.2613651670159893 -1.6284306736119982 2.8379031839584576 -2.5721519850958936 1.597105789310874 1.6045293440056707 1.9437414615993152 -1.0505405418560678 0.4693767735420968 -1.1403122369365564 4.353787341183834 -0.5438825087186394 0.5678164220308973 -2.5875109353767245 
