-0.2226925690877261 -0.1663530947992071 1.8759640777336049 1.6007779008848286 0.24314370667314225 0.2547771298624981 -2.293128410782605 -0.8507903825926107 -0.6176416354473937 1.2312310026830378 0.15613805284509946 0.5293925349161682 1.2678541421755871 0.03846230379272157 0.3656360122219484 -0.30253856285442876 -0.9184007319686052 2.2909062496356536 0.37868562411196294 -0.5384283643322014 0.26876304134087337 0.7243626057005149 -0.9784377743766577 0.1446438501817774 -0.20182767996856488 0.04418319211081816 -0.5188498674208424 0.15441133200672788 0.1361609137252153 0.7496426986651656 -0.05530436692787592 -0.6755528745329761 -0.28728239778004444 0.961606659087444 0.5154927181579408 -1.070244338518244 1.4541674194630432 -0.8693511177928771 0.11886038377401532 -0.2021573634848102 -0.44468614654122923 0.0687007506608112 1.3164244055476446 -0.46248951112180026 -0.6990082203984572 0.7721790337527753 1.6487969564440814 -2.105163473516639 -0.22635642565783412 -0.29401029858442745 -0.710505668267137 -0.2501806194662008 1.7724745628028855 -0.15860981771560603 
0.745543142946519 1.0533427945220868 1.3028148467301217 -0.5368971840873948 0.4690504856519528 -0.6249834928449483 0.11177393573676175 -0.16769097381412254 0.5258122612702552 1.6716126797384434 0.15530918613158587 0.6999307554946066 -0.510165717928635 -1.881063147504416 0.22598922950258984 -0.27059661390482204 0.605103843329721 1.4919233694971945 -1.0814257901674749 -1.8258729084727723 0.5584157672843637 1.9253628014973085 -0.13745769583384798 -0.006211857283200698 0.34064791183394605 -3.35345029754926 0.34781512016207705 2.1398488415329155 -0.9553303887590663 0.4553291239738668 -1.5036676780723617 -0.5163248807508451 -0.826355034187354 -1.991190244159938 -0.7915358132112509 0.13125728014135474 0.16843277735212853 -0.5467969835203783 0.811099511000404 -0.9115447056381383 -0.5594777581004287 -0.7294421409432572 0.5249163976984897 -0.18630988613243438 0.4330700539429026 1.9506783539904107 0.0485212484194068 -0.24283978315627333 -1.350850187674399 -0.7787850492675333 0.3486774473094033 -1.6829736055510558 0.7954812545788515 -1.0042066066559059 
0.8915540207780703 0.8360597962417926 0.8096421301506315 -0.038598854727675956 -1.8448878712878667 0.2175866429944306 -0.39088105933404493 1.3044432067876086 0.4285309237772073 1.2555875420028053 2.339325243070381 0.0835217429158374 -0.0706459577483695 -0.31071731439374833 -0.744180408383815 -1.4125468925402533 -1.4186164247656587 0.8126610857592613 1.759866990309901 -0.06147492174277089 -0.2888758143847573 -0.8065974368005802 -0.013093369013264956 1.0541954735658565 -0.021917164190862835 -0.45228054837363824 -0.9802842893851631 0.45225405235983085 -0.23255692295633246 0.7698793147754225 -0.5038631240292251 0.6358399305537379 0.5835819648560245 -1.3464349082798412 -0.7885066155092924 -0.14462522030687266 -0.5114699021964274 0.9930883152685478 0.7218284267695637 -0.7756205552400895 -0.36234052607226225 2.170714818381902 -0.754648894195526 -1.952077615476601 -1.7210184826819166 0.7785185143941298 0.15588300887186834 -0.5823089084045668 -1.7099688343810198 0.6895176672544813 1.16608757811455 -1.294961164457447 -0.4885641683612287 -0.7598430961941693 
1.530315887183914 1.5803172672958905 -0.4978640801100254 -1.3904278850866962 0.8915353120419477 0.031075744081117945 1.0300812621359805 0.5196333872751271 1.1118710334806061 0.43008259815795474 -1.2773342482171424 -1.0058085405013397 -0.6895523265632912 0.7085114879263086 -1.824941748105762 0.03137139503053364 -0.4000452265663338 -1.1433852463130365 0.4395631523479241 -0.2488865297500852 -0.2127011836239236 0.6484029298258099 0.8416914091739073 0.9522720621867863 1.0267725931570517 -1.2560058640317784 -0.054499764292925586 0.4123993072499765 1.264682485686795 0.44559739215414357 -1.0174323907362934 -0.07426256391469993 -1.6712990042466729 1.8823410619640384 -0.8582209553591528 0.2663148749976273 -1.1944110225783167 0.7386322286173217 0.11792821791398515 -1.1268039198736737 -1.6856086045883403 1.6876897566345908 0.34635364602019786 0.9948516704916492 0.6190498522665329 0.1837426818747009 1.161557720635155 -1.057786123787777 -0.037594277661229324 0.23200603391630478 -1.2283809137401454 0.29563078631150735 -0.29745817779702033 0.41743382634101345 
0.03691065737319146 -0.19602067234100706 0.920715144069143 0.49612096406009076 0.7240452765844114 -0.153216715241004 1.3881802105274583 1.1286543029204377 -1.4502935016389116 -0.7955717079161498 -0.8926445902962644 -1.161753136712236 -0.8698665352333715 0.39887317996593813 -0.2045726545136403 -1.3082948130367398 -0.27981701220441313 0.31343885319474607 -1.3512431944440966 -0.886044108345858 -1.299513836328307 0.5412037237916228 0.842315727173157 -0.5596510071676494 -1.1501273639624803 -0.4055995502724592 0.6131424318873285 0.16775404182134918 1.263191602708774 2.7708027671371642 1.5086525903591201 1.3398836697943068 -1.3105197866404292 -2.133944120765365 -0.014750625299816798 -0.1510401315387769 0.08820929871637898 0.8244419036636738 0.36437665027356264 -0.7835472339679124 -1.296219556109629 -0.4292541781462126 -0.6979855216690596 0.47022037582287857 0.24728080719922338 2.662499132528768 0.623830148472046 0.4136418936336653 1.602199658495649 0.03500447368239592 -1.4848186394924878 -0.6726570869080609 0.11748909964742045 0.6640390499733624 
-0.22134491770347972 0.07040118845092275 1.4921685390256694 -1.3116070300781504 0.9712625240153325 -0.20082317856746934 0.06676921975437224 1.4440979111516956 0.5057527838600053 -1.4553730357972652 0.5191071401049305 -0.8436797537075447 -0.5194562314957083 0.3795954427805667 -0.7752964216903183 0.26817072462529895 2.1890231376690767 -1.3218037354848504 -0.31067056985124514 1.6440328957218355 0.38391404220455605 -1.4271750273362154 0.24609078030888154 -1.5082131041323068 -0.3363465040444261 -1.2463268429748746 2.085082751880974 1.1469475419253858 -0.28353326829587056 -1.1523921526125025 -0.4120177660822567 -1.5009550791204214 0.32641621976119367 0.8011213305905818 -1.888991401665226 -0.19241025429823044 -0.10030701231360331 0.1014728482094004 -0.5012086633984898 0.3565527914042494 -0.846895241701594 0.5144708488686089 0.24713524047595567 -1.2109040018832138 -1.3944356875996073 2.365955840414808 -1.1627823574306022 1.4104480400645159 -0.3247398511907209 -1.0399739031179758 -1.1934988382046985 -0.6731367993641859 -1.351749896121323 -0.5760867246019827 
-2.315212937392163 1.5231649743740867 0.05408196517993163 -0.025147727400026354 -1.7976790389708366 0.2577909182347974 1.2388516907604203 1.262628592348102 -1.7798617092005626 0.21294436369384406 -1.6961120233989773 1.2049665966436065 -0.3310397763185775 1.4048394289367596 -0.8748829756375943 -0.5017202811254661 0.2581610103920785 0.46381503101387755 -0.5129755110291756 0.185265125364746 0.5483358396842894 0.30766800880206396 -0.26376405912369727 -0.8774210362163245 -1.883555284713353 -2.355006242825365 0.5084659579242425 0.18909011078892446 0.8932742944110991 0.5808930698598443 -0.8072781854618452 2.2256168320168492 0.1504098056598216 -0.14403514573465886 0.4813858098474101 -0.5592987422270513 -0.05726354252557961 0.725499148240227 0.022273315420738418 -0.624802356603325 -1.9432049028957161 3.4133043118228934 -0.4332290076168272 0.40144739427017967 0.3966488002144008 0.7729820459849979 0.2758361968739161 0.7766234570563142 1.0159967055703059 0.9211201622321201 0.7689100587034582 2.1414691673364303 -0.5160746989139169 -0.8184976843539274 
2.0933356061430173 -1.4701917054976459 -0.4503062338871681 -0.7875666330949929 -0.4755609989550956 -0.7047106419276161 -0.27353196197156954 0.6758870011594467 0.5888020259018681 -0.824979135360635 0.5883245528604133 -0.5488580294116341 -0.9486902014043613 0.9898405874879633 -0.11310407077379771 0.37016697316446445 0.38416667674869065 -0.6223286981347386 -0.040408668281695384 0.15500739202240632 0.341438213616795 -1.7063623523783698 -0.4241382453927533 -0.6162513751046956 -0.8019975999582377 -1.381570531351325 -0.32209730240975637 0.29351141682609017 1.5855553960119946 0.9781930058364134 1.3161013198021143 -1.2402846390440012 0.20939064993922513 0.3842598287019064 -0.1710169665454655 -0.8581922113343117 0.8191873532145604 -0.3991691753665265 0.8920178602246355 0.8452244412439543 -0.6838222348861499 -0.11959005980433761 0.22076016378292687 -0.3664105343489389 -1.1443562528973072 -1.316650170635905 0.6269848429862567 0.909459960661133 1.3136751184981452 0.3175302400181493 0.7501615214444597 -0.9856881565860015 0.3483359862650671 0.5265024560807546 
0.04825384762725233 0.5108991363554082 -0.4022783369274209 -0.4601138980297069 -1.3194402166784336 -0.14991157064299757 0.07834840336744535 -0.3465799418900441 -0.8917760910402199 1.3788422885442833 0.2749182473061131 0.43239378014425595 1.867095262712152 1.096091763332497 0.5870874455353194 -0.5034861106738974 -0.32752816496911275 -0.4515772084812588 -0.0935363633944591 -0.3675404207939141 0.6489085523433503 -2.163495616636255 1.4442835114574173 2.484382220110593 2.624273439094491 -0.16188908724086432 0.3205242752355491 -0.6740147399528604 0.34322164959029516 -0.36473427572020534 -1.0221918792979583 -0.023487371015168602 0.9614410392165349 1.1985160584963466 -0.7470962697668586 1.229506873319022 0.0494965253648372 1.0250677373488675 1.3705764521550807 -2.5790717862855903 -1.2297123011215092 -0.36960092713683385 -0.5715204236651402 0.9852081874357428 1.3654206422986308 -1.641049717469431 -0.523995891336384 2.62268572262222 0.13172130051400033 0.6256036658246898 -0.5009429362635476 0.5394490376969806 0.7944097346651934 -0.273914158530403 
0.8882491002925047 0.9771241145171293 -0.23993341336357885 0.4279662641372877 -1.9737960770137015 -0.2691293747144491 1.4620998925431878 -1.36924382612551 -0.27943169161605336 1.6053495830835591 -0.2810000118791846 -0.7428389249659194 2.0544821771504433 -0.24515799337353483 -1.5621876910797547 1.7559817537320177 0.23840548576214304 -0.4597644435068288 -0.821985846458905 -1.4408376428273586 -2.7680733438048164 0.9743198288164505 0.9933639844828801 0.5775751522388133 0.522638093986461 0.5841477941618448 1.4359806474408328 -0.940414709374476 2.129586576455272 0.6526966733653695 -1.2558272334830316 0.09617100789263891 -0.7593704908013035 -1.2106757166859183 0.6205383305548655 -2.081905108754773 0.07233258570848815 -0.8328054509387517 0.7045615744037627 0.21662748328453296 0.5342096613032539 1.1509451178907064 0.34532350515797755 -1.2252623330216852 0.313237020726702 0.44517008104129824 1.3898213765075553 -0.45782849630265493 -1.4609903743805999 0.6715979852286216 -1.5119221329839458 0.7910675629777795 -0.5080081181305787 1.6885316944329927 
0.30730471427622835 0.03135177567046735 -1.6364075889756926 0.3623265772888984 -1.3526154420710237 1.662484554656659 1.1982099870704666 1.093852364708281 1.0123122201373969 -0.12294931973451317 1.7151851107935248 -0.33057966639159425 -0.6155325367589647 2.5301527255619183 -1.2323303555948437 0.6830203797124422 -1.1997080749126403 -0.1724746483675524 -0.9049121744915217 0.325243160549361 -1.3712738065782295 -0.29258689856496917 0.09117029868450993 0.23515222810036487 0.9189356742140379 2.459444432230022 1.2254257413455052 -0.35514888103081493 -0.7405784794183556 0.15718176042087706 1.1202077468254448 -0.624820617109295 -0.4363409847665432 0.2580955716503612 -1.7595015381294445 -0.18463617599823692 0.5447197418020638 -0.7235159627493085 -0.5807391256234353 -0.4509498689565206 0.8085111454996227 0.3810630780723222 0.1731835561742241 0.03929919896236747 0.6239573807283649 -0.5401970265300396 -0.8453875284464463 -0.9271790423890023 0.38166692824151055 2.065926217772855 -1.1472384984412276 -2.094448462558453 -2.0058222667157612 0.6157568625026772 
-0.8340554394152759 0.8412438955950411 -1.1696495358387762 0.459784399831607 0.3003311956802803 -0.7138956109691397 1.6213000873639514 0.14440251230278636 0.05043201421043078 -0.8861285964747225 -0.2432673637432405 -1.0337089953368745 -1.0916036670240568 -0.12313630567395331 0.8177459230553061 -0.9260199875316731 -1.628326044177464 -0.7669259036251429 1.2590469124491932 -0.48566645288132665 1.1204369437819763 -0.20642023233716544 0.351461354277747 2.714705939580974 -2.443008738257522 -0.605251795660293 0.22707046256717842 0.3602511003940086 0.1318522767327704 -0.14199599790784456 -0.4229890720181543 0.33363726214299805 -0.03192763786992533 0.14376401508917833 -1.0686738913291158 0.6798721163475714 -0.15599450261301545 0.5570775406186882 0.28170631890848674 -0.5619829772493041 -0.23943336583283542 -0.14788545328907984 -0.3930381877500571 -0.8361682854622444 -0.6539528617972276 -1.5804921937403877 -0.5581160574542406 -0.3945650396925885 -0.8656430491772179 -0.34031366884140757 -1.3512417302770912 -1.6078920414201057 -0.6775652695624323 -0.620004490664765 
-1.368545004415858 -0.4604999699795141 -0.44122439037207484 1.5838254618343075 1.3684247794489588 -1.8770448252490577 0.8180343926828159 0.6759045820683933 -0.8378026885474155 2.1760948019385014 -1.629455610444609 2.1017608239943018 -1.2783519842783928 -1.0039581332715157 1.856119065421471 -0.831983441914104 -0.1297791367752898 -0.6636563752328647 0.01770903646078228 0.8269307664253198 1.1552188864173136 -2.227502047295122 -0.3433377523863715 0.530519163343896 -0.8661270358656056 -0.40621338517379896 -1.5233003638151283 0.3909583052778753 -1.8110656836948515 0.3496911998279952 -0.1529087539690435 -0.4714101115145469 -1.9180426263188428 0.5365219239743031 -0.5497979688810337 0.7500738621884248 -0.25523181367969494 0.43631940868921587 1.2563427855225289 -0.37949473417744883 -0.5308144455553508 -0.7991104021441076 -2.0754037706094737 1.1718932866330027 0.5434234438298919 -0.4314628655264561 -0.6002094463896244 0.7074893667995952 -0.02253405015713642 1.7986900953620069 -0.05939551801242623 2.586846428492264 0.8278412804109878 0.869356327348007 
0.5393014978508702 -0.814260192518233 -0.8819421259243797 -0.654288184619388 1.8375720599242675 -0.2158049139109468 -0.8939765834879436 0.6360756342682102 -0.6939615611663301 -1.593700504747386 1.6987026279012938 -1.0757495479858035 1.7731265834656642 1.1098039695174289 0.5360069406266971 1.0207824501889948 1.9085480398861046 -1.9959497626685627 -0.5440123634915062 0.22373499428173924 -1.4453399041352775 0.12146407088328312 -0.20755836905591957 0.7068336886939054 0.27003639817697 -1.1134363909661085 0.5357451766848942 0.3186582130764571 -1.6973699245231428 0.9887845769232686 1.8629009762878277 -0.48885598238559874 -1.9780229871462613 -0.9040718166796523 -0.3296978812046069 2.0676917312470056 0.935166585528648 0.001951359399111476 -0.502400852227909 0.6045261187977341 -1.4991900618627 -1.087498889611773 0.6560773879805352 -1.0667736170216364 -0.8006435000441816 0.246734068782524 -0.06565120660155553 0.6101190890520503 -1.6487452985034368 0.6609185576599456 -2.6459337865477175 -1.7804330884890915 1.005168221902141 -1.0651606212288494 
1.1374906386473356 -2.113661097902143 0.4939767063565536 -2.0940630319094056 -0.03862610319455035 -2.6230747973755175 -2.712664724128427 0.5735927601928672 1.2807994310761857 -1.2944220390016135 0.26389508892031077 -0.28550277752034214 0.1464459672887004 -0.40312758019092093 -0.5773775744856375 -0.4196253270928196 0.12354613920268133 -0.6814311102882912 0.556317293553671 2.368712190079893 -1.2467012867680471 1.137957033357556 1.0609462601383945 0.16834322528269424 0.9512216122357875 -1.0259286400737493 -2.0463320350555065 0.26742430103444215 -1.5563039190624515 0.059799009406515884 -1.905132553560896 -1.3245084641597051 -1.2473727847635634 0.601780147654365 1.6984888693208462 0.2999248134464786 -1.2794578363557974 -1.3850094773863688 0.7753028385952018 -0.5195690948566648 -1.6348869877655579 -1.6620552003442348 -1.0754386036082153 1.2623971621987453 0.03499453369910317 0.2577765480135286 -1.2079837859136238 2.5350456916608355 -1.6533318216272856 -0.09663617803888042 0.879072367518614 1.0985082899439629 0.3785354043297078 -0.963725836561733 
-0.922147768062946 -0.24538633165261897 0.4488914513191362 0.161901750550808 1.499055538603929 -0.3925143163282817 0.6555895688897545 -0.48177283692009437 -1.2212785941043562 1.8287979949815338 0.05258307293242544 1.2502552118299062 -2.1372592969801976 -1.613536498838955 -0.8045625406455739 0.2698701386999168 1.307087158874476 -0.5676115892288752 1.1470814343024656 1.069484386946743 -1.4795194442274824 0.3175347559133169 -0.1106482401293213 0.8403208461455351 1.120207909526789 0.12496498418707613 1.4230912911333065 -0.9698415468995956 -0.2967374226862248 0.09658600583673564 1.4247748536679214 -1.2425870034230304 -0.6477201910778053 0.40700924813464573 -0.1914171985580951 -1.6485066134384885 -1.1304471537450327 0.2692491311665655 -0.14092256936322087 -0.6985211894513974 0.8977559327248565 -1.5481669184475633 0.2971325342570276 0.8293764934110324 0.007228112153756857 1.1050689520123995 1.260453116663788 2.461840956441012 -0.919068393420636 -0.8304425817726472 -1.0141151602928573 -0.2595852061674686 -1.4992287923324292 -1.3112045522149003 
0.842756254735596 -0.16068432969972918 -0.2874457312367748 -0.7326059780062267 0.7327035578391674 -1.4131968518329003 2.3345419951689736 -0.5077843746554177 0.372830314952723 1.153791966439982 0.4969777034762729 0.884888986925358 0.7299063178680347 0.4931549539809129 0.1753524178606523 -0.8209976376409556 -0.22192265496726857 0.34093610498226484 0.33558421843981256 -1.365233203301214 -2.463074569877541 0.15230525929066246 -0.387913288559096 1.6782667119869537 -1.3213737488365798 0.15445846568561522 0.06863159104478439 0.5848201116635606 -0.5459433296405979 1.5782732610514025 0.31560182696482336 1.1858106757827758 -0.9117841984090245 1.379062021463148 -0.5759597507349855 0.6611839223137109 -1.7624878973654166 0.3266774401889704 0.9441698423407723 -0.22002599728564656 0.8407991369272848 0.6049622672668149 1.582018983842579 -1.4988498373636676 1.0219016172463138 -1.408029574012813 -0.46756067060753953 -1.9260082359070059 -1.2783476980273203 -0.9752093990675453 -0.14329290928252347 0.7875949387860357 -0.15053177374268717 -2.239785040426266 
-1.8817410336706861 0.6037389584903957 -0.4147108642929589 -0.6797897505200509 0.8991554036292728 0.7620927223204388 1.6357438918130416 -1.3051730897081748 0.041271843162252755 1.6565237588236106 -0.13346869580099605 -0.7713660387842762 -0.1502800110311574 -0.2805089123731757 0.07973201407529784 -0.5085362769179154 -0.15125232240175393 -0.061771732657182304 1.4762701798169564 -0.5329309238047296 1.214301409463335 0.2565240973815743 0.7202958621776454 0.4757891033913407 -1.252964895760745 -0.8484935939492814 -1.0283621990069454 -1.3774143556484182 -0.017877300496876882 0.435797749742455 -1.3875970101418125 -1.4301938855042573 -0.1672069437921612 0.3067666526979884 -0.39963005651550043 -1.4750725778571787 0.5272335189423927 0.5176409793046292 -0.3874383774615061 1.1340562067138136 -0.5845784467138564 0.6374047101423524 -1.1369804388763605 -0.09872564963495249 0.9169937847833685 1.7429489533496911 -2.3715168524932957 -1.3715000816285263 0.8678492786536843 -1.3407987926240437 -1.40403606759823 0.6593022431062765 -1.510340729351586 -0.4938503051630697 
0.1433406597952642 -0.0276658348243405 -0.8175049882505635 -0.46553298147127864 -1.0966512191118385 0.18566559402596042 0.13134018690947186 0.08670161764697976 -0.8091424858912891 0.9640078232001501 -0.7186976365535769 0.2304739055201072 0.8151469950898624 0.3337473825580081 0.3173270795882496 0.31930240835431767 -0.46186321644832995 0.4428327877265581 -0.8136701193527096 -0.5126104566770953 -0.04099460316943368 0.09516372941599746 -1.6204931714845185 2.832445928618653 -1.1376265685965032 3.298855572071886 1.8274451824311098 -0.0024302766440564725 1.0684684462787521 0.12760192485976748 0.32068185640510716 -0.10069537367567145 -3.835604526907753 -0.19777183888100866 -2.602535791888764 -0.8158999018068602 -0.6488101504410133 1.1421371964831626 0.014164049474061347 -0.5167381866053147 -0.3787446471033497 0.41557793987425456 0.5157591368872736 -1.1509928571269226 -1.3200507723505164 0.23775713083328154 -1.7809322946865425 -1.7379068223689382 0.5496879134972352 -1.007663472624996 3.1649335403077505 -0.5381285748176897 -0.42873378139372376 -1.1306686828029604 
-0.9136424041934788 -0.33017068396060023 -0.0003761841271249815 -0.9935006674659194 1.259053750286848 0.8003729342401088 0.9722959796790459 -1.3775738099912878 -0.3580399058818806 0.8511190031966042 0.2560923545604405 0.6207200319488174 0.07443782216241768 -1.2087738695382584 0.8787865104186031 0.23474771224449884 0.6038092385206716 0.348014559153864 -1.0992923521001596 -0.6044305261856713 -0.572676103709366 0.7224334265142472 0.20954586591681956 0.29392876620208347 -1.3655600848281888 -1.1274996919373135 0.8746057153703538 0.6042464885277179 -0.8914777258223151 1.276687909269321 1.7037038758770704 -1.0817632341702164 0.9814820419994534 0.7135585207220553 -0.9444843741930946 0.27549447503488517 0.6600918741603361 -3.2014706264245585 -0.49344203499294054 -1.165791164011411 -1.9924450278226693 -0.7885571717241067 -1.2058677890942318 -0.02343016321220964 1.448475729345952 -1.4081490509152161 1.0651866270945483 -2.1134642834485464 0.3313082789016664 -0.009833150552300317 0.6459842738138918 0.004150889418645176 1.304488505895554 -1.0491258017373337 
1.2564878682315086 1.1500169121631234 -0.3660116483869351 0.2176168827287497 0.6210911841359764 -0.855427695925872 -2.0269871790609213 1.0583979880498111 -0.25713962292653186 -1.6329974111783947 -0.8390604975824276 -0.25438195982934875 -1.7085654109222557 -1.9002717479120466 1.4151700132437985 -1.6887322392942894 3.6298658335002485 2.1632483394816022 -0.18216585959610387 -0.7704221922939719 
-0.2257311283000457 -0.17920350489068754 1.0493664188293341 0.679752388160027 0.06262568166561291 0.1263459043369338 -0.8286906201523291 1.6086627321318352 -1.116008396020856 -0.42210914820346457 -0.7213227380347845 1.6643529285955254 -1.3035085465747873 -0.7971718175126176 0.5270007795577628 -0.02493946404874363 1.018956420306652 0.7529188641886341 -0.7246268458052724 0.3253527181669643 
