0.6510460005990929 2.825518097543334 0.562967248336375 2.1929437184326566 -0.02197652141886719 1.5395658785930775 -1.7808950593920363 -2.1267410694650453 -1.1564733757741252 -0.5345855345883517 0.17010863699391734 -0.6506039949116539 -0.13915796533568625 -0.15762599856100212 -2.3425983769884002 -0.10957383503667233 
1.4735636183466305 1.0361241242964843 1.1196609886117705 1.5586285493311383 -0.09489241509846773 -0.47423360293678823 -0.9518442058270005 1.8355731128298425 1.1100838952595944 -1.2298275497876219 -0.7732435351787504 -0.21419867114123842 -0.47680840664681634 0.5440346716986229 -0.7654447201914706 -1.0732482442239182 
-1.0994710425859793 0.2028168303830045 -0.4607221577543954 1.174509801568852 -1.2931903566636556 0.3095904836698621 -0.6213775824327528 0.7500259003141542 -0.27963095691434214 -0.1967724697530169 -1.4929244343136174 -0.7550324719425024 0.527096598294145 0.6459836484460894 -0.4005505356225512 0.4718049776852152 
-0.964635987226986 -0.7015350954870119 -1.4387612879496716 1.1749244734871016 0.9022307195788989 -0.6238250660130015 -0.07364340934872993 0.031110555559498345 0.1703252409060406 -0.5083660305519693 -1.688812478118012 0.5643996621237761 -1.5024600046036982 -0.6093746653623059 -0.07945342237160218 -2.5026391970260895 
-0.24865253524785286 1.8847439705313478 0.5277845783216242 1.1170067589662802 -0.12643471772990447 0.47294189533228487 0.6813493341026567 -1.0557648912075182 0.702076523948381 -0.8302622965459834 1.4835186326991208 1.296204240485343 0.49641954617035305 1.1140155553634423 1.0678624117607327 0.49847577395392245 
-0.71287024042452 1.930373721156246 0.7154392886519939 -1.1301948316766286 -1.4286520852234663 -0.03388298697195138 -0.833356603988978 1.172557809694166 0.772805400566227 -0.114466548340963 0.009961439887436628 0.04889260551920304 0.013526595825111185 0.7576597147388144 -0.146766676343398 -0.04668987431348628 
1.1434377478710576 0.36674509022448204 0.2800286170450295 0.23878217838853327 0.36097244373903997 -1.802825689673705 1.2609397584902513 1.0748693557145919 -0.412355440636614 -0.12321740639433523 0.5308027002255657 -0.3216755085965352 0.7083134184703619 0.8978872403295934 -0.3155404591298313 0.916778677755651 
0.2980533553154168 -0.9438517082378148 0.6548179966293601 -0.9746678183327447 1.9995709795177592 0.7212575513524624 0.8952015902960933 0.10960531227608196 0.05992203816869734 -0.8762678100795482 1.8963576954728525 0.8632389019985953 -1.7658019362625268 0.6943104614434307 -0.4868714072069227 -0.34894037303964204 
-0.0204526911991418 -1.1499982562127904 -1.5347869685820539 -0.06895744992347756 -1.571887718338966 -0.7024236732633216 0.2091094247568609 -1.5753490627345734 -0.3101977247968351 0.30529618429053207 -1.2411807785145343 -1.7923889942174023 -2.2056665999019147 0.17890901407684015 -0.09375654918700493 -1.5689753826611332 
-2.811530572369637 -1.498823554801833 -0.35167915082249884 0.8774737303094807 -1.1814626040518368 2.236768790760725 1.2395535708662577 -0.7562101705773846 -0.12090433170298151 2.264642426511476 -0.09722010724092688 -1.6352211279852071 -0.26542822041579844 1.3174774673793552 -0.8889074873742182 -1.1327407138886145 
0.3382025120652941 -0.3434393382219855 0.19675657997980867 1.1523640749786903 0.13769178467465648 0.570031333527416 -0.9703016699880596 -1.6759927119069509 -0.3432322390762254 -0.4098226813550083 2.864053861664007 0.045978226109304965 0.7305138130961476 1.4216874759001579 1.443570717064956 2.045015206578025 
0.867206707470284 -0.27140925168752056 0.9544303253089175 -0.587641787307382 -0.2998341164660571 -0.7860038142177292 0.5282234695683283 0.11028795482245637 -0.720962377141895 -0.8317319666985898 -0.2302151054302949 0.1200263414989654 -0.30399953289464277 -0.5717995555324293 0.7836731115718613 0.17516893859315982 
0.45372128561507324 -0.8855899892043677 -0.32646685969669714 2.072369826071567 2.0413655707728293 -0.4106006528704924 -0.26060594229292433 -0.24603349845079397 2.046321154134953 1.6713991845366198 0.8094128130655353 0.6831504224730413 -1.131104538891992 -0.1428996453424875 2.2125763163792955 -1.6456904530803331 
-0.5040650320846001 -1.3924404269074455 -1.3557602616515951 0.07517127141851289 1.316203395950347 1.6405762082060142 0.5203842409069972 -0.3347343523026647 0.8961545611610419 -1.442539547333294 -0.8229299225266291 -0.7318535168205434 -0.7029669135368847 -1.683772455080259 -0.4827672008262195 0.694615011293977 
-0.4504408263495996 0.13711161775749783 0.12282002268936956 -0.4379703325286898 -0.3615711242492755 0.06307270210761888 -0.01666586621590904 -1.0671681133785438 0.649942399016263 0.465328280726975 -1.0245445253712004 1.298410140608796 -0.375287186988163 -0.6526345749805798 -1.3881179041007614 -0.45936121254490453 
0.685831754163454 0.40969655422154705 2.2018658910584255 -0.7977742107018132 0.17738657889958453 2.7675024547551796 0.14740255649753803 0.9354200630760241 0.1589572584842567 1.0187284331402426 0.15787176889325394 1.3055687447493258 0.03322795650477323 0.4382558552106794 -0.7836145855450438 0.2523796384495767 
0.7191941691224901 -0.13146571664393536 -1.644481839798035 0.4165677606688481 1.4405191847024357 -1.0008221472082377 -0.6662682586389721 -0.7575991320461667 -1.44964922829745 -0.26298758985736465 -0.2113212425287564 -1.7566040651048636 1.5252540415285296 -0.6766319929045237 -1.1014152961910624 0.3648749205366559 
-1.6088268751726804 0.3930755389603172 -1.3885913266656917 -0.3570436879278889 1.385214871432586 0.6565165117962445 -0.04474301556849152 -0.11480849658115974 -0.016072201875982104 0.5975475620791592 -1.7368251911106216 0.7517637148737741 0.8436748006164319 -0.8952664216524054 -0.3720430090540829 -0.32872460380037893 
-0.7242725195641816 0.28663436174779616 -1.3988565452317625 -1.6390932003238834 -0.6375898474805128 0.5649378262423691 0.4977722019871723 -0.7008533971006464 1.6310963718569844 0.7055308053000258 0.41378750363633915 0.10891532133051875 0.8071207050884109 -1.736911606076949 -2.160753395483055 1.337568286204683 
-1.1483328754703312 -1.4968387575037152 1.9552081167714652 0.7787432176399807 -0.5903829419599734 0.08852965449302436 -0.5675506078245521 -1.05272547011474 1.4091981221145582 -1.1327130209069602 0.74043694577365 -0.11124155744744177 0.7142187526743523 -0.7233345875845008 -0.37225327994139973 0.8011469496539924 
0.42399034899255594 0.7048841389281392 1.345745110177105 0.4428943305443701 -2.1964832661999365 0.0023871176658132242 0.45268261627881073 -0.48882056688191117 -0.49521624929342717 2.209468785611593 0.6384226414087333 -0.716357742279218 0.2656681457228469 0.9636893263473365 0.9437272830687806 -1.2737368222042613 -1.5532550445866802 0.7009856078994522 0.8722457745000385 -1.3558245054293456 
-2.225067618690134 1.0375418046746951 0.1202135742444051 -1.2427495567411193 -0.022036877510700607 -1.1082307460665137 0.3189901798620237 0.874866954284192 -1.3767323511203224 -1.8707316424580278 -0.8903530644210295 0.13819770227191247 -0.06431494145884255 -1.362933099320121 0.11297307334451201 1.552836940239028 -0.07776330571292174 -0.5072536940680437 0.3452778277514984 0.44331909346970466 
