-0.19742655972974651 0.24831589088778885 -0.19732807144613335 1.8002127187885657 0.5211307534277432 -1.4907976806309509 0.9843130989565829 0.3525387468027277 -0.161757460452028 1.941650422669065 0.7055458802068024 -0.471350899942989 0.5985087146826444 -0.9665747983839994 -0.029421421985344004 -0.1402365970767609 -1.6154908142306186 1.1608468144937716 -0.1859202286467941 -0.31642068816389113 0.6018897328530777 0.18087560102896236 -0.6202556082943217 1.6997129281455978 -0.9012189748223813 0.29911192776043716 
1.7622123741003894 -0.008470474648461781 1.792538235461616 0.02421809375381976 0.34447782276187455 -0.4055571331228836 0.9134378528490683 -0.19128309052372497 -0.05520200318910152 0.0660053143104459 1.1623618160562463 0.025837580716222913 -1.5531285745212058 0.5815714776482135 1.002361906335315 -0.5894603437680064 0.015415973891969746 -0.5111969712939923 -0.27855408504879453 1.0037977760174015 -0.5657137429181012 -0.17060397481411707 0.6027153680825169 -0.2275322936019669 3.5561134234285805 0.301961693818564 
1.4195271733353494 -0.977846631584466 0.9303973756309054 -0.8975594758910127 -0.5442575221146833 -0.28064465672588057 0.6823639812444915 0.31715519450132934 -0.8951510650825276 -0.14452561071307093 0.6286105959616282 0.06351164363492141 -0.37028438782395134 0.11458608383398004 0.7540615103839942 1.5113340198833491 -0.032502301965896915 1.3557546841306216 1.3486055298085506 0.026922870056033804 -0.46786873410221663 1.399714344704917 0.7612490918548821 1.1147872917734336 0.02971731632091217 -0.8984852154947712 
0.05747891221296581 -0.25205307111013764 -0.23048647245173817 0.694952024166262 0.2219224385335447 1.451110758265622 -0.3835993094667912 1.216046982313651 1.2294860980249396 -1.6810338868282755 0.5595164834144661 0.46111154076465244 0.8454023665075878 -0.7794245026375431 0.05332648138983666 1.0215085749696176 -1.2777216795920858 -0.3725068206499331 -0.9130479587264761 -0.5650280016636079 1.7611679326037524 -1.5345721111190005 -0.4303389813712483 0.9538177694154958 -0.18479889681741118 1.4967599586578508 
-1.6000205749622791 -0.5502007770127393 -0.6252699917311361 -0.31010833992922576 0.368173030466533 -0.3285864214626022 -0.34831850010068566 0.729380926344616 -0.18896202244959967 0.13797933448977553 -0.16509981204303203 -0.16548245488375352 -0.963460738501306 -0.39985381933095954 1.722652474802543 1.4605815391594217 -2.0609414551737713 0.6473093683896259 -1.2551663681491427 -0.10209712410691507 1.059815462080777 1.2356958887636615 -2.0633167497299154 -1.6795666042429411 -1.0573396095737793 -2.5927860115404626 
1.296935422608692 -1.0633897295946433 2.009654393724317 0.48221594217571717 -2.9140373977759286 -0.12186212649560718 -1.077591835455734 -1.2293765041733211 0.5759164958741826 0.24143301052229826 2.5833227836822408 -1.5577542866310388 2.083383215657971 -2.3178705657713223 -0.6276745598659045 -1.1815570497762968 -0.3291468759176747 -0.5187137711854918 -0.9548182389478134 1.3407305439401938 -0.9807193818234345 -0.45252201970027606 0.2807802588991764 -0.1829570762139052 0.20765124766774457 1.1673306645401007 
-1.394983730298984 -0.7224217224824802 -0.06346431343602789 -1.2713591552349828 1.6035048097723437 -0.5668882446692206 1.711104084090648 0.7485402636138291 0.30987726734013665 -1.8250531320725782 -0.06460019367959782 -1.0668412530212765 0.7929103326067687 0.9251481333017132 0.4541103388139534 -0.16115187461961747 -1.080898388683637 -0.2998968136961985 0.7508319952801248 -1.561045223592183 0.7638335941334121 -1.7235777503448448 -0.005167139817903045 -0.431349231161768 0.035660038057543274 -0.7134503197191115 
-0.996822718977147 0.5964145290971048 -1.0870829371339148 -1.5152359160176452 -0.2977714578922925 -0.987514644743084 -0.12417238559517517 -0.4900530099498434 0.27672743412872397 0.009243202679110359 0.524119899712543 0.1330949175820146 0.6110211107395195 -0.11275681167472 -1.8087405485230488 1.654243100213902 -0.9958572107058948 -0.9713647677154319 -0.055537131171522015 -0.6752042234348736 -1.2509550227679704 -0.21280672244133253 -1.311593286747088 0.0593809482617021 -1.204394846828329 0.058710392159394234 
1.6302013556479635 -2.5189432934906475 0.48561664258509346 -1.081399707367557 0.7861907871002084 -0.05930732284337429 1.2783663606872213 0.09711227110648224 -0.5674504658320589 0.20797000640003901 -1.4651831212889508 -0.5242902291717285 0.09229900075714348 -0.241922745280749 0.5859854530632737 2.192107775431545 0.41328410385004927 0.9848110960468933 1.1531373706079742 1.4969143907194258 -0.537014171403104 -0.35626576264346177 -0.9758983454084992 -1.000023097224304 0.3620690501001398 -0.8079936004467483 
2.249824462441763 0.621662099769342 1.3293742330647682 -0.6061479008461935 0.5621939305760838 -0.2821219639652454 -2.1145052530363295 -0.6774454544877506 -1.5588706285251568 1.9683021174577027 -0.7302580670755052 -1.312595109930819 -0.3663605856609872 0.7617357048983588 0.25045109607189897 -0.9586431446561455 0.9242109871678168 -0.7406536610639889 1.145908568864774 -0.06058810143603251 0.46501892697903013 0.5400849802947464 0.8292441708173157 -0.2597204307775503 0.559067362411828 0.7928149186551416 
-1.8598134752190858 0.6951692873843284 -0.9347821227885221 0.4512984740605073 -0.7228127975312592 2.3222712866094524 0.10933821238667286 0.02545559227459765 -2.486531048833683 -0.7501266892292435 1.6706690404603617 1.376368324210519 1.5484679928575482 -0.20300289649886294 -0.18037415898240908 1.0467316581354345 0.6866037386378667 0.08384127251750463 0.6335262528943543 0.8242780126873573 -0.7675080525335761 -0.21022335834051262 0.06235259878533706 -2.668437264083147 -0.6114791721095753 -0.25474716703862293 
-0.26030905808975413 1.5918775294003158 -2.147882234895668 -1.1178383962051632 0.5139328289011037 -1.8064060882826554 -0.7121812036125561 1.674713962271198 0.025334887447501037 -1.246686544532737 -0.6571367263148284 1.7568793943766314 0.3086093332102412 -0.2856192242004935 -1.761736580390059 1.7340039278299533 -0.44948437377354955 -0.4297290038896666 -0.40445014660310386 -0.9203213351268311 -0.7897464002183543 -0.24956424224149676 -0.5400443646506846 0.20557096460342336 -0.45228720401668016 -1.5099364439061769 
0.1295705703094981 -0.7915495957586514 0.41044160229856164 -0.6466146012503995 1.0049494545757456 -0.16985242849176635 -0.7446278651886884 -1.1652297282648625 -0.4866656196568349 0.4473160874891329 1.4475767938336754 1.4628539525128244 0.5168048433727754 0.6333580389622914 -0.5812526214538649 -0.18655613671283108 0.13614955398083375 -1.0362413333189373 0.33026673462079176 -0.8114820483985004 0.05839254235499964 -0.8480706834236977 1.9208289510337953 0.8465139772445 -0.7891445711034694 -0.8362316961518371 
0.17965346359342935 -1.5506096859875123 -0.848105539111622 0.32072352295005097 -0.4383124159309151 -1.1073275095187571 -0.2480587776366782 -0.0362519371637944 1.4219390050354606 0.7176396222317409 -0.22192957237805164 -1.2711124190323766 0.5756423471055532 -2.1368881163310256 0.36804727685173566 1.3244659165940755 -1.5430554056097527 0.5052184403428013 -1.4272099875982442 -0.779442301019914 -2.012323818163786 0.030049223104547135 0.9216247676073235 -0.10643085172949003 -1.802024849542452 0.5741659298674376 
0.9851152818802079 -0.6602064737357389 0.8905299233357525 -0.641332309717682 0.18842966313540863 -1.659302784072195 -1.5086048611777858 1.9282677269445592 0.6439259377873685 -0.8562411932396636 -2.0558700352786747 -1.3374486448413427 0.09993397164696614 0.41122820451058123 0.2252124323034632 0.17121880349060936 0.4288503369067451 -0.2935183117699917 0.4505878439559783 0.12183079000690394 -0.8153889586758399 0.2777013218407412 0.34725376006275094 -2.1382292496312614 1.4506978179630614 -0.3727417995047733 
-1.818871032898303 0.9138751671442056 0.39516230164332816 0.6579542955307022 -0.9271303919646666 -3.1047171250860166 1.1515173422186231 -0.27139147159060395 -0.3233152090802338 -0.7104108580510099 -0.8422922761156868 0.9564021192513169 -0.025051021592159647 -0.626262138059678 0.3010873182810247 -0.37974702775437363 0.15367735019284326 -0.00040505885644562354 -1.9121133373175192 -1.8722667474544679 0.12469765699973763 1.9240779090237112 -0.4197615207188567 -0.2911497996663307 -0.26367558961580406 0.689310721968164 
0.6888134738485852 -1.2708687819527673 2.7762646821917354 0.33986141981687906 -0.29614367090960064 -0.7747532738438225 -0.16086106117840135 0.2509872714655663 -0.7534712851732501 0.7759943518600819 -0.7932863475337943 1.2019454533771923 -1.3989806024161084 -1.1287790777368079 -0.5366956508356691 0.33670691315379037 -1.1512044094243725 0.059664191124314134 1.0953811301918994 0.39623003816080227 0.8219482611111452 -0.13239453913008362 0.17430345202647438 -0.09295843402625356 -0.10558718773774636 0.44649890460679603 
0.08263499915758843 -1.4449152848634588 1.6259388821052687 -0.7390347983714487 1.7525903855997873 -0.8291980778723946 0.1715055930912935 -0.852886117284242 0.6173643566153151 -1.298544867800415 0.20403344994235856 -2.057767326853675 1.9276250042669496 -0.5401201827493609 0.9232646204110654 -1.0734840497839253 2.3984162427083366 0.02677106326715378 0.3290782112234762 -0.2105062781625831 0.5522151611807605 1.241603556295165 -1.4604953875806763 -1.006393160562534 -0.19020240329097227 -0.20538528408346485 
-0.2796679530183048 -0.6890637065900987 0.538773911807478 -0.3775149273014282 -1.7153797858944098 -0.6657766518843045 -0.8201791139456417 0.2296483404776358 0.5958845932718362 2.0626915178186116 -0.14998833590617597 -1.2834045243649028 -1.4122953327627374 0.17421204143788518 1.9944683788400313 -0.5430207801590237 2.4127979682756817 0.2585930219216887 0.12508703902184065 0.11687336441847425 0.3707583749854184 0.611486268032187 0.7299488696768266 -1.0021749898328622 -0.06684930540245028 0.3037546097734033 
-1.9403027646604047 0.4464721841827046 -1.0065530078143388 1.5715661379457666 0.10521266415631715 0.7933876383030034 0.19559602918609828 1.0967683062380147 0.1890017876514027 -2.0100102982824026 -0.36127684324111187 0.2992862765808453 0.1803673189063041 0.07467243223853032 0.07441415230024974 0.329180903026618 0.9537015442169875 -0.3194762925764476 -0.5736235939424739 1.8563704926263338 -0.5070063584708118 0.23853726159156144 -1.1487248605640503 1.1305807138920325 -0.7441022172774726 0.8339211928600043 
2.038906863580651 -0.8874133375770336 -0.9530006711261242 0.26406128879271684 -1.0683053179593847 -0.75151753465272 -0.3149816809699632 -0.2121232286358525 -1.6725930824286273 -0.14895677292404053 1.7867362081165068 -0.6690789861312518 -0.7831998695699335 -0.5240501054859942 -0.16632740951116096 -2.824278199861871 0.49140661247248923 -1.123300564266332 0.506931753507664 2.075149243852235 
0.17169111637492904 -1.0212215334290307 0.9393590648419461 0.06409476640626877 1.8513303629936426 0.2980369110398553 -0.7299496285041982 -0.43165526294664747 0.9297477371155628 -0.8720729142367541 -1.7511756161065166 0.9460402293665316 1.0583319179417239 -0.4065009880497027 2.142036053508669 -1.6555448931968826 0.43190441858948553 1.3838424158775353 -0.6352880820331466 -1.5087434455690636 
