-0.16120306661821018 -2.1836929153380598 2.5014504310586214 -0.1845533380781507 1.967336292100994 -1.2664105848313956 1.0337007056395233 -0.581606242207486 1.3261188869271967 -2.4793160188908256 0.7880453791517482 -3.0887725334579925 -1.1019870059202532 0.44975274169065516 0.26474370952320864 0.3372647616624978 -0.5111708338437815 0.46256750105258365 1.1961759136792398 0.169463137612255 -0.511148578142156 -1.026705688702341 0.8064223518425847 0.2749242481912971 -1.5672681144462852 -0.9211745623211731 0.16172845249474951 -1.3511514882252418 1.6439184396639273 1.0985857868353868 
-1.3435906818905061 1.2325034063221376 -0.33496994374594197 -1.1423604491569344 -1.2190011926005144 0.30638422486363687 0.4620756271023259 -0.9653090296344681 -0.35474728003453465 -0.416157911385879 0.27493656392247107 -1.4387948982355736 -0.3153771342005537 -0.4658327777838577 -0.07444189795985275 0.14904810374725327 -0.5203204453472715 -0.5926561682354973 -0.3312902023980407 -1.307146705617256 0.449441969917614 0.4585941885435847 -2.950860602806009 -0.8200710439913169 1.3168226979447795 -0.49242152257413996 -0.33603645755692296 0.39295926652421165 1.2921744573802805 -1.076182882211112 
-2.329666055195932 -0.07825627846096878 -1.0540213184606926 2.0228855177326857 -1.3489258684905265 0.3253660575229622 -0.5355364668275647 -1.0664747859100017 1.3566316489917776 -1.3599276005285594 -0.7997247073945537 -0.05110654882114395 -0.7488459878951377 -0.033533139831564106 1.1229500601429272 -0.015599159150117 -0.4609292073038197 0.6572092592710518 -0.5852880394277634 0.15499339797625264 -0.11084245478381692 0.841578466339005 -0.23773832626925684 0.04662551910964138 0.08898780302996358 0.9600711059475361 -2.3461218712294944 -1.524116356137007 0.9192084169095011 0.4723058614461834 
-0.8225373309951074 1.2878619800725288 -0.969496869363127 -0.1450257747904985 3.179117645450502 -1.0851470949191728 -0.18784801210823096 -1.486751293699551 1.8871512840446387 -0.7415869591774406 -0.32223536715669365 -0.6398870499975924 -0.6646370528450479 2.99314369728138 0.6564413443058917 -0.14975810630755026 1.1405474158741002 1.1622047632348678 -0.6336822111737148 -1.7562000051982019 -1.6057048975766204 -0.5988146406362505 0.7344572015403985 1.638385196270875 0.5685269052136315 -0.21720667760264942 0.07385548341359442 -0.568082854409484 -0.5346237281900444 -0.10728037368168382 
1.7526525235451118 0.143720321531176 0.41947118261657906 -0.004636652791450484 -0.25795711523370063 -0.10138411824217058 -0.3538396979916045 0.2976036787904699 3.2381867228945502 -2.2114670363726727 -0.5154770232544851 -0.6006953362696554 1.6436612319830541 -1.387383365106091 -0.5313881826282217 -2.085531195777112 -0.7654493291405581 -1.1449127137452142 0.10607023169994735 -0.618653650448808 -1.9460917964814586 -0.9744061124161302 -0.9864048130057711 2.1046186024778923 -0.025192957829332934 -1.5169967146051997 0.4702949034112609 2.421234984571233 0.5826051041393927 -0.5221357854239405 
-0.7705186862063157 0.5713716783356239 -1.436759123445785 0.5361934633328772 -0.9961211732170397 0.5954193910136814 -1.1978699627310543 -0.28609218843356504 -0.7020568230717437 -0.8759012860850082 -0.5345654527485212 0.6219276969362743 -0.7730538402121079 0.2493825399729735 0.40319197908063514 -0.22804866181476383 -0.16853007295735958 1.096109490440817 2.1062166385517234 0.6705053506890083 -0.015597346284454036 -0.892820549359061 0.8252595512439952 1.159883349028834 -1.2204851506119911 0.09534858745897214 1.4214311053742275 -0.06747338128400618 0.261395890751047 0.7008456862395446 
1.7775526070667207 3.0171635859599295 2.3146035046490465 -0.9366125326908284 -0.3732887036784021 -0.11423590954480765 0.9959942145482297 0.29214187571595185 1.3919051233478872 1.6373668182682795 2.744215044966909 -1.3147796281222528 0.13182287452414124 0.008723209020832477 -0.2124671512364073 1.021325686691312 -1.392670037695006 0.4133214569015938 -0.14776976606799003 1.9682664472906257 0.10859273350368401 -1.718064095646441 1.9201140371551004 -1.1696307337205816 0.784117062600463 -1.4403363764656443 0.8287465006576391 0.07041095690346368 -0.6612684456178611 -2.0375389053769535 
0.11943864974276137 0.34047948761290464 0.48780127013865665 -0.6553419176965081 2.309402641729028 0.8967506726836146 -0.9407203177454451 -0.39760186041489975 0.6598639890773741 0.43844906242226894 -0.7325348007757995 0.4751959901768225 1.7648453933093755 0.2952291388476447 -1.6740300129677725 0.32113614140313834 0.0010706491995077407 -1.5594490454199723 -0.17164322480627145 1.5221840452564763 -0.7211379737506902 1.3649603370827608 1.6841305642095645 1.4695639504054794 -0.5840197380131236 0.6471169724173773 1.7382432127120193 -0.8712509510524815 -1.131789806163117 -1.5320803928466171 
-0.3055776363840248 -0.17729316939499845 2.570228782431264 2.5766611910722235 -1.8360447918354974 -0.22828883334550334 -0.3944033702371034 -0.6327029494120561 1.553930953213204 1.4379303768365628 -0.2584581425797206 2.0958255244084927 0.3114342326171307 -0.02020803587454356 0.15303916892095942 -0.23839844209948288 -1.3431123929358482 1.7855428226727732 1.1606485090078857 0.46534452722039604 -0.32123485155465686 0.4400604929688277 0.08799221780813814 1.0956245728040885 -0.2955223034114394 -0.5291950450233761 -0.5245156268577532 -0.7218263972061233 1.106250320601898 1.7941704170403754 
1.0451111195285439 -2.1773585778606903 -0.6968461606574626 0.8581564646746735 1.3866479948533685 0.08996542999594265 0.7665705730429123 0.20608676674498794 -1.3444435721176167 0.07974635014025729 0.27482107653883414 0.7112520627067369 0.3518460683421049 -0.21166935264953568 0.3407934999882137 0.20841399956448148 0.8804365072629357 0.6717538495795786 -0.6101830655760488 -0.17699011706672288 -0.024478820287135494 0.5608821904552992 -1.0845925891215187 1.0167167139039228 -0.7359685814502888 -0.9731864262233345 0.7499743031346103 -0.16673817290506324 0.42174912193541186 1.4601062033792522 
1.9344324257993557 -0.5650662416151012 -0.47603778935801605 0.739325947554367 -0.4475853848577332 -0.16727639860481106 0.6738882534028513 -1.136337541797108 1.8991070496853852 1.6119549344719268 0.8894186303088079 0.25252127964047844 0.059756189496392484 -0.022157773061460044 -1.0856573966602991 0.5726550983034475 -1.4029086425330597 2.2242389959856266 -0.10283859849985513 1.5746008336382569 0.8883454385586269 -0.2507998593775656 0.5111726627296715 -0.02679765172826672 -1.5821796119499987 0.822415023617952 1.4383400322548654 1.5211692131958583 0.14227078819345326 -0.2985030549870649 
2.0248185117089674 0.3012208654365517 -0.6390724744682166 0.615101168381339 -0.6160454531208699 1.276384135214169 -0.38227548858953375 0.5418649074559452 -0.2874152662848522 1.3947940503245988 0.7798556695384747 0.9673208460476581 -0.06153005055736946 1.0820476990186947 1.211195188430977 -0.19621331677735243 0.6851793647264963 -1.3690288420980974 0.3239001799455466 0.17864427248696374 -0.24041363537977273 0.2840841518644783 0.7334285938746008 -1.0875300931992484 -0.41350376403969413 -1.1096675602120285 0.34973993552275345 0.5340402304139573 -1.2433524362825086 0.7042607744408582 
1.4955251298487058 -0.21470523478456752 -0.07030824545361548 0.9156269933831608 0.3338242487421617 -0.33644050200562964 0.0852316919040725 -0.49291625054165805 0.02977438816606504 0.188907811042348 -0.6721601542816336 0.2512165905182033 -0.6033416187963196 1.4492359682764022 0.08131425483868131 -2.3414360483297596 -0.8396666485312632 0.416896632680147 0.783103594420305 -1.1533103867943328 0.8722328690703889 -0.4833745126987959 0.02321298671418138 -1.0029133599348843 1.4544896174609918 -0.19879258634382888 -1.0510384205731524 -0.9298768659171482 -0.8457448141095473 -0.25148797553549995 
-1.2444387053024952 0.2743509370990156 -0.017202433479574106 -0.6288826285411768 -0.7431486333623588 1.106464563107939 -0.8779975996046477 -1.1020661866358066 -1.1437353721117862 1.0865504081358839 0.13746152511842274 1.011679521630426 0.06654753472070087 0.02341479011690444 -2.1374772818784464 -0.6329931983878939 1.5164366939927285 -0.8854502238076943 1.1355631274108142 -0.16677197603029945 1.0701914006577662 -0.555324125602667 -0.9469278429154041 0.5880347014800266 -0.31473648104626917 -0.3597183330145041 -0.5729062900705344 -0.6009993355931417 -1.1833996647608604 0.3275877044635968 
-0.6443321240105588 -0.5468728536843461 1.6065554996129068 -0.2955529694489647 -0.3821937143483989 -0.8686690213343801 -0.7483519074499269 -1.094907045549781 0.9846466402548938 0.06696158750265747 -0.9500411150021909 2.2569192586119295 0.5150487488180474 -0.7085664907489955 0.26950861575319895 -1.2097442580015083 -1.3171451109775345 -0.06444743730460885 1.1107701280460365 -0.1731920541684795 -0.7461560283836328 0.7718395495318977 0.12790593805668876 0.07554700906301674 -1.0399796221943636 -0.7316810635360822 -0.11398453394982837 -0.5508445073847879 0.3747833167231335 0.9031956407222315 
-0.8010691021992975 -1.0276072655233564 -0.11677510361180647 1.5409926066205342 0.9957358576229314 -0.3154399296348224 0.35265073994713375 -0.7344599994537169 1.243932241293967 -1.3645323807975775 -0.6512637734082974 0.5573832919364331 1.3061754771489964 2.3867340096014136 -0.7773873873554755 3.053617782390226 -0.3367126160365829 1.3400560560881254 0.056223334831539705 1.5773741990054109 -1.6329779721608713 0.36464654249253686 -0.022775323160715052 0.6984579501986699 0.4560382923391314 0.20645507251393042 0.5243472591713633 -0.32873778460717884 0.851277885548083 -0.5891338701539629 
2.158592349257038 -0.036127227842990745 -0.6154223758843628 -0.4373859120653957 -2.2620633534989354 1.2237886781531833 -2.123764373761913 -0.9099309550609874 -0.9913687159049004 0.3028216657488964 -0.7534299025425766 -0.20096776795222016 -2.0560080913576826 -0.26904758888711877 0.9254020276776685 -0.8887120485006625 0.1390891722368874 2.485445944111783 -2.724643901003669 -0.3974607335540297 0.13245948560604476 0.25094531354049576 -0.6399656098240813 -1.3716784635793386 1.0347545279133028 -0.11190035786791912 -0.8725839072193379 -0.5123264113865673 -1.7269476829260808 -1.146455939805756 
-1.8536609619417765 0.9649932199392447 0.700608220226586 -0.537500226567031 -0.8911500424038585 -1.0513743031199596 1.089539123322067 1.4028429164962108 0.1588654662805685 0.26043970142955364 -1.1249377007944397 -0.647668265670125 0.3632734836770025 0.4892988864540001 -2.359149549335325 -0.12261115899691051 -2.238407497247441 0.42212955923933887 -0.3605587489657555 3.053737595446187 0.3476922923698101 0.9418395839081447 0.7876507602221327 0.06122132800949787 -1.0480789113353952 1.9427122638226568 -0.2024169255974862 0.7066166583294861 -0.8381510729484168 0.012675467146957196 
-0.980748516665629 -0.8242744493385354 1.138783973069461 1.2100000942165805 0.35197789159156234 -0.33751206075911594 0.4793395021379251 0.5802003661664933 1.6531571606736446 0.5975969880790722 -2.20858823975826 -0.9398435591617532 1.4078592491053847 1.4615097251050517 1.3868479256311843 0.4953291140081066 1.4959111147178838 -0.33022393849969767 -0.15690789637406669 0.46049113255415935 0.19480277418231332 -0.7956706885053485 -2.192683784655412 -1.2715886643101109 -1.2817062752615294 2.330189250271831 0.3744121577695461 0.3005070643674576 1.763037926810543 -0.9331956493299257 
-1.0153667023933088 -0.5741492344253564 0.9065995597912645 -0.8334520061194646 1.2268235983977902 0.04853620263024053 0.650491523566165 1.2535499766752827 -1.7856148116411577 -1.0694935660609406 -0.5178298287167608 -1.716147679619029 1.1747435894619447 -1.5863059385993417 -0.06654205203695214 1.106464488453085 0.13319232470174644 0.5174771006214778 -0.7837001209589843 0.6396867517949216 0.0955787301247427 0.902597912526381 -0.16983962455326398 0.786423548851671 -0.5132494101549382 -0.7100006136263042 -0.06172989370309754 0.6481235137009669 -1.9373491862601138 0.5571064865191114 
-1.9556449433739864 0.2724805922195069 -1.388119621275342 -0.4210186939280537 -0.7375360617694618 2.8834591447307205 -0.6534271036553672 1.767269025923867 -0.3326628275528853 -0.15416470318698747 -1.3272691630898203 1.4720250738603973 -0.9436758198263994 0.09854222154892567 0.24498787356728982 1.2162272553045883 -1.915878877598081 0.4752918242512092 -0.16030725412953462 -2.615431560919814 
1.9381413145958295 -0.6608589710632825 -0.34741281819091524 0.4273628210431426 1.3240989054510754 -0.9122695328952904 -1.0627278232612918 1.0339764854991822 -0.40679720015019427 0.1568288058118503 -0.9035151295625324 -0.9279210002362529 0.18923272297111343 -0.7394090796917642 0.2906757638309769 -0.15133606034838704 -0.8460624697218453 -1.439779615534743 -0.2572738254475971 -0.7302344427421866 
