-0.6774460737519832 -0.35444348743796467 -0.078607733795675 1.0788946784002404 -1.3262151914973543 0.6636290602450686 -1.5143945803456005 -0.31349254772087404 -0.5454947732544825 1.6304866614429097 0.9857381694999023 0.8744365135021677 -0.3165759052912571 -1.0489509197034312 
1.347011194287179 -1.0962770122369565 1.0696785179976998 -0.7902314493306363 0.853942683012154 2.8717433798728202 -2.064370705346071 -0.7937044800020419 0.022768606592381238 0.7785246453561082 0.003944170438372812 -0.36163486595519734 -1.2363662916163427 0.3976056986488864 
-0.39658267553177257 -0.21603629000747693 -0.6658175432753942 0.8452922487498641 -1.2088437498748172 -0.9865479868946391 -0.44704056301162204 -0.08904409314247222 -0.3834817280171139 -0.13931568835334118 1.9355683129932828 -1.236393683023092 -0.2799197819790661 1.170670159931081 
-0.5299316912508081 -1.9982333860803376 0.7107776167478022 -1.5269183766188936 0.8826425335475795 -1.4582825645022068 0.2500072203867512 1.0244801467489304 0.6471482569808368 0.937169528763994 0.989110663902897 -0.8577426549453975 -0.09524391324770055 1.0295093854726605 
0.6001403379289703 -1.4227442645551431 0.6236924252391148 -0.2515873963454778 1.5247540873264742 -1.0315058579943832 1.9951764718060914 -0.7362286279268649 0.3074885251744195 -0.3835067939131917 -0.1813663117685067 -2.2427232270645447 2.3443792759834605 -0.17354542594653108 
-0.5174159000029548 0.5203731483314922 -0.9277506179764324 -1.0338628148980678 0.2039944239489719 1.2579995099639407 0.6956651538718719 -0.9770916412640113 -0.670310119512057 0.524381964070382 1.736217904176232 0.10498830903184085 -2.224793165180966 1.8244368788308558 
0.0019386393629199992 0.23371536279720476 -0.2867275941811779 -0.7294279976264118 -0.9254800861775765 1.4377618692430143 -0.20487883771079748 -0.21158678826410185 0.8994055283523217 0.5365705561286263 -2.1717850278899946 -1.205735383440519 0.3555338957393942 1.3951757170879888 
-0.8744936466598163 1.5495376666093652 -0.44472108127719084 0.7869966670149161 -1.3134584208125466 2.1820738160400603 0.7636528096799686 -0.3947917251157877 -0.28075212555278073 -1.7810641003326324 -0.016069495050134715 -1.246383581909527 -0.8796837854899584 -1.9495083028770894 
-2.323175368311765 0.7915444974865792 -1.0064541175416537 1.3554187155734416 -1.2996644863172808 0.8796412721541179 0.3142671287166306 -1.2192287271825069 -0.7103697836183896 -0.8508346672693212 0.20125158758383876 -1.9517054911801917 -0.25680342751975643 0.3749314232242878 
-1.258873682698511 -0.9267941631791103 0.2123623490323688 -1.047032419648009 1.9736655579164317 0.11162090678263668 -0.9221288962546856 -0.1077701002173427 -0.29753977898995976 -0.8716653351347523 0.08873630217193829 0.925693438536898 -0.030395712764839808 -0.3697046701867926 
-3.2367209038687177 1.3203842380951258 -0.6924258311936173 2.23158069242759 0.9122027128473784 -0.8509748086507682 0.6704444563796413 -0.2754683640301859 1.7251520317883893 0.302701033218164 -0.8363947980615732 1.16812943831566 0.09589774734405702 -0.8504455886395061 
-0.4603088249260313 -0.7282316150398541 0.17610816213551586 -2.148823395822466 -2.2199217059025025 -0.8844994747370624 0.035556586093349996 2.412966078130675 0.29090581077095823 -0.376492209949957 1.330821499010316 0.31114579080682725 0.3716665980812516 0.04910735663257953 
-2.856311000641826 2.0563962031928473 -0.21000774208417564 -1.2241977138227307 -0.6811464175419428 0.9454540898857837 -0.529646041339813 -0.09009842455639605 -0.3631941571348283 0.5514472995056211 -0.18510000994513054 0.9592559699455738 -0.2536193799628837 0.22736165935256195 
0.5110381929129156 0.6084800950269393 -0.24331136662518135 0.29801106573023256 -0.9797548375744939 0.9875229839082396 -0.391117876900099 0.8679800259848824 0.05872503003899876 -0.8390965795211589 -1.5711396278228273 -1.2242119623835643 -1.4364076347360324 -1.0261147510163624 
0.6267169030096715 -0.49960248576714916 -1.3002590509145728 0.260928124157226 0.2052206241700711 -1.0576492664774029 0.35139048624119346 0.07249621191007274 0.06595582000327666 0.49370722166723474 -0.25721006087702036 -0.330164291803371 -0.6684899790202762 0.42929075130807925 
2.0309847492657487 -0.08904241812083588 0.38024152208743794 0.3269474878033481 -0.714982908806701 -1.5222225016162807 0.5177636305625852 -0.602380244205782 -0.10966023284872092 -0.9289093353687721 -0.1966639784065962 -1.9858720285994604 0.5651583081165267 -0.01786260153201434 
0.820793440458382 0.684554657319744 0.7947435135710972 0.5552261169219477 -1.4250391792977013 0.5179967363740589 1.4459333522801792 0.35100245021184323 -1.0338576156322947 1.096546641831027 0.2942372765585992 -0.6699797156309276 -1.8428978874975395 0.3839808968364338 
0.21154527739284024 1.6659075430402746 -0.11314902639770635 -0.4810450011911608 -0.33993471700481503 -0.8329158008186764 -1.2458118593551526 1.238320000189941 -0.8455033147783282 -0.7439381526959677 -0.44477089522486735 -0.42828298592273084 0.8851486561704333 -0.600661745042441 
0.5586454410522476 -1.2603344073275444 0.18878962234476282 1.7059416885401197 0.22166001148404782 -0.5234566556953404 -0.915464077172376 0.11576721334047876 -0.3164395973345616 0.021661641432066978 -0.6698782579014485 0.4252145193071573 1.0231798282507913 -0.6325034566750485 
0.522593638846467 -0.42828615072113657 1.6494670999296128 -1.0039195035531177 0.45370760225456463 0.43065401608991716 0.7127059769317845 0.5743745996689211 -1.0197185847942074 -1.0953737889729733 0.3523352384247833 0.09280742772245396 -0.5291044658310994 -0.1334962649802483 
1.120345753208255 -0.37170675735365766 1.0019190728488574 -1.386284226341349 -1.426533520316999 -0.36575323010201155 0.3550835458054893 0.8906946695460582 -0.8945125880510438 0.6044534817948573 1.275198206070227 -0.7489285356572393 2.6256693293436815 -0.2884194807958409 -0.5915640069867163 0.28559594599475857 0.5937404875824976 0.5467727135390125 -0.047417979889888405 -0.3628765303853866 
-0.9744921640615062 -0.6117698674423716 -0.6944445238973709 0.3400045204830053 0.9293678796054176 -0.7688617424651895 -1.9165922345031394 -1.2725551888426585 -0.5100568121321256 1.1171047663620077 -2.1918440762118747 -0.022255312665849528 -1.248680262658371 -0.9809044671464369 1.4735399121736619 -0.2755761405403956 0.2343668287756301 -0.11453416879748789 1.9096623631271725 2.160619356707923 
