0.6552653671262126 -0.7861606529478185 -0.9777869944128798 0.2551685518781894 0.7823473035273075 0.4818008553707983 0.365554498163084 2.236687256311177 1.3265993989913893 0.49078231826210555 -0.5166589649291554 0.19342746978385977 0.06631054215888081 -0.4662718441264539 -0.9321526912774688 0.1077982965816211 0.4715799787470348 -0.7574942506618842 
-1.6590330880421027 -0.10378527728302284 -1.2673416255586398 1.8564423500336218 0.9042773330347035 -0.8503092909086937 -0.6843124807048754 0.5910900601695279 1.0339550199140644 0.2846703602385714 0.10420259138158679 0.18080262283107984 1.2758744090345584 0.8044172591741263 0.29490492223552445 1.0373853636626393 -1.3228959726199094 1.2384697056377367 
-0.09647952511184872 0.41610227374044884 -1.0486108751985381 0.24413125385119325 -0.2208418981423552 -0.6740737252624296 0.849943520350048 1.1728840628889765 -0.7903704920335891 1.2041958367348808 -1.1153885052886054 -1.6126589448869117 -0.6956301055856546 -0.5430624198603066 -1.0516087393352886 -0.669256431777999 1.6415886022979702 -0.5448008671708372 
0.6226780329755587 -1.63556810725891 -0.8637419207620365 0.7561475415774391 -0.7420442681499472 -1.7260777037737804 0.8111280332913641 -0.8966934789134886 -1.7112485530012707 -0.3490240583297415 -0.38175037084070457 0.38680813945150117 1.1192350743218966 -0.9552768192229301 0.282428621605243 0.5066703379842596 -0.5138570081446113 1.9573971206347454 
-1.7036209514636018 -0.20546670469694278 -0.1597820704015479 -0.7279828423314181 -0.9575537005790618 0.08248725834962321 0.9636242637419214 0.6838078619822873 -0.13253059300957423 0.6018925760286402 -0.9061604783431023 2.586872817507617 1.070564622217557 0.6066536615628277 -1.0437961402654796 0.7436935973867282 0.9714480699092908 -0.6682762083941957 
2.2407921868569076 -0.9487872035251292 0.6622494687828253 -0.5943791008510702 0.26601506682323306 0.24708545252372108 1.2155611289596913 -1.7805225037424193 -0.49419289329405863 -0.9194222478814922 -0.055701242032120825 0.30740928107610366 0.0282110007635465 1.6407289195300294 0.22431998312325183 0.7277040892226326 1.6701418609221759 -1.1344875997400259 
-0.4788737676909013 0.2632556134244432 -1.3411479914124385 0.5680846542125834 -0.5294875998194806 0.9881953495097371 -1.9767218418743249 -0.5952169148695994 -0.5547145338422228 0.6965718117826223 -0.0407521334769334 1.4164047511164835 0.6159284336248535 0.4582685175012946 -2.2292799924128985 0.5816601666270822 0.7063405886462362 -1.5011865955063215 
0.19912888326637398 1.3804412193732496 -2.0809892364414013 -1.1057273737452964 -1.7525723564453224 1.139748623131559 0.2746776123672228 1.4355192220746016 0.857779013361109 0.9609805306055984 -2.190507671739724 0.39389304943167835 -0.7491329886176501 0.5067618727555477 0.44759688096585676 0.7481901465010395 -0.34009801471971157 -0.09021438456814429 
0.09703777773116153 -0.9031963784679957 -0.1845517719207748 -1.0611518505791144 1.3057010885966487 -1.2341791219098233 -0.3325582929524991 0.20021234789565653 -0.24226648450360805 -1.1885784616632886 -0.2975498176961255 0.07961240884936378 -0.2832350039597386 -1.1400529019998078 -0.25977599418942154 -0.44609278324306045 -0.8082514838409794 0.5558339852197336 
0.5848162398962322 -0.9295745640850156 0.01149928272802375 -0.6084328046332703 -1.1681363429036136 0.5641966180990896 2.6163623332679546 0.9117399941756763 0.0012610953591258769 0.8955424326302388 -1.038089449323763 0.21286109821965327 0.5480980762998964 -0.2158855351581177 -1.0250532578229363 -0.9127603198791475 1.1171037925436056 0.12193168193688973 
1.7499571083734893 0.06717161959251766 1.7967407564472744 0.1422932547272656 1.9809994968004707 0.4242214052542714 0.15955979775793974 -0.42687977494582857 0.4037541007304353 -0.6561260742992472 -1.162310119672481 0.26858800312659287 0.5658120203073086 -0.771066582923391 0.5627182864961832 1.1597052028915047 0.15069182294462835 0.6788577471922115 
0.5036734714366337 0.5312964506885275 -0.4166763734302211 -0.4353161052865018 0.6963381287083844 0.03170092771923517 0.7389755268408058 -0.4045002338446491 0.5350841870343198 -1.6668967837308473 -0.6404902853582001 1.1883615988915883 -1.0918645911655442 -0.7946243362267894 0.047528263185479404 -0.18969738422418983 1.7976220473087865 -0.14674733787165287 
-0.07243100953842974 0.21027308835080702 0.8843546586882934 -0.845715974104472 -1.3770447764261784 -0.6585219523917515 0.6810647408656713 0.6981222772826524 0.3609744867071864 -0.006897525467374562 -1.7064928484258468 0.4920765164391539 -0.1983565185740243 -2.710756595942905 -0.9709569112463284 -0.11112845496327117 -0.8453373211307043 -0.15624619026321562 
-1.885434279802836 0.942249618000508 -1.10216684265014 0.00738557319513408 -0.5595367079997969 2.0970630043925604 -1.6595810531758803 1.5276772338351787 0.19049598772240195 2.370291158969913 -0.2685802260115349 0.2182138645572189 -0.1329368176109776 2.0328523381160672 -0.47432783205640655 0.851124489808053 0.29660640094577917 0.09804436070765916 
0.853195061242648 -0.039951434669744594 0.22959315481971926 0.3972464765378564 -0.8334666324144487 0.5289439105272508 0.41052844252364395 -0.0022965075173974215 -0.8685405705069703 -0.17841086853582133 -1.5540327972551862 -0.960860386768351 1.6045391520112404 0.5694568115980604 0.02622252567261773 0.793480176373248 0.11983924220730545 0.36931170549168585 
0.19934774922408555 -0.34858521559507755 -0.269014637170812 0.18753729376393183 2.9164373807193673 -0.24831084484537566 -1.6018428900513113 0.08884741143797333 1.911202861052426 1.9356810420523172 -0.1850124088455835 0.7112047306910144 -0.8217765697041439 0.23350885773440594 0.24575504362349015 -0.3427826204099097 -0.04443032729789076 -0.34270626789686925 
-0.6587866748237488 -0.22679328813786287 2.203501034811018 0.4237875417222981 -1.2152054808096049 0.3603849359422399 2.514404761016766 0.19925567791710627 2.3618834518550083 0.8090777409386342 -0.9948751134077963 -0.7735312850899446 -0.5701026212964907 0.21794191249530934 -0.16614822671859525 -0.664572779675691 0.5374150651983245 0.24496334702689443 
-0.7048308271915228 -1.4429523945540705 0.18526054337504222 -2.2329373292908166 0.026463656372660127 -0.1875050539842243 -0.8089480720437583 -1.2672983235295396 1.193451428429339 0.11306630075645388 1.8497048998767667 0.9535361956604135 0.2812895699577209 -0.18791384376893533 -0.8847710793305732 0.4287563978692375 -1.2483551501524286 0.6152548683615956 
1.585497638587684 -0.9276344798900159 -0.009867755615434477 0.9661767495163062 0.048457931889535504 0.2657486091394723 1.6327942960984896 -1.3026100010907293 0.490707520472333 1.0018241605176106 -0.014903091955158349 -0.5136564021013384 1.8068394519064812 -0.8504690441697669 -1.6434035035698509 -0.14353782968426443 0.1181227429221814 1.4673391884667566 
0.8376227245120851 -1.1786073236359336 1.3190884749743057 -0.11042357884370507 0.580842287787867 0.6642417561895703 -0.5919705117728808 -0.1871288306809568 1.9113164880274944 1.0198027674289172 0.3118229731813591 -1.9044422770475813 -0.396728636846462 0.49786463058522656 0.984190456392583 -0.013453094125613168 0.4430101124198682 -0.7134931811357667 
-1.5994908253159885 -0.7306344372351128 0.38906765151821643 0.37877991507080444 1.4055754603726514 -2.4577067002623987 0.3385703374692909 2.2575692530483655 0.3482937718707365 0.2960453044138015 0.8452987897431472 -0.83350392982451 -0.4082018338015063 1.0615415709236973 0.07372127014561387 -0.15920167369044258 -0.6656296802498831 -2.062967843763473 -0.14942077261531658 -0.1759996079950857 
0.7704495147221251 -1.164942936797186 -2.5899126130395107 -0.2787734270522005 0.07744773045675865 1.7668139707277923 -0.7652527696745715 -1.0709911359349693 0.43578593120355996 0.7106558588149544 -0.9187100641111144 0.6986236786699098 0.8432882150756478 -1.4777409338001155 0.5440311127067379 0.5307680103900383 0.38496619386673175 0.7957277265706003 0.41587195360270185 -0.5562926936636127 
