0.24514041006242002 0.34188967047823565 -1.4058724499335644 0.4697158166773826 -0.055534420665746695 0.7016257553366987 0.3133160176217751 0.6425410416664918 -0.7931757690102648 1.6571611707623706 -0.431407077416663 0.3268663373195743 0.3984325799124041 -1.0332786140116674 1.2102844035800966 -0.5847374218137488 
0.963845492225131 -1.4396381284557969 1.8780547791567686 -1.111827567652385 1.649734666314919 -0.6211042832094563 0.4022645585053848 -1.4177068742238916 0.4826589782848027 -0.15152926165331457 0.9036782508975572 0.7382447912590265 0.1519443492067802 0.6257802779938316 0.4787988325771352 -0.6016655144605496 
-0.15073166269507976 -0.07704530672690776 0.13336044884252063 1.5039212685226249 1.3480956944557383 0.5029198916529145 1.4489943460895518 -0.6314056382061932 0.7512371746233961 1.3464998153710455 -0.295667026236265 -0.7884453517290072 0.35564314255893653 0.693323082997286 1.278375730279353 0.18400248363738064 
-1.0407298501439963 0.11684800985404704 1.686233901760863 -1.2243466684082367 0.18667605436980683 0.688539125477942 -0.4010656800178251 0.4808550059704385 0.959364323720227 0.13168547230792302 -1.462124139200656 0.531999475470139 -1.5296791063229593 1.109348509353806 0.034398169734738665 0.05552699690874949 
-0.2354638317234636 0.09884452486221444 -0.8007022395161639 1.4509560734560076 1.906559548155464 0.5011676367456458 -0.25508159031075167 -0.6618592549089919 -0.7380534619319653 -0.74591576201779 0.6101168838260598 -0.7652432745098094 -0.3128759140916595 -0.4135929422661064 -0.15975603214510575 0.8681144825679659 
-0.9190045285508225 0.5361714237189282 0.26611624725160415 -1.2607866126565024 -0.7087380159879403 -0.10484686560206159 0.14152096478200957 0.5229018040251157 0.34562027804628215 -1.1575917211870146 1.7003476181777297 -0.4249694646676123 -0.5078580583824007 -1.4081278360500435 0.29815732168947634 0.8675450029461675 
-0.8318576365912703 0.6651599704615739 -0.6146413646256623 -0.19733390113033877 0.6744158851178559 1.108389669893081 -0.9662661111077032 0.7772408626839868 -0.23182333456493587 -0.09439350748351764 1.369880179417733 0.7603436955542616 -1.2339574657486134 -0.07922545995706741 0.37256106389267646 1.1248765124059454 
1.3546661633857102 0.46986054512875547 0.9542695369476799 -1.0193191468539986 -0.48971371533917674 -0.6591855021148885 -2.863900510670915 -0.7053039661955393 -0.4459023005885979 2.5722878910979237 -0.6449951729434193 -0.648821878000793 1.486168380663408 -1.1263388226901239 -1.8172413569173935 -0.5250866306194493 
-0.007677012618791916 -0.2919722707426751 0.5585818693478548 1.4965159337401805 -1.4292482356455374 0.09012388665275478 0.6217060273980696 -1.009955841125854 -1.0698263651888227 1.1458381127925388 2.231795351465862 0.321980322732003 0.5622349211276773 0.7157296556290869 -0.9671201771763002 -0.49095190527632143 
0.5814060206640956 0.07479479028568253 -0.7021408372401946 -0.10513061583770424 -0.8120223973411284 -0.3511325988114206 -2.6743593770232796 -0.4473895001153296 2.380530761999475 0.20603124128107336 -0.947918017988769 -0.7557156806521569 -1.560753119299912 1.2618323277631867 -1.3825259314881595 -0.3304492844914932 
1.0394378792433752 -0.7508089870096233 1.5071270884729577 0.4965111956413828 -0.752543210240006 -1.3891443695597054 -0.05784362644128423 1.039583561273203 0.3557754064453092 0.750377503168865 0.14246541813858077 1.2700288357714922 0.0699124021785271 1.536050803177159 -0.6411574620810758 -1.5021745047817558 
0.7025205309154161 -1.8582117248879333 1.3869806442539276 0.5726320899684775 0.4075816219743443 -1.2415414823768014 -0.917387908764492 -0.0034236491182894294 0.777175316122015 -1.026431934247738 -0.6676877180010605 -1.2883681469921626 1.0615826406328106 -0.3024640023537974 2.2460034800692354 -1.0123888399825938 
0.35780014805538723 0.32061956948687587 -0.4763582397625222 -0.3154747585896684 1.7624611448251488 -0.07150006779088772 -1.2123400118911807 -0.5814282323180241 -0.859785751250302 -1.1890044324293438 -0.32942644093771806 -1.1010938416314393 0.4995090883949456 -1.1430593970048257 0.19375164453367835 -0.5677396334091062 
-0.2865251726277966 -0.9717179660988564 -0.2712112479121954 1.0047727794007721 0.5369606576620823 0.8365177721017025 0.3952949573059802 0.3717079661998477 0.3913001368947104 -2.67752952721103 0.6686474188014125 0.8467195373900336 0.06562393637440352 -0.36672815405451803 1.157987225586385 -1.409186081059372 
0.03190939878969278 -0.8769300405058225 -0.24913577368471318 0.7007688026452112 1.1012970060676481 3.3685921833679 -0.4991540022813643 1.831928211873349 -0.3323394157291589 0.1426518960376637 2.301226354499199 2.391362016034438 0.9187346224545114 -0.3192532447322829 0.4308472986582503 -1.012622022649799 
-0.0747852480138381 -0.7233234552660494 -1.6790533986747234 -0.8820466082710248 0.9348820780438571 0.7282043387995595 0.4866228299257807 1.5348495534672535 -1.0791590600809318 0.3603374674028837 -0.9698031865363843 -0.307046271042513 -0.881105459676606 -0.6213892539820507 1.087447033524578 -2.0640922487008 
-0.22069791687223747 -1.044072692641528 1.557738148192128 0.7549900419855243 0.25022694574917986 0.15793590256302178 -1.1397114445371812 1.3613426003436093 1.0789867972662686 -0.03410921522926237 -2.6833042295685012 -1.0432105843198796 0.9060870123653861 0.28007259365842563 0.3304571149949813 2.224147500670029 
-0.4772254756358768 -0.6266289722401691 0.3418667360867449 1.2962079690682664 -1.364119815412749 -1.0890873061022879 -0.8186160996427521 -1.9584112092160324 1.2361056096478344 -0.9438425849112212 -2.4139034954363683 0.2423441173980499 0.47841325568119686 0.6044272586595332 -0.7010829842033078 -1.6310235592993456 
-0.41763727612199214 -1.1840372657188363 -1.7409874158403782 -0.835977488441056 1.440961996695306 -0.3945639805087976 -0.452878475664288 0.11988290935843109 1.0552649419459723 1.5291754295506106 -0.9870461673473611 1.096717833540494 1.245269069077622 0.12149288941434329 -0.6966782563280971 0.004458820373231788 
-0.6853703515719882 -0.7280056935004934 -0.34755870792354515 -0.3908991882904057 1.3540705752328708 -0.08096094676588252 -1.0886355733763613 -0.06718659989677613 -0.713185189362761 0.463683781730416 0.222717334039862 -0.01368389641393278 -0.3940036851350841 0.14423439574212663 -1.189448705713147 -2.011273729431848 
0.7552681054705306 -1.3966748755182106 0.15218584264911247 1.0395919386907564 0.7934061825224346 -0.14885475760125116 0.3297829432516901 0.7755405951297307 1.0769717254994884 -0.13163361942690413 1.7180725901331 -2.186887477848406 -0.28089000651908336 -0.08810665782440619 -0.5385236475488192 0.7568987124555008 -1.6480405182339308 -0.08430593090399956 -0.7651834471572476 0.3982471752815313 
-1.4592950947177106 1.6532984623967932 -0.5762698738583483 0.74427009755531 -0.034156491052062206 0.4791389591940029 -1.3610374800885823 -0.5304528379868869 0.9933754271456221 -2.4467374926735155 -0.15244879129494723 0.9935117575247648 -0.222564565393758 1.1590234234055419 -0.27552413867920833 -1.1075854333793076 -1.1022089414650647 1.9181904590028795 1.1585474431035239 0.07939942514970486 
