0.9880852246395986 -2.073877912662898 0.006251432095303091 0.09067882657284411 0.23428599069557168 0.5607516387544559 2.473929154604347 0.7110872672848871 1.3896013579981707 -0.35414735590784907 -0.4022057227648629 1.8413105480713048 -0.4419581678059713 0.9796007250756665 -0.25261592081176404 1.3807272799639374 1.379312077336693 -0.4199166107434492 0.34978025480528746 -1.14070652038648 0.5717317743213728 -0.4476834085132483 -0.6367710798815425 0.18672542281303714 0.8396582453088023 -0.7796706505241029 -1.5641891308754086 0.8719876502097825 1.9332957459977806 -0.7268736366387761 
-0.6522736223641785 0.31796811943269965 -0.06123378517321671 -1.2271675060359784 -2.1133403412256406 -1.429431953574674 0.8472820273736678 -1.74514520893916 -0.6319041699779272 0.10840151806962894 -0.023103476111177166 1.8444574952750008 2.086283285064654 0.05675142255570421 2.1930526868743105 1.0581415361134803 1.0795383674827055 -2.4723030686048153 -1.4044549259800705 1.8193746203752137 0.39742777577086813 -1.0772493889633348 -1.3264672313352628 0.9579932233642875 -0.41318822380299536 0.49026543015406193 -0.5790782858923805 0.08361090822439413 1.4703197916560629 0.819785246435456 
0.22819829976652234 -1.8033692232079792 0.0619426694246863 0.5621885117745783 1.8350215473512514 -1.5975529167757783 -0.604466256817644 -0.839328040643851 1.300185714690054 1.130236525344899 -1.5170599671721487 -1.2983672952202194 -1.216425675198871 -2.073121034274923 0.7608858468336739 -0.2323975940899793 -0.28245976373225257 0.4737070919333662 -0.46550976819165424 -0.18898516043417177 0.5487682049980609 1.3688909360136918 -2.397840017958134 -0.9530876004346283 0.7906320780507865 0.46819909873207516 -0.8496388006374472 1.0782013262243861 -1.13349869336641 1.3263870741737551 
0.8382851981181699 0.2631994986709709 1.815897135340519 -0.4018539675097029 -0.35287295158923326 0.09796351260920971 0.7513354878491985 -0.306780588144159 -0.5259318508295967 0.9600192818166863 0.34643317473580204 -0.25531022548946697 0.062102402917461594 0.053998695508451745 1.804462035289274 -1.1199609793620893 0.14999477037841527 -2.5928877250397457 -0.9746892844515023 0.41997641721723017 1.8746602725167263 -0.4074160215045803 -0.3672636297978423 -0.24766035308277376 0.410366041290004 0.3802611352130077 0.4871108819685763 -0.5851875247142255 1.2009631577825912 -0.40565765455239106 
-0.634870713926265 0.30588436514338774 -0.7579854446295716 0.22723132497969575 -0.0049041034391927064 0.66574881693012 0.030658385078828235 -1.657678019926435 0.6439611482268875 -0.7818734802591851 0.862924925135072 -0.3380136071930465 0.28615957267858516 -0.6925001621473819 0.05050239430665858 -0.6270596949938559 -0.9050984958787014 -0.07755268212178057 -1.1790670214250323 -0.327645890494701 -0.6371151775549269 -0.4164184971015848 0.3239658665112839 -0.08455044217637311 0.2475955465782545 0.037890862819707785 -0.5887409176032535 -0.0474682531280303 0.3377987243741744 -1.3481376190515673 
1.7737389912923103 0.9239850127757211 -0.8645599448811657 0.7168242552315693 -0.13449171435974036 0.35764552798565374 1.855162294871328 0.4713828017370837 -0.4946703033447977 -0.4752982249065385 0.7654620064928822 0.8706988159417255 -0.6886330350786695 0.35029481386644706 -1.0811085628801833 -0.5958037438908703 1.0091956629236256 -1.3058348645497548 0.8416589449905961 0.24331701664493088 -1.2501084870358612 -0.5577409956714265 -1.5532637991476115 0.11236533543166981 0.5217928417076027 0.8881215442466719 2.1625472771550336 0.878425309239004 -1.5904364081317643 -0.6498248594504968 
1.1391611745165826 0.12129800595779758 -0.292763903625547 -1.3950262747030096 0.4321549051800675 -0.8284692944455391 -0.3544961412381422 0.8648469197622342 -0.5039062234211872 -1.3473944894417644 0.9439882070351991 0.5106443024563168 -0.2334073737112388 -0.9889011790283132 -0.6030102296294283 -1.4235761487343734 -1.4890686514000928 1.03549988350854 0.15425474173982273 -0.1500008588653428 0.43679481658563163 -0.27094818288374706 -0.07703074345093536 -0.5312401809474959 1.4784485170770285 1.1161291782965732 0.04557626777031079 1.0823631289285074 0.2791628778448548 0.7157124956658603 
-1.5565026671352924 -1.4271557251194456 0.8222160688482727 -0.14093665508220019 -0.6446937347926645 -0.34431468229795936 -0.9006221499535833 -1.151166034473351 0.6310376932745313 0.45241958019960526 -0.9236145350785658 1.4939733132313573 1.1614718304448266 -1.128085301507979 1.258054997892768 -0.46316899825744684 0.2992800041001122 -0.1902046790212999 0.8150772610646387 1.5978098452218052 -0.4549787686945751 -0.7455747688700234 -2.585292677932228 -1.0773402206623117 0.4214322787146316 -0.941817711162331 -0.19022797686905665 1.1292313368487363 1.4829369046496754 1.829930273849802 
0.47856720096383937 0.35549012212754655 -1.9172686501337126 1.176844425287649 -0.2784831099031167 0.6164571710240159 0.1904171147919614 1.2488467341739014 -0.3997260254066335 -0.645938090731172 -1.3573729105774648 -1.4151727773385567 -1.1194175673225615 1.710232192955766 0.52857023625894 0.45750822660391643 -1.2965645142009914 -1.09290090124749 0.18012807861751037 0.5496019833426938 0.26589268980424513 1.7944155335434926 0.33379865359259353 1.942329277696213 0.5464294255764179 -0.23613561405521105 -0.4662116288750404 1.587698549177134 -0.9736499382401885 1.1492974975734211 
0.2573196449036177 0.9113696050240423 -0.1669166958359203 0.2393159857955809 -1.2147825761716735 -1.0542470472229961 -1.2034946221238878 0.09142781795917547 2.1991312918849704 0.7556402258821177 -0.5531133456331271 -2.7394634509869933 -0.1376846312027222 -1.4039238612175662 1.5539228434811447 -0.08059041768159478 0.6110568249701669 0.13382732974158487 0.23078772441395104 2.142162646708007 1.024524227712705 0.9795441596138786 -0.9507840849185085 0.5467988766211677 -0.24961872416260042 0.21956301778589027 -0.2984247262164648 -0.771280292513969 -0.6821161484843701 0.4022307871834134 
0.4498834527995962 -0.19623228999895945 0.6875109986583928 -0.21331871405351358 -0.6299478034841107 -2.36273385503349 -0.7265840724036675 -1.6590317423401346 -0.3947833316851708 0.5163545082246691 -0.9113617514058633 1.2805378463426114 0.14523885256173957 -0.343470949378278 -0.33668438430029174 -1.0857791172149363 -1.320606908394264 -0.43491715512772827 0.6774586396913755 -0.5331320751828464 -1.386298915684846 -0.988837573235212 0.4946335413403137 -0.7459340981346639 -1.2812856159855712 0.7494275215590386 0.7359058552143545 2.1690959612673852 1.3429864690778417 1.4674086900151333 
1.5885704708873272 0.3201017102711436 0.7923359265489621 1.3714088778597173 1.4176541071145041 -0.2770138634155159 0.5454617538422677 0.190912599778331 -0.25172131481553855 -0.48280623290436786 0.9198033834675768 -0.24596971027064887 0.9288320772523877 -0.2543199410939941 -0.8370906746874752 0.7724195884551559 -1.1498759839475388 -0.4888871459290546 -0.44713581380940864 0.10855867973708419 -0.3869582124029164 0.8160549298505343 1.2307758353453722 1.522937479859258 -0.8618617819091557 -0.5487867078665634 -0.3222613067259966 -0.8199178870513711 1.5227519946874755 -2.128317533375902 
-1.261982701953958 -0.5621601130481356 1.4076591201518713 -0.956153515513017 1.1729226767667291 0.4607188336922408 -0.36422676299137186 1.3991133112718186 -0.13491917679423696 1.2635794718105695 0.328261899097158 -0.773238493669336 -0.15455586739259086 0.23630114085434842 0.7779292020832449 1.6428835273552658 1.0445605859726317 0.3668269441236938 1.4798240917247867 0.6347652425004501 -0.6448299668583031 -0.5000538882712321 0.619605442159321 0.14729131541598484 -1.1916668513232602 -1.0819164940207118 -0.0027977139979983917 1.7047576755506395 -0.29042725509298944 0.9239574516452302 
0.688709928290654 -0.05941334124056106 -2.19975959163293 -0.5113106821648753 -0.9873279062669292 -0.4862585887588588 0.49906846197997906 1.9269066330809885 -1.3447641348636656 0.7297210705310473 -0.8431751257108674 1.4022695708208954 -1.2390410547985615 0.0567532374814866 -0.49115406909057246 -1.88892167521603 0.9030166259376099 -0.26823607349751494 0.4040624224325524 0.5700339945063666 -0.38684410035241484 0.7688505148360723 -0.8154139143825786 -1.412367000934481 -0.8532467821659118 0.2141027399059572 1.498500145103569 1.7399922146945777 0.23800331589021861 -0.45751614038913724 
-1.123888722871472 0.6187020855235649 -1.1611734671662715 1.0259961324922082 -0.1787151368809466 1.0309282865134974 -0.4509320290596916 -0.5762982813812875 -2.4622408941917255 1.3085366471367055 0.7293579836799148 0.7333723604937453 0.17181546029356778 -1.5162668244998798 -1.1229080874347215 -0.9967420173092817 0.7796985305957438 1.8285413189623527 1.070791661497396 0.08189404900312428 0.5579186862939772 0.4364971779859286 1.2881540684976331 0.26898552878417287 -0.370180685476139 -0.41554985756315777 2.1302694105952953 0.5564742611024757 -1.4258030858369368 -1.033505489904684 
-0.2789511802511591 -1.2989383777076706 0.05519074426168286 0.34960968695672906 1.3719410533443681 2.1014769097127632 0.7122424115759373 -0.43452115268047364 -0.25368628705775065 0.8939527850207786 -0.15239017835812765 1.5699080565052332 0.2972751722620998 -1.6370847421061183 -1.0409391591897288 -2.061263379081405 0.4849540290694459 -0.08268918843706272 -0.09693777291758973 0.4231750218143032 0.9040469955009662 -0.026717550738678965 0.27432554097800665 -1.222662343937317 0.34872545800832827 -0.596959938855067 -0.017888919153622177 0.5808786724966795 0.5404407232264536 -2.1009984433107785 
-0.4100789564082599 0.4434467446794771 1.7121574310751453 0.4056926229654842 0.8308103369050972 0.02654142766618196 -0.872829231173257 -0.2625414360408281 0.5093691387575352 0.5691048701685405 -0.1847226283324797 -1.1766402501167588 -0.1677884892128215 -0.3579096528551338 0.07470876672807869 0.1420070810066952 1.2724123738510482 0.3282683445429568 -1.165661237104489 -1.212902684916278 -0.30176245728646683 -0.054397414592364496 -1.8387014060203282 1.1007847735704313 -0.9460624553322173 0.3467109449600802 -1.4930088503864063 0.7627922919411717 -1.1542098401495586 0.18389323401622593 
0.34505997250476933 -0.6202655073602069 1.3037328752163235 -1.591038846790872 0.19659877347828322 0.4886699194670269 0.7076009083116795 -0.40006745803952043 1.1330350633834112 -0.8277388179013321 0.3212963949392182 0.1856533192217259 0.45958165095620246 0.7806837023652197 -0.8585879597356296 -1.187633490645014 -0.35127771761396903 -1.0464186273969693 0.5182918824468699 0.05312369482280815 -0.4225571007794636 -0.41674601531063943 -0.5830661197103474 0.5829496497591554 -0.6664723775821535 1.150998506681606 2.026291926662057 -0.602607642134514 -0.9676795099353636 0.6542543723758234 
0.32439461354063814 0.9607461590235176 0.20378702124671633 -1.0296896129110795 0.6987311962459652 -0.09369100947037491 -0.23411589871000543 1.021662404313707 1.4339832626343147 -1.1184434203427016 -0.3833642122812391 1.2117581708466387 0.848760496079057 1.91171489436983 -0.8628073971170717 -2.309893629279687 -2.0151267101304717 0.762502447048984 0.8697582277785688 -0.38867865824055914 -0.29017892796932226 0.11728622659281954 -0.5628892842494964 0.3702992298061018 0.08870095924344427 -0.49936921392088895 0.5923910742126554 -0.06377624055244235 0.022949344891166377 -0.2703380920517423 
-1.3172003221338544 -0.41589931430105087 0.5931612477564547 -1.2778443194965021 0.10258402887764254 0.09520574838174886 -1.6567434397171885 1.1643171052977888 -0.025032953171409834 0.8974776793441577 0.4620800166714438 0.6653962331785345 -0.011160961788182301 -0.17947373737426459 0.5553803205332272 -2.1123086038841263 0.49497604794303185 -0.6874607775539192 -1.258588155563061 -0.22299922240175257 -1.9542848984899093 -0.315301134766121 -0.4489197600600584 0.5991870487686978 1.4572996809410013 1.4288661841384 -0.06358703201574621 -0.8476241765585304 -1.118274635150912 0.8692294752914003 
-0.28305736027223444 -0.9990605786139597 -1.3530068247167735 0.6985941455125206 0.9893123986471697 -1.0142300492817893 0.9745326407395495 1.3494911247238834 0.12192275240860623 -0.11583108970224482 -0.5935266986531031 -0.66732413152947 -1.9916731381950956 0.09298091019184028 -0.5759338453203107 -0.04674354927895115 0.4009326770579573 -1.5060271141418389 0.19203459868450468 -0.8372687129150665 
0.9263777584334187 1.397464668635728 2.574696473969026 -1.3124287245430961 0.172474750706629 -1.8002309894532786 -1.2557155661704853 0.19591650434797003 -0.06451342055519693 0.30203191633609516 -0.5043358232806425 0.2612250222190865 2.4827610090643586 -0.2412553716299762 1.9781700648793035 0.5770691785936939 -1.5084474680662192 1.6262005447583476 0.44596656691336056 -0.27831934991739216 
