-0.9203170525195397 0.7791933696456949 0.8711587815407676 -0.2278346841080144 -0.012539573551001678 -0.5529026094484107 -0.18380890047724316 -0.39437781845698483 -0.09931047478970623 0.19901251609615428 -0.12687245114512907 -0.24245763357970515 1.440298478394002 -0.13700930700169836 -1.3025911366523237 0.5410438542236894 -2.0535077547188396 0.4224670270117675 1.2336751193345694 1.484783215538607 0.1617567805624603 -0.2395688304357836 0.8283706411121159 0.37915504101819103 -0.8271825409378446 -0.3623444097181121 1.2905776366988368 0.8006826335666292 -0.9044248886672023 -0.15784712788220284 0.45369523776365617 -0.6344634625340673 -0.5797423872486377 0.4417323985594167 -0.1897933900147119 0.27811310817290397 -0.30607159527847416 -0.02062725503057944 -0.44041245758063063 0.7342578676791024 -0.7361706837396597 0.03335888328665317 -0.41380509264481047 0.6268155030881148 0.35931066554898855 -0.0398198090497533 -0.5440570175065027 0.24737611074367127 0.4731256651009099 -1.032112540806775 0.7288538616771931 0.4533958555101488 -0.456489817452032 0.12175748192088595 0.019437440677331372 0.544017878933544 -0.9745096731874043 0.623426255122053 3.1907855636193045 -2.6734508244305877 0.006759012430482826 1.2367528911868744 
-0.23864621733608526 0.8010462959930462 0.2340868866879854 -1.7304735365285073 -0.3281511947193508 0.7143234853143106 -1.7032000126171083 -0.25741650057235893 2.3456220745087593 1.2192068069941688 -1.3766140477760682 2.620507465803005 -0.31780358294991584 0.47364390016026003 0.5360955578550197 0.32666119737824767 1.4259052951726416 0.07675552841248329 -0.21813820929111885 -0.44087105027071644 0.5080545413455817 0.32510773808974497 -0.008398280269378555 -1.4084427421098 -0.7015515306191311 -1.0911245250950525 0.8197333108631408 0.5356058438380117 -0.41335880703259076 -1.065574907633918 0.13905786185336763 -0.8205111111764366 0.6555545727304071 0.7082090264730885 -1.0193843873061537 -0.12259952293421675 -2.4842067555622913 1.4929778121996298 0.4185088770241851 -1.1284097364171177 0.12589159146974732 -0.8432389223928807 0.6423778871041038 1.935380609372266 1.7594998342717199 0.5779767945295621 0.8214015062167432 1.2296688937828244 -1.5069208010070332 -0.2939042468213944 0.6992815078225716 -1.3046461388950235 0.2925953220410898 -0.5348031854517582 -0.022754537540983253 -1.9828033907623905 0.3328716286240806 0.8493780673247456 -2.380048322299505 2.09219631639597 -0.1873650862812747 0.35494183027773396 
-0.5839595831919641 -0.48775668094517505 1.098843624203116 -0.4699822648584599 0.7804771657425584 -0.8812947334281577 -0.858311265170997 0.469034609692034 -0.7836386014263097 -0.33864130848298457 0.11503579340917264 -0.5267461995750516 1.0726184968485124 -0.7232608712147914 -0.9902773276998429 1.3277818322436048 0.8227706490607178 0.05863444407919827 -0.9691265869315199 -0.6076594516994218 1.6721376575032312 -1.9237169940695469 1.1904471956363059 -0.17577425776252625 0.12639121419085708 1.3692620137171647 -1.350867643245955 -0.7633357464554212 -0.5862037818643804 0.13513636519813202 -0.9048531067342698 -0.06583393453002175 -2.140094953297686 -0.23654710821008812 -0.3205928504659254 -0.16799441694068915 -1.601435136827447 -0.15932903865699286 2.2982583146013638 -0.37926203301964334 0.04705129865824 -0.9729542730743085 0.9883137644121173 -2.068554338521759 -1.4331197113129956 -0.30944976131377555 0.2795150007305925 0.12750099320229993 -0.5528190516042661 0.40608623559323553 0.4876768747577346 0.9985612012028253 0.1307737534038808 -0.9983362093774659 -1.6968902512658488 -0.6306435935885487 -0.9366694442014252 -1.3380509028750827 1.5469855673532553 -1.1098332753574098 -0.5350060865487247 1.2236325285048002 
0.6473526466115074 -0.5098391147404052 -0.29878976019752446 -1.341274397467982 -1.031290605327137 -1.11748326841764 -1.091527321876893 -3.0308615601641615 -0.18819607896288099 -0.6462267609619672 2.224031254887588 1.4816595329190536 1.4862350777356246 1.0982764341229745 -1.0990166980551113 0.14193952475112845 0.42501687883009137 1.155354395611981 0.6050733363585739 0.1998577110716042 0.005355431134468049 1.462341670157215 0.9880828774839391 -1.0323366715840223 -2.2516973065176815 -0.6537547738410624 0.615173423282088 -0.19144319633015355 -0.0026778911021735825 0.7200048391865363 1.6492155963905453 -0.7663641758365207 0.19123350142825832 0.744743593051786 -0.610378402014304 -1.2879604663970268 -0.2170164736687089 -0.12585635897969044 -0.11887350907850898 0.3766423957686279 -0.3583301643549411 0.4575108775616253 -0.01759001031230457 0.3338852561126139 0.36402692626639077 -0.7947747116676022 -0.14969918531043896 -0.0866551611232511 -0.2762252030149399 0.14639387176892057 1.2991298095787944 0.913490613524893 1.6851681168811925 -2.0661986530404928 -0.8050036864063886 0.3728156278752432 -0.8299476740167437 -0.11732363543501767 -0.1401833580002466 0.09906199000044798 0.3787758875948008 1.2698033036682619 
-1.7524243165967008 0.1724654728556979 0.8271682304612371 0.027111568389810662 -0.20732584854327085 2.575347195943904 0.7058406964806244 1.2191698490447016 0.7170722676519297 0.5318488227533251 -1.4010702921723057 0.7710953144869684 -0.005050855954904926 -0.32206339062772243 0.1882429113984011 1.667740170320918 -1.13866075694182 0.17170015855172646 -0.3865551914787996 -0.4863726306119642 0.9128759489938716 1.4439951499048589 0.6416133364938441 0.04016960166223863 1.0111695678109736 -0.7236773389444924 0.2372314746287728 -2.4474561597759186 -0.31764855093538497 -0.681023025268734 -0.6338569570288298 0.8335948687106284 -0.49378034456473335 -0.04520532409566468 -1.0863620314019062 0.19126104440524194 1.2548164585476715 -2.019658212509746 -1.2387715090688716 -0.8533202261830191 0.05309431744282194 -0.7985085489937982 -0.5118444778521261 -1.6180844941369625 0.4870132412958088 -0.567855750118157 0.21428908057911844 0.2451201547976762 2.078154117619435 -0.18995528118634114 -1.2224877691475056 1.6156709143028471 -0.5208590894652357 -0.75126129614693 1.7489063904536761 0.3964126900523833 0.43147127576917316 1.3638552074060717 0.7206526845844322 0.39047486523348124 -0.6163446182628545 -0.9374488003715613 
0.7251278861013409 0.11087237416440696 -0.1492620338938022 0.02364897015792013 0.4839721941375706 0.8283644264578707 -0.2244161503223045 -1.9093548529863682 -2.6460980693444225 0.6201844797857221 1.761811871131216 0.21491133440152121 1.3591706673324633 0.31934861411351434 -1.0516606507788404 -0.5734499865689953 0.9395970469125591 -2.5716414394500915 1.5406507736271107 0.2992754749211568 0.6922928695812189 -1.0262405923034092 -0.735141395886467 0.2861181762905364 -0.1464720693322362 -1.4670440100527191 -0.11137879865487658 0.3426313116917715 0.02710853084651775 0.8586376400843152 -0.16742877887356628 -1.0341110032244127 -1.801411661291644 -1.5738881868945618 0.013288256912628625 0.6100089860172462 0.4380445145745683 0.9836821624846561 1.3527028493613131 2.7647498252968052 1.1298246184124976 0.759191148205875 0.6536215955579902 1.0515495009932918 -2.2998614239960973 1.4775162489251692 -0.38973588958972677 0.7427404755663085 -1.2821951146467168 -1.576294474603752 0.9986679585594299 -0.027913718351014808 -1.5818940202109308 1.476202955685777 -0.028667953030913546 -0.6522192392571694 0.11893951048810866 0.3074504951809471 -2.7875333462123186 2.2682245467727586 0.8966979728738759 0.7436550015588808 
-0.8709983345824976 0.2633461439566033 0.06877727346342524 -1.6388616381553276 -0.010356540962969034 0.7816669499499425 -0.8693672455319691 1.553171652053549 0.8853791267608903 0.5340955164774098 -0.5010685442075179 -0.48366063733927067 -0.738938020534387 -0.2823399029984383 0.29677597376797993 0.6825479153254623 -1.6977273799671961 0.7277733697184176 -0.7269121749124665 0.8011021234639663 0.9849408482391346 -1.6280887013451566 0.20589915858306257 1.3099580905601962 0.040672393589290416 0.016250757363634627 0.3440218682543413 -0.5630251689043875 0.28956489342352765 -0.3535017567255631 -0.28510018054986014 -0.5465618752173207 -0.6554547397780347 0.31738256454993324 1.9867326506161964 -0.28546844686840006 0.26683075133948736 -0.9003046340681421 1.8808724571820405 -1.920252928926979 -0.8863326817764414 0.037715742157943925 -1.3606123794409852 -0.3545456404970822 0.6125163008137184 -1.6023737647099145 1.4725470374428027 -0.7654821221214462 -0.4627978883769161 -0.8856018710615097 0.23553289979400083 0.06782283097118148 1.4397474438353035 0.2538527815980562 -0.6914450650050975 -0.11978488898726496 0.06692969980507997 -0.2849015356879734 -0.09650589891101193 0.11324350334710291 -0.3573758001144092 -0.26093511523034746 
1.7777095735021442 1.3347721023024142 1.004407088687777 0.5352847800240061 0.7282935279744059 -0.875215597649357 0.02812255864070027 -0.5213191350864692 0.17394291551908045 1.1397874854752543 1.5573555505742376 0.45021392404244637 1.673145508723907 -0.5869269831583136 -1.4612194948481794 -1.8853364431102004 0.29943834333172803 1.452364966578916 -1.3797755980345965 1.5898784846117322 -0.45794074315243294 -0.9594130289530453 1.7709628411220155 -0.3080724086589443 -1.2419529231685984 1.261805590880457 -0.6420630452931404 -0.3555591663704994 -0.41421491831560714 -1.110723761003751 -1.400212475598689 1.470223077226412 0.9742710404089076 1.853280613447899 0.4727727823772463 -0.3534380168614818 1.335282931007625 -0.6720281674029751 0.20385259997264438 0.9792177597708754 -1.0250363873923054 -0.37662569397212653 1.035025194555682 -0.33240096490101984 -0.24090077551302558 0.5354356638958887 -0.8775332077472009 1.6035993249378266 -0.10001300375794678 -0.282713185976179 0.5767659479323862 -1.1756089716174516 0.6943472233852156 -0.310500679233742 -0.9086312571861458 1.1202550131090263 1.7201333537997934 0.14306928062948182 0.1437011694129745 -1.4411337604294328 1.163588375704624 0.3384617946125068 
-1.5570318540728525 -0.2516082276809521 -1.5342330440766059 0.19154618210429109 0.3820081054227392 0.6527088877209981 -1.3923516651108319 -0.6933817465687088 0.8028795553408625 -0.2202334147689438 -0.3980406536674477 1.5597407671321293 0.25394774022586425 -2.9321314965854555 -0.3199698282737234 0.33601912147123103 -1.2559170445619492 0.6825819558391757 -1.2851861352057408 0.14813102850577503 -0.48313797723050456 -0.24864931243643562 0.8771381445035448 1.2357722662617725 -1.7001624046470998 1.6139857920003484 -0.30010179401850606 0.34261282473262744 0.038390225938021647 -0.0674660226492717 -1.4021627241073646 -0.6699672767370135 -1.4057237564747298 -0.2957103513147637 0.7838030715997878 1.9883268115420119 -1.0658076210815115 1.2310218730028812 0.6376577214114105 0.21329011258525668 1.6552999796267682 0.5713980037564003 1.040578159245604 2.5293786849601685 0.7405382271115858 1.3533235149258855 0.01083760828237685 1.29683101514267 -0.2499569328794987 -0.04896906349452765 2.0469498831971484 0.2351354144512751 0.20719583970834862 0.42544715749930134 0.082067431416495 -1.108399561625037 0.3257158833448303 -0.27708218912215277 2.1894573064561547 -0.9090030252849588 -0.4118487258808693 0.3812368803332176 
0.6809473509853371 0.6519313665244251 -0.7937390177668762 1.2030510896017526 -0.12175478382151397 -0.17687196657330234 -0.8586789538659225 1.0225378797650164 -0.1020233688552148 -0.424241366188889 -0.4521999648839908 -0.14035000525806554 0.888273327063911 0.29134855893563655 -0.4350820767950182 0.36021754966589054 0.30927946253670935 -0.2420666984936698 1.348681503822819 1.3478626078396405 0.5346222057977654 -1.7239455552098106 -1.5497914515055133 0.5524638028627187 -1.0498309150262295 -0.5654921457228036 0.44386967296059765 -1.3485107809504626 1.7939071841391228 -1.2688063390226378 -0.02999551351276427 -0.7060351418034554 1.674220327631967 1.1535641223267308 0.3006567911659952 -0.2381999862719314 -0.11761819887122443 -0.8098700067623709 -1.706127232589577 -0.17591725596901756 0.6882955468541585 -2.0994312596783975 -0.47955866206700093 -0.1890235316581261 1.0803426888053802 -1.8770348780545731 -0.3949761980299484 0.6869308298744058 0.41445853847214237 0.49600607854567236 -0.6316296482822636 -0.6568787961183302 -0.4754679896914887 0.9528324297211165 -0.33645017715332615 -0.13850020847653466 -0.4052818255692556 -1.8703788792154286 -1.7564778154503635 -1.1282939731560235 0.7583093511640879 -0.7110056757064749 
1.6855818553804884 0.8596233847444184 0.6665333691764589 1.8736348292766634 -2.280526460175857 -0.5108351046210875 1.9070874473265647 1.9956480346913383 0.3385164915249322 -1.4437600279541711 0.15801079691243616 0.20171919061267415 0.7700832822293684 -1.430856249781765 1.123924928307899 -0.2358054476590622 -1.6554568783220858 -1.4435173084884876 0.9624837287561513 -0.29098064639445437 1.0842644251001765 0.003570056962888576 0.3339330156421187 -0.08549843232791032 -1.1982646884098678 0.6843682172245528 3.03945003981067 0.8428037993182589 0.6465022812551557 0.25245094451767114 0.3107938861020756 -0.8680080391979089 -0.8045668004668004 -0.4712285316965327 1.4407364352116763 -0.1921868756111863 0.12344139837204801 2.690335695279938 1.6103831023389976 1.0852624696216542 0.4802123804025583 -0.32443567965401 0.30612162726674363 -0.5149270369902919 -0.2078322469780382 1.5141257859213337 -0.30670389727001324 0.014326408651831383 -0.18961074655546384 -0.10250275817051098 -0.2550443359003426 -0.7247499088336607 0.5800332320274515 0.6983506587976078 -1.2920330067082104 0.6419556312531339 0.4479183008612257 0.2643133192173016 1.1536190685283132 -0.6961577894093431 -1.074752103619638 0.5079630858765459 
-0.323798778244464 1.1445880978540628 -0.4560169976273284 0.04354727869570748 0.15076446707370686 2.0394038872738585 0.31535655129235296 -0.6593241277470419 0.5218497511969472 1.1069005246734864 -0.16369433389149682 -0.7561921103007966 0.568389419911885 1.9029597345846456 2.0058002629355625 -1.155533089262973 0.16085920752316404 -0.30269428055385716 0.9120251511606854 0.13138241032913686 0.9922877823334106 -0.09774787438564199 -2.01847869278977 1.3716654922767486 1.1051155009612814 -0.45357045255061296 0.7792146045116336 -1.307213215626723 -0.31461313302222016 0.30380935155866895 1.063239927674476 1.5789679987704046 0.23172967162629365 0.17663350784755907 1.9235809978377176 -0.4164133397077377 0.25580694463651815 -1.7452994677642186 -0.7822669775745246 0.21819598875612364 -0.5793320669163792 0.13337129636417147 1.089843384620463 -0.03662743300339615 0.7264507049674432 1.8131817155922587 1.9104745398813472 -0.6370849033906988 -0.1528240797693301 -0.15520565027358244 -1.5006616289811838 -0.9116040207086746 1.1220738769788816 0.8999353687691637 -0.16465220936379135 1.0107687944048622 0.4864950507761884 -0.1021483886620463 -1.3681212488422139 1.462250902815736 -0.16874370624323898 -1.0223429419666532 
-0.018641413593770677 -2.1278925397349986 -0.1679101598527633 -0.6262632308065418 -0.16681084804348265 0.017403176786117122 -2.0803489500158316 0.007270601464128293 -0.5700235756534228 -1.1190606206407245 0.44712824737934626 -1.7001931836304305 0.9735252780003563 2.125257147367245 0.43570605295038917 0.37136826159047553 -0.7672936109927335 -0.790086688481888 0.04856170450974468 -0.03937162368510544 -1.4076576935845613 -0.09910505887087569 -0.03684200417102385 0.6016093784121611 -0.6571737330222801 2.172862502602339 0.7579561783443229 -0.10688003322228022 0.0281794601049951 -0.9163154692094667 -1.787350413496501 -0.1763571737455026 -0.40820670521669983 -1.2792892254502841 0.8625656552028771 -0.37162308376529196 -2.276263929360802 1.3066597290590887 1.5115492373713026 1.0317165289304004 0.514984946202282 -1.2817073814025344 -0.02790893245828594 0.3471471650368654 1.0531627470490403 0.6083779425782937 -1.5742828055319882 1.3088178680714635 0.5266124668314996 0.3801606108622544 0.7066718414216255 -1.0447248882592803 0.5238196391759075 0.084244994795061 0.4881189303888126 -0.005097799786199859 -0.9977648412866696 -0.9108218747117909 -1.6651557892935656 -0.3994612853611475 0.07262989219812224 0.5300271084461545 
0.7578284227944814 0.7444864839231846 1.1565286373003945 -0.8890137531487831 0.6036622049934943 -0.6756929367008621 -1.1190470054363992 1.117941150970039 0.1568815383990693 0.7497908340037235 0.3874332753327455 -1.0076721026821098 -0.544560562139703 -0.25042710622817466 -0.6542575306604232 1.7105272108332479 -0.38059667717902734 0.035008893860855476 0.26951706719675156 -1.7153551575593282 -1.3997130918087197 -2.2427189562412257 -1.7298906642563463 0.08067134870068397 -0.8058190751879377 -0.7230238882988076 1.9418758316448448 1.0824189656005987 1.0403103667960185 -1.0104831098638138 0.5395535734843809 0.262601653473392 0.8419273146177373 -1.0460108187646093 -1.0230637426414049 0.42806182588469494 1.0966821117778605 -0.5876397970676754 -0.4586888914652642 -0.6378835416055253 0.6705490924813851 -1.3811973292978124 -1.7710732966621738 -0.4456033952752996 0.9502390508383485 -0.633867036719347 -0.6489603372689605 -1.2249007447111482 -1.8618684321188674 1.0619381692530059 0.13930172156790138 0.12637970920689948 0.7364846007513327 -0.7454296532769208 -0.3088388720498556 -1.6098267567130187 0.6669334749132424 0.7901648310333149 0.05849283145645393 -0.5023065525874453 -0.28636643300785414 -1.9536222301817479 
0.2972016991032207 -0.03347480199926227 0.18246893687888247 -0.6534971416046286 0.7418218865934736 1.0690879157481346 0.41225123288135035 -2.457969796890507 -0.5269842415539102 -0.36363563331354715 -0.34425714791536727 0.9823131273620881 1.0267513147928868 0.8336220761977197 -0.14145577125032252 -0.8054278564132492 -1.4983793632904998 1.6184312102280924 -0.06203386917277099 -1.2730421925883877 0.8597602023231528 1.8597494400235473 0.2006436822293635 0.31530308155558057 -2.2958581197619936 0.7915467388769851 -1.1919745367278776 0.6251422071644945 1.5665200445534715 -0.4910027902325312 0.4230220759543146 0.5782087884058008 0.31739138379546084 1.1087393529285554 -1.9173146263502545 1.0391501935212926 1.8543152034401897 -0.6916181146198119 0.7076827312451179 -0.8079110293714514 -0.13557557511485574 0.2861163916836509 -0.885758914789582 -1.1807617345311647 2.9028747043872376 0.043132003385724246 -0.2162945014315954 -0.3845676174344248 -0.869635425824697 -0.037185968306364774 0.10802063253378404 -0.8516561732235006 0.48755707128920983 2.1736712983929563 -1.3565355443828038 -0.42353186275546134 0.6552382441946444 0.5445619676494906 0.7686877932516568 -2.8476019713702456 -0.7891328138446181 1.0316952727856683 
1.4286223131867128 -1.1605277340989355 0.37045601095796515 -0.01062967656306942 0.3126550660519696 0.3312567772148875 0.5735779663918071 -0.24895283135299517 -2.2479446331136774 -1.1813527153635908 -0.3930211979357879 1.1439869050988911 -0.06771074139645704 0.658905488719281 0.9074976361131353 0.22667317589623975 0.26772534076790294 -0.20707942326582665 1.1916945114199327 0.9377680976583159 -0.6228960988490089 1.995749820758976 0.9255784183936953 0.440178440559771 -0.4442962906460689 1.3379144006964538 -0.5711291422864425 0.22939066903600006 0.6206562910807134 1.0736214267773545 -1.887846690452219 0.13533637626262887 -1.69460913029475 -0.8247970535199195 1.217929050484425 0.8936652466047635 0.5928327128300499 0.1230201099014839 0.22779004916331763 -0.11789776291678492 -0.26595469259055643 1.3952907732448405 -0.031527965646709434 0.22375713795343596 -2.031001911909956 1.7003744817895623 -0.6443757854770505 -0.7704740575368737 0.7786313833251257 -0.1910931488259994 -0.07652890605717967 -0.6101009801044188 0.35732368961760896 0.9150047063458943 -0.07973502598340364 -1.3009514084892901 0.04651933333918864 0.9006281755607596 -0.087737161180177 0.6344908519311274 -0.2022372520426114 -1.403939256850521 
-0.20165179535642325 1.1845221443075538 0.8581707894727382 0.12347232225158704 -0.7034881378258896 -0.020898053892801242 -0.3803263534929645 0.995611896793068 -0.12206136097484996 -0.6179011270743947 -0.7962457228408202 -0.958183509332845 0.9439166380303176 0.9692348609655957 -0.2755205315266222 -0.3396857284438893 0.21864674680748492 -1.7657115307610471 -0.9281643341683599 -1.279306831440385 2.5242802238976374 -0.7894792871487513 0.8884912438820326 2.4349151333192864 1.0966442640836003 -1.3273128273416828 0.4829328792604318 -1.0650385782639196 -1.8088842447061497 0.13073697150519978 -1.5685334935110717 -0.1727279349290109 0.06506229291326354 0.7244281053921895 -0.5317845708971268 0.259404456018423 1.3061330688847015 0.5167744204092423 0.5653147655057591 -1.6934986382408592 -0.244893535978345 0.6296475601380461 -0.4671807659707315 1.2138381655617188 0.39467752996682526 0.5736200084609798 -1.5101506735083208 -0.41431851649270446 0.3108940111741231 0.7407078394051921 -0.8205048052906713 0.7848578894282462 0.6448935212452521 0.6666934377781778 0.18881787875203712 0.8106993307740383 -1.2901005173852615 0.4307972196462482 -2.0759928650089896 1.5384486991335748 -1.2206634432213763 -0.08576104702647049 
-1.4401380719982377 0.03403403925893194 -0.48128687527818814 -0.324131474343071 -1.890581447897112 1.3312245882064246 -1.7184980775580259 0.549763252641014 0.11172772613899921 0.16815787972386662 0.07031418654346393 0.8149395819476725 -0.27054649055718366 -1.1158162365667421 -0.5024808073236295 0.32248757853647403 1.156062607698224 0.13707395425785052 0.5362881845079517 -0.8477280460822271 -0.3791859975438105 -0.5546431543381108 -0.6433161480626051 -1.7838047706147897 2.313357880815272 -0.4940925463687917 0.9324211120881796 1.227267371040669 1.2842349559622748 1.5200248977072721 1.2046340588311706 -1.060958162965675 0.5255302590218468 1.513894484335417 -0.03895904569179897 -0.6162339480518677 -0.3056356622542313 1.7663080163736389 0.2331467618518982 1.2652353777273202 0.12488254941552214 -1.7431680458200085 0.08303020639970522 -0.5792063623184528 -0.5752574892343949 -0.3303749163636239 1.1757153298122094 0.8424578470591876 -2.0174306888855105 -0.009682921352854578 -0.6890756073993509 0.30356060764021753 -0.3626290727379368 -0.6116132891521786 -0.6376291723750721 0.4992968707803422 0.8615522346642286 -0.04909003896546981 -2.669825807639487 2.4037514749092748 -0.3253339303796672 1.2330181004369478 
-0.8127633372075828 -0.5950303879757103 -1.0613666370252464 -0.10162393393486711 -0.2567385212514967 1.059396631017299 -0.31943910836868505 -1.8927670812191728 0.8975854922629373 -0.7256886314948086 -0.4456537593639244 0.7177545703692899 1.152104393926983 0.01868961248986681 -0.2521693853209144 -1.9920270879459712 -0.6313791978298638 1.8883588837984346 0.07681580252305113 0.8928860381890839 0.5838885291877196 0.7721924865068891 -0.3876214511465138 1.3755442676014662 -0.18073681861538704 -0.9651334156322597 -1.5724945364119507 -1.8044485003829414 -0.3679945726499888 -0.30832882004333934 1.161424196303892 0.5391953969738994 0.8894450591911851 0.035458211659694656 -0.8075707745112353 2.135574959179154 0.45418686457272656 -1.784246174554546 1.0506919145044138 0.6642114885363807 -0.9596968515948163 1.3681423794207426 0.2533786657711897 -1.9466354298761595 0.8221984800107502 -0.03337656414053257 -1.0539948304474989 1.9171131569107827 0.3398681768396764 0.4708884388962784 0.9588155775471944 0.94058292875709 0.8976291642897136 -0.7048196072898575 0.6641008134101891 1.9792728803194632 0.025578161872167302 0.9580886698097265 1.4749144534781768 0.6519281067748015 0.15341286051197242 1.7746240721353483 
-1.368022111967076 0.37052997010598754 -0.11677103198024003 0.349945287117826 1.3753474209844914 -0.28516594893305103 1.728066447356406 -0.6697403661416749 0.3317361295290814 0.7687950749368144 1.2797947440982729 0.2281708478467127 -0.31015789284776624 0.4997522369921614 0.33881922189163083 -1.974853767165298 0.6227489271461369 0.15925617341466836 0.6676208561672908 -0.49593992484832344 1.0859480365478302 2.8920705500658546 -2.0365190534334348 -0.11595495893052217 -0.41866211044018964 -1.1103495771010183 0.20740205858588398 1.1839478704877855 -0.4138887520628763 -1.3465951172254444 -0.6949189158347536 1.981329317070968 0.7227988373283033 -1.964747611288106 -0.060398400238314554 -0.09186289910609982 -0.6948818558889481 -0.9855710640992317 1.536464770802961 -0.495293106718775 2.0304460198313676 -0.20190433659234105 0.7634055995391331 -0.4902698796840712 -0.688854879469039 -0.2268120509788368 -0.05592759469171788 1.2866066847991025 0.20987895937294074 -0.761845307384423 -0.6280700286320048 0.6137160205796001 0.013772159718603443 1.1651850694891273 0.2485596634882922 -0.6550821870126495 -0.33784130298039367 -0.007140861280273862 0.7918019634342731 0.7734484652135352 1.622605011615968 0.5774424818426822 
-2.2586792009766263 2.3105941533645478 -0.044029319836129024 -0.423374737561587 -0.18048415037660942 2.4623415365316146 0.059206570170492946 1.596575022461403 -0.7118267089361185 -0.40341690478585746 -1.1368262172670227 -0.2207286429455982 0.8493340305867978 1.4645853707528962 -2.2594744373292195 0.008264220783761295 2.7049710484033045 2.147089021010301 -1.436913754869626 0.1847715292491154 
2.842777299903466 -1.9652522491594344 -0.08093675508054056 -0.5088353892373556 -0.2850534919236535 -2.713211869588641 0.00839688303299709 -1.6295710801945331 -0.12435681064088337 -0.6886870497033644 1.1250112901756033 1.5087310480920846 0.5158806452667429 -0.6974073806168503 1.7710648577862838 0.10285861980398105 -2.3045023189169087 -2.2440587812843233 -0.9562939057750514 0.8807721608374053 
