-1.6959340400394112 -0.9571621508097745 2.340312449135678 -1.1535235335738088 -1.5874995066272541 -0.6091086156399205 -0.1284399131914863 1.1964316652085154 0.19908536377780106 0.23154591380906042 -1.800114540358156 -0.9033410296784036 2.041641238175009 -0.3217288771847998 0.4000393469231289 0.019288994273979575 -2.1252692103743818 -0.37641595497828384 -0.08962704861514029 1.4180000441595597 -1.0146008344919044 0.9857634450380878 0.8815096116813868 0.8420067144964657 0.18765921494720805 -0.7993933657199976 -1.048860789273372 -0.652300718481196 -0.4928682428837662 -0.838859356791151 0.14097407843646495 -0.7921396785641953 0.7169435789001263 -0.33139713208211463 -0.8318542220315673 -0.07696057775860089 -0.9702063002055168 0.8832277402558801 0.6616119080325992 0.440739617075295 1.0394589552492757 0.023653595297349467 1.1709189113602123 -1.022417310909431 0.4239899421879952 0.08708631997965183 -0.44361940743340594 -0.11730860141758673 -1.1371815426359677 -0.47352273695210784 -0.7056553076334352 -1.968486315012081 -2.2441252075124694 1.4897178665643982 -0.37800755092490473 -0.2005334760136738 0.09223194738494835 -1.415200686431387 -1.2690614967214366 1.120927848855573 -1.052597761764471 0.7327727664441286 1.356007796326587 -1.4336580988564014 -0.4499675583714256 -0.3443936693349006 -1.8378172001376127 -0.6609653662623455 0.3552059046075505 -1.934081684092092 -1.0387841499868808 0.06400734305867162 -1.7927653902297669 -1.0749590146020602 
-0.5812788565347592 -1.6551569525549794 -0.45435705734776816 -1.307471937593852 1.2268938086149543 2.0279947352638126 -2.2802706645723334 -0.24202513504411846 0.21357542204481875 0.008935736148989562 -2.1111937142373267 0.4627959264576619 -1.2447289642170125 -2.2947004589912376 1.283869610974465 -0.2636979792351236 -0.47154535522572005 0.21467159097710195 -0.45651050907909957 0.9762915566838826 -0.5707019951426988 0.10070550653305978 0.5768936560328204 -1.2915369326493271 0.6501043475472021 0.39833733138556937 0.517679695013576 -1.2597903728040778 -1.6077192904196058 -1.2782253849969345 -0.6506844212031708 0.05602366077150765 1.0790795739097008 0.7499493755642375 0.3358412184794407 0.13977659463154635 -0.39036631701359525 0.22148737606230975 0.792804409826077 -2.1511333901977108 0.03600823933597109 0.7179292777175698 0.01698032917131917 -1.9161204071066993 0.7014112580356842 -0.07906811976903601 0.6918616231777656 -0.9627698751276945 -0.8446594145907244 1.5392748107680003 -1.4187612543253232 0.039361480763622544 -0.6746187812466762 -0.3549526494295242 -0.6339285142737536 0.36614125098819983 0.18850632774799256 0.612437742930662 0.4257123055434393 -0.2980819133752726 -0.3129672834153667 1.4385060943560366 0.2438299104705849 -0.5365066478114876 -1.4101480471966823 -0.6360298073990199 -2.321499639852294 1.1323456657030158 2.3911850411540447 1.6208728033211723 0.2236941043777732 -0.4142698304822683 -0.132705989815207 0.10049388404557046 
1.6096888052356588 0.7561204563081363 -0.6878459741270135 0.01751850431380031 -0.16559348475735958 -1.5599893176444293 0.4576697987378916 0.008395466597457928 -0.602442883416807 0.8931078212345113 0.1718381254067749 -0.6168497521127836 -1.355120215764226 0.6284947129718789 0.2704985753646681 -1.0708966956887045 0.6731134430743655 0.24028630570322332 -0.6795972128811916 0.16304191826666642 -0.5962026553592549 -1.4128101557695085 0.5400988240388018 -0.08134948461162517 1.4826699910345018 -2.960155755789982 -1.5314477034655634 0.15308887436815433 -0.4085797659393051 1.4033109045965841 0.024451650017093367 0.6077186742228712 2.069902647662373 -4.139793415654984 1.55923145219041 -0.8941161481045145 -1.7195905609115478 0.27887341467957344 1.2968674042931545 -0.2651899229761937 -0.05847347955787168 0.3064085776846784 0.2569688759565906 1.903312563539514 -1.1607722863765209 -0.9868978090165604 -1.310726121781467 0.7249308215425136 3.279706854337055 -1.2642447435074136 0.14927825880814494 -0.058968431476938615 0.3880099960268999 0.7477665001662929 1.3358308710573614 0.5270718989438583 -0.378346250196966 0.2976551864234758 0.05428736553931667 0.3371883207170973 0.2661475031560495 1.136175122750194 0.9567678598240706 -0.1301479288073916 0.5171071185268178 -1.5524006674495798 1.1177406822334508 -0.9610814576197885 -0.09475323290390732 0.30561870079830467 1.3595101858891585 -0.21725630888430147 -0.8991625400427954 -1.048183547336254 
-1.7851258058573143 -1.9319689386860763 0.1342477182029208 0.2321221684054764 0.562663058890118 0.5624188909745769 -0.10356140076328892 2.355436163253815 -1.33964413372401 -1.5038624285018216 0.8796896069819982 -1.7619610497395957 -1.7334319033629582 0.5770766000840214 1.986972764752784 -0.08094276013867444 -0.49428511738920866 -0.2027152014153102 -0.06680309365090865 0.3094282808759212 0.012210919264506211 -1.103159550466445 -0.39783180083868525 -0.3453608871531622 0.39090464003776465 1.4116267781359777 -1.1226547276273675 -0.20395106462834559 0.0673252765526145 -0.6207518391390092 0.5885703460984313 0.07015152460853599 -4.355291261404394 4.909739652706952 -1.880956429932169 -1.1862915459876047 0.5882361325270928 0.5063392834137087 -0.2356761285584131 -0.20200427898941042 0.6323446107965744 1.5277167833684777 0.033014895176835424 1.0836568908063489 0.517533202560771 0.5877863927805129 2.0433344613850286 0.4742884207099561 -3.852855779954187 3.7819595525743623 1.3117254686526612 -0.41642602129359785 -0.026316679693967802 0.5234710356283211 0.1723068118281838 0.08854944704348307 2.2506404693812967 0.05719348886248555 -0.5045670934425295 -1.2027313898674308 1.3175497614798866 -0.4992557199985571 0.7584789760338208 -0.1094436986392979 0.1661614180009987 0.7467888222628936 0.7376606683274143 -1.1686458326560905 -0.8359502902641502 1.37594925678572 1.9885293500937429 -1.3743574785075525 -3.306317253874748 0.08236656879723425 
2.0673469394333632 -0.19699738439800263 0.43973532709599433 -1.1502137365599896 -0.5795697080613973 -1.2352474583920385 -0.9850728798006024 0.8821029927211197 -1.1689191357127326 2.206223742565346 1.3744330182976137 -1.1358662415629983 0.24512440037104313 0.5539248760268232 -0.7630649279012398 -1.4143510146146503 -1.0874031853773554 -0.2743525938253843 -1.3729466611262877 0.09540915291144896 0.1629229737224272 -1.2552478808773413 1.4805689239490192 0.0025612997032090218 -0.21737757756746368 -0.9789074038987916 0.5938204826459191 1.632131190574657 -0.010604311804047443 0.9799221737306719 0.32549708280187284 -0.9002238520795567 -1.4657578487079137 1.048538661738132 -0.7586484369330081 0.5380598749707703 -0.33213323650947496 -0.8778463314358069 -2.6331964192706754 0.7783646443739475 1.2387297022372517 0.9465356756819645 -0.4633898528630399 1.566928204056714 -1.269444452592966 -1.582572895516135 0.41487959087160053 -1.187786521712674 -0.7477295920681517 1.5677494107103704 0.7647431521971604 0.713413230120362 0.6117429130481927 -0.11038915368186217 -2.3022210736111757 1.9997566378308016 0.06592035903658802 0.5014147074637723 -1.1220356475064621 0.8369274208527512 0.1524300497825526 -0.13601256514619026 -0.5884034135287309 -0.4195406138882842 0.2649833680424977 0.9702225527808234 -0.05964913841653701 0.02660283457315537 -0.10226163345060724 -0.5704104295736343 1.6684194175822027 -1.0864019093663415 -0.39114522883302744 0.3321081715452182 
0.28431269952270277 -1.0016999741612032 -1.3373461693642623 -0.7609264931420026 -1.5918373185945267 0.28842386013241045 -1.5362795877104722 -0.86074916381427 0.7128563292229189 1.1079608903462288 -0.19632275123180545 0.11992615282038062 -0.8936044541185345 -0.03965415333463481 0.8037076563774601 1.2675395849948157 -0.27781226285560046 -0.2275748530314816 -0.6333125573268767 1.5746599865259336 -0.5355361360784884 1.1846450435258393 -0.5044777608586277 1.187723954735319 2.0413735213428685 -0.4156070435310916 1.902518264888823 0.18260638395473383 -0.7042177615958674 -0.07707118455336413 -0.3936443838314968 -1.5560652481925978 4.180454202812329 -5.444625293509306 -1.0491716419278858 0.9139047866841776 -0.3538850319532287 0.08077136016020366 -0.25255596055687923 -0.5382080099993881 1.862751774755498 -0.5414538423965204 0.28288319602022194 -0.004433454338013735 0.44104314030187836 -0.08993581539418824 -1.2314272297076025 -0.3690317630402784 3.4791140389850708 -2.8300823133450965 0.7355265757080056 -0.10457346419826563 -0.5118692830940416 0.8385005768838584 -0.543939463393783 0.8534651271014513 0.9888531960458724 -0.4276638749841422 -0.9960935370463605 -1.3183883661101305 1.1713451790564113 -0.3070113851804786 -1.2155235456086826 -0.062115794944748635 1.7875631295594692 0.12662512411779583 -1.4061212338886468 -0.40822484096546807 -1.5097563443032842 0.5646557280024931 -0.11631291696524444 3.463975762934357 2.4639976271344417 -2.614696533169386 
-0.41413057950250665 0.18543165642937026 -1.2236320203222881 -1.366130894336908 -1.2251266058562496 -0.8100172166537986 -0.8423195386497856 -1.2259443066579068 -0.29718382689349204 0.17458755159245598 0.2532732472173348 -0.40216577693756317 1.0691284026706585 -0.539060979063877 -1.2444511312100606 -1.1987734580624039 0.08402154675824945 0.1651412993064513 0.43765837494712667 0.6287550745494048 -0.014032005796812918 -0.4863392676855284 -0.29054631104441114 -0.059494576080878395 0.9502805823818371 0.699289465533863 -1.6689989977403987 -0.08753951263694022 0.6875349544992364 -1.6713433978151129 -0.2848852124251265 -0.8052464184016551 0.3451520782412651 0.5636554478879359 -0.2557390005810898 0.7467726060986094 0.691162124034285 -1.2311074476716266 1.4592228808760461 -1.7602564862324068 -0.9829295139854957 1.1858457430164377 0.33678881436476393 -0.7268084957415254 1.2328908600959314 -0.7140131030043465 -0.734841207366984 -0.06032160446950526 1.1130985657720864 -0.17329710352493422 1.3334637568187606 0.06824319359737753 -0.6325416008668517 0.5003281445115907 0.5029374157026724 -1.9767841064326246 -1.649049736235096 -0.8253335246955144 -0.3000596345223326 -1.3962842877460706 0.26637776066282637 -1.0524354178431927 2.3638274712174874 0.7031689141187393 0.44269897371503175 -1.4279526691029347 -1.6133089508414296 -0.6213354068409903 -0.044136924327850505 -1.9258397420248672 1.6193258768560699 -1.9174062139593298 -0.3184579652333683 2.662637559283599 
-0.5363576372342 0.12322624850562784 -0.19654868541319723 0.07420352409873528 0.4605929646090402 0.8377101490935202 -0.4517980663383375 -0.5225408199366984 -0.9895563434766999 -0.17439142549849074 -1.3125939175872228 -0.4637191529792143 -0.673974110126946 -0.29891915704729816 0.3915832091139883 0.22504089622663506 -0.27581608999674573 1.1362992947342396 0.4728461113624664 -1.8550049400176296 0.26062300280368833 -2.2428468996385895 -0.05537477324612283 -1.0985049141623346 0.6668155314094377 0.6332534065471321 -0.8656520710606819 -0.8596609723311808 -0.4417285932238069 -0.16222007319715662 1.0515886177005238 1.556604588906294 0.650865238307755 0.486740325659049 -0.5509452143685183 -0.270983443611339 -1.8593527107133325 -1.2311634119947712 0.914168089215319 -1.557448932159655 -1.035946815599508 1.0708405842371709 -1.4944632146184271 1.8362027032721582 0.9199616985009619 2.2887308016573886 0.8110113827709383 -0.8131140322272316 -1.4676503613887049 -1.2916589560841574 -0.8830896939960169 -0.6462666778493676 -0.7577686032768843 -0.28767540297691296 -2.3375474125769435 1.47699431253688 0.1450104183384185 -0.04495111467502219 0.32865716984841675 -0.00973939272185359 -1.0054756276461274 0.15784700921986441 -1.750031544976106 1.3288670995891112 0.7606974576922471 -0.04403824934260663 -0.8932415514980419 -1.1391510262414348 1.0041203985148126 -0.9997722207316921 0.25193426586739587 1.5663293042723738 2.307161078524346 -2.4410786326576903 
-2.289528725010655 0.20163429199854005 0.05346526334646716 0.6885084784990197 -0.3304684285651418 -0.06410722053552924 0.5389614969732444 0.9652581666746948 0.23910729691457264 0.992147243987296 -0.3116524731272455 -2.0724831712251577 -0.061064115196299326 -0.28725027864207947 0.018330759483411573 0.7424109977756502 0.9744741335073638 -0.15929201895859402 1.5676123362711571 0.14769208302807668 1.1211155104715822 -1.8618672642312757 -0.8094302865873059 -0.7177586498297184 -0.9295283875591057 -0.10329284526700463 0.46958445865552867 0.43361932994506225 -0.43097045279519813 0.32700582532696243 0.608747009427064 -0.2979740888274443 -9.254573195106461 7.36159271002129 -0.7015390118023894 -1.2043613238691582 0.008700141518089323 -0.6451726588351361 0.47561749196144965 1.1972054162533587 0.12724016412548061 0.5552019971192846 -0.6554175853498599 0.3181990389927083 -0.29184441692119845 0.44505490898875494 1.9212277804027502 -2.4150917771637204 -4.089937122203843 4.960032495076225 0.18263489595132365 0.6260030329415986 0.16873440107736765 -0.0216242428356301 0.09949872090676705 -0.32290006256611536 1.212164667070085 0.4877827593309472 -0.4959361119461058 0.4217521326753181 -0.24730724059491355 0.6448514435078021 -1.0388564992652676 0.5094192028740381 0.39624397699025155 0.3131936704353751 -0.06129012375062313 -0.5420044642941728 -0.06371140633123921 -0.11469922111364289 0.2088407618207476 -0.7724394732274478 -3.279004288195043 2.1908978788273314 
-0.13574129207683916 -0.25840023132999146 1.264855888240507 -0.08215470761185457 -0.4780274543110444 0.3142213085854619 0.48091442727178396 -0.9335025549443543 0.51453606423024 -1.099608129592238 -0.025186479651064925 0.5153610289816275 -0.01682502107451036 0.1536370539026507 0.5590699391041358 0.4116380068318024 0.4520977234440067 -0.9950196857785161 -1.0286055170072097 -0.7324545163204091 -0.16219159843055017 0.04074898968603386 2.8954194051559443 0.0006794245350385831 -0.015732828184000364 0.5689206819054667 -0.7449773325184303 0.5909919942988656 0.9625098130462371 -1.690012767105653 -0.39626935911934336 -0.28383629223719337 1.1514197712632415 -1.7793631630083975 -0.06126172063428104 0.15467229927704193 -0.24658047968077226 -1.1827456012235773 -0.2080166053862824 -0.7819110638577311 -0.7546265992123212 0.9051055169702223 0.16283731435302737 2.924843451110863 0.048607517606908124 -1.183616193685613 1.5157249463476903 -1.014576043304357 -0.29815483719960617 -0.3744027861029305 0.8874411729179623 -0.5010284644591683 1.1399941871567412 -1.2416296111366627 1.0573966011368536 -1.5087119568540026 -2.0145011022051875 -1.897076376853653 -0.18148760215548704 0.10293475341068739 1.5823637760077667 -1.028933454108856 -0.9306061804183975 0.6429430946821044 0.8951324406006729 -2.5808528318981927 0.8891276755332377 -0.02939357927683507 0.675981515116445 -0.03660152192058779 -0.6550109792236748 -0.1223257777912814 1.2354676931617041 -0.5739167179211724 
0.15850967473905683 -0.11162426606139252 -0.07761160797719059 -0.29688944544711837 1.4374474144479081 2.190581327093715 1.4306460501353868 1.382773649179883 0.6176754927031526 0.021502034625835314 0.0743965166649331 -0.7370975693816336 -0.6345662971520304 -0.4829780004846734 -0.2886208624022692 -0.23711233172139942 0.27184231523144076 1.200224502819727 -0.2484918377461092 1.3940974083861526 -1.7627261601100768 0.4014326559412227 0.5653986230190626 -1.360320090531168 1.4123138557490318 1.4662017796104614 -0.37224522475198285 -0.595551936862873 -1.1745316607244782 0.7490396740515664 0.38796156722108127 0.2768339027806293 1.257727439488091 -0.02309395110127419 -0.2995139901184249 -1.1298053302511095 0.12313239312461315 -0.17549621217871475 -0.40655114285998945 -0.20312421407278877 1.4496017709776816 -0.5548978666331962 -0.6571239997522073 0.5423000862336146 1.9976573291821107 -0.768304988195257 -0.9157306296603891 3.5742236809809067 -0.6411358797016034 1.866494281656606 0.7156540126977542 -0.2667665147889849 0.5697558170676255 -0.8354083202504807 -1.5079801674493905 -0.7342598306165109 -0.6694396451583612 -2.0167587804896296 1.3179859673063652 -0.9126328454835866 1.528819642647306 -1.072473132630003 -2.3602671123307193 -0.5449074928742969 0.8330075146570916 1.2980776769208568 -0.3416157161378816 0.8626786096129487 -1.6212064554350274 -0.4025137855832715 -0.8659977339933426 -0.7833207391436561 0.9868855940237314 -0.16266147794885996 
-0.7793256251859588 0.9590433386628214 0.21142792066230448 -0.028400537701857412 -0.1160655167676777 0.6074679988303036 -0.22759750524796016 -0.20264704694151206 -0.4324587581168452 -1.20885321724698 -0.16003913984314197 1.091576218215097 -0.3266470316594775 0.22007134920328322 -0.6913097625705871 0.7966124954764078 0.2440953581942995 2.242509402444125 -0.7986328462147815 1.3976952545653514 1.114017934255143 -0.005338739382772603 0.8399695550780896 0.8632167395572101 -1.6198046713380176 -0.4607468742244981 -0.3909791841619137 -0.054820855299036894 1.4887746165194025 -0.8327812275313654 1.0105330608322123 -1.0226155529609782 -2.952154802844426 2.1440849763748018 1.2449252635894439 -0.2939725258845281 0.51537681183734 0.24088559315030186 1.1246823237574288 -1.0701260394357637 -0.19663213897645554 2.1594887273354018 0.8251724409266344 0.4013510606198089 -0.6667725262427466 -1.23426437047309 -0.7654902568221834 -0.05977419978476316 -0.9434748943884524 0.15724212373537347 -0.2978020077581665 -1.7049269481774243 -0.8980790998145739 0.7184496998310455 1.287962889249278 -1.5820245529746835 -0.09502414058711364 0.343058604107905 0.5282698837534439 -0.5918550835278571 0.0940745493959751 1.237353656620891 -0.6353246970698941 1.2992157275265126 -0.1303513208061432 -1.161823352829448 -1.465450774543562 -1.1585920306328463 -3.3208941431608476 0.8824244878897677 -0.4598809578124361 -1.0872050791685584 1.0015990257622593 0.5528365711392993 
0.396040988158292 -0.07245730828267734 -1.0410333934967564 1.1801410824929817 -1.8445939158813613 0.06675119207803075 0.16641141497232562 -0.3510352525004637 -0.24012330646427235 -0.9360921732876251 0.05190579372463331 -0.005023566914624518 0.5623844053301713 0.7276848354768742 0.27983746565523104 0.5318310388368377 0.13922991348733624 0.04672893294100865 -0.39717693504912105 0.7424689483668949 -1.3547085644933938 -0.12052476245375102 0.4570904353898744 -0.16370153005714122 0.41050273774358853 0.7189026549079917 -0.26146961792774637 0.34948788172287104 1.1850247285969115 -0.44878037417046557 -0.37676886476804183 2.2316085747398247 2.904258686055233 -4.712454252527221 0.36764948252397894 -1.5874174423437155 -1.5160687249964637 0.4245484532873386 -0.14876361209116726 1.1046557285821792 1.0818094989286209 0.1222806759388098 0.48132662623343503 2.029398977881022 0.7628041560394109 -0.1604448212213032 -1.7823172826165758 -0.9292410809110501 2.8652019095473156 -1.8200528454973972 0.4794680446476109 1.130694723829809 0.26337233281002126 -1.1680132799457008 -0.6935347444289742 -0.64412589160923 -1.6334155710329084 0.7165543279515019 -1.151369496700135 0.7908564203430203 1.5131610763154304 0.9796203310666688 0.8738090585630439 -0.7460365381029309 -0.1412317464980207 -0.3079978480460249 1.2299238545959479 -0.03510037384947308 0.2746718844085238 0.20052554196829006 -1.1650336606932508 -0.6714128833151145 0.2005892480933879 -1.1064113662752801 
0.6078538358371327 0.7063086429322758 -0.08209301598063944 1.0916315626012552 -1.5521070999933728 -1.1328143651358111 1.564004648647725 0.8413491048812013 0.9936716058152629 -0.1289041605731249 -1.61594030059797 -0.38865570758834633 0.5170175214546044 0.18647978183338423 -1.3982648898585899 1.2661609071075288 -0.07665502002850147 0.15067894367572282 -0.6636534742768898 1.665364590328019 1.0577435294899737 -0.08438257859085044 -1.4608029595877683 -0.0964676702777461 0.6638825021733977 -0.4154398119893604 -1.4791388580512548 0.5948840227727749 0.15115423019998464 0.4708198415026312 -0.7461630206072063 1.2069099108524135 2.4294623185934894 -2.1675842982598414 1.2726928841903982 -0.9617441106104893 -0.7614603846644286 0.9234248354829152 -1.518265166586827 0.1455071904491799 -0.18069196410110858 1.2536632024838805 -0.6974880226821055 0.6862882995428398 0.16387891861672915 -0.20375637301430563 0.4792706738728949 2.5080839238880643 -0.3855432037595518 -0.21104876358725153 -0.17384779716197685 -0.8509399964745678 0.7066962593520986 -0.46928463805466136 0.7618226237705185 -2.4556219641565 1.001550615731899 -0.7446876062046952 -0.7333407774839895 0.8552156886652675 1.2940846373858401 0.3139662473204494 -1.7656589628432984 1.7390869517655456 -0.7159442905258303 -0.8689722670783152 -0.448120624598967 -0.5049090607150181 1.1370236988664275 -1.4236153360432888 -0.5310239118360689 -0.27478721550143753 0.42963532859181586 1.305816323726232 
-0.155371839699008 -0.446957564866422 0.5590847150852476 -0.49592841920123526 1.7332113720329438 2.036702555080317 -2.022028381080674 0.5625720025543497 0.26642181969099143 -0.3379941843821597 -0.48670989575026247 -0.3405568075316639 -0.7419634389472864 -1.71085376019531 0.912734999735017 0.2957072625124066 0.16224010974792685 -0.947089281888363 -0.388439980122113 -1.4565542256674904 1.3573977649039755 0.4456989514891652 -0.8304476076801949 1.084202914917738 -1.1554538045772642 -0.6995142758713868 0.10827926872038075 0.6614337852532391 1.5146346158842263 0.02920183434086394 0.6532588543200216 -0.16509063048867975 -1.8348793773215881 1.68079089891459 0.49268771957423113 -1.5041798301306872 -0.340665708522436 -1.3407978512449628 0.048787509910909035 -1.2843830274678685 -0.08599726892721549 1.2039681339843538 1.0474838001661981 0.5364721348643936 -0.952738709822454 1.8833795605349484 -0.7908450458027783 0.2731738207907933 -1.4246160674979427 3.3627584834300195 -0.844774515349625 1.3718152715135343 0.6017365208324366 0.7799286758299365 -0.23943750049571483 -0.5039204274665964 -1.4556904132508506 -0.04197077053204958 0.11760474247009287 0.1554149307212026 0.1512110519626702 -1.3027912152428962 0.7224631146096644 0.2529982886367541 0.06418247189872489 -1.1159865405131248 -0.21762080273057402 1.1403649227703225 0.2639927912642169 -0.8352641855548474 -0.4467857007992719 0.28816220755673183 0.9140540600945087 1.2492856036975255 
-0.6757224707497484 -1.1930947643195429 -0.45660980608791557 0.23186482071432737 -0.32922783946085377 0.4342864875987226 1.8496902363691607 -0.7429576869445623 1.2096721108459336 -0.5088889745986768 -1.1930641531933548 0.3149920859379437 1.4389444458825063 -2.7040310083642045 1.5036777598158118 0.36864285612781544 -0.522407830559468 -1.3035276872470882 -1.2851672026352867 -0.7737693607579527 1.2917157696147743 0.6406499339139017 -1.3645248058835866 -2.282258395683097 -1.03925548845414 1.4602929739180937 0.4097135649850935 1.4401962817182377 -1.8641779424311478 -0.6327125832257062 2.098426427197614 -0.5814638975853935 1.2451703267026046 2.563922571181903 -0.8300452546181245 1.227828369961229 -0.6876359318547683 0.7719174166008279 -1.1725794224276485 -0.2588545945340658 -0.4408564317791291 0.19280245026600157 -0.6584178336436554 -0.45295056365392217 -0.07071551623989737 -1.6146729978639078 -0.9390001960124584 -1.1300945880560103 -0.39882389388516976 -0.9745566288317383 -1.6339917388784855 -0.4517965525966529 1.6761049281164888 -0.2705196286622882 -0.5625965007614676 -0.606000427999238 -0.01769322617734203 -0.3229029504525906 0.6436521858913541 1.4353492642944836 0.10982134207441616 -1.0032670982398015 0.1906489619384663 -0.8085590294636905 1.386789577974005 1.728428250799761 -0.3467258209936113 0.7088901618559567 -0.37620732583344246 -1.2070612042483504 0.3922324937379953 0.11227682356347722 0.35276479826852725 -0.2975335125417929 
0.7847302914906282 -0.18444077950373522 -1.8320526207026078 -0.14553601801338412 0.1408291550831654 -0.35275849055164615 1.7237204722262855 -0.5670972866555641 -1.589284062919818 0.527566489936619 -0.8312551619475564 0.2410640175152612 -0.3623393315490413 -0.7500958706977994 0.938869183890831 -0.836667604717248 -0.2175277139361545 1.0673668128940872 1.002650805045577 -0.5531327750918835 0.28690459619150105 -0.4453858464456519 -0.7755029451065419 -0.34740652003449857 0.7266898789748113 0.664758777658965 -0.5508254846787399 0.46173137304366296 -1.2753650784506072 -0.25290774877782635 1.8765121451475555 -0.5791445609471728 0.07722822119326482 -0.3788755793311834 0.9171070251490209 0.12547850616163506 -0.5524355389699667 -0.4043447991157453 0.5333402091015137 1.3085878971881817 0.17796684126595305 0.26663023216379156 -0.12506576904985015 0.3727898356860036 -0.03068854903117184 2.21264603489453 0.29734028663467876 -0.24723990728594908 0.43365146295281054 -0.7314981298632925 -0.44074047019047363 -0.7941713583695764 0.7109239941615442 2.9929572029446745 0.646053845498748 -0.4773086777480245 -0.37825574016727886 0.37682126756983075 2.6240476426466652 1.104811149792284 0.8225173513347759 -0.5379553910244536 -1.7825156592626297 -1.0592577984825675 1.1251673320958104 0.01777890045899552 -0.2505504748871731 1.5135933564973452 -0.2627994963297083 1.0015878201001909 -0.2756698578482779 -1.5620565715921564 1.3654831634745397 0.5334352677096723 
-1.0686633419346865 -0.20014718867865033 0.5520306943979787 -0.9873963383924446 -0.4390103565723991 0.048013712238819686 -1.0894865047607056 0.3725101263771129 0.8050538378035847 0.6299032852989661 -1.2011308488004406 0.7370009103831793 -0.09615810696340948 -0.9854063489863006 0.64120366442468 0.08710678739380139 0.2284715589110679 0.06661326336424886 0.4827735069625718 0.8283564581724671 0.3774924414559206 0.632943250685313 1.3189381846011012 -0.0046523204156689035 0.8441946974739295 0.5124124807554046 0.8923168316757147 0.5199345385365162 -0.30506828569191924 -1.4744218125442117 -0.468627886744386 -1.0903172245149373 5.960893660289341 -6.853964756988396 0.6247970003648063 -0.9264444002731339 0.6368731691252905 0.4575143745076799 0.7152900070281641 0.33688027537207904 -0.685791979825438 -0.7050481715581108 -0.625648177622516 -0.6632268033817116 -0.5171724007877991 1.8480736400190168 -0.3910753097203437 0.21619039369635135 5.516002036104514 -5.290925862238098 0.5221557837657819 0.260797741532356 0.04600951873400832 0.9432417175686727 -0.6070278228397251 -0.408433509259929 0.49672298681543997 -0.6389889139005595 1.296141826594771 1.0590400503283912 -0.26828809704586487 -0.2529142562126415 0.4964221597973732 -0.0526645938441849 0.5803701941446776 -0.848699590825182 -0.19605226210725507 -0.22275417991578145 -0.23987628109675754 0.3640632705843762 -1.6234894530679 0.6524631679777139 3.324385893060079 -4.498809855083463 
1.1245115623772604 2.0707314137589545 -0.5036574680715458 1.1405924657267212 -0.27355451717487805 -0.3297322223439152 0.11591505604874099 0.0009808988262543276 -0.8380621226930612 1.7632535528014215 1.2629783135770696 -1.5626113769651069 -0.6289886195837835 -0.9174841433687595 0.6157948214574706 -0.8836459754474232 0.7944629072703364 0.8962180230572732 -1.6894580626055011 0.7639804795069903 -0.29236523386517926 0.1768400637309798 1.63519545582202 0.15511992827586332 1.1159898534380297 -0.5560316584357393 0.4386914185358883 0.3793848753134609 -0.729538294148876 0.19485863017749944 -0.46127948052568973 0.45443078519429325 0.35909313666128684 -1.1702137749798012 -1.24373008989931 -0.4040663206685098 -0.47110712196111465 1.397764675225086 1.0571011078071213 1.8524958305324586 -0.17650902721746417 -0.18532912743063235 2.451272283888608 1.1071125795119001 0.1256173774271782 1.228783860511765 -0.47364872057481333 -0.3764921928330185 0.1900373813908395 0.2722317062485181 0.9819511942029718 -0.831542763950184 -1.0737076133697132 0.4506747400204801 -0.1257675456797291 -0.20439822749926387 0.2543701863849146 0.479655418094176 -0.5114052274597518 1.1704736165576648 -0.5436720458369332 0.2511449870062351 -2.7209376664900904 1.824791727845613 1.0293209956796316 0.7350821309581805 -1.217031081052668 1.1916833134878806 -0.69091352559933 0.016460414024812284 0.9997352750055486 -0.5093485205588639 0.0701304698162459 -0.7876154809007461 
-0.11476362420556516 0.12537743262999146 -1.1761218813917471 -0.5587911564989294 0.8002136622652325 -0.12062408335740106 -2.250873734860746 0.28877508069589125 0.15033538926120055 0.27817138301390676 -0.5346887395905139 -0.5659128337489147 -2.1308595620226276 -0.7522678089151382 -0.2331772610210612 -0.8269046764133536 0.428213139903379 0.9662804677091613 1.701169342696407 0.8100307047181884 -0.9723769420755815 1.9058438265103863 0.36719720890430835 0.37956012078287854 1.6677780591312688 -1.6147594901175968 -1.372597278306071 0.5433897467793043 1.041937300275579 -0.5183509656824992 0.8501479689104914 -0.6805618421463331 1.3426941579473857 -2.7342034718965635 0.775300706598455 -0.6864739012425286 0.5420366633473085 1.5134801305072598 -1.9242002029719243 -2.043652973624689 0.3987897031184566 0.6559986583537779 -1.5069786422759937 0.07618134147490584 -1.3490014834792354 -0.7851444545169856 1.605006425699994 0.6350665059149092 1.2277143552785987 -0.5599058070837133 -0.18127336014436507 -0.8349209822004691 0.2340301570541918 -0.012115671912243794 1.1870871427354444 1.7433314491235756 -0.9081402046276006 0.9621477011772055 0.10671079057982959 -2.141623536398016 -1.2768898557695927 0.7387302920178369 0.028714234477698445 -0.7002631976511123 1.176279146070025 -0.2771078092737771 1.3883130601748235 -0.19227009417764832 -0.9772125582774746 0.3923544283925391 -0.18180665086022363 0.9503839742768477 -1.434315323713342 -0.16260333969657353 
-0.779590157556336 -0.13505114901548426 -2.5818871594414348 3.679934423215773 1.1349734415480943 -3.885243356280082 -0.47210916063317765 -0.17539854201000818 5.869299723932745 -0.6714648800473986 2.80795241014633 1.7803166801917758 -2.559349443142052 -2.5173109053096994 1.5110872729950098 -0.32866953800687604 0.11736780064057899 -4.7204557294676635 -1.2595891265679342 -1.7338084914103316 
-0.9294076864837667 -0.6914496425807963 2.709427405089709 -3.7950773276404 -1.5071376181904617 3.2275867574292416 0.41526485639851074 2.2362513528521344 -5.8399888606560255 0.6978275039599324 -1.2872242995215772 -1.3388199873299471 3.039025276376115 1.2753403780265364 -1.638621864019529 0.8834511677301446 0.4376197454810418 4.865006045281149 -2.097212612083766 1.314774786851637 
