-0.6428214752188739 2.654746180670733 -0.8673067083509319 0.8422847466136816 -2.306451253286771 0.8146918782994681 -2.1015073804675932 2.030152863698436 -0.09593289489440728 -0.3521259472983078 -3.109200118802163 0.5346547745110237 0.5075303265599167 1.676713518598987 0.7577605178168337 1.3939705035617225 -0.6611322070622152 -0.1382363123045647 -0.5730166858000535 -0.6685656426641845 0.613861151854529 0.7934446698478664 -0.5142791926125584 1.618316624533242 0.3502447675625708 -0.46048912331040304 1.8725596283294583 0.31571576877260843 -1.1277174662440241 -0.164384849729405 -1.1290532417993873 -0.9926018207263474 -0.36179325964244036 0.5800361502564505 -0.7833238479265314 -1.2039336244297436 0.010730901703675738 0.8923750564208585 -0.3352002429694349 0.46890295163804874 0.6373808122460612 0.7886830903001879 -0.38428596301285994 -0.34085708755485317 -1.4905545898051444 0.7610151387551692 1.329694829901748 -1.5944647348498793 -0.9650409432312902 3.476744907982362 -0.5665277862911973 1.0549714510586916 -1.5119412367551892 0.12234669198436775 
0.9665144044830137 -1.359750909848381 -1.8169343446487596 2.4491239837382937 -0.2291023476290122 0.2790766231168944 1.2535727872113416 -0.5556509873748374 -0.08136169810444778 -0.7941330164685493 0.23472153547570318 -0.28460972797269135 -0.6879297369597404 -0.690696018944248 0.1629034666541906 1.6236962452708597 0.6163280324146618 0.7537509946639396 -0.04390231677232238 -0.41920068521341136 -0.2534469159714074 -3.301030796231423 -1.2924078483450736 0.35391803854034587 -0.24311588002875614 -1.4631556080922326 0.0022405649396105842 0.6826796736919846 0.02591626081185854 0.6286685744784686 0.3473577371294859 0.997425961701362 0.8693714038911743 0.9056725476193938 0.6311527035803584 2.517597890824668 -0.08332884963104806 -0.23131592356260336 0.8899485910992414 -0.9177431593221692 0.7997502680246974 0.3019929031316753 1.9550379668017694 0.32429271566236445 -0.047069663782247556 0.34959427218353734 1.3682130064214852 -0.8164161929538039 0.28664475456021243 -1.6854635650468843 0.5356454526576695 1.651512506714853 0.3505355941283271 1.7868615216000299 
-0.9658405745293901 0.7411444296757981 0.5331179240619887 0.23387249997231024 -1.1069348791969376 0.33354145779768113 -0.9781794312055391 0.772682521319849 -2.2874372709592654 0.45137252901991726 0.2035333213449985 0.9144897609370314 -0.1608530824263215 -0.4980792105882324 0.024532795430747836 0.8627080559780529 -0.24184290269655728 -0.8277286496655806 0.8925080153626449 -0.1769136480774287 1.1010243594154439 -0.029566462494695297 -0.4687122596725715 -0.500159301449569 0.23198552336988165 -1.799179430315673 0.31075128856599427 1.1996915060138986 0.0930497701796145 0.19567720581812637 -1.3613636678699403 0.12015281153659943 1.2951426001758377 -0.5317077418507048 -0.22827462253838335 1.224037251615752 -0.9915407966693438 0.4427568076741244 1.5874328280782601 0.9489470604683481 2.4957966674646967 0.38866845607145656 -0.04730123293243146 1.4965260461926264 -0.9966832818012162 -0.15743984690042173 0.9523883534711386 0.46837387038555767 -0.13985727936196748 -1.5827184282599465 0.36209745231687357 -1.0327670154183148 0.107877975489016 -1.6451258752842524 
2.4400331510901627 -1.0255156125206921 1.2334239650870102 -0.09772021161470383 2.143663668348328 0.7226733334033307 -0.11348313810390356 -0.044325641028517035 -0.4267149580835202 0.7780172830861461 1.1681501796088567 1.9493209785835706 0.9070369450509406 -0.745238742441584 -1.7207896197879027 0.9230835081688427 -1.2199004274038185 -0.959702161851684 1.1044571480914458 -1.1231490900478842 -0.14183182981154474 -0.554186746470087 -0.9490858268833385 -1.073650186240529 0.2839272110597706 0.5463365357883474 2.354554560306999 -0.4319627135303974 -0.5710457185050922 0.1716652549537257 -1.2975012433710773 0.4679533357479777 0.9502276037330875 0.4452002353206715 0.40867802788817187 -0.9047802165130231 -1.5679422380204053 -0.9228439494978921 -0.11820730882223646 1.6473865818896918 0.6023137058138432 1.2473078063668883 0.45895018464375587 -1.18909935117248 0.0821043423384144 -1.0890385069582935 1.6683266880988321 0.5450870043622486 0.07933443440261591 0.4151050827157218 -1.0851562758208184 0.629294119381551 -0.08362221878698778 0.17681371842917284 
1.5231840381569248 -1.1395935144143765 -1.109076436278462 0.7765559003079043 0.2921781391488873 -0.5318305931550659 -0.8595496030013348 0.0773698351259376 0.6991529121931116 0.2447747582751797 -0.10221582337084495 1.275024847322712 0.7046240329474837 -0.07685246766589392 0.5685090090085376 0.9021208527303899 -1.0436873087476675 -1.2634651678235558 -0.5431014744612336 -1.0276604553350286 2.066287248245109 1.6024558408996186 0.6511469497071933 -0.0658051329846105 -0.4463461836746545 -0.8811559728289378 -0.2768738632675045 0.8824717025295551 0.6157684660393665 -0.41784360877204735 1.0534672811391066 -0.37920521250715994 -0.09676311000218905 -0.3184099364743191 -0.8783835605290673 1.0518895730177587 0.18704406641815038 -1.7979201040666815 1.2650781155616133 -2.7403386105817056 -2.1231649067873684 1.298229317829105 -2.367261811950719 -1.8410399834848283 -0.17788796403654936 1.8573822271163836 -0.9203160262929801 -0.19765371168709348 -0.2827794063071528 -0.9484580972339453 -0.9370755220017517 1.6321511627125933 -0.9068196805175006 -0.21778306139005782 
-0.522377204470981 -0.4970654645088272 -0.7823064215331532 -0.33973367284156414 0.9759205084621979 -1.1897427879496787 -0.9873897182005847 1.7864216039112968 -2.2921492926811577 -0.9791944927919183 -0.6729440523490263 -0.03588906874252298 -1.2036677092731987 -1.0360098759036793 2.715385098734674 0.2556082626181325 -0.14701505465593848 -1.381152372655125 -0.40905993797486495 0.021748403086133763 0.38705444364950947 -0.34250100531800887 0.3308224734973503 1.0748497593970046 -0.38785981665361546 0.10369849137234505 -1.6973931868829533 -0.34978390186927627 1.486446866938373 -0.24352492289582378 -1.0156017848121972 -1.6348387769316108 0.27975443113837395 -0.832441225042255 -0.06043128620074325 1.1892784051805387 -0.5679128739248289 -0.1498574607495536 -0.3464558475468169 -0.9788840062112122 0.17139284019829693 -0.3759296675373052 1.5791800762023376 -0.8921018874614616 1.0625674238567164 -0.3683032037634244 0.21946985698551227 0.9455665373250239 -1.6594852527779604 0.333853150543645 -1.1475295666741743 0.14494529182013607 -0.5763899250279306 -0.15319557987769736 
-0.6283757399577005 0.3440357889252784 0.20535956839699773 0.38778935716331886 0.9320949653917757 -0.5065697327517322 0.3218305944574356 -1.2073909857808327 0.46070271155704146 0.6954107641986634 1.1351296701975508 -0.47954991168533395 -0.09840405009937118 -1.9885712356518386 -1.4162293655900933 -1.3873115042554747 -1.378177197151778 -0.4862331319171793 -2.177778848277954 -2.4280358283011823 0.003074038226053193 1.3755373459219196 0.1500675421422143 0.7051210666178499 1.1930667977816853 -0.7784985552087247 -1.8567365757485674 -0.5102899606192491 0.3358415650091421 0.009788717884970056 -0.8398440651628245 0.35112344651903926 0.7393377316441532 1.3414991819835158 -1.7112874451425089 0.15156750709300712 0.2452693473950671 -0.3646070554345905 -0.431447635486423 0.7265304989277541 -1.0012260265002775 -1.061172519106636 0.7052385888078003 -0.6855033269713351 -0.664949094812439 0.8898252696525139 -1.2941207405156436 -0.008873205584820318 3.095217015922626 -2.0388234250750994 1.0787420503183118 -0.537477057580321 -1.2623345007992857 -0.5502256957536233 
0.4320272593365251 1.6165009556066308 -0.4997595371771717 0.2856682018706487 -0.3270436542316538 0.7649277818191224 -1.4198687997897148 -0.7464727671304946 -1.3813852173771204 1.6355515431079604 0.8298347573544024 -0.20403395958417347 -0.16710458321454538 0.4734865234372549 -1.8665857903341885 0.6840103210580536 -0.22519804055871323 0.34836470719768575 0.6007627929755256 1.0866014864904154 -0.23552316351169236 1.4824538758872525 -0.2898037508992987 2.2747674716489197 -0.9561096194284185 0.0778370877817745 -0.19119519703538748 1.032824046226151 1.3744863186437433 0.6455589046344377 -0.40002713775221704 1.977620932706165 0.967592259483201 0.9600442711978605 -0.3854047461911956 1.1473927396630574 -0.825036030769636 -0.8319902808577914 -1.300089358945036 0.4047364044118982 0.06697752867614401 -1.309518889479103 -0.5725731469934039 -1.005912239835534 1.6475089719604732 -2.1690982557168366 1.8867103815908919 0.4885166980947804 2.441477387085537 0.16519210423344835 0.25105904838015114 1.7111971645311799 -0.7159614733899805 -0.33767211552579357 
-0.4613014608871184 2.104004101877277 0.09156496603231586 -0.5191057178143604 -0.2840831871212994 -0.27531575550668036 -0.08673214561268112 -0.42916739845010776 0.6314598097422983 1.5440122969616723 -1.7655672901389958 -1.3132933562283229 -0.020480402841771234 0.9697830118157029 1.0263097742131415 -1.0997456910593364 -0.10974937986900253 -1.00797756218839 0.27539331473881584 -0.5983186398347647 -0.6875414515120868 1.1810116246071085 0.4343317245683742 1.341882201814604 -0.8953670135969676 -0.05680126570966977 -0.09085782189219178 -0.617563829537978 0.050343592039648145 -1.9449326778224472 0.7555416184047516 -0.15682652538474556 0.10651221683839952 1.673847009183175 0.5745028962153229 0.7334467830947341 -1.4309991218053346 -1.7035978963395255 -1.97294731858332 -0.7719008259710527 -1.0407313292004832 0.8965682032370036 0.19606460626851824 -0.2702002798522996 -1.1569784360919837 0.52031455289505 -0.9031598106508951 -0.8858297873960075 -0.9233703049508778 -0.7803338082442826 0.5336326817049641 -1.459939322091283 -0.01808727042698664 1.8528277513998088 
0.7968163483243274 -0.9867205227873526 -1.0016178636281126 1.2015664872626908 -0.24102190284276487 -1.0258016557842324 0.5993273868708878 0.956912386803375 0.8477139314152708 -0.8186716296297731 -0.565387028125687 0.1371194120597949 0.10596039816058482 -0.09907866964557145 0.2569477787026703 -0.10536558267431295 0.42341362549761385 1.13487854217301 1.0007584138624248 -2.248174285116177 0.10994798259352005 0.39884917378712864 1.0823020963439558 0.3245254387611975 2.2660061868903223 -1.2946313672274008 -0.38893262816866425 0.14417442642984532 -0.6531448616919749 -1.0078971459557136 -0.5568905140019162 -0.18905003608488033 -1.2954369685138205 -0.9259575453134323 -1.5989463938023531 0.37375911685044666 -0.26852979039708985 1.2553200159207283 -1.0214811237574433 -1.4100563149338674 -0.11480378176478881 -0.5387338871756328 -1.182209318829672 0.8405053686928569 -0.365769653547837 -1.018531267473572 -0.6238290313766126 0.045564455846751756 0.822325709289713 -0.13688199355791333 0.1440538844600204 -1.2688828520163238 -0.24093415722974726 0.24629039527236404 
-0.24427046322432264 -0.22322365009401565 1.2815627605737447 0.580922634988061 -0.2785289640290312 0.9253166646462163 -1.5535763298973309 -0.3911610459019882 -1.2115133721361058 -0.5266025584949879 -0.17797203509276707 -0.9991047990001359 -1.0233483419442067 0.5085223701853658 -0.07495097740251506 -0.05041376967252827 -1.111590352231986 -0.06760106821391104 -0.7551817520412326 -2.0454998433514517 -1.7135914844146 1.0576055177720707 0.49118032022908614 -2.0571468221270752 -1.3037896481209919 0.027370317008418524 1.131993034614196 0.439846407468639 -1.3460287618100604 -0.580098251675008 0.03055189589750874 -1.3964043487598927 0.4435549886464916 -1.425112094493177 0.5482125911021871 -0.8827659280849459 -0.651238797963983 -0.7765867357531064 -0.7406700575010721 -0.04848309054201507 0.18161083055325108 -1.162117978333685 1.5506433110167206 -0.19295386576333715 -1.6147063034497227 0.374194319443984 -1.2410196151251627 -0.5160249162087123 -0.902345054917211 -0.0858906271456599 1.1139559092384155 -0.8236402291363792 1.111422165155587 0.5560304499533809 
1.2980314317979693 1.1574668114880993 0.0371275357833644 -0.138891563520756 -2.1871493624575313 0.9721671321075134 -1.6476006689248008 -0.7369278650354102 0.9978397553258443 -1.7758393044282705 0.7895155438821363 -1.043001710357942 1.5024945017757434 -1.0171580966184837 0.6270639368272377 0.6168599563309938 0.11518479532851927 -2.8923770682154792 -2.290893363994921 -0.9405500400784459 -0.17712328690761694 0.679573696099183 -0.024130909076838757 -0.16013312849926503 -1.3295931348971153 -0.6324055449926381 -0.2459875878373947 -0.10066578444662345 -0.6031182427688172 -3.0218287967653756 -1.2984522206162767 -0.28310390243718714 -0.26305241787525946 -0.4696685141439107 0.7070627086883942 1.0622147913471933 -2.3424102047592603 1.257782777655819 -1.5533216283223867 -0.7097931622635434 -0.48657535799317975 1.2965724963258054 -1.0570185675372874 1.6830653292679807 -0.5594334671679501 0.1888109003554817 -0.02054597868631291 1.0411991921486219 0.6835380367558702 -0.5592584487347498 0.322006862355253 -1.1576973543037161 -0.82014903024997 -0.04839368473821472 
0.465207500707953 -1.7790727752494433 -0.19114018487454557 -0.3408395149034283 0.31813553118516485 1.450993255230758 -1.3536678678910505 0.025083645157878347 2.2911348311113104 -0.818306724647373 -0.5352435117590524 -0.42275852801859803 0.5160062036084081 1.5425382116087478 0.5030900444270968 1.0630069636102297 -1.1024980951955579 -0.5612004073295955 -0.38173828463967824 -1.5305408313688937 -0.33006896443105577 0.24888834177253244 0.5247387548294812 -1.2346420988645672 -0.8296084233136166 -0.6544027151540064 0.11071487906600005 -1.4707821509297014 1.0942060382846652 -0.5984121305301434 -0.41944351565701943 0.3703894714903041 1.0705386495098617 0.007723217712502081 -1.7720449440723887 -0.27612185529937017 0.3937671757880224 -1.1606929855595916 0.96408434719342 0.38480192979655864 1.5264893757001945 -0.9669950391787135 0.3025934825801637 0.6261031860664489 -0.12271677836323404 0.7206337636172286 0.3306109965963876 -0.8638262963024758 2.221934332331185 -0.34947578541298085 0.8254449150448626 -0.5020990430215932 0.6350000479527296 -0.8048922769361898 
-0.4115436720521259 0.3201279773132671 1.0909973652992622 -2.0366872065295847 1.3120117049576172 1.8073847370343108 -1.0759800958868277 -2.3488236660756323 -0.7939899115927133 0.1766817533833275 1.6221077993421327 0.8775984572395021 -2.2183861053185363 -0.6811065856717067 -0.032175282608584516 0.8515935917090527 -0.28443863474198894 0.24653108053354753 -0.4022880393587095 -1.1566850067790233 -0.12053533891207525 0.5629520597230124 -0.3850339220614434 -1.3998112847506146 -0.15214324506845678 1.4747816612132938 1.0659605841337627 0.044546717097478164 0.270496865907807 1.679171840417421 0.9488228907206437 0.04189327969286446 1.1846635295015124 -0.08576097012210387 0.4732250534931168 0.26362411061105767 1.2521756502190529 1.9304132692676494 0.036291821003965476 -0.10619374983741434 0.8754018895517837 1.1938423894143355 0.4017949411512246 0.1562985779781228 -0.22041952239407375 -0.6310774827481282 -0.08107996232495972 -0.44286919948262454 -0.6067250160413503 0.9359390516175329 -0.8395071534260294 -0.8441368750122824 -1.4417841493741415 -0.35254757503134226 
1.9300968629242312 1.9893866803956912 -0.11014207003530131 0.7275809089760199 -0.055899183415863425 0.8878963977791794 0.5452024603584725 -0.36182885061067843 0.6857484601641669 -0.35321641326148323 1.8386670459322338 0.04677404106258755 0.22917254937691017 0.3249568125966962 -0.5007875981393329 0.20548806047592186 -1.0271875311488317 1.6019946149335755 1.9200518955757404 0.5827189856880911 -1.9777621874345286 1.7122718787460658 -1.1042001959928096 0.5937817422335211 -0.14008558176795266 0.7933848841906457 -1.624477306994251 2.498685756792903 0.034157476767749106 0.37418415244757686 -1.1865669480515295 -0.1884722030095308 0.7296153864638039 -0.419725450164684 -0.40667021063198516 -0.3846542654941303 0.9393649596597256 0.08926781868270936 0.6689223672944641 -2.0246104432144696 0.40909968422225873 -0.1402883998392391 1.668656705998267 -0.7244177524363128 -0.01567498464577637 -0.6849118248295292 -0.6374676147028256 -0.9249049844207561 -1.3202593856812261 -0.18225003269282122 1.0687551034624205 -0.19708068573110094 -0.8539190119260992 1.1963543398473626 
0.6957739701240605 -0.20637573586965788 -0.00795545565352986 0.6236438873522446 -0.19444179327255978 1.8637012261184494 -0.6977603838778476 -0.21324300532892196 -0.14557908910927103 -0.5164809241692715 0.5776964288211003 1.0304492637843419 -0.08208896261367338 0.4284455461439411 -0.22477242709582704 -0.42859647150456875 -0.28448993879133655 -1.122011467939593 -1.7720486711136083 -0.23556746562014708 -0.15157918417780153 0.06896846942533127 1.729922799924921 -0.6881055823098025 -2.068639957314709 -0.7019152867140207 -0.4038890281488017 -1.1776453372423497 -0.734522020822548 -0.6950856634133548 -0.8503324248156294 0.2577740933326489 -0.9967181736342113 0.9990021066395192 -0.4508826756120465 -0.8890775806534992 0.8109872204039698 2.540259580907988 -0.9119853951469401 0.7910934473248787 0.015241725529090727 -0.39036472949569306 0.9966884398430197 0.5744549773882459 -1.1661727139527664 -3.171001745444795 1.1862769347205528 0.10523463182050681 -1.7835870222433898 -1.018101846094041 1.0991161835273402 1.0500867677487322 -0.19791161199182922 0.5570503993730206 
-1.4882352406891357 0.4083352654608873 -2.058887821802321 0.9033801983371202 -0.9502389547613964 -0.33996518234819445 -0.5671547562372351 0.11574151765662784 -0.7517151525795823 -0.5134530972586447 0.5648644135308054 -1.463153335348014 1.297644932672044 -1.7252167370101528 -0.7768928064106237 0.3181838397523842 -0.8898896255968501 -0.9100825703802186 -0.800238644728934 -0.2035622017038054 -0.11883761875154489 2.0402525534161775 -1.780585363329422 -0.9134172870592795 -0.8329466659351089 0.10950221907271161 -0.023770504956296637 1.2971477140473584 0.0470802942994745 1.4275496708991866 -1.36193264435631 -0.42150709026506517 0.0406454180748799 0.7000423834660406 0.7315923779324764 -0.7969098765553839 -0.1657615592943472 -1.3348226843667101 1.363222649371045 0.3649252199875283 -1.341060226381809 -1.0791512387302558 -0.5867996695400272 1.768559354139861 -0.3401194041216863 0.4885997822441821 -2.196473838258774 -0.5878089137741452 0.4178349032392564 -0.5840139924036301 1.7928107056992384 -0.3921148986369379 1.0520511679187665 -1.9691767178453323 
0.8273530970400617 -1.1751103768235456 0.12307806253079408 -0.29755983226866056 -2.0110304943608943 -0.3274316651240735 1.3914440735946711 -0.29007532751173376 -0.4053667219564203 0.1654178452871764 -1.3638891346843072 -0.33487841146777725 0.06079450288004095 -0.3336864138678977 -0.4902928197589891 0.7090483890028543 -0.42263157823901765 -2.7087008928804335 -1.1138691285829887 -0.31414270029660574 2.0210315570176602 0.7373935922588357 0.46426699496231644 1.0102241344467713 -0.31153215991655775 -0.44516461002431323 -0.9022680030873267 1.8307633466021949 0.3749472715464781 0.10200607624113919 0.5972038989742917 -1.0267312759121394 -0.27330252544287215 0.3174129536418886 -0.24099435934748434 -0.18020963569096607 -0.9925088415950611 -0.22998800941530842 0.4835900341595664 -0.7586785024299045 1.3024459616840813 0.00834552077661973 -0.484706762321343 -0.341730877168003 -0.545942135242805 -1.5796510293191581 0.5058472910287567 -0.14374607968889955 1.8199593623904315 0.10488432831457213 1.0499716000103796 -0.368591122867246 0.6313715674471171 0.4980696068840378 
-1.7187050544022653 -2.406594752644696 0.7336621149722518 2.084373400302103 0.0014597859419773962 0.17590894590403008 -0.47899620774533314 -0.6257569795164998 0.5573420440531384 0.03648262710380662 0.27544708381468974 0.3316836498160866 -0.10577882167543312 -0.9193763441839664 -0.9640490931418698 0.24031539233767504 -0.23500329614302148 -1.8708564530833611 0.3487541854892486 -0.3380168687463154 -0.01209928471199531 -0.5751151734744298 -1.2730534663925688 1.3652035122565709 1.020583502430148 -0.20559909228346093 -1.1857039695914564 -0.6180813017134797 -0.5056644609595262 -0.539472895726867 1.799760155302489 -0.872549096274189 -0.6909762977277715 -0.05132112080686765 -0.5504114468963224 1.518137548642231 0.03577992178659266 1.293598751369009 -0.08073980933002328 -0.7909533922131693 -0.567631144753139 0.5003649091909926 -1.8929220525915054 0.05464729503263764 0.9204488051797283 0.40711142899798963 0.849747826391372 1.2581851404113258 0.25522358686392393 0.8694265408466039 -0.7776959421347315 0.915350473057723 -0.6826218169592606 0.43560282803217637 
-0.1733990125060757 0.21263427615544178 0.4353600343585936 0.5648955676533282 0.027827485359112093 0.5314138211164449 -0.10237320366223825 -0.5200883581823789 1.2780039941996557 0.24016340382036963 -0.2055309154209065 0.1635957375567956 -1.7986596514396573 0.01430094864818035 -0.08469009105979589 -2.715895526083987 -0.8781956489823647 -0.8739839139230612 0.4887659360270496 -0.4884169001505743 -1.2838798179891335 0.09395079758761953 0.4601249310035322 -0.03826141363288423 -1.1031076810294882 -0.6558996012940517 1.068006850153743 1.0576782468352683 -1.3035270495911093 -0.7646338358162006 -1.3492348054976804 0.25177990289651714 0.9910916494629656 -1.2461133183862172 -1.2381843824808405 0.3001861604783363 0.06254620707080315 -0.6986555369565225 0.3087939599218566 0.7589183594773489 0.3370097521106343 0.9605052318680756 -0.7990735690227418 0.6160705878798981 0.07527427723887133 -1.1462163333702433 0.02926853842873542 0.9464830430787753 -1.1751176663995166 -0.24108866401334636 -0.014237731524951605 0.11728832736284157 -0.48980247590272186 0.40522123812852723 
3.0588917126511004 1.608241481286681 0.7510507882430717 -0.6950847436392115 -1.7622006653837048 0.13054928930095255 -0.5662692946732962 -0.4584000725168207 0.6705276309192592 -1.6875744890005253 2.3725341643693523 -0.6467427546396673 -2.0773162153686804 -0.025891436921010685 -1.3207441662630415 1.6600490430111587 0.8711656162758863 -0.6421057355511978 0.31610531243330714 -0.3524917338517869 
-3.517467835408718 1.038853285926429 -0.2911513744704085 0.12270685803415937 -1.2021692263661736 -0.17934010209338352 -1.585027894521047 0.9708917048328423 0.4555069463578978 -1.704856971572675 0.5458581166320589 -0.4794301198193326 1.587002119705162 0.6823569718426706 -1.389581453911741 -0.7257849953478942 0.1437358376237822 0.829401481604904 -1.2978649349332607 -0.20082325516977972 
