0.6634883105381107 1.7642918081388121 -1.446694885466386 1.5539573082449685 -0.646118732456441 1.7140529450479942 1.0766209548483539 -0.9419787189818567 -1.8672436752311075 -0.8638540626096602 -0.28864410926299605 -1.3548937598279958 -0.06158249269733625 0.6636259213184177 -0.5120512627598288 -0.7473426052663609 -2.4099265485309402 -0.11963297612344717 
0.07255382502168832 -1.8147849570168468 -1.6832045531517874 -1.2698612050874898 -0.5471160263845527 0.15344305996970095 -0.37687502292561087 -0.706175063549544 0.6097503530587386 -0.1979289393069417 -0.2954436223623669 0.9822962260106315 -0.5591623435318133 0.7074895626257625 -0.9628931453108709 1.4031274941699097 -0.6648860368108955 2.121230673044907 
1.4042016979106258 1.5745115648594028 0.41471959590505514 -1.1041080705111168 0.8413912551593637 -0.11573282668980706 0.548220033357713 -0.23676936345282196 -0.8445589367288354 0.9655557810604439 1.1980739727763918 0.25453163081203395 -0.34732523828894585 0.17285589368826995 -0.2357181871812189 1.6187661172236358 -0.7710310781603305 0.8937049703942879 
-0.5254017656670531 -0.23801395455029234 -1.8048613472939194 -0.20746580658871405 -0.5824849586349448 -1.2158378332379924 -0.042007269733118954 0.39302504796850746 -1.1978352081736643 1.421177599329864 -0.8381101574468487 1.0990516104628185 -1.6150941824874552 -0.8550867981273955 -1.2014040343737442 -0.1873244300787617 0.4893944486319708 0.28972079802294465 
0.34394115362579775 -0.2358593498627482 0.887730372226648 1.1846888233563477 -0.4924219198300708 0.3324751922952959 1.4298762816999442 -0.5761418195053132 1.1909889180854867 -1.0161810763468333 0.6699400000365563 1.7698475325235554 0.9024254959263448 -1.2702125590565336 -0.9080272240784237 -1.054671705140205 0.17453662754431892 1.0681744304272607 
-0.8010634064379786 0.5368363080529235 -1.6750137166351668 0.629760892714686 0.8465739622430866 1.2249573523588113 -0.3370482415350617 1.0440921700846277 1.0861933377336928 0.4247010980708401 -0.40259959177822624 0.0552842969204572 0.048824169523306274 -0.5803979715103201 -0.9803011097750618 -0.49846837333197036 -1.4169935196233083 1.328658438594957 
-0.5882820941054551 -0.9277665096674175 0.0306164494216933 -0.726748519907007 -0.6085305753848731 0.3236340211171492 -1.1682753801264376 1.0518446061986273 -0.9758910440294438 1.566593452044988 -1.9091576591163653 -0.42262520361155403 -1.0909496043523448 -0.2253162581279473 -0.08970849294472119 0.25695113555956406 0.770323828955983 -0.3660724184498586 
-1.1135890460377582 -0.5697156015882616 -0.7079255207784156 -0.6846817972910526 -0.9694060602045202 -0.778026263846495 -0.7955762264830731 -1.6615034197325556 0.16682732051916688 0.2293590763241467 -0.4185834843957281 1.0869352812216737 0.5355323600779003 0.2610950335712963 -0.5595448391169414 0.35213024411037247 1.5823604485570382 0.05548763820174833 
0.968774317746821 -0.32798231421075474 -0.5987377755511797 -1.0312886674437867 -0.5841505575547888 -0.548321733640686 -0.48140392869989185 1.6635665600411587 -1.6966861860091318 -0.495106077471838 0.4094876224783572 0.6219555831087573 -0.5971691426186828 0.8709631118544806 -1.4379045597151314 0.7503641712583768 -1.0747834168558594 -1.2672736473758677 
0.3947889203611965 -0.06760978028184658 0.7569976968552123 0.4066790539631551 0.7049930698075774 -0.3401683910027125 0.4539872325429801 1.1938543041570093 -1.3907622277503515 -1.8375052599764967 0.003513858009988705 -2.083816226717772 1.038476157167597 -0.26976289331948206 -0.37826378083452544 0.21729813763631745 -0.6389006992728913 -1.3733194707095129 
-0.7166350731569534 -2.196944316747286 -0.16568967441881435 -1.4388276587064577 0.31444919520041215 -0.3979450153232839 -1.1629461285433769 1.460506677999584 1.1280015945296695 -1.3804102068243769 1.7980617057958757 0.21119208223099786 1.6419911205206894 -0.12751789384493975 -0.6222934875488874 1.551786029176728 2.2376153071289053 -0.7425957574831779 
0.5257546240356616 -0.6957872656624635 -1.5644805319112807 0.18765012449891194 -2.767349243723624 -1.8084052416104617 0.8939373799363777 0.7590627284415565 -1.221909953456503 -0.8609442328561645 -1.9335909690596587 -1.5463315126088455 -1.103906306139648 1.1096244488799258 0.2135263174795526 1.753850198331865 0.3047059261943718 -0.49583241422194524 
1.138341249768661 0.10544615578978936 -1.9265593218786587 -1.2454941243045325 -1.6576414115888631 0.4495821412063593 0.9430374114673696 1.3258303794499364 -0.7739129064547965 -0.6523240870546663 0.2743035313329667 1.2703918728695804 -0.7169098924310179 -0.5150464451877664 0.1774153022153817 -0.3343665557682772 -0.6411444806937807 -0.04534375195617893 
0.3490220531243352 -0.21862712406563226 -0.35441659956977256 0.4524675015409631 -0.2288050284536225 -0.2911765912143202 -0.24721014413552564 0.9764108765365866 1.4768306090415804 -1.9699870962655925 -0.5084246341136827 -0.3315994767676436 -0.4596915718149675 0.22128172567754328 0.00711609169724003 -0.9862315728202216 -1.2543226068319444 0.3293585952236204 
-0.06551778629336659 -0.3838161395449271 0.157044895418963 0.6978482776116911 -0.23602271515495596 -0.0805053912349242 -0.2886025474667588 0.35449307831913907 -0.31191647200146694 -0.4103995552594061 0.8473296233854724 0.7586085025747057 1.051017207549646 -1.5137616406257413 -0.8270508570691582 1.2768103575060408 -2.2471388497211158 2.183838985877845 
-2.090581036330084 -0.21359986414969706 0.3948005583089253 0.354504765045855 0.581762687350286 -0.16989839541020144 1.4503869920698187 -0.21305620724159602 -0.1688482503075652 -0.9679690340511747 -0.5169309320708361 1.7551950017898383 1.413479492625648 -1.4224585014871105 -1.1853636482927379 1.3984543553242519 0.3664618598439594 0.6429080215357454 
0.025680043470755035 -0.9255269501901742 -0.6127529516109537 -0.640702558260385 -0.7675574494840094 0.41123696770987794 0.3182373666207725 -0.2741135558786957 0.500529620049925 1.2491103096190517 1.680055092361889 0.3836253416393552 -1.1267949358415885 -0.2737091641470069 -0.6659757966420171 0.7585599788091004 -0.4886213832875 1.4961085765704258 
-0.8187570481126092 -0.23832461874027225 1.3772125964150241 -0.6624892464020716 0.003080967397110806 0.29436893104625916 -0.7113040277770756 -0.28465261561908567 -1.1868281480096772 -0.6713390748741546 -0.11371156422076886 0.03183107283584329 0.2558461494000809 -0.15980769913053824 -1.659354534489431 -0.04501317847887441 0.04321450563475951 -0.9579533989836077 
-1.4318651479457614 0.2704766426575038 -1.242736710402965 -0.2643982363324257 -1.0209192928467092 -0.7739610045163803 -0.8122002655112193 1.683789569859884 1.744904993664613 0.4125192670317657 0.269159764511399 0.880283240522593 -0.20709356082149968 1.2532098989899039 0.10931399576644879 -0.5497906924305658 0.30404051066987475 -3.160031874420051 
0.953931516363429 0.6627445194228596 2.4328908747513514 -0.3039111949568956 -0.9900482081355081 -0.21098421819651716 0.8322488518606523 0.8790558779021259 0.6178464437589231 -1.9216815307919664 0.27803344418977305 1.2469970769987293 0.386320345532187 -0.6354505277809857 0.8937474233744559 -0.21916016468807709 -1.098284997041249 1.3049872465238144 
1.5832142500243698 1.5982277177099196 -0.9175816693431755 0.8931631250251111 -0.019113062612178478 1.7653748154972595 0.17955892131368506 1.3442020349583426 0.4584626389055261 -0.8168456008282248 -1.6049039901565278 -0.9852957094915714 -0.263320459475826 0.3882673154920277 1.6016752711058584 0.19340155318983596 0.05317431568059687 0.39428748689777593 -1.1584078381119696 0.0016187623495625535 
-0.3995682796023878 -2.0381930815527256 0.9345692303826391 -0.12071869063742793 0.8213304538023992 -2.2862400829988068 -1.3492348812603518 -2.2692307749339182 0.025899717800768468 -0.5106509989567365 2.694070009736079 1.974165599502428 -0.969094201380786 -0.7279512875375105 -2.51533220450621 0.9622065728767193 -0.268190067212704 -0.2350413080856911 0.9317618355156373 -0.13663031526111968 
