-0.8767618995950941 -1.2817959153113487 -0.5355755612834062 -0.5291538241391069 0.9596967417961414 0.25521290486069087 0.42087423740344715 0.5512703156667947 1.0121273277404856 -1.0192788728987598 -1.2795797118314853 0.8377156546786443 -0.7956961258463713 0.47195314433008606 -0.045825772632605656 -0.569507817001972 -1.5542262394080761 1.8534059492907036 -0.05068701392961158 0.4927301238630235 0.2565720760309288 -0.45274412705875056 1.3065694889431687 -0.7365009633349815 0.1192057883416258 0.33162215448758686 1.091376920117312 -0.318384224827972 0.5433506806419427 -0.4468477211083806 0.6949782906275714 0.38419305647736135 -0.06054659144305231 -0.7625316805356404 -0.48232759955738924 2.1011202247754035 1.064353171134456 1.872416527307749 0.14941938294370916 -0.32667808093062345 -0.49002529376867854 -1.960615522012792 2.3655595132388783 0.06239318001637367 0.6875014442506783 0.2655567112847819 1.071058526888845 -2.141259986384088 -0.11971952442645363 -2.2552443975539815 -0.19070407999060748 -1.4860123297212664 0.6420814384609499 -0.22631806365280113 -1.431904341810819 1.1836034781821525 0.4300527456024705 -1.7307528572452917 3.824606060808677 -2.762668636713109 0.005934392466877469 -1.2026246974406563 
-0.8777834786491802 -0.3503784899638415 -0.45053749534087484 0.8370159332815958 0.8847989927141728 -0.5867228373594461 0.01226315652660804 0.9947386459247215 0.2365358062556897 1.3273203444320862 -0.8303612782882397 -0.15334056636350085 1.5075409476122148 -1.1567279637798853 -1.3670085737258455 1.1331791387321422 -0.8643605366573618 -0.261229377703216 -1.461743603992887 -0.8699179826608093 -0.9590380746559377 0.3279503070524814 -0.4761827016993833 1.3471728693511817 -0.05469762902293404 -1.5191214175557846 1.3597522237841515 -1.0640318948524667 1.896646819736262 -0.22461546306236063 0.03797979062298057 1.5629900625751123 0.8178775962464965 0.138085101574357 -0.9399956777095866 -0.8933206835427241 0.26188014964220996 -0.5453891835361057 -0.5395372475773228 -2.4534046652830384 0.49186107606286833 1.8868567629178974 -0.3993998152449286 1.6316801056845538 -0.11313957528732389 0.2832909630835979 1.0690772044336019 -0.7997525967976682 0.9847640450612951 2.281185770810927 0.30434671588293993 0.5891880272073845 -0.34300454145408565 0.9149147873322552 0.9356510674365924 1.346103833562585 0.18412579421487804 2.255731492722628 -0.8754501760818271 -1.1967924309821616 -0.13026506780065816 -0.7770510929767978 
-1.2677922930082874 0.23227312916951753 -0.12851303694870359 -0.851033758863399 0.40823273245705727 -0.27701296146685683 1.0633577225282322 -0.8752571209630493 -1.8185058045205733 -0.3444165537821485 -1.641484747910517 -1.4028260104933539 1.6708387415619241 -1.134532719899194 -1.5506862904711745 -1.130775922420025 1.122292688666159 -1.6980770680783426 -0.2758466931071441 0.44590664531873087 2.223573985207097 -1.6412572542776305 2.4629827528086037 3.039778495541753 -1.8118891443368128 -0.013151709782141271 -1.001470613091896 1.0337780547107902 -0.8164360919283449 -1.1876766175033424 0.826246709968493 -1.3313052758804544 0.4097564845841676 0.1983303494753965 0.2155302481743969 -1.034728441968534 1.92216109495514 0.3149549683308253 -1.8576998063597707 -1.1379125170811566 -0.24828119036812646 0.1788309336455166 -0.956074155223797 -1.1460060014719102 0.6736246350752084 -0.8254087335998744 1.0262586372337512 0.2837355253877956 -0.14393991154854383 -0.4077754966228467 0.40419781909196556 -0.7729040531381379 -2.5951087660444174 -0.7330639312246691 0.2705462323411454 -0.8850968825718931 -0.0699920328898629 0.328557591512992 0.13498245490324293 0.3292847027267214 0.12533361440780216 1.8460869455226325 
0.07584594484116629 0.9296820255128958 1.0923755060337397 0.18588921567044595 -0.1902728178222018 0.4799309796573017 0.36625169808449576 0.6099100531061263 1.6165288349768425 -0.5124450212492233 -0.7568873893973075 0.5417646671805867 -0.11582070997453882 0.6735634631627366 -0.8866864641613694 -3.6609939219924104 2.5720137085101658 -1.9959272496616103 -0.3063807105054852 -0.47638844817881626 -0.4748211757152777 -1.4518572410128463 0.8186572136509336 -0.8864497165260576 -0.7886055271205845 -1.3652747287137343 -1.2646338999573867 0.17447676761651806 0.7737985214911763 0.644901922510149 0.2581332668615655 0.04795961929896107 0.8023015107314145 0.6337612762900027 1.3316250703864994 0.14687731258813166 -1.4972226410310305 -0.7288429056860581 -0.42322154728712713 -0.17508263767877158 0.8830897817496818 -1.2993584719810896 -0.32077329392773163 0.6750242215248461 -0.01722274568846701 0.408264641694577 -0.15230971873714227 1.3793711293877613 -0.2603306001364425 1.0025118615244157 -0.6335927374763887 -0.21237438540656203 -0.98138408582799 -1.1957043738324333 -1.8294732965371279 1.2344445959496224 1.85672179818312 1.2421043286836568 -0.3838241694872187 2.00889151026837 -0.6938450849500594 0.40807387898678044 
-0.38826943004328557 0.31410577421379704 -0.8270981341436324 -1.0629852112913072 -0.013007443844559307 0.5664370200340535 0.018185580563368314 -0.7206838809332604 -1.688659921891971 -0.5604140922830441 -0.5437788513487082 -0.2480720653991843 2.259044552059033 -0.06699130143172309 -0.3770014896559259 0.2429045261513382 0.8406309026764603 0.30852033885268315 0.5283756613070911 1.7160229266849005 -2.5923155393897614 -1.7405155928281109 -0.34577841610781124 -0.5997054098460174 0.15101426676088633 -1.367143113067319 0.17970604196463713 -0.4312436731616551 0.7541450677873698 -0.013193100929865004 1.25803409779314 -0.2734366681679269 1.2551199506361364 0.7210862352375426 0.08685516054357469 0.9219906323323638 -0.3269226884481222 0.48239311851258493 0.6007213568603307 -1.0471411110888509 0.10053279051585609 1.0710649468583442 -0.3643458937819737 1.9902930733705548 -1.759592501084799 0.035346395150807106 0.8381143443477986 -0.3982330724515984 -1.9420088095100767 0.9281456533860847 -0.13867425408731684 1.149543312430253 0.30431767615800315 -1.222193718411077 -0.02427840566785466 -1.5770777685482686 0.12255950722220477 -1.2897870471500095 -2.2158389372632383 1.3436005464794583 -0.11692894636477902 -0.467837001924238 
0.4947116179869488 0.7195751605183139 -0.12931034252239332 1.6441866804129341 0.46242848037074014 0.9435540224971106 0.8025613709334155 2.4676816899975247 0.4639208705447897 0.5414337619147818 0.34122533562830576 -0.02966578268318211 -0.13579570389448528 2.2616379196917618 -1.8754777740254502 -1.4496000653839476 -1.6039346368483103 -2.155736411184838 -0.26816638112151403 0.16512258905410285 0.3522651891240755 -0.3220536423911914 0.3617302088184607 -0.4062042226271107 -0.8384033104795184 -0.08100040381436707 0.6761399086816705 -1.5163911169286814 0.4704313310737413 0.3077145860888867 -0.8763093034786259 2.704135261610742 1.3231765500190278 -2.0206683186955092 -0.01761767240042634 -1.477973105113425 -3.5739040636413906 0.6611834911196698 0.3969499855569987 0.19399617040964515 1.3438877579846105 -1.208801805887026 -0.6485088567644027 0.20376379230614539 -0.5425539308772864 -0.32874426418364106 -0.504433200336777 0.7254280424070138 -0.6062902915938799 -0.7436243101849257 -1.168503725433766 -0.025710800902589856 -0.618309132685445 0.2687658063895533 0.614348112247065 1.6643453149000116 -0.14689515235273778 0.964803746356126 -2.3139444871031962 0.8288581349169346 -0.4440783366879293 -1.7907090273120447 
1.5643282251766963 -0.3938025211449472 -0.2293024169584625 -0.47787689511956 1.5160697933046057 0.5245608398879275 -1.094533669280053 0.5206873041178737 -0.6299490146283155 -1.5042328267352545 -0.4123806471334391 -0.4695402499682173 -1.3057751254638887 -1.343617816848353 0.532066856486361 0.34286083922086014 -0.438628013506805 -0.817119509873498 1.202211087968212 -0.020314766045215177 0.3891132127014501 0.30179981868201633 0.5504787534674586 -2.0779596097718356 0.634109960882832 -0.20005046713981076 -0.1664550870381816 0.26599960859409394 0.4432963261252396 1.523718562415505 -0.8205179421905527 0.3029945516454639 1.753376112238968 -0.0883948177629203 0.5863573606383319 0.14688658999315513 0.562806134192669 -2.591417276818616 -0.3926493295841376 -0.5089842798774589 0.6636959735109793 -1.0308616244662947 1.2559814334027068 -1.7100720974990908 -1.6512406567899365 -0.32248418011912316 0.15093623556029018 -1.732187663659135 -1.0238534020612537 0.34477571131671375 -1.0323061868921821 0.8275656001872734 0.8077553882739401 -2.5342355252479725 -0.3630381440697405 1.4865012768351553 -1.7613439174431198 1.5772052704919892 0.20727942627500204 2.956687654631413 0.7579376880307082 0.871333398814388 
-0.8642201807891732 -2.1273797296304493 -1.4037447809782366 -0.8356856606944755 -0.5381366689888999 1.416505457014668 -0.2858702542382457 0.2646153393937612 0.32848980794441385 -0.4336075930486299 0.35863535335349284 0.1397128997718716 0.0095222104875601 -0.6330065030593153 -0.1881285261248862 0.25938573098352535 -0.2920166801125861 0.1612551556202071 0.7810969968802585 0.4817841488029634 0.07238787396110943 1.0132525407323685 0.8920135432837181 0.037611286738452314 -0.2564050616566042 0.7513473143758406 -0.7066572731624959 2.046051049615669 0.16251837645056075 0.4040009212907309 0.6609416980872118 -0.4087976410346467 -0.11314254120383699 -0.16274804684842678 0.6348879430465327 -0.4286780443466312 0.16956303844846551 -0.12708376254347126 0.9294813164745362 -1.0589759726409653 0.99021535922629 1.5398628659081017 0.5253233406477238 -1.717564194473548 -1.2586728475808198 -0.7614007056640355 0.62532681567355 1.6501666196086164 0.6784043284847117 0.5707583714163857 -0.6586582538681617 1.3702170755942964 -0.4734446092962802 2.0474120792923785 -1.6694269484288458 0.2449559164798708 0.060016124763550574 -0.3504970903424683 -0.8370292332077783 -2.1392742587062803 -0.7193534143134691 1.0400110037715145 
0.09952553104906077 1.2951832027487298 1.5274515839675151 -0.42541179844969534 -0.9656118801441829 -0.14103266831779804 -1.6149284277755547 -0.9955648424484757 0.5123212928880381 -0.6398376590552833 0.37429743589861664 -0.6437082940709941 0.5038359151052826 -0.5646431097226964 -0.7807222472227683 1.0811322567611685 -0.35279364880426295 -0.2886608210455188 -0.7361260437583239 0.4699639575145683 -1.8264363458435358 -0.33393907294589387 -0.3394329365676824 2.3269923905230376 1.3004554594153168 -0.674471058960329 -0.1282263097921692 -0.058121903514408005 -0.3238626578081023 0.22227699677448232 0.6793457740815091 -0.595440562680558 -0.3407765845359872 0.4651660521738734 -1.9363239754871264 0.026399684020291414 -0.44326011935167214 0.060775533278589235 0.9507569509107592 -0.6608841661233429 0.23761417537160873 1.0181900514695355 -0.48766109871659447 -0.1259573764312809 -0.258104662717587 -0.14950691649169914 0.2400849779549279 -0.25563096250234646 -0.912522498430185 -0.841804723040768 -1.1692659015456277 0.5434551796676654 0.37095729436122465 -1.0498106692966884 -0.518829081870373 0.370173846924689 0.5528745843549551 1.4817648059563646 -0.5917012897569335 -2.2264016326362035 -1.2026951146788107 1.362902826364327 
0.5991994341465507 -2.7002162871905506 1.5552126989777166 -0.11132746397095561 0.07634556171773872 -0.2555840333748713 1.4259622974902781 -1.6188980198623941 0.19507868572215256 1.3841754733924343 0.21740827555224337 0.724240707410176 -2.613391830100735 -1.9977297199516988 0.06164415655253651 -0.518176871321688 0.5864317004544071 -0.8193765996790239 0.5006092443317652 0.8838431608339545 0.9585269013437036 -1.2499445643269997 -0.7630993394549302 -0.33612486425868693 -0.7784684564200144 0.3659894532175112 1.3550546162287498 -1.2750488460275584 -0.5214445886270991 -0.7197636399141376 0.4115963731136428 1.5428044830171332 0.009105541207300423 0.01778069633737944 -0.9208301639533273 -1.3437140861919925 0.3550463341443071 -0.4914470909072506 -0.008912169652435615 2.261604241637971 -0.41656711445384775 -0.8084608075293283 -0.6566457626431769 -0.8534808242721527 -0.615539883404158 -1.3141302763654201 0.22860170223563034 -0.8790853182549574 0.46549272660980423 0.796130763147247 -0.7878008087549202 0.5666670929184512 1.5609401290107443 -1.7845202776370643 -0.6633359854370592 -0.59565858016997 -2.247868688776398 -1.6182630039630188 -0.22499123688973674 0.7593356599505304 0.6387305470307078 -0.009640950338753071 
0.21077390831036608 0.41616440752389927 0.3785882399598442 -0.32250431913973526 0.6029561513149325 1.6763374703500917 -0.21548187062293223 1.1437142377106788 1.2174550459409177 1.2380732368796359 -0.0968623923342291 1.4954300615142326 -0.7994775091633981 1.196890045295635 0.9526888994842038 0.5336431039819234 -0.34359192169597697 0.3226745094824354 -0.15204916129519208 1.5715941924654009 -0.8345815028064565 0.25583301314237505 1.9231631330293437 0.35848493289526534 -0.8430112087585692 -0.007850785127246442 1.0102381984130764 -1.1053521376062856 -0.5639219143196106 0.4847014967272339 -0.3328478849202734 0.3252373859696628 -0.7962798558283446 0.1326409936250746 0.1332799242308882 -0.008248332716262246 -0.01494756522958837 -0.8358138604786014 -0.8870369701103793 1.3701976639960187 1.2012740412056024 -0.47324575445434014 -1.1049397184504577 0.7369864634013761 -0.21751112171334086 -0.9124725239858698 0.08291730877732878 0.941237598540513 2.0358791768278492 1.4317217387603682 2.289556665381096 -0.011004010317836977 0.16796340157695333 0.12184477426758508 1.1061517221543888 -0.5858335036584004 -0.8262139367562832 -1.6145186857575577 0.0460701095320023 -0.4552183435189413 -4.045930277877932 0.44440187453304675 
0.334545879486797 -0.9412220123145468 -1.0419751971502567 0.3698351237320198 0.767627155873639 0.7285585167869395 0.4133467172736302 0.5857144390658516 0.7863682033842514 1.8834769006771341 0.2389887030563954 -0.21669572324979983 1.3278943442976083 -2.01108658135736 0.49467966777399475 -1.0194142904958936 -3.4301330929733735 1.5974470972931318 -0.24033878386753824 0.993429877450137 -0.832849094542814 -0.8445351808714048 1.6492343890138215 -0.3870479023318099 1.3806390662326673 -0.32713956253071846 0.7967758190835693 0.3464272389780298 -0.6182206349864227 0.16250536652956657 0.2148853716711472 -1.084326330082849 -2.526069335284533 0.5247574182417589 -0.5763687948380649 1.9047666848284122 -1.906619814124012 -0.21568876179571309 0.30276200200261644 -0.7647414527712849 -0.23061725198246788 1.617858413732388 2.236018034927935 -1.8524039308894469 0.6275989901873059 -2.0413570257225073 -0.5253984334517622 -1.8615099378287083 1.417385533570852 0.7092857072416513 -0.17509439373643595 0.7349537144575647 -1.691484946571397 -0.28295894683389966 0.9294197937405493 -0.7815873302859645 -0.7990038999546664 0.14311774880637215 1.6747852798269616 -2.552662875973645 2.574807071475369 -0.034766122877039694 
-0.3196201720263782 -0.5434864043155783 -0.2738032414828913 -0.7100766997149887 0.12027766077133517 0.3131015990069883 -0.7759486516030786 1.0487226072894598 0.4035321357837235 -0.38916248560801087 0.818683948883858 -0.6218107693007485 0.6322926516110657 0.292206455490395 1.6579119587050155 -0.661481916329913 -0.9606125273570598 -0.7491251447446758 -0.7169051848136225 1.223802853439758 1.1899037068979077 0.261501857868071 -1.5972165856883018 2.201745162606305 -1.2203799074273114 1.1884027384785498 0.10555527727381084 -0.9814937687604612 1.0817914265128707 0.7674131925401096 -1.3192965785621877 0.5118239756015153 0.4429651429219238 0.6163033044078706 -1.0012305566676407 0.9914507448139922 0.10278487830962818 0.781202938365193 0.6105022752409901 0.2779982825804812 1.0566691774149135 -1.3474346741439114 -0.7814080966973235 -0.5635103488512101 -0.38266521668917086 -0.5904424942924111 0.8099705197391968 0.5972753265421609 2.9398643134253324 0.9461782606897602 0.3704016826975231 -0.49040111661184954 0.5323257423076809 -0.5275639632525084 0.20494947403966965 0.3439631978330042 -0.33543704552821546 1.315325316352701 -1.9882576649860042 1.0297712626542748 0.6166669346393755 1.8382044359593874 
-2.268884362824883 0.4602316925571926 0.28915736710892914 0.09004633296921963 -0.5516648397999172 0.8008844834619584 0.0828602576977406 0.5570982592099976 -1.9767202486859847 -0.2551939486974559 -0.013401617203880823 -0.12458785233576695 0.20966890669654611 -0.5741517247063501 0.04084398343372693 -0.10761778571216453 -1.3419736325346894 -0.057727784979879564 -0.15383735544346888 -0.721370982619513 0.6511557232280315 0.9710149208857893 -0.06478848689147504 0.20169178749048564 -1.34206210446611 -1.7081092416548478 -1.0810803907852164 1.0127793527432063 1.023807866405833 0.5726521022086314 1.9475604414753365 -1.7982577791370107 -1.1089245973334398 -0.8797999837182103 -1.3909090230650218 0.6951867510766211 -0.7286491306127002 2.160339030402728 -0.5151599935128465 -0.13658145428920274 0.0033874414341464603 -0.25823482984898144 -1.1260441407541928 1.1981898733731111 -0.6434735503789056 0.16960860607543668 -1.1800455074579563 0.5254460086775699 -0.14624016833191816 1.1048349641009627 0.23136912508989513 1.2054515447314977 -0.35518257241464307 -0.6304809128320962 -1.3071129724644492 1.0985554419682142 -2.255867955064804 -1.0307104766341162 0.09218516917911507 0.9534431782857896 0.37394596708655126 -0.09070527464944021 
1.9305904983957298 0.7500653191461951 1.8071718531770538 1.1197406197431845 0.14358428028655126 -2.268412574492197 -0.7482611030537567 0.09847780581880591 1.2083442467804046 -0.8125660789649634 0.06594107839616643 1.224637432881095 -1.4885107270151923 0.3828353314711528 -1.8174352032901047 -1.125487172069773 0.4549691724935757 -1.4020631034161406 0.9437814082930531 0.4175310512376832 -1.5396765431552104 -1.0742466080640476 -0.8408252127785079 0.10187245444954336 1.0720563887270986 -1.075749361419803 -0.15847949356033583 -0.874892217999721 -2.246309271736422 -2.2938352747892514 -0.43453754355634094 -0.2976811788628328 1.406877021243672 1.321112716858152 -1.4302008412227212 0.2756293178495442 0.32388399985518357 -0.9224871917471128 -0.3423036030948444 1.711801979858564 0.7886496995540078 -0.617373663344688 -0.984760392287159 -0.9869946435577864 0.028543364741031876 1.6278666428287427 0.6570189946713866 0.7785245244010288 0.16923527339604494 0.046616847662112146 0.06273536546644186 -0.6263537034925977 0.5385817909121158 -0.32395793062142025 0.5114330245271328 -2.453813353614366 0.03671762416329369 1.2077338525319505 1.1596769478780085 0.6347551201819689 -1.4816270769010416 0.10727065687800466 
-0.2486043757821224 -0.4080307917016904 -1.2372550248146728 -0.1470877933172983 -1.4562660882473553 0.43662405882512256 -1.1171502593291276 1.054686623907987 -0.7157657259772612 0.3799891213297482 -0.6654698982305731 1.3609593993340143 1.3363140106690026 0.13527229241706407 0.957259951167236 -0.26591395173499294 2.0898565130973865 -2.049102716396308 -0.9959141836581176 0.23821566804240432 -1.0859554015525765 -2.4545963593513647 1.2026231352622228 0.6660366027011303 -0.8324447274835393 -0.5353659892890115 -0.844661059558312 -0.3332483630860987 0.9738698709670215 -0.5709297681928149 -0.5223858126923837 -1.0279673092032902 -0.971168420396074 0.4385895882463856 -0.14248232269587702 -0.22075292958619522 1.234157310989184 1.1326687593070714 1.5845637491133757 -1.2813273362451012 1.0445034685960437 -0.533684335074187 -1.8886350024908525 1.4141694620874132 -1.1464787917132675 0.032967292552615754 -0.1447882444905387 1.243716959495006 0.9334963942743348 2.5198930466303757 0.11284246343213464 1.0298907107552662 0.20459256236459533 -0.5610872622114015 0.04751925156486124 -1.4024347061998974 0.32961083306277733 -1.1879369180837398 -2.1306978015813107 1.6543733354395749 1.7882498351369742 -0.10594854348726172 
0.23120330680336726 -0.29942565340071803 -0.015889715222987866 -0.44190426828892554 0.4496829027812592 -0.14469141514905462 1.016524348098372 1.2335671166433593 0.9404684387521702 -1.3088056667700096 0.3949673227343875 0.9267882715815285 -0.4387554107516487 0.3739056486318757 -1.6182793020801385 0.946742406848033 0.5950229947966655 2.1019728320620885 -0.21533080246580616 1.3245744138795263 -0.29549143301364306 0.3526842496122171 -0.8229771816391218 0.8125662117475926 0.27759902629288025 -0.2894558597233884 0.28017503051108994 1.4600196150473164 -0.8638064759868159 -1.8345369987838671 0.8063911994600564 1.0282707902396926 -0.7308905030150633 -1.5994742347955058 0.6379806101414139 1.4828905317306036 -0.4569075649252882 0.8883104573676952 1.3066832163149544 1.6027242340204821 -1.5745970182150424 1.0625001081212406 1.8426879026703034 -1.1171035874257673 -0.7321164888306307 0.5443209850259559 -1.6444695542198426 0.5533595817476391 1.747402638605079 -0.5228913885095019 -0.1854949260112589 1.187674888499183 -0.28625707557653873 0.4726229438536402 -0.7390336440058792 -1.0937098082204695 2.363126072828551 1.723383098268236 -0.5166323626613621 0.6926213529935955 -1.273107071319814 0.09741741186147643 
-0.1223379429210508 -1.439326092209562 -1.4766281329234892 -0.33360814726429955 -2.4000683923236923 0.774434765943989 1.4148395386088015 0.4035016471202434 0.45455859621906497 -0.342347620156224 -1.5101805145634721 0.3189774640690995 1.5752760370110608 -0.6746777368318564 -2.649538623077755 -0.3565101124415712 1.7218249902717615 0.9943784315310341 -1.8143872651963089 -0.3477940291011525 0.8331162652584576 -0.4322412770627967 -0.022823703520592403 1.6374159000968578 -0.5465495689602725 0.6629696470962766 -0.5508295045879232 -0.1923335652087027 0.5744007184198546 -0.4361081676315247 0.7963883661558722 -0.23405086879843426 -0.9576719994339192 0.47157184928080825 -0.3183072384838244 0.1381517341378366 0.5520203361237094 1.1900615074430612 1.3080441763956838 -0.5906596848172071 0.039592161929267684 -1.7135524078673998 0.5061966590059538 0.4021124128018691 -0.8797158724750663 0.7739754075020756 0.05919937521038394 0.4147395196467285 -0.6281363930829861 1.106430516624588 0.21470146759631223 -0.24029857953816344 0.7601773405605142 0.7578195204293797 1.5446612765518901 0.553668559392405 -0.33380520767219335 0.5437399106516995 -3.3367189184018895 1.651649567279402 -0.6710657744914679 -1.1337332320786244 
0.41610528291466453 0.08257194774905352 0.3988991206192157 -1.3105040590145272 -2.355769968345799 1.7073122132701852 -0.6072761635118713 1.7994963490556792 0.8466277513149139 0.8219299485509326 -1.7202523990885514 -0.03784298085673031 -1.3242271182861975 -1.231881371795711 -1.2128023572888587 -1.6129292332794016 -1.289880404165352 1.448296948900468 -0.33843636056916276 0.27596822922514097 -0.5374302735088763 -1.4107386934372241 -1.1267884501547507 1.7415569734921528 0.25170339900698746 -2.83753045884556 1.6269603301810645 0.7097060453763727 -1.52862015023157 -2.829630590422838 -0.28547615178575875 0.024248834113233506 0.5821682636377254 -1.0134806895918382 0.961556090437275 2.1754318248292197 -0.48121528974461486 0.14414025469466513 -1.8604270701575856 -1.0899800760916754 -1.323166603426089 0.13346804630555104 0.4848717106856812 -1.6467169610042864 -1.0517755762184047 -0.17133800684756237 0.41100994068717733 -1.5007117578990041 -0.20828975656769375 -1.1323854794581805 -1.0166859223796614 0.29426299462946476 0.013142756427322998 0.9336079307712379 -0.8506470489819901 0.9555457081455812 -0.7427206924394143 -0.09001765750297819 0.6421764060089006 0.8088428807430381 -0.20141600031787613 -1.0202787450979056 
-1.1968365229055093 0.41357669899744254 -0.9606881552055805 -1.9623642560862156 2.0998665553474773 1.6472389759356967 0.5960214788094793 0.8702508121104664 -0.2564472021091478 -0.49965686298169365 -1.6681070159335514 1.2044779985770424 1.1319310100052855 0.1495156680824602 -0.2675287056290002 -0.5035483870593102 -2.2730559108124013 1.7784242256777283 -0.5765379132892524 0.3498711232745196 1.6240619785395545 -0.35653220373254263 -0.1718046856585095 -0.10132289708274578 -0.03197218312226594 -1.307292607068328 -0.8155795658399269 -0.6973625267386135 1.1919717709099988 -0.9570248588014119 -0.8044639107265238 -0.21869762991816297 -0.6909981922983129 0.14546784550828573 -1.2545880766725077 0.5603710547527724 0.3818147772692397 0.3731412523633139 -0.724169297871411 -0.35564781492006464 0.7610540895776993 2.3464594759851467 0.03838578572725959 -1.6760217022905297 -0.13144508017008724 -0.2183278018896077 1.3846317979085678 1.7710144562122816 0.39293375609069403 1.0778515272600953 -0.40907445581573365 -0.3567185817772688 -1.473832596766922 -0.3476505580368749 0.23110169585185486 -0.8633936820189021 -0.7043562153440911 -0.4696595403554474 -0.3032941828752881 0.1005184481024142 -0.12971796370261507 -1.0348053340922716 
-4.344329522698754 -0.8619862439475372 -2.120971098006025 2.608412955849618 2.4726113649757937 2.2076236302322476 1.6631685488057888 -0.5737501002338596 -1.5307454690357487 -1.1346710299070846 0.6322441109493088 -3.9179568959907103 -0.18849082419693225 -1.2537546675488607 -0.6817405252818108 3.9461933056232783 0.3666295297911827 2.0727462184948307 -0.07249656060718229 1.614764408798777 
3.8082775588875744 0.0735517154317417 -0.11150396538585174 -3.0695934890767362 -2.976574871994522 -2.7570014614162006 -1.5667090028013666 0.6482673467963124 -0.3902655364908638 -0.47911557133330596 1.082125173427783 3.2918862169683947 -0.2894240892383387 1.6513587323318655 -0.2860917321929116 -4.159248824673712 1.199244298837086 -2.8552472084758858 -0.5836603443176898 -0.315955075868091 
