-0.48233806489199427 0.6672032320978896 2.0669296844839664 0.05204079148774419 -1.351282472111205 -1.114085956906413 -0.15753389956498276 0.27765535125563595 0.3836503474470856 -0.4994263598846873 0.06320458277115326 1.390081907132991 -0.501511848051597 -0.0007326966656272815 0.49278921723729263 0.32133288202823923 -0.46922032941846803 -1.148366758240762 0.36142784081427476 1.236587599999618 -0.8675144319299544 -1.506081215629998 -1.2810028850561472 0.744067301234218 -1.5371580039748525 0.7520377795820584 1.171589068213959 0.9777803695061593 -1.502792518559817 -0.7111709322880289 -0.6624518739680049 -0.3594362687206092 -2.3685832543842484 2.645527752884237 -0.27400548934904795 -0.886828579319761 -0.9234301386776285 1.933475556905173 0.4391944738782912 -1.4637208278274898 0.8066849689289483 1.1674040971664088 -0.6278883492407124 -0.9048396879175982 0.8005944693252065 0.3017708373109409 -0.14769921956743598 -0.33323378909713053 -2.9290657316173947 2.935750408507698 0.993120282004609 0.04174106096403444 -0.879008109104919 1.277619670651456 -0.34037029169526833 -0.8715788752716157 -0.5032296231831693 -0.15295902957334662 -0.07521615193268355 -1.3623617162867407 -0.8161058398463733 -0.28570841475108694 0.07497428829648625 1.569872979679324 -1.0895869278840709 3.162105144220528 0.6327067008549002 0.2452741007880705 -0.9039491127364571 0.06691424458129917 -0.009496737523310886 -0.2859190059574486 1.1320811116526002 0.028027226979691268 0.5794194422394469 -0.3564900119897784 -1.9771767903517534 -0.2733244908459889 -1.3846959757803206 2.39538968941201 -1.0706528791727292 1.2287696571644249 -0.4687087163292606 0.4369552689662361 -1.1017230597548475 -0.053317395632784426 0.03301685399799551 -1.0483653382832765 0.22921928965320532 1.463064179037525 
0.6604884972399101 -0.5841964704125846 1.0284246131166783 -1.9768175643732169 -0.5275945622156153 -0.7277944464880358 -1.3862078060444494 0.27466990574460465 -0.44848803428566475 -0.9300814605994687 0.6352800558932309 1.0063326989026167 1.1100648114722094 0.7837851764273293 0.9265563729199202 -1.1560341620717556 0.152260641201189 0.2927164903568899 0.13703826341256106 0.6792496871915312 -2.071609862409283 0.10255407142538192 -0.6019230320009581 0.72081676339792 1.5002300147897087 -1.4530629356378577 -1.315283499640741 -0.6351265459836227 0.9205789460009499 -0.7037687239895777 1.2520050011964805 -1.0014477335484904 1.3795916602916247 1.083258669393898 -0.02197512874945702 1.4081343852720585 -0.3953363367654535 -0.5319705014538443 0.81654151125137 -0.3080911635329869 -0.503052652676337 -0.42134911406529757 -0.50214815016282 0.24582900117862322 0.558270184877061 -1.562964423732857 0.08891993829901979 0.9951709698912438 -0.8849350133488383 0.5232753063889705 -0.8959238247839405 -1.0342356783046933 0.5450684450899731 -0.05029920094315989 -0.6857874114934265 -2.482414550430261 0.47461110606454654 0.47644065436454464 -0.9376701358078284 0.45480171451015927 -0.8923283027596057 -0.5851066935502808 -0.04606029112404637 -1.9392911948879767 -0.21238165207427462 2.2865711768609702 0.612892267374216 1.6913506175373396 0.4605426937321394 -0.679063851452671 -1.3917714503015597 1.278985016985639 0.652472099587266 1.527220096041971 -0.9595730905033899 0.7832167669592611 -0.8155262082754318 0.15550046509617188 0.7629972183217839 -0.04017681074534208 1.7318190657751942 2.380051115206169 -0.5331586442344961 0.6827300542708049 0.9714520850844356 -1.2747972606018199 -2.292113174296002 1.4814058403585904 -1.940672074911331 0.4681954609588516 
0.4294637762132808 -0.6037034906887279 -0.5199179012109364 0.89682025403511 -0.5626680603562328 0.7382298134915325 -2.014372743674727 0.3277804509017515 -0.8631266205039043 -0.22966745380233333 1.2966530175969762 -1.048456465358086 -0.4988322572220114 0.6732917918445137 1.3955309406089407 -0.26756939785526124 0.7967834007693594 -1.05514888736285 -0.3420182376423964 0.6531624473419888 0.09646656280212845 -0.4385802122854102 -0.6895130519485266 -2.4467831222478744 -1.9035748039847529 -1.3251839483349346 0.32533064116038296 0.9028750940793056 -0.15877934513296915 0.6978486037507554 0.18220073880518708 -1.1900191498443218 0.1626080305891586 -0.49154167291233114 0.34973391985097524 0.301179207406123 -0.24517765775264116 0.018033681832433528 2.0070696540936126 1.3597318293968084 -1.793322348727258 -0.9623592152800281 0.11827177436245528 -0.51055777229971 -0.24479779727556056 -0.9678791769759209 0.3389939273117467 0.29479108203169957 -0.48574836314477127 0.6196751365292126 0.6645810613319175 1.1018273527810518 -0.09884503949935339 1.9748508764375832 -1.325965315098565 1.2590131452176059 0.5515026288813166 -0.5206801356250459 -0.5304407402592286 0.38680732522904837 1.6326896202273486 0.5046242925141766 -1.109036304495648 0.20203920409757803 -1.4144554805671907 0.4437588033055566 0.20755207943632575 -0.2922943853593831 0.9251297145644855 0.17959960037909292 0.46918314080327955 0.7854850948821906 -0.9331225495038408 -0.3234103083310811 -1.3434514735692364 0.6318837184301039 -1.3364601250126589 -0.8585969516852394 0.8791782075939757 -1.2347364769203542 1.0617931850222064 0.11155949801072612 -1.1567140846981598 -0.14522388696278501 0.725628088101866 0.5249587549936989 -0.736926770490762 1.0621546889049551 -0.8416372235465212 1.2662715019821769 
-0.7252440056826029 -0.5361134034224481 0.09369980194234802 -0.3565018201395856 -0.5190563490195136 0.2403628245696653 -0.19284962112314638 0.06863444898208514 -0.9468088234178508 0.12086105411701802 -1.389424015378051 -1.4892116155939956 -0.5073572370064287 -0.1328190656922531 -0.9845181911048284 0.019879487230998524 0.190811615671987 0.359080546888087 0.5566129568083344 -0.7644682967147225 -1.7535031596175807 -0.826549475954292 -0.279206500487619 -1.059299093871243 1.2214953207483903 0.31015538890217187 -0.7013920429049608 1.1762382628709842 0.4491190829480502 -0.2928370218987671 1.1804052368219022 -0.1090373892581733 0.13931401180727326 -1.0893451369235592 -1.537395240563203 -1.0263325619440926 1.534486028899016 0.8152084473447789 0.9066263277702038 -1.2499480159731469 -1.0206543398373198 0.027674924442915003 -0.8895112413495225 -0.6527526725132546 -0.8625232466066179 0.15204965668249815 0.11278750976212105 1.4416475086928342 -2.3033998839768253 -0.7369470680738883 -1.4718614093194073 0.027606165403577205 0.9728710882146439 0.3775066254815476 -0.8059574863900221 0.8136146206920941 0.0784372607098072 1.2068072924350803 1.2045452453215442 -0.20237476252991088 -0.25606431687559017 -0.6030090947334071 0.6115702733981987 -0.5083493432594404 0.708476780398089 -1.127469802092635 1.6742729816503807 0.20234367459983404 1.2570880834748628 1.5334098351038952 -0.8141723293228352 -1.0825174052790487 0.45124519304009353 0.24283880348612463 2.01073324913153 -0.39632609123325846 0.216490672789108 0.5435023577588244 -1.0230432298390968 -0.007011476901312663 2.5645917915177994 0.503051312471279 -1.3377047298222573 -1.5811613958233826 -0.926238593035719 -0.5855839104069469 0.41715482529747444 -0.9740336209400042 0.4897474457325954 -0.055780694862774115 
0.3736126464364032 -1.2135478546197347 -0.845433309773242 -0.15038576696181508 -1.1686025401076028 -0.16231497282316454 -0.553816603616975 1.555423840904279 -0.13478985358132742 0.1443197048168127 -0.7748965337105432 0.07454840140373202 0.5450277789535057 0.9681385729704195 -0.2664849272661061 -1.7294763747023965 1.1888507589149409 -0.7090987182737409 0.38561794936908445 0.5668311011333036 0.5629847939568694 -0.7173612352803914 -0.1604853617065364 0.6654727494377711 1.0071605250651392 -0.28604091924802577 -1.196919279272383 -0.6300762972202422 0.8374435944026749 -0.10614262218719007 0.9364643111485242 -1.4708643640365309 1.074207696946117 -0.3288700957617583 1.0943693684658404 -0.5881133616831491 -0.3622789600316879 -0.9071121960961019 0.3435448519054012 0.8344807225196741 0.1776991833396765 -0.8513295928370971 0.8567771746540143 -0.5877097550439278 0.01331457716791415 1.012481759195248 1.0915960978977737 0.2770486175297936 1.1004185196227938 -1.0076976656976513 0.33961763284266566 -0.771768111653061 -2.1224221372727157 -0.8368461767642745 1.504201456960695 1.8415970124210976 0.6755906865075093 -0.2262915977261265 -0.03723846744030451 1.4127598824739551 0.592791455820873 -1.3758330843232847 -0.6985377645294397 -0.4807276896926183 -0.4312419131740848 2.146348410614221 -1.1646361492787918 -0.5141780226500325 -0.1292326123666882 1.7574402743694046 0.8067545420278815 -1.0999532330582569 -0.6457671211713063 0.49054939889156296 -1.5291867882923578 -1.929195634950599 1.1050413329718929 0.33643404362119556 -1.3149228412038942 -0.005607911742096849 -0.8939795825622199 0.35293781155282355 0.7520787774688197 0.0855217946474938 2.071643608326865 0.0017888357937141436 0.6903447959453376 -0.15479610139525754 -0.6670933128365968 0.7553946434680182 
-0.46023449435527264 -0.652034770517552 0.9046695418762748 0.6151692551272592 0.40999017929629833 -1.3887638335945276 -1.0636617055339517 0.5072794910231047 1.2534806327700143 0.5704964435238497 1.4136331194068799 -0.4505075589344526 0.8626556583196755 -0.9571991422125652 0.5487260396836477 -0.28028053431361943 0.1547326026192259 -0.6990778447702407 0.6360755284243864 0.5084187236054973 -1.570281421900441 -1.1894208407553104 0.9969741459045197 -0.45865162249036323 -1.2460475151222223 0.23396618049102336 0.43053386748662376 0.7017130836159178 0.20059110190710863 -0.20686202912080245 2.3692965758032187 -0.7151564308149602 -0.11546712080881968 -0.49131635293539294 0.716453935770408 -0.7281135912049945 -0.5734706736305909 -0.37655886504967484 0.23762743140998963 -1.7788137388313647 0.5261338147258788 -0.3211629340883384 -0.13328575033717352 -0.825688751086642 -0.2713938147636072 -0.24812364102853932 -1.4780920397545343 1.3205606063737299 2.1326958140842267 0.549571915063295 0.7272211327063203 0.7611093704461589 -0.5861923407428892 -1.0608816224764057 0.16427732321873606 0.40997275446679077 -1.6603657865404329 1.0423333042583127 1.4642548190561313 -0.18368207378493173 -1.146527613101931 -2.258111840797542 -0.5030103774177603 0.35378509379645934 0.12095235765146477 -1.0561223789811316 -1.6474713655502362 -1.2854520153570097 1.0744511847994886 -0.29832222390161395 1.3537900573954418 -1.630348591776572 1.2593596600174048 0.8622397215201133 1.4087011953558943 -0.8006064643665319 0.41706693798148536 0.39842928209601053 -0.12981841991986456 -1.8095648500739006 0.026919541159095246 -0.4870088391453413 -0.7377042846840712 -0.24680442846075773 -0.19347072441615473 0.21064452170386214 -2.794291611272725 1.0888029136560147 -1.1395039545040122 0.018557699929170713 
1.174968870324483 -0.7387520991432878 1.4874390850403412 -0.1419372434206376 -1.8848090606979264 -0.5508398848693002 -0.11166718150794014 -0.6654721442621142 -0.25112461682218434 0.4821325041997701 -0.14089376131614773 1.439426337974681 1.0545298623144599 0.749909983012929 -0.20130831509055266 1.8897609473275414 1.8793781600773434 1.4775894859522063 1.3204502811994303 0.11464292118770579 2.753975409030053 -0.28911357513511576 -0.08510197949533979 0.01909300946951956 -0.713637808889094 0.43451085867911104 -1.3247282252730963 0.8255986643986317 -0.7650520535296201 1.964200723285881 1.3492791677292089 -0.2278686983053484 -0.14995088025642278 0.20671207908942282 0.09177003960236865 0.24419346299662667 -0.023171226906557735 0.6583669459613343 0.15134088769459586 0.6384610652465934 -0.6284696823836218 -0.5617062933805601 0.8668900071148263 -0.15833175254396167 1.0432610613782864 -0.2994927239821308 0.9903711870742465 0.3690000047249497 3.1936130963474416 -0.7453508161463391 -1.1523141562109636 0.5346787913313601 1.9105777752919078 -0.8554004496170944 0.7721617897959354 -1.3501707747048122 0.6081784561819708 -0.9492843506300528 -0.6428828763862126 1.1521645647551368 -0.47521312436401986 -1.1299990108116984 -0.27198938203931955 2.374993503415357 0.45463309723046735 -0.5495321960860957 -1.4420032079525178 0.40337755097725875 -0.5527981446047046 -0.03879251659667353 -0.4294135915030062 -1.4518264664970544 -0.7818593237901991 -0.40307732337396135 0.7093841103054567 0.3144533988323907 -0.4462482118135318 -0.671861073496575 -2.4324828623641115 0.277635796853224 1.131705644058 -0.8398599776092587 -0.6464345337705802 -0.8013909290124119 0.7658042844903148 0.40186884436349307 -1.6428785488837288 0.19199372509450327 -0.8918083680235042 0.4317580909022668 
0.011198751044512885 1.380402668927552 0.6105574441425421 0.7669108147396199 -0.8827268338620786 -1.2267316832970832 3.4232008130155878 0.7755654208318562 -0.019279910985585045 -1.7003892670830616 -0.9272429147203807 -1.3776539821418095 0.8564565135014066 -0.5885883034170882 -0.09753855538115831 0.19366449629001262 0.8713147656630276 -0.6465347578573873 1.0216409958816441 0.7036064837085305 0.27830647751904347 1.2228896965310623 0.42215890985400806 -0.45763201938767095 -1.290744490857453 0.05991548464321601 -1.745725246070485 0.3754856549331762 1.5623366817705373 1.479859079967871 -0.3829190720974252 -0.42875448340426925 -4.036131880090839 1.9283405442862334 -1.0544295982779894 0.7704576077974454 0.554583915169815 -0.5105406689963841 0.45210766430694627 1.05138189916349 -0.17232185041106698 -1.5315434364698461 1.3323376037258048 -0.03371934809796284 0.27013016899317455 -0.4369922735875712 -0.10427466237482949 -0.5128280738640342 -3.509770030972163 3.24605080595884 0.6358659131579792 0.47932663251715946 1.6738017158117828 -1.6917056009324878 -1.1699498926825858 1.1678805284564349 -0.5928745341254775 1.4178882864184825 0.09861790832384677 -0.21269570199625185 -0.5731316935300428 -1.0125141807641584 0.19577418000014984 -0.7885901751521158 -5.019295120248114 3.2649418099166674 0.1538080212190292 0.4704358816257968 0.058176581531176 0.043985522343473867 -0.8772530207371908 0.29764382142919743 0.7397921570377631 -0.4649228689351396 0.9805431777058595 0.8706985520960926 -0.20219775846103172 0.5686561146775349 -0.269051399695907 -1.321130151712102 -0.5040100561271446 -1.211443958092625 -0.20412679323888291 0.3308913104696603 0.6270207277469545 0.17265700912425722 0.7868373679096208 -1.3274917850382029 -0.8021850426791599 1.4412691977201322 
0.30992109118797956 -1.7469487617433803 0.48916349335399817 0.3713011452297599 -0.7084378328330873 1.4292867776528366 -1.1379999448537028 -0.8533306756648779 -0.22210148927251736 -1.0600236157373149 -1.0648256602218562 -2.110292237734958 -0.27145051330894987 0.08808816220431295 0.34047422450659504 0.9925164687203939 0.16135294210816972 -1.2044448867344115 -1.255098007785276 1.6970044363964916 0.10504957225550311 0.08248007525600981 -1.5402705289149563 1.495082253894592 0.8437634400945767 -0.08667308149881152 0.7272932856813343 -0.7275103582389948 1.2918968611549837 -0.1260885446932412 -1.906870696533456 0.4579010549751548 3.4900749011786116 -0.9100679345855488 -0.7715419879752681 -0.21668345964011357 0.7114635214283711 -1.1591913626943342 1.5114351771179289 -0.09226761923613831 0.009255850331249984 -0.7109343371857184 1.7622336571165942 0.8435107669440096 -0.39870866746941835 0.4936914847627581 1.1043260739389147 -0.12093274079033461 3.2208550957415056 -2.1160963831426742 0.7857426495560411 -0.21579981822083286 0.17241060655187784 1.1968804603013636 -1.9246789574184233 -0.5590558349307962 0.8642064340205999 -0.8602453518054973 0.675796468239909 0.19058771916938136 0.3618987183978057 -0.920019686687292 1.2208319232536888 -0.339034550071179 2.4318348581614293 -2.2394920502888622 -1.773634903092075 0.5303879240522776 0.45602671766622566 -0.12310181304353594 -0.2851273936378341 0.061342058375340666 -0.29348848758618834 -0.1288298011428374 1.3335924227508593 0.8243709120532111 -1.0820744818434387 -0.1280280385845149 0.45105130661352305 -0.7884300739924704 -0.1563523828506283 0.14996930931070993 -1.5368475545473494 0.7582980516744587 -0.15081623381988474 1.4709982286508012 -0.4336957292138775 -0.5274589564224594 1.4685108971515308 -1.7914389186321984 
1.6344909418278415 0.7528799970560864 0.817560270316061 -0.31242410588852726 -1.1285511433837843 -1.8511337662548515 1.218010540786494 -0.6407836614167508 -0.23528097034522868 -1.7096726996155671 -1.0947411437417158 0.2772416139695807 -0.120279026153345 -0.5971429824658615 0.40966947452582375 0.8301394555862651 -0.052084064978427345 1.0851316642201279 -0.2712758242192308 -1.0891499111087863 0.24226473079230337 -1.2180512075050531 0.8129441278787225 -0.024947484160488885 -0.15453250067946706 -0.32256991986820527 0.5063878474196939 0.679509974166023 -0.14135691048778817 1.2667114290874906 0.7034964993454849 0.2171326138135897 0.3172634692542896 0.7341816699345328 -0.6226123737310426 0.015041614043782413 -0.02256775383929928 0.030442462863368592 -0.1855278680308538 -0.8145604745773156 -0.4530344544274931 -0.13709159848560507 0.5877066418261678 0.09756931922955595 1.3178911037767087 1.9518111097313944 -0.06580851037212193 0.863095794754581 0.40748707114294574 -2.4096923772667784 -1.241898926855161 -0.19351644378923455 -0.03857664295216587 0.28967506710073293 -0.07674463593341714 1.603595539921096 -1.043531784466536 -1.031211833692127 -1.328350883321487 -1.0357492048341044 0.7374647241724304 0.36230397100145084 -0.56833581707032 -2.252480833046036 -0.721798776013737 1.4326788798197345 -0.3145839637454255 0.5696166716799725 -0.13611916619252856 -0.5559608045097795 0.9013709137313366 0.7127709495501046 -0.7163746941449203 -1.2098898232514597 1.1716645930424994 -1.4328448047648263 1.0069032854601276 -0.635642898159733 1.310957325366679 0.7822840584988487 0.7693156995300303 -0.45917852003958937 -1.1985254884006735 0.5619889355441171 0.5315328595394505 -1.8169800853996445 0.08326659576969421 0.1928094499659377 -0.2710161148086212 -0.7895711436572488 
-0.9716481278127148 -0.5422659039636147 2.3702989788459394 0.8969881611930539 -0.5768892182440251 -0.23838784505042085 -1.1114333716635063 0.07681518921062135 0.569411678598058 0.20743884863508905 0.19863488589285366 0.2510164619234032 -0.7743093886338159 -0.9404165905076973 -1.306030289210932 -1.3442927275957162 -1.508678053852065 -0.13001042538817517 -0.13948645740486063 0.12966507295751026 0.8346211154267912 -1.286019154058808 -0.34971867132499573 -2.5094720056428708 -1.2085572643562144 -0.5455127440499757 0.0011784127474926426 1.5612926251120756 1.7900660240608788 0.6432372271286605 -0.2630275437033335 1.7612960275846294 -0.2789704735211357 -1.9207932813482687 -1.1870785945466786 0.13099845820924072 0.9823758866487817 -0.02743369940517429 0.8780509015791567 0.4474651191387994 -0.6014156012904469 0.3518013887241581 -0.5310393533836821 0.7462713862668775 0.007596031949588533 -1.880807149257553 -0.11145279599695596 -1.9447958928773221 -1.047516049268598 -0.08569225499577739 0.17269667272725295 0.3686674952158968 0.8885395798007084 0.2830570281921364 -0.19421474359842752 0.04025063885288407 0.06343810830215899 0.17027145285256431 0.2690607547007796 -0.12203975133041263 -1.0394758826410726 -1.1508798905444237 -0.5507506989188632 0.8784521291250174 0.6783365902861328 -1.231151860967776 -0.25444855191583 -1.5689060585808379 -1.8160189287008928 0.7444847439822183 -1.130622991045838 0.4045865654537062 -1.0996173495428359 -1.1183299895584913 -0.6538614355403904 0.9070934864341601 0.009345302462178996 -0.244918834051116 0.5600583716662225 -1.500432351974512 0.885137897157286 -0.14285823993913663 0.5844632753771729 0.21983386362731214 -0.5112653781576109 1.586304056265669 -2.9919474557226593 -0.763311267280354 -0.6364145641210432 -1.8527042102749962 
0.7065810238856939 -0.9701386725726321 0.615616481900452 0.7051909404706723 -2.3351169862901457 0.22572338254043434 -0.7651093011501638 -0.13133106047922705 0.7789809155865475 0.6805191841471436 -0.00886547490265161 1.1956793786449798 0.6938926209189998 -1.1947816631236559 0.26842196860788037 0.8032465556979959 1.038356710275922 0.6361652188147359 1.3564072789381572 0.8034899495813612 -0.114156428018043 -1.5961778802027378 0.7852036327096626 0.5503088877959972 0.4003423358028466 0.28505659931493854 -1.4712730352448906 -1.661890196977752 0.7040699295402587 -0.14505716470437047 -1.1185767100521091 0.7621441663488828 0.48551327952645584 1.145762989386352 -1.1611198073905489 -2.9670727806491826 -0.970765596205454 0.724686923101849 0.3584418521552202 -1.2151906775965668 -1.8299200741781951 -0.01921577734602471 -0.686022355871215 1.0672350228864909 -1.340741382197287 0.6266824434527107 0.9439562416861087 -1.4306697929809595 0.4402003735797594 0.8541186283110083 -1.0199034015910384 0.07583488113244202 -0.8960998365702316 -0.07804303264590394 1.0620991085872755 0.4497544687202611 1.3149215221351935 0.018990379257380143 1.0215885459556886 -1.3312899412362913 0.6866456213107749 0.2608572855618611 0.6452397188772259 0.83912743376106 2.1571893036866325 -1.9546319570184159 0.8467146213585924 0.5130425263433833 -0.3519590986516929 1.1755601664496056 1.3430731342313134 -0.07381179133841964 -1.1770236897024882 0.08038262717430257 1.5955218073489714 0.10560019458353642 -0.5161843440906563 1.6025943274338004 0.8164777310252728 0.5480559585933062 1.0500029263569026 -0.264691145316137 0.04105479754410522 0.04594562030475992 -0.38941735499615465 -0.8939079895551157 -0.48628480015677467 -0.9199238150893373 -0.525018710058475 0.14573527183596707 
0.4649129265248322 0.8503878398867633 -0.12828586793171343 0.019316649105724826 -0.5399920485338695 1.2766790180964123 -0.8571765925968329 0.7515563931891381 -0.07357556644489816 -0.29716516211552296 0.14640456967646853 -0.16425008713430436 0.17915018597926888 0.4084899620136627 -0.22867071333982908 -0.4506346074825763 -0.381311795515528 0.8778960426483238 1.4325964448308974 -1.1713979351806398 -0.6008402117963659 3.088008461077809 -0.971846318795587 0.09517340421339228 -1.549675832897942 0.6937473986648272 -1.6234528869136196 -0.13753158838875232 0.20811430862504937 -0.2619639783785078 -0.020597683449416114 0.4434267026711494 3.146822646568523 -3.3742085039633616 2.078816379275215 0.18044276041619545 -0.3485873274801668 0.5526021129759102 1.0653269541350265 -0.5898005414826508 0.4574631783721302 -0.7598444618712787 -1.4087919415282424 -0.1180834780784982 0.21297247961824273 -0.7837799300059546 0.984262428019989 -0.39027709893776064 2.062709831230652 -1.585131388175006 -0.25821497393900156 0.2843205792221116 0.7011956338204661 2.392380645478272 -0.9733144304362623 -0.2295017304207295 -0.30190764936938236 -0.4836676056227947 -0.41819498309644415 -0.030038085439194628 -0.8042543508836655 0.2420083809066812 1.2219818315208133 -0.22447959442562337 -0.5131484918585337 -1.303557753023613 1.4378144466773013 0.467078319751414 -0.8628111712038387 0.5249352632040061 0.43897792600745833 -1.7380009760812116 0.791522666153873 1.1151101148886702 -0.6450532981319327 1.4994009268878552 -1.2813876844285612 -0.06660655081170819 0.32480050747321565 1.3821216994194416 -0.2958353004561211 -0.7172380174608962 -1.7871452452900158 -0.35913829118747476 1.5770591948454458 -1.8313087579581944 -0.46446917747693994 1.0773541702604532 0.3186331727023038 -0.47158868872980775 
-1.9997056078378252 -0.6665551420711828 2.170947010467555 -0.448169301384131 0.11668221649007175 -0.5774725017790391 -1.1099633084230542 -1.4490998593149558 0.8008561015918644 0.34274709799628017 1.3895232772154575 -0.11294767945128649 -0.21077941690378624 0.13479685401943323 -2.1578784309387826 0.5706095701218569 0.24399529087195257 0.024167880616093807 -0.7743888204744364 0.9927705304097708 -1.1957582274487895 -0.5084604820398938 0.7379754015410057 1.577781985473124 1.1365269302903693 2.2665990103623668 -1.4816372112349914 -0.8592189449819817 -0.15894438387975757 0.15305853807218492 -0.06067754340729709 0.14647095655893314 0.689908990739071 -1.257446483668528 0.8138266051228482 0.47963479501790546 1.3344804540673636 -0.54160826204081 0.03168265128177383 0.4911524399955144 -0.5610315701424307 -0.9411804562808221 -0.1558430630315477 -0.3540623613661177 0.16437660084171393 -0.4945384911609699 0.05606685615207356 1.8481264668506279 1.1762505285854903 1.8868855212767222 -1.2050266955457476 -0.4331667079711866 -0.38405346170225085 0.13931771864089937 1.018224277138578 -0.41591882254681617 -0.1466194054562632 -0.7019346826706657 0.5259487610977616 1.3134311923084918 0.41917904359465197 -2.395394983992143 0.7470574630864507 1.7378019651582894 0.45884820004917526 0.9080564254939558 -1.5492856732797526 0.06940166623500403 -0.9887920681918905 0.7538694645624806 0.9783397313511348 -0.4643302604159111 -2.0384463334382126 -0.36619186294720774 -0.604653161469266 0.9696947746737086 0.6188359363264684 1.099215073557456 0.29663947034235316 0.009084501415937791 1.8104824758805 1.1994223597911122 0.31465719600263437 1.1684231350099428 1.587320235107911 -0.027709226485578112 0.20539730704527634 2.7127840033835984 -2.0765957077297013 -0.04110554634780273 
0.8894891596273814 0.6677917422983062 -3.4305682690572685 0.2521867677041329 1.4820532737852214 0.35321835203214585 -2.0773317962782873 -0.2623605158786924 0.3512731069002503 0.6279830240117931 0.18580353966981225 0.06670366248752989 -0.8886051326875822 0.055087674940001774 0.6681497655352849 -0.6393395796151468 -0.9378652099314402 -0.7149545128164432 -0.23397636237000533 -1.0747598982343975 0.3604033223677009 -0.6227210266564891 -1.7002892751156553 -0.6793784293835852 0.015233563373883704 -1.3778219571889017 0.88901315733751 0.9147439702979165 -0.1386740851912633 -0.3263761291886807 0.6022758822756096 0.9362107256769922 1.0833298201595576 -0.4101877790586323 -1.0282936611781617 0.1767562253460924 -0.4586105503658009 0.17343284775846382 1.4029266819065271 -1.0485734901274653 0.3786953426375545 -1.6666745627294821 0.3885249666963263 -0.450655161574658 -0.5243669257651443 -1.9460824254523243 -0.6310130532105551 1.0225244111269625 1.097302947382071 1.1890994913972321 -0.4937802332783809 -0.10592115047300958 0.6922261308821984 -1.338000680989591 -0.8958257907131543 0.7223768295497044 -0.5150931573414976 -0.49171798178665466 -0.5297950564575604 0.865550230389293 0.7897245541419046 0.34562350668859143 1.9647769781912099 -1.030383481279002 2.280245364408955 -0.4469393137106576 -0.46065368497524256 -0.47290753056307144 -0.08408786439293196 0.11051028038507164 -0.9963739677642268 -1.3288221981917978 -1.1122046862358361 -0.06755944726997726 2.457964066275168 -1.4814132132229318 2.1076538439863692 0.09681139804837838 0.770537025919125 0.1854380657855334 -0.3772963997537127 0.029996728384347734 -0.2547911242113413 -0.9208508617219767 0.20386808585207916 -0.7966181515117818 -1.1498398722344125 0.6878504089350764 0.3687613313650657 2.030095757689043 
1.0355765812874487 0.557100233185732 -0.2440899483082731 -0.47460000922187756 -0.06583502237078434 -0.7289518475450538 0.04495232778660101 1.2497855003049687 -1.1660826007847147 0.5095587448063199 -0.5029157473424367 -0.49071797588786487 -0.9217473796322331 1.3641671667097464 0.9101524259237521 -0.04072474901466859 1.2680049545528864 -1.4129448304393142 -0.24472964918862677 -0.9203353865357317 -0.5995619660505308 -0.3441568568700375 0.003586164897067363 -0.9648117873536495 -0.174631465069968 0.3248299493669912 -0.025981439846248334 0.6523457310218271 0.9341836417017397 0.54147551513364 0.17267538115734762 -0.8195295897858514 0.19570271530706262 2.343397112392427 -0.16069988307670724 1.1134526438245755 1.3213125027310115 0.8322652337258408 -0.12371868263995464 0.5898324948779268 -0.4887742666923692 0.6231183293229319 -0.055996333605413416 -1.834690891650541 -0.6230537157979092 -0.620060637690212 0.8512528818219577 0.5082120691211023 -2.6052945830918737 -0.20245452572199188 -1.333235792761037 0.3989761144283046 -0.13620048688280414 -0.7055559742383316 0.17931578735679557 -0.9341857486873989 1.6482055591488523 -0.18159395422312233 -0.38271314318595834 0.10284463187310898 -0.0013843204332421794 0.7192853392435529 0.26954095238667813 0.40693895407346603 -0.980984616863392 1.3443283309977934 -0.7323358169626869 -1.359190297552149 0.3943225383324777 0.08982617306704145 -1.3522833365469111 1.9348588874416002 -0.22847298079280942 -0.5746022458608545 -0.2020575997290716 0.5804693919626769 0.6755887336050195 0.08972845609743017 0.5443787471549394 0.18056077518060207 -0.6483529724289926 1.6027972398055523 -1.6907383991927345 -0.000982738210097194 0.24085939913152296 0.7174596422099297 -0.21448264865493588 0.10365557371318723 -3.0850842255859665 0.2994472493223794 
1.4402579941162377 -0.983805632126679 0.2639588527198241 -0.8949936084004734 -1.2414641756963547 0.11054715496134909 0.7395053113705786 0.3123336011742882 -0.2883061076705863 1.0186963819303247 2.2828189471872573 0.07075340143995909 1.0682864366564784 -0.1916509397666982 0.7549029033269931 -0.04380141685599355 -1.6369631640419895 0.381059133005621 1.3653736710829232 0.426178115795718 0.8308383521790522 0.8256751808819016 -1.3535840505923171 0.22778077845071606 0.13239455964699365 -0.015945193808717187 -0.35036216207328374 0.7064596236381323 -1.0260235620898783 0.5291109083062471 0.024112811780671758 0.08175486568124028 0.8689323968684415 -0.2626896892084484 -1.0691506156296577 -0.7247965815446853 1.0725917465386712 0.14396890487993436 1.7467259510854563 0.8765133260609596 0.054452634166210274 -1.1598128432883945 1.480557305532038 -1.0513966823095677 -0.346086931477331 -0.947265746597278 1.595697280710429 0.271190496709718 -1.3318363770832546 0.025156616254509805 -0.6384887373414655 2.1452981056200566 0.5033886320068314 -0.06998554557373138 -0.3017680221531463 -1.6037985161905803 0.28605894793746717 1.635891363652199 -1.1368645672927518 -0.038413887323040616 0.279605694216393 -0.6831805640618023 1.6138508322358682 -0.00758633785690176 1.0490027128670367 0.5151211163699501 -0.0668170738914529 0.6762330131930386 -0.5815740887245067 -0.3211836540874054 0.31807010371543465 -0.8577759887097453 -0.6742139377407227 -0.9259277065173733 1.5086848641825685 -1.0960705312753172 -0.21871897904420565 0.8069501613422874 -0.5024709187938526 -0.023693966447644377 0.7410302100652668 -0.11031033110483925 -0.8367868740714941 -1.5241889030403604 0.1007809511363165 0.19830026559193145 1.1594729051703954 0.6329995004740515 0.42826192348743153 1.5055783717575024 
-0.9928611801181831 -1.501919566422158 -0.6460528583098901 -1.5069270976883735 0.18494448617345458 -0.5122228659728737 -0.04318055321346227 -0.11442452955708309 2.0006831599488906 -0.008449858008654878 0.38427341735672205 -2.9584711022657517 0.23843759339667403 -1.557390339503722 -0.6461416365219945 -0.7525208783323408 -0.017401767752692452 0.6721103825852767 -1.0819700388619329 -0.8322199905350768 2.058748496084525 1.2200943941389508 -1.5872973010728406 -0.06015504157735782 -1.7684507192164816 0.6715906120507521 0.22410546623341165 -0.5559011461601184 -0.8597239569793097 0.6102823498672095 -0.43199290317816236 -1.143513414835322 0.8529375093004977 0.37621995874777 0.06934936675973394 -0.5704082195167249 -0.5084050722917771 0.7883633696024557 0.8574970630509197 -2.2808424661363493 1.1032289785578095 -0.45645886735609675 -0.030183823753759772 -0.7644999339524651 -0.7307780224592006 0.4913937777381109 0.7633315307618294 -0.931223178251564 -0.015979535008913855 -1.0259235792185835 -1.6132919632602805 -0.950601160884 1.0302164023959588 0.45331383416113946 0.3530834835580707 1.8752336601189847 -0.6854912874255984 0.3372059474664224 0.168070808732731 -1.2767984257370102 -1.6409190089708805 -0.5124251058128612 0.5923864031306698 -0.5764554177795034 -0.39155289034560803 1.4052738196775325 0.1831573790021592 -0.8675555540576428 -0.47312836436276534 2.0381794889351075 0.6526515954894645 0.9804496899575633 1.0564183947598742 -0.8595010026520425 0.2639792047059732 0.6007458867186655 -1.2113207255404463 -0.3923421830876906 0.09055467588303834 1.7109072794148137 0.07685666868182527 0.439183367771698 0.12029008461853684 -1.8397237835496307 -0.11437596583129185 -0.6172423695490817 0.15712608654229834 -0.24422956230610157 0.525276147587779 -0.004374077782889235 
1.0616620136779016 0.41211783691725024 0.23257837446568738 0.38429278076214496 1.1177958773699757 -1.802345549907551 0.07338348722988444 0.7370438162822859 -0.4969280267731 0.21514394094801467 0.32180142765059916 0.16505213017058998 0.7219297749872973 -0.10864797106821807 2.445875818540001 -0.5295100168307382 -0.7660425518593472 -0.4181258824458933 -1.2888182793802032 1.2441288436873557 -0.3041585861992809 -1.8544665172086103 1.3840388552773666 1.098654132660833 0.4849569319446463 0.543444025478065 -1.1770666798866662 0.9784937285548259 1.0470402785911008 0.9701860334277658 -1.4975726024890472 0.25829938957860665 2.0699994667410504 -3.633946685662591 -0.6680235192199117 -0.7727157739215089 -0.4702286966697874 0.4005947805393541 0.1488435355460815 -0.8585221845796916 -0.42838999637492914 0.19864122003207466 -1.7205342958949046 -0.6955070329267358 0.1470136759585671 -0.279552407842974 0.8584800786686365 0.19009869751411426 2.249694068935003 -0.5815624537170869 -0.17918746826335635 -0.5347052055264252 -1.7979832219993428 -2.1016933445425265 0.3663826981704007 -0.24787478614102143 1.9268081153521381 1.1371564649929373 -0.650612952510495 -1.9873996365150406 -1.5571921396121664 0.4895447843114797 0.5454920859522341 -0.18141686225592185 0.8753717161240658 -0.20855767004654488 0.6507934998906928 0.3965986539967579 0.12640678595388122 -0.19389876454412297 1.042417397253717 -0.025090472754288485 1.6154779565408581 0.6669016111435468 0.05583534346936982 -0.36762438052924906 0.5185230023663622 -2.6206715328605967 0.5853251746721759 -1.503277169748514 2.1353935644310753 -0.5225379861450653 0.9988689601406586 0.925652752171764 -1.10417885448916 -0.1828780994116791 -0.14229601080344476 -0.4758619314666816 0.7328093050771225 -0.8760573339151266 
1.097940390840975 1.369578559451501 -0.5616753356006445 -0.9812790319021252 -1.1722919333771056 0.2902805001726299 -0.4701335623552651 0.12886994938419674 -1.9920178298408042 -2.5337620202788314 1.5584524526138113 -0.8540954053672871 0.23293193885890118 -0.8419769445117865 -0.031025112528588424 -1.6232787790809333 -0.9718693126101636 -1.3767419768539992 1.1587218379357354 0.7361491908043348 1.9479970628466847 1.2843826692596096 0.42180266435899094 -0.03916281986759724 0.050048712776703655 -0.26671262447873434 0.12650344825052864 -0.5143764070175711 0.20468653924969235 -0.9679415493435314 -1.009170831764187 -0.47054983746930784 -0.6570783548446728 1.8220872897021192 0.26988287571820707 -0.9716894136897279 -1.2134703396328876 -0.28610804872682205 -0.18908721936559628 -0.1299970421804264 0.5638539495255027 1.3121336749311245 0.11762940997557696 2.0526939781463343 0.5442809313710262 1.1538375753251193 -0.355893460621913 -0.511088332111175 1.562056654053589 0.5505910030297194 -1.1447907830444153 0.08214772680100173 -1.4665234229048805 0.2932948495508416 1.049654048952678 -1.9484493860029302 -0.41855895547109767 -2.259984289394758 0.5005600557984815 -0.9764704717254155 -1.2186337322501057 0.6610565571173213 -0.6272758005398762 0.36313088066515564 1.569488471771143 -1.1180098872308237 -1.3938149344038615 -0.6091401293181069 0.06999736701987574 -0.6305985594044448 -0.2654545421451383 -0.3348331036181034 -0.037274300719427916 -0.11414435236028439 0.13893049615768568 -1.6787513087904724 -0.40252776984433913 0.9173347510828921 -0.45715812182845345 0.19083742796169048 0.14524967988306342 -0.23229410247714083 -0.06269697379747385 -0.7239057758181406 -0.4839852309998145 1.5017594182269762 -0.5126471149714678 -0.2499480202459561 -0.7358847404069737 -0.11476070193633932 
4.659770178083133 1.6413696204244832 0.05130505801167035 1.0286860054204223 0.4181832172484477 -1.4469093593201265 -0.5493369963354643 5.717669827966225 -4.179928178453748 0.3521065725284342 -2.122327380475501 0.7174353553147906 -3.1134756202159806 -0.3710581833333778 -0.4042765330972039 3.1936147641674113 -0.2406026575481041 -1.4336415206823194 -2.5491724235680477 -0.19990862107661544 
-3.4476566249554383 -1.7444997115895233 -1.134443242735799 0.5640037781531242 1.3007878212741093 0.9583679119190336 0.038750112099769224 -6.3302940702630055 4.213801503601464 0.8766681077652392 0.7175344880969338 0.8495350294964282 3.1700901379313224 1.0427252674359895 -1.3255169664835122 -2.5389004952803664 -0.10262969633068612 -1.5327894980877568 3.1052490612194386 -1.4460877269918058 
