1.2801220981691421 2.55703954277778 -0.7021456057624126 0.5215024769018748 0.5773452920099921 -0.33063988380185527 0.5261518145420128 -0.7974876515597319 -0.08074052324219166 -0.49999132241582894 0.9434727815662983 1.7716080486804215 
0.6080353462557515 3.506960538994893 -1.5057311814355943 0.5441151571205469 -1.2082201078501644 0.48520256553368407 1.717088212296796 -2.0902233497158065 0.5267187674712822 2.451710955218279 -0.994437837875229 0.5902052934020577 
-0.364389999703064 0.5329619707059101 1.6891531741811945 0.8828919480010077 0.5772526581383357 -1.1951598853349985 0.3316003219849991 -1.095534048083287 0.23463328325669464 -1.2614483863834016 0.7473439085475422 -1.291812421191658 
2.2228401789993093 0.24604373779396518 0.7147297071971683 -0.5376160407248978 1.1203423303098037 -0.9072896314089154 0.37583522706734873 -0.5589972663479476 0.05572785017765162 1.3102408926070965 0.5814921073221863 -1.1606771448361126 
-2.449745877409409 1.35336421077494 -0.4484484104287617 0.9233337655609877 -2.6931523270649715 1.1933177429970652 0.8727845839590006 -0.017131269963442934 -0.053678587795420646 -1.0113700420529133 0.9381631485092282 1.1491156259600601 
-0.624467729845883 -0.4765039290906474 1.0231663787347072 1.4794651975193316 0.24497161905457898 -1.71165643547857 -0.13821775151397495 0.3010932250020293 0.09867434084134324 1.187358742757694 0.18908294277532714 -0.43931343189993494 
0.8055929090020442 0.6611374557466486 -1.6904073432582987 1.501231194037666 -2.8108203312723217 0.1013806200690651 -0.18634193662481252 1.041760667578085 -1.6058580969988852 0.6630988402701361 0.7641807506853027 -0.3759232290475936 
0.7642377821092956 -1.02264647825987 0.3568363070566984 -0.0304218513403173 -1.180327988649958 1.8146237721269556 0.0608584650147046 -0.6747458780371405 0.6376043107067582 -0.01174182668482994 0.49631277766107373 1.5761474543257583 
0.2095739875801631 0.5297378152937692 -0.5964342123504667 -0.6152359756514119 0.4584783904579593 -1.1336854193397414 -1.1777223834335013 -0.23241614148394144 -1.3682284548282777 -0.531432899468629 0.978304396463377 0.9649609716180277 
1.6450964606650342 0.8544562171994489 -0.8389320240941247 0.06804568734608274 -0.8698947280600086 -0.38917536971534566 0.9012440037470205 -0.7463406766330932 -0.18438092629568703 -0.5736790144956021 2.7454076086174384 -1.3991202533564853 
0.5865613296408784 1.2859736717108086 -1.5456489075821442 0.8164016523844859 -1.2994324821490506 -0.6431551734901974 0.667786587592468 0.5694792862199887 -1.3628614110040205 -0.20679026486926785 -0.06774993929328554 0.8482997310418268 
0.6646517456944542 0.49144947032358716 -1.3178901705357826 1.55039342834443 -1.318366605501212 0.9725602936434887 0.7967501078267402 -1.6581148822126994 0.38655950176084053 0.4629130756873772 -0.5782884082507176 0.0561879467449679 
-0.5903201742949058 -0.9707136004406757 1.111688890285651 -0.7006319241486701 -1.6944125198365536 0.09579649399099603 0.4958239829744193 -0.46178823614619136 -0.07662739911220381 -1.411748315692321 -0.42568495936983664 -0.18401901430266496 
1.5717421094062252 -1.9624293485768671 2.021481590738257 0.15344427210530662 -0.5320088466203685 0.5332541628262438 1.2790169509645322 -0.7906535370079493 0.16262426406715963 0.2751118499625353 0.7445686487951374 -0.7184688089316299 
-0.13088546439480975 0.02204735319621343 -0.42141159612623774 1.1437555698770987 -0.4495793363236948 -1.9390867696102458 1.1632306393907887 -1.1785329174722574 -1.236365748209026 0.08127309969002854 0.7772377602730641 1.024153953767573 
-0.23966872921902937 0.6284227287610795 -0.10233423581756475 2.3939083339236737 0.3121351306031648 -0.40128323726834 0.7130091242367327 -1.308225964329411 0.4377106375537527 0.20608931268940242 -1.1775793222335098 -0.09700929408959584 
-0.22330504270894827 -0.6645050134698662 -0.8268138790624552 1.0642583307099134 -0.6938402341311105 0.7497405912484634 -0.7318802367998722 -0.7146704259080257 -0.07327985317111897 1.6653382950254525 0.23854768308298588 -0.9484400910423106 
0.20982053136361928 -0.7248593890868835 -0.7186237563509609 0.45852590454394104 -1.3914938982363132 -0.2520616028299233 0.31973297189275046 -0.009923198658464806 0.1286746288082993 0.6258976160991333 -1.4629905742257217 -0.5102315479994665 
-0.7656672496782961 3.37039155180634 -1.118974973607196 -0.32174222231831867 2.4227774453869464 -0.7073600712649872 -0.7746389318314982 1.0777161777118702 1.276878489063428 -1.073602638450151 0.6953604462889282 0.15567691027351163 
0.23147079376524077 -0.1653831808523091 0.6843449348333374 -0.24687081456051463 0.6612395092121334 -1.7015535784637295 1.0412566295701393 0.8397367108267897 -0.35788160719754797 -0.6423026206808903 0.18995841740368874 0.060470977770812506 
-0.3888806089440187 0.05126103786674375 -0.32635923852348453 -0.2085931186772323 1.4515210799614218 0.874199134251188 0.7625991627276761 -1.7469353945980328 -1.2586405889638386 -0.6157654862556485 0.37978541454049375 1.0581354404114325 -0.35270636383951 0.43496138476851476 -0.0037518979145288365 -0.35613105012720825 0.33160928736415085 0.6422878565341258 0.2392271113176062 -1.464703257024006 
-1.2197484716764924 0.6933367611898122 1.3385097615192514 0.19319372460758777 -2.467494452272486 0.9037874881563699 -0.28433055725890694 0.10692386685425122 -1.1579232879115633 0.09255134879995496 -0.49010095993989616 -0.1971400160366857 -0.8211372269605743 -0.17092900514065995 1.8364323367444761 -1.7477148637529696 -1.3004488410389243 0.723016413946712 0.634057360692096 1.1798230528330693 
