-0.7222234273960276 -0.3156108899153126 0.055225555580204415 0.07282760775262313 -0.5905038155430894 0.23607884091674045 1.6232210475770212 1.0274577321972356 -0.69238380725991 0.16816095738921055 0.25702721294406855 0.6401092809173123 -2.2689879973924727 -0.3952982526115122 0.6333626635067807 -0.7402197863813328 -0.1365751086567204 0.26879289543004015 1.8939750698454316 -0.7047922545863949 -1.4893174147724217 -0.16834026357466964 0.6635402104822484 0.030259158224113212 -1.5807309832425427 -0.7282849759475494 -0.14106937734744804 0.7832451621141048 0.0885355967721625 -0.527264921979474 -0.049619077436075354 0.47615120126377025 1.392200422336472 1.9191605471783773 0.8764213251687497 0.029326516499718933 0.6611507448659102 -1.0048826920580625 0.08639941773069068 0.1412717367641551 -0.6503973174644215 -0.7838688526436111 
0.90295410395905 -0.0885004604973682 0.0002642219809935351 -0.6408261119360337 1.6899088575825518 -0.29574841681132313 -1.4350107150521272 0.2844246595952384 -0.1909318957875085 -0.2090958780699276 -0.8642387138098364 -0.23834586461904142 -0.41828533527938705 0.826168673479988 -0.3652718230404026 1.2516724104506947 -1.0625840063895369 1.1540316422254606 -0.5500754400818739 -1.419473673045285 -1.2299349501419699 1.343718710521578 0.399301644827201 0.15306712941800726 -1.1042554154787292 0.1815226249611152 -0.11117241887669761 -0.15977595963784338 0.7464600551948003 -0.5487931276799167 -2.152818315874427 -1.0016287492486098 -0.38824704960787354 -0.9182841782058692 -1.7789096910586488 -0.5274485486730057 -0.7757252867808757 -0.1550404726891843 -2.110560777159184 1.1657856801677475 -0.45486722452407236 0.06853398923419957 
0.06721338176911439 1.0683491053482188 -0.8968686864633232 -0.19633094770669152 -0.5490378202269043 0.5728503473197604 -0.1788021464206163 -1.2004325088087582 -1.0391770761575707 -1.5411278584325168 -0.49958932152681784 -0.8691591550127876 -0.4486334528466912 -0.6377402296772074 0.2633779406171415 1.121034780905737 1.4382351472962929 -0.7695723941093601 -0.4561915915835305 1.1109716918151453 1.460906438820265 -1.800132145383749 -2.097834660874242 1.112342954179416 0.03203667571246851 -0.6305320610173999 0.4704706213409668 -0.15496474505518884 -0.5763308271087035 -1.1932439416285419 0.13256249587705082 0.6868307410624261 -1.436312128027661 -0.24248611129705064 0.3312730800171187 0.8432059136278642 -1.1810606147522424 -1.2964876745014622 0.6380014408564418 1.063222253578045 -0.5517737592635368 0.5068342701828678 
0.732028169669621 -1.0168123436570384 -0.07069432516332752 0.8078577568624534 -0.4079064455953982 1.210048106658032 0.022896540725609777 -0.057506418011599676 0.6065081279020234 0.24736787394762128 0.1721914082048975 0.5040009176607978 0.043667814607424305 -0.37741773968948406 1.2759149875391242 0.03827750566993719 -1.1455482313564949 -0.8521771165814385 1.1379756918895056 -0.40860291234305685 -0.0783637364201706 0.5467040345170693 0.0529564816454472 1.9680819618671532 -0.182289101759432 -0.217940303685165 -1.2887007426965977 -0.32678784233756514 1.5005973702187236 0.8047844472589905 0.25783019839844307 -1.316525509233301 0.4545801364026599 0.5493653798122092 0.4655211001923023 1.5491745047922167 -1.765145801479718 -0.07428477274953967 1.4343308699881367 0.27929519010238424 0.19685439980344316 -1.1513635690815232 
0.8960164385653894 0.878317394834833 0.5791965039516702 0.765625978483922 -0.28784669201109037 -0.41471759132294495 -0.10733768518600963 0.011471396058203872 -2.911786170204209 -0.41341985967295186 1.0655938555089304 -1.6798949251798656 0.9190868993178255 0.7805697239269196 -0.4351019729007727 -0.381749547278759 -0.5334410841820155 -1.4181112219917682 1.027908855418081 1.7258029325160498 -0.5958469506603857 -0.4483160428383049 0.6264681241348883 -1.209128490412036 1.5814303691677207 0.8967235437918069 1.0828172402016458 1.0597463150540227 1.4125831268286118 0.37220280578918963 -0.5300448759254281 0.12586977840003769 0.6097249408122698 -0.4546522451159157 -0.0961942817707404 1.3721349607865259 0.2747299245634723 1.012269550760058 -0.012846316403341228 0.7444267556563223 1.419494706679481 0.9422511767281677 
-0.48940217640174544 -1.1701762046921051 -0.10646614153425771 -0.7352103732855243 0.16972086999393968 -0.2034499059253662 0.4169826115958602 -1.1493240723623805 -1.5473569643491363 0.7480324515306349 1.0075018289601259 0.16883913629208933 -0.3548589771297809 2.7261307827743915 0.5827975195292829 1.376210600470304 -0.031731905877484944 -0.11871873969927386 -1.0674144322249366 1.297030602703072 -1.7937651777112407 -0.12839922364772863 1.45021250099118 0.3556746720607409 -0.389956657614881 -0.5825703822874201 0.6761068209153831 -0.27253954272227415 -1.483651667165918 -0.6870306864979842 -0.5809099638655 -0.15567113582299047 -0.0513903617190293 -0.015212369864121052 -0.9115879937481067 0.9047900500043042 -0.2980452929807207 0.3893519420147408 -0.6968657663684866 -1.0950278812832026 -1.7437535181419883 -1.096420643284148 
-0.6595433423508568 1.498513136014658 -0.9520984095993025 -1.2625585580818075 -1.9249676594478007 0.9449664142340701 1.0802375243799887 1.4285269194322945 0.32984907223460896 0.20633764118707315 1.1407539662088824 0.87878666917568 1.7490615360885495 -0.41036886808334216 0.4911408964657647 0.32963383762465953 -0.40296392622775173 -0.3906421127473853 0.4358268596671012 0.07383732080347453 1.7584686089656154 -0.8092030273803602 -0.2615138775177352 -1.0506633223521749 -1.660366691967268 1.0042304689860393 -0.8375807082044844 0.47909352678462874 -0.13969308143694936 -1.4216053469740708 -0.7918564788882636 -0.3930884413316469 1.0522125063466623 1.5492304964409713 0.869111067112456 -0.08277918784625468 -0.07199050682217069 0.014068243283097113 0.9807361390736383 -0.4727185103539316 0.13092685236276314 -1.0049413202739033 
-1.0738634111562675 1.2855484268404067 -1.4543185413965165 -0.1432868001757118 0.6453651959567968 2.0681566398520945 -0.6209928548464598 1.2239486047551542 -0.6173128693760117 -0.07289202106503953 -1.3313139463564225 -0.3459361949863251 0.21807496486522715 0.10231829240937662 0.06192119748870906 0.14721171221731283 2.0279326069538315 0.10732281956615108 0.4508994436952383 0.43149173205775054 -0.6060362631807535 -0.9111134124475005 -1.2269762062950864 1.2558743099769816 -0.993824682988994 0.13519805157867223 -0.917667965782358 -2.3245935569065788 -0.32333425305929575 -0.8059833712667775 -0.11350299025896042 -0.3196658800894937 -1.3472246585789056 -1.1642247853181975 0.06573206612611002 2.795225153170148 0.355615671064006 -0.961376430007531 -0.5449544653311869 0.29558847782910824 -0.1251502328174025 -0.04436556492107418 
1.161032375993007 1.9951101786967114 1.085709172001314 0.06491921596480724 -2.2054743911332158 2.000066019198684 0.9975751652115066 -1.2208575589162582 -0.12735737072388087 -0.33739346512250423 -2.0413161917395497 -0.1497185197963839 -1.9188242179662243 0.4604274405557723 0.10621615564825321 0.23641268226021703 -0.8790222765846937 0.18781950471716213 0.28538575090191237 0.35857161324608605 -1.5584759886212638 0.2411849547344387 0.882308431431989 0.4516311822512956 -0.3584685651183026 0.3011511295572209 -1.482109972647114 0.6261802470141195 -0.6538589320619644 0.48174690701711453 0.3156844902939818 -0.11985964840635027 -0.38099783781181584 -1.6551873918263553 0.16444862716897063 -0.3459351845980253 -1.097206690040384 0.3752402073482938 -0.3090229080216364 -1.0758623023331766 -0.1628377029101328 0.11469282093011143 
-1.7366870510618388 0.48591807642610507 -1.23276205170278 -0.6113612854979121 2.0559678044995153 0.26053394800903373 0.1098079554538078 -0.6363641114319241 0.3676857678947419 1.2751404979856424 0.83007808964672 0.4054330814843868 0.6122236754925905 -2.335706091463937 0.3912379440698962 1.3277664704016232 0.42153084116393524 -0.2975793009998595 -0.1491757173957538 3.16796315996629 0.3673382113051893 0.7847373771969859 -0.3256152806253171 -0.43547213323135536 0.9055849624198812 -0.9457937372364901 -0.5752174003676774 -1.0886464740522492 0.2767991178059352 -1.3164148309262969 -0.21725129117446246 -3.037597360070041 0.4950568905181151 -0.6406744967193008 0.3086800621596725 0.8883890680090173 -1.3008602783190795 0.7786154073277868 -0.48814653038324907 -0.8187980691682727 0.6951633981755686 -2.547646855799464 
-0.9809263051027416 -1.237046854944954 0.1984829871922974 -0.1346280585701044 -0.005372091892674915 0.14201248083789986 1.3392875363923196 0.5182753539338621 -0.42142987464803333 -0.12949434103411228 -1.64065130468401 -0.9578121217795893 -0.8151164086229067 -0.3044621663225157 -1.0920997172808864 -0.23751415291470027 2.239241835285499 0.48073136191208937 -1.1430185314780255 -0.17062326421058963 2.575889110038614 -0.09974696875538797 -0.2932808062656273 -0.7427110873504408 0.47331854351389974 0.7288791146203736 -0.7956548440160683 -0.18468908983084126 1.0192586112484328 -2.380083391694911 -0.3502189436112703 0.7313834544726463 -1.28722649348792 -0.09230917439562494 0.7083237698740339 0.3709181876813665 -0.6091867949143299 -0.25983018534673835 0.1918010364381412 -0.7639566040185453 -0.5382997445585369 -1.9206562449943543 
-1.9632679069817784 -0.38292201946031224 -1.2855023830329395 -0.26108502567969966 -1.4392232137985979 -0.5010302244635311 0.03713872110230112 1.829741337370971 -0.35372455213264287 0.4579707879688267 0.43314969418256166 0.528164810360731 -0.35925373601969923 -0.6088162314799462 1.4661479127017836 -0.2692672310603271 0.2964281532473336 2.2703693838887546 -0.5492866464666679 -1.6911198673936485 0.40130747577825615 -2.020960957639389 1.0020097854219612 -1.5979908533231773 0.3919227824771879 0.7711740089042523 -1.4484746516643567 0.7691624015935998 1.294303803586453 -0.060213671678367935 -0.14371192222410523 -0.6646044832832835 -0.9551304376281329 1.5723425530501862 0.19128981438341514 -0.14061051137452293 -0.17770664597505767 1.400677841697514 -1.4841043840714345 0.1347246333026557 1.2100583826238636 1.0267083384503215 
0.01150619126513955 -1.2739373793434514 0.9557972890209795 -0.32515838515197937 2.5639839243490585 -0.6881593966970259 1.0179520737260972 0.014152529164731099 1.4734111475892844 -1.210021838267932 0.5804924394869879 -0.5847976120367551 -0.5678054831597373 -0.7161786910879759 0.18080606552946474 -1.7356593358102068 0.9865840732624066 -0.019640955655426087 -0.8758632641772115 -0.45855137579955413 -0.534228503919112 -0.13764487395822347 -1.028188078605157 0.7628536528295728 -0.9770663985237383 0.33846028527713623 -1.5519653089881302 0.9410728907587975 -0.20513676532068123 0.17233923168401713 0.9868606771840835 -0.4243996582971457 -0.7185408616053048 -1.170519838386444 -0.29484726026010893 0.36857006096683587 1.4801682802787386 0.31510932903521544 -1.0657122103192864 -0.48074163946711723 0.7980764621885948 0.7160569481006523 
-0.9007683375500892 0.007259657822383949 1.763452808611307 -0.04857914162459829 1.3596782578021207 -0.3291199794502346 -0.8534656218750092 0.663686933710107 0.41701596055187756 0.2815406086799894 0.35454418603758553 -1.0375597113537018 -0.5300395974872966 2.337132686969977 -0.49435910125582594 0.26759458694608307 0.9387500346095637 -0.4055494955957006 1.4433570328092622 -0.5625695619419445 -0.31500298704163127 -0.28834022439402707 0.6989426548177348 -1.0780007517779573 -1.542571933496804 1.586518330831936 -0.1133550423484941 -0.7375600214129687 -0.6718553943243457 -0.02764798745318363 0.8870679417168652 -0.450548234700751 0.15052171605375758 -1.4002121635823832 0.5737802461741235 -0.6711778044611493 0.00474956051974454 -0.7390623489473723 -0.8762000240643532 0.914315430204581 -1.960693370236294 -0.22226386040364945 
-0.7734367445839678 -0.9698635637246712 -0.036674281496473365 0.06167669718239985 -0.48892077728831 0.02390685103554198 0.779056268450324 0.5812743305318692 1.3440310534878774 1.0478047659398633 0.1100779895420068 0.23448967957062264 0.8795631524922587 0.5670668374682334 -0.22884300151822268 0.6999911617639545 -0.14952831401459257 1.2108649438024102 -0.5813322028116702 1.2131135522557897 1.501231383521898 0.8985083900752117 0.11015150898047897 0.41931234043949966 -1.161361921319291 0.36502547649506895 0.7786759814953941 -0.47398878120295274 1.6125216323707972 -0.2594918676420373 0.12520743369093992 1.148880518503619 -0.6448321173406244 -0.6528664865523649 -0.5388925373385653 -1.6916128343523822 1.4554416888359285 -0.3656570244154672 2.9098227711296447 -1.5278812833566042 -0.5242570246975446 -1.010984992007452 
0.7845011866889359 0.4607529422642853 0.05238377057061988 0.7642878523297144 0.5666756741785699 0.37031106053846596 -2.035638536823248 -1.5706273401341886 -0.7981873220688716 0.12719062642389745 -0.032950975039698904 -0.2828633918130437 1.7838773491107747 1.2652893134060377 1.710039934845674 -0.5474319984962306 0.7187104125275835 0.01745291920361895 0.599237581457536 0.3047644718284655 0.5656036515237939 -1.3696955808833176 1.905391231594388 -0.30107439726011315 0.18455316037807554 -1.704482944324444 0.5462107348080179 1.4606480793794534 0.9623440790924414 -1.5841385704153437 1.042437239211008 1.5028679167590069 -0.44719375874939 0.8915038379263166 -0.7165090309428054 -0.4413459555021484 0.5612544510354467 -0.6617572933263601 1.5523017153129801 -1.2041704820312318 0.00798163195887388 -0.7367799818992706 
-1.3145124351507258 0.6863728490088556 0.2948440069284219 2.000234851883965 -0.21044506005844957 0.24953939762142047 0.6880601303975298 1.722235244875593 -0.7933391565226557 0.16056928773561305 -0.03413434761844696 -0.34580489744585385 -0.017929874178271788 0.6721273162677451 0.08927796300711283 -0.021944581713549665 0.7908095654722074 -0.633819300506477 0.6315901097328952 -0.11343977571804582 -0.1292964972340392 -0.005426104887276688 0.2722376540816519 -1.21923918720359 -1.178952379841812 1.2280591761815074 -0.49415199881101324 0.12784638429856246 -1.2624506385770682 -0.38743073580711107 1.3755202758620175 0.7727636133631409 -0.5663983695390741 0.12632282857197852 -0.44918395934138083 -1.4403999991822614 -0.8814690995262544 2.0069192360143897 -0.7203289657983595 0.48054109886834184 0.25721383260404085 0.9025233430600785 
-0.2741407547776887 -0.7598296157979593 -0.8139274261696567 -0.3217553307312748 0.8314675010893103 0.3276964906486521 1.0838029325460004 -0.37647836476261987 1.8839493860475687 -0.028523906380069054 -0.070848180293611 1.1100920775867569 -0.853033749441701 -0.5355061989130792 -0.9390478105829755 -0.28997834168927206 0.8628026567419416 1.1516660480417515 0.8371306163047312 1.4456026993340672 0.39405780508669264 -0.9618395560382367 0.050983548573557184 -0.008033175808721697 -0.17834951628302037 0.5434124016505261 1.7523519702841106 -0.4947233968253878 0.36809003708829885 -0.8537154461305319 -0.714926723881981 0.20511119240881406 -0.04207985851152194 2.0317692641505385 -0.09813291153096747 0.9100427834446929 0.9364275225244828 -1.1144612958910163 -3.1749283733686657 -0.0711259196432839 -0.6100857058431374 0.7602775638988518 
-1.256166247094263 0.5411002410523377 1.7131342186704874 0.8372842842296254 0.22835410918727564 -0.22591473278144983 -0.8459180672591762 -0.8022085511430532 -1.934909152799593 0.23867417852209125 0.5620103528034303 0.6930391256509628 0.3053452664855513 -0.27285550679263876 -0.3814525885963513 -2.902670063141374 0.07997949761551583 1.4815424374387987 -0.13891945657736007 0.8003158564952858 -2.6801107471956915 -0.4751996806576085 -0.1942374696536844 -0.37714627523024674 -0.05173003587056494 0.9719733647581132 -0.4652626230122864 0.7957500999764929 -0.05273675968251628 -2.03289260118573 -0.618550241527573 0.6296725717027958 -0.6463824909977637 0.12736201631692326 -1.5274983246892442 0.8762428209311419 -0.327434784779206 0.005637772267547586 -0.4010612247312301 -1.000223775365101 -0.19830594467749058 -0.9044532823342875 
0.22065095385366937 -0.3252476697245294 0.01562753453620197 0.5438600340048824 0.28486517562236935 -0.8396981797756701 -0.2090265627882099 0.5614690635873395 -0.05695670549936588 -0.3624751224036267 0.2816705414207718 0.9252838165271955 1.7689636508966728 0.5693008977180309 0.7001490845485385 -1.1329749493436212 -0.7470714730276728 0.7392004562970083 0.5775563260538961 0.43843333552161906 0.589443243400185 -0.5132534290246789 0.8404057117175822 -1.1249597453005327 0.26544413320418303 -0.8470555648053956 0.7704389114200493 0.3304581022618738 0.09927162585041853 -0.817984469995308 -2.00463885332912 -0.8607092927959777 0.49706212537867317 0.973472827238474 0.5541578689100485 0.7988327446949101 0.8061671151419864 0.5608773418513866 -0.21961835807550387 -0.23314119632183067 -0.7294720194870365 1.937907545023273 
0.3969637292550555 0.7948959538724633 0.576891199889713 -2.299353542158082 -0.6034790845079351 -0.9120648077682985 0.45379281892982276 0.011439575396654909 1.1098691008404122 0.2716577584000028 1.0917899440787675 0.9799832477403558 -2.3358098502086007 -0.33236482559115604 -0.36634226220776467 1.5944441359673531 1.7207458635842374 -0.10187714711966862 0.10137084679364303 0.6021195920819324 
-0.9912271659030253 1.9014550477992043 0.7495250302344492 -0.42884714706901494 0.6464211712494584 -0.5693133967140416 -0.20502660308064236 -1.676209870325874 -1.149013992842971 0.23215022409115665 -0.0878310753215415 -0.6652686931819716 2.038705136929318 1.0046698296019703 -0.26650050943548875 -1.3289649159838413 -1.9825441235145522 -0.5849570450938818 -0.8659089896049803 1.6787271016149607 
