-1.9114214646844863 -0.24946037410357802 0.47168935204677603 0.9977522803076485 0.9868901165819962 1.8911214429056897 -1.165851189918539 1.6390147075046462 0.5936542449389596 2.060880600505891 -0.2024934931846185 0.36770860426182783 -1.0826856073583975 0.1845330710019902 0.16883834546484905 1.3832763293008916 -0.4380357856404352 -0.46318155820794343 -0.5545705992963745 0.5234876717096894 -0.24399923600033968 0.43742127927693625 -2.374619173929346 -0.9318254818807389 -0.5363389234688243 0.1135641653968548 -0.9676530897303103 -0.756473025973163 1.5876477124874013 0.3836251446331838 
-0.7178613600274207 0.718421746276039 0.0026196155506340003 0.24490943320748892 1.509661986552633 -0.04855127514938733 0.3052303826041978 1.1845807772823336 -0.7806770206657293 1.9739512830926438 -0.09238940982991796 1.080040574352851 0.16884343455100853 1.0209381803374569 -1.1270370653561461 2.2839732548988896 1.6422719608519596 -0.1173721578173916 -1.0995685615102748 1.5124734383627165 -0.4200574537724166 -0.993275405541395 0.4976048611183474 0.19302456784278924 0.8206886041470041 -0.7296611838052798 0.5396782986532931 -0.2095982951986658 -0.27057976153564284 0.6203397064089874 
-0.10106565736520269 -0.16719255108084738 1.7890655349155613 -1.2817749130559062 1.1268456160777105 -0.11586915236286542 -2.3608689284791193 0.5345158922636661 -0.5066801262276666 -0.9189989986388657 -1.1104434823907687 -0.7826441605060452 0.8276498822164327 1.9847271012507681 -0.5819937747789603 -1.1269703675559355 0.6258740670468838 -0.006779042566855971 1.489793686538035 0.8946206181765957 0.5148937967441045 0.10446063792305892 -0.512579486666062 -0.6807091135740301 0.2473122657367564 -2.146350044879568 -0.3463383654070942 -1.0665528727309352 1.3844815035479467 0.4531433213169285 
-0.8484060224815811 1.3417586125744774 -0.8540604615818543 2.2805115612648224 -0.7573934836138443 1.1503548991729307 -0.13009971919027832 -1.373659912204485 -0.9902431614465615 -0.7527765003566367 1.4471594060645976 -0.8991800053181995 -0.4608954859326195 0.619101081549676 -1.1991039257817844 1.0116979399015826 -0.058754715826210474 0.19713862263201987 0.15313745838361514 -0.013683326131930348 -0.5321482453649048 -0.19889248477775778 -0.32380864154420846 0.21537284335565277 -1.087360101077865 1.1666500835932665 0.6483680495837375 -0.14480483475425562 -1.626730469260226 0.4109034532037408 
-2.033326999871468 -2.14055286583217 0.7858995268126692 -0.35549742687057867 0.49849577222578123 0.26166176241762096 -0.8541906639024499 -0.6417313360377076 0.18190033430838076 -1.3016964907588378 0.28552812120232207 -1.6940098789360005 -0.10322227721743037 -0.23354855442156927 -1.8362429260991453 0.25787309060045605 -0.4466074518972372 -0.3149424597908392 0.06716616816623992 -0.23478166694462738 0.5021343357815352 -0.8220274478307504 -2.1224427613655354 0.216033292332952 -0.11846541341298306 -0.7668089075624036 -0.16516396643588396 0.40077746850713003 -1.1430504462382445 -1.5313723231033496 
2.257426193106929 -1.2771149867226699 -0.054705009180338375 0.4631475643258011 1.1649728415643472 -0.6107939228765319 0.1220680918011482 -0.7941250140169636 -0.17104782767231866 1.326672952793339 -0.8865918962493939 1.6571686015044154 0.2986578164968057 -0.34866886178786444 0.3781245828981025 1.5129949064304504 0.3364317576697481 -0.791185943563053 -0.8218103058623311 -1.9568098812969645 1.2219472336986248 -0.7072013781144028 1.1695217104902236 -1.5001391949997245 -1.4825664010394692 0.8429534747167712 -1.0335669772340499 -0.15730024193244158 -0.37823609529739777 -0.08481335462619244 
-0.02616629237420972 -0.1982129352183721 1.110636629141265 0.20902774908128 -0.5737581102432513 0.003431410535663352 0.058933692176368055 -1.0572686149902482 1.9480556720518782 0.5351920274850022 0.53123112107462 -0.40796666764186384 1.5419226782481061 -0.02096337833007657 0.32407454515615103 0.4840719042315168 -0.384220735689092 -0.4012818941771989 -0.872147476193157 0.9052071998986101 -0.06235254938541623 -1.2557559365874431 0.5759660956722585 -0.19477406089355587 -0.035886452860242855 2.204392498225969 -0.4033901547902137 -0.38764516831069706 0.5235749413104864 1.0670258890100173 
1.9090140746737911 0.8999578798209247 -0.3648232385251437 -1.0039270776315148 -1.3796596534586345 1.1236766298263454 -0.785783082920998 -0.9108819017697223 0.4579228014475494 -0.9542658980386366 -1.0019742167491894 -0.9009166879700877 -1.829559362962067 0.7406236538349394 0.26819452786360215 -0.7845482609970044 -1.6298087462337467 0.20957365589679913 -0.39099997134785425 0.20694145023469318 0.2687393869391717 -1.0188792846980508 -0.0810337469361384 -1.7403438583309199 0.28491683269460827 -0.05618753626483064 0.16419181001355368 0.6756471178253334 0.04171208279581252 -1.9024845945961506 
0.018423461117677366 1.2020573325231132 -0.20908184807172053 0.7327141684392319 -1.611537296596881 -0.830224323619479 -1.367857306776517 0.3173788009128077 -0.667852475705946 -1.07743496836618 0.5365854845663298 0.41149556771184476 -0.1026667592418254 0.11972147187092731 -0.3629572502050064 1.2342438157005269 0.05129836324046922 0.8661389749502818 -0.4446602655818076 -0.23979124747694955 -0.5261541800242253 -2.297953496593073 -1.0803887130536267 -0.5538104035633128 0.49878346441527616 0.014481549050925854 -0.12465266167772641 1.368127198014389 -0.15542573957131914 -1.3251567050495658 
0.9919762124288721 -2.3221764319255307 -0.8942913169336968 0.15812467313051762 -0.5635023610063438 -0.2951185340713133 -1.1224789714024492 -0.2598642265002594 0.12288797185806331 -0.9919828594322159 -1.6141945469986392 0.8617580661406277 -0.4990198721732015 -1.0840906761637334 -0.3214428268055991 1.5822403291790614 1.4296940344063376 0.870540637348618 -0.009577358538052297 -0.2185713937326575 0.8559855882723965 -0.7340780099960498 0.02510294235930814 0.14634650010188668 1.5460983048175307 0.28942116441981885 2.3721281912300665 0.7084603075540868 -0.1918840965874731 0.246988603989508 
-0.9697854284936627 -0.9964597636463439 -0.33398008726346007 -0.12723554842891718 0.290435715312382 -0.686180649754618 -0.4029331961271315 0.3010958618613778 -0.7665527193872443 -0.3742786664011037 -1.0768615416469667 -0.13102065184939524 0.3867863615432473 -0.32222628561725697 1.201149374606709 -1.6832018493682432 0.6307504888342707 -0.2562157199689298 0.3514276716774698 -1.2681160619891656 -1.163112274402787 0.8582041904774496 -1.549359886863399 -0.0238676499865331 -0.08657402157108794 2.1767330248345074 -0.8116463891255149 0.500919609135535 -1.9677431932829184 0.41287721241798714 
-0.7226425576718453 0.4748488401912591 1.4906596736834798 1.0199491884047436 -0.1784451836595038 1.6321672592704037 2.515328081511473 -0.2640471392255757 0.6037221043210381 -0.522090391913689 -0.4949718079208896 0.49703195049007437 0.42734631321288047 -1.6206585977009675 0.3011632994459209 0.9851371175665119 -0.11107714136935458 1.467477907988319 0.050880194754550565 0.5979023339078567 1.292758510426039 0.3503518426296112 -0.21469657273642664 0.6753639730375478 -0.6209503673549318 1.486059477549365 -2.626681761470956 -1.2070402947253536 -1.5428485681882025 1.2999147786275083 
-1.3790917071426005 -0.017656900978649907 0.384897789625363 -0.8586503181960834 -2.249848348880837 -0.7027163619620257 -1.062663916699687 -1.6280386113758665 -0.3223969296271154 -0.679693592408858 -2.4669997082947464 1.1779204589809587 -1.718465073360718 0.3905784634723412 -0.8106663559145012 -1.2663636637107554 0.5162177693785313 -1.4433982410630373 1.116564243131841 -0.8134127899064832 -2.705507229787361 -0.627154921020746 -0.09707496726933523 -0.3511967022939686 -1.0343919598638345 0.6677267392640395 0.16864023603436176 -1.62592187983266 -0.15072033750943134 -1.452025733526827 
0.06540380916780902 -2.6504257164910165 1.0912547886376562 0.04692435135836299 0.0669708159301235 -0.33189934277723415 -0.506030236479718 0.22731804404473924 1.3315527255074353 1.4370785661027223 1.0383146005909745 0.11914034683412661 0.1066021589684879 -1.1702791211625645 -0.06423443305778 -1.9161355232899215 0.35790627888297993 -0.2828706025737923 0.8557456359348018 -0.9442106067568781 0.5941732444779735 -0.25944490218307764 0.06183447934678876 0.8784186515736776 -0.07557232113426163 0.35483199146745337 -1.574943930909257 0.8937970385610446 -0.21975364105489112 -0.2007467327978952 
-0.2636158167517812 -0.7874598967829826 0.7462106121876708 0.1865288890680779 0.23380162609714664 -0.4565546966863517 0.1272246043063908 0.09428549971825352 2.078952754302446 0.7922952538298634 0.019735649203622665 -0.6770125003523112 1.0443037607983419 -0.056496003227064856 -0.36874178818434866 0.33249093828533405 -1.7505025282167943 -0.34113802197379706 0.8431619227276611 0.18528970335171296 0.4911440899263858 0.13323252148271453 -1.486941938663708 0.5140049505678432 -0.8616801397502443 -0.014927356024565238 -0.31228060722369505 -0.1469320627797679 0.048187640237789306 1.954869283472383 
2.6273512311452625 -0.29640851202004365 2.2927454085401764 0.8019829504255219 -0.4269746227718302 -0.8723353689831231 1.3153122676919171 -0.4319905257010871 0.551577121452226 -0.0630938599537882 -1.1404607102461721 -0.19813178401022005 -1.6044041952680033 -2.1905603503442594 2.023799785076141 -0.8636812792676647 -0.3582961246674415 -0.88693282832525 0.28139253466540365 -0.9765976625606214 0.6472193670469133 -1.7109198966475472 -0.614790399219771 -0.5620799799228454 2.777409913827534 0.271792497764989 0.10509609704555938 -0.6995906050554073 0.5045965978026719 -1.1763927072087166 
0.45198428309070066 2.1232020363984074 1.1426779867957146 -0.5327347504111432 -1.5017032016461715 0.5213139386313439 -0.0910327368434294 0.9984692441677564 -0.9613151137339464 -0.4543889418718604 1.2468703405123036 0.9758299157898774 0.0038887547375065796 -0.12305874370645173 0.5544397303906042 -1.1450352403336335 1.1533299284861072 2.4000129504836774 -0.7508574833486026 0.3187999272172826 -0.38763062816467436 2.473076102796751 1.3230213722200543 1.3253087001605093 -1.0132768513674952 0.675774354545287 1.4862996355990763 -1.6140104975901803 0.36597842430216865 0.16794622074165888 
0.25942296724812747 0.5049954952837078 0.5147170855221928 0.8660284844428915 0.4995939305784742 -0.7153606817216666 0.7294437070680521 -0.8013629299615399 1.1285298253595508 1.3789792392302396 -1.4121366233978305 0.3795254200909887 -0.5754449898025248 0.46968725924040333 0.7881810474865634 -0.13516201006560186 0.5261874139531125 -1.3143782109923323 1.150792346219987 -0.21133016525860548 -1.0953521398996453 1.1690832414581054 1.2120149890190672 -0.16622811327071585 0.017710392954710556 1.530835739076916 0.3386655350250225 -0.8752023457365151 -0.42174172852932695 -0.5363110828725072 
1.5498189079371734 0.35842466882136836 -1.3649097558860588 1.6049675384727915 0.6012756324903377 0.2672108078979433 -2.595397392562286 0.12034899620259516 -0.23943754589711286 -0.16248128223084607 2.5355167075497382 1.1414587722434564 -1.7025370850936747 0.4480339621493403 -1.5179395317819175 -1.0246270003180482 -0.30375411322898827 -0.32694032719994703 0.3921548707901802 1.6939687003008732 -0.40170783322309733 0.0706611907499974 0.31271530018895904 -0.07719883533049307 0.57780744405078 2.2442402668765737 -0.19961818178258015 1.434007077851053 -1.406429919747666 -0.9429227646374951 
1.5540207122178893 -0.5888904679150051 0.12472786188916686 -1.1881185478943266 -1.192122231665659 1.8179148452309792 -1.2920722068666586 -1.3249406014391205 1.5407901961754087 0.41608765800575037 -2.1645702991979667 0.16772624886690296 -1.9080871831555481 -1.3397971195099612 0.1599485910891385 -1.0898660156049274 0.225360503651847 -0.25804389902929387 0.5783013188725123 0.6334435810495123 0.8431847591551945 0.37185674197323704 -0.20224471934326296 0.3344867957247056 0.8211070523397902 -1.2003497500284908 0.31484319898706387 -1.099580832508057 0.19801512208152372 0.547550119087668 
0.7797531391878427 -0.4970584971546485 -0.7504937019569247 2.8395821233216982 0.15399495092965276 -1.1560773086731306 -0.09217929546809334 0.304182061613784 -0.725916339470183 -1.1083800284142213 -0.3853677477438407 0.22760181289884454 -0.6290599078403599 -0.9919070524471754 -0.7855140480235078 -0.8165813752501909 -0.3197727089441674 -0.04159136701716211 0.5763000680848845 0.055882687751077964 
-2.0510613259399353 -2.0962326897491175 1.8176872633119043 -0.20231103543142567 -0.7293904493575688 1.031234803922131 -1.847614779330796 -0.1461921768497904 0.3702375012120087 0.7664323670896497 0.619397719605046 0.561644931998026 -1.0331066048265938 1.2026775631158562 0.8316346292420456 1.7741455958433023 -0.5252246197857015 -0.06699248773494487 1.2596835899244863 0.42762989066472246 
