-1.6299004026308153 0.35553733486031863 -0.6066013301268569 0.6321461462756933 -0.5309232854711401 -0.1562184719091797 -2.201274445717316 1.0142887876234488 0.00828430842526692 0.4365038351762926 
0.4158283654351976 -1.1989505948237242 0.8732581740822313 1.512101437925115 0.5561278032403812 -0.15340087289742838 -1.806632094344302 -2.1018547083400905 0.3779318770687829 -1.4681027678994512 
2.0282488373646674 0.36448879830343295 -0.7539333785602418 -0.16576491051167624 -2.8648949612569345 1.1763227799059575 -0.8921460615116104 0.31156547271766594 -2.0688021487720083 1.29598839221582 
-1.0931548895557153 1.3889745726455172 0.8664003257181925 1.379336538756434 0.7747443593264116 0.3291674062634492 0.18502974569511146 1.2552082245353504 0.9987564240163932 0.8274244443204972 
0.004997787292784859 -0.019297448543644687 -0.5728272293290118 1.1704255815485436 -0.9710603669412836 0.14100071805194683 0.73698301625649 -0.377615933761498 -0.32299560971910457 1.6110726596220086 
1.3740838531369035 -0.11043300765399133 -0.3081723890738997 -0.41227382922426437 0.1727778596495765 -1.7263958044158425 0.9483423937718078 1.1435361825900616 1.7530562789382629 -1.7608426324399107 
-0.6179377001827759 0.48531925222664873 1.5046918331948773 1.21431204593564 0.13411775778342094 1.1123749351326726 -0.748930513980233 0.8655991642523678 -0.45115010959178076 -0.3274240254559973 
-0.3541172261587586 1.100932845593004 1.1285295960035477 -0.7552910138115787 0.7428758145601061 -0.8443794656451238 -0.8072582995810383 0.5467017909865066 1.272819373675435 -1.855451528519904 
-0.8888855326071667 -1.3522292978879427 -1.4354681632434416 1.2942743060817754 -0.771735609017999 -1.7304733069688896 -0.5970742087291471 0.9126426118026458 0.17393736368501744 0.6067640548979136 
-0.6537432304369468 0.66767334043898 0.16322155352719006 0.4381172694671307 0.3180002587611116 -0.5741881692546346 0.8640256229503128 1.4634040385001705 -1.3927178740959587 0.787844845092946 
-1.0476854338046802 1.3696076413595155 -0.04017121383151274 0.0335533237926074 0.2987987673297419 -0.4080420003572122 -0.9219129844055651 -0.3019890241126309 0.7456317761870718 -1.5045682570072303 
0.259271126194229 -1.2730363640959428 0.5995852845382909 1.6616300486268594 1.2444515969446024 -0.8975308238510883 -1.257613830204168 -1.1510091187201963 -0.7816083400158867 0.08015223657807183 
-0.027268372133337448 0.3583986491938216 -0.9255702343782105 1.6732789670338049 -1.3067682134580623 1.3579635661537435 -1.7007751007235832 0.2549878102519334 0.5582081320021496 -0.4403369318436503 
-1.091408704994684 0.6823419582364487 -0.6926001709661603 0.5923471688485092 -0.08888976439771146 0.06838128779742693 -0.08086313065053788 0.39950835316932004 -0.06915955750632342 0.37724674969268973 
-1.439853341768766 1.8255974853331707 3.0073933092951823 -0.26122199752894676 -0.9189454695306002 -0.5337750814030663 0.03151292946699438 0.5436346159612137 0.1978688764344262 0.6614282510747078 
0.7423710278766512 -0.6169779739467182 0.6833623038281226 2.185842625318456 -0.7389213163348921 1.4351299903524024 -1.3824559035625523 -0.4422972171119336 -0.6082194357119748 1.3811046261055446 
0.20426316571746234 1.454222491864423 -0.16455067741921622 1.519365459835198 0.15139720496764195 -0.7869866121750321 0.4445086877980209 1.4845190539161632 0.18539047566280503 -0.8348189304441319 
1.2536587014455103 0.6054351134678417 -0.4797399877610934 0.4712872097279303 -1.6532063451964794 -1.0904774266443487 1.1998959460975305 -0.6749538254491254 0.9671171512554264 1.1383701100448296 
-0.13686002188046967 0.9323347605920326 -2.135730388281949 1.1530776405251846 -0.2484251298566897 -2.0768600137108177 0.17459485539721065 -0.9259427284209862 -0.8097790627910331 -1.9287015797576077 
0.5674394364362861 -0.1704388285388424 -0.9926396425483365 -1.4855788014180609 -1.2122433900495824 0.7417598632985908 1.0360883889864605 -2.3913480498389035 1.1869366066672071 -0.5273492617655121 
0.7643944803904579 0.07419229427889866 2.479674458890538 0.06663317319168321 1.1620596054640888 -1.0763503702717432 -0.6952774038641375 -2.346732323416543 0.4584240012457579 0.874803747388507 -0.4408831920324038 0.02031113433249135 -0.4523651004884001 -1.1755458547910744 0.30938478644206435 0.8884750905561568 -0.8200443664344118 -0.40809302153502636 0.4386366659406928 -0.9408621089268888 
0.7759928305338476 0.7318147562159032 -2.370998087410647 0.5392208130164582 -1.984363664547616 0.7561574632105023 -0.03719684120734166 1.1514799625813377 1.0724494011629806 -1.3134441199664906 1.8043359895312312 -0.37196165903759737 -0.3376459979946721 -1.377377021987744 -0.8980948245648483 0.9943614521222404 1.1617256885706206 -1.2270746769957748 0.10577456803787039 -0.46445564173057297 
