-0.759554908515099 0.3468471386638021 2.8311713428925493 1.764245318326376 0.6755633103368943 -0.45554714665033064 0.8778973987577985 -0.004785500765429918 
-0.9303835958792467 2.864305416738162 0.5705778448689497 1.0015382923001577 0.501324824851975 0.884030716462686 -1.199653806867201 -0.8346148335201494 
-0.23389144098159875 -2.130291713127154 -0.9569107405684815 -0.23470945662741066 -1.0238717884179227 -0.4657968556646937 0.7480560123858229 0.24506339800869997 
-1.2690476574436913 1.3946196147767536 0.13619342493388162 0.5550554158694959 -1.9069467912934672 -0.5764604858350835 -0.12747394768857254 0.3858019431188579 
1.1148739029851313 0.6461682187395782 0.2714044796037921 1.078489652575694 0.5372191231014259 -0.5211732027263594 0.29860936386520703 -0.062310766528624835 
-1.81552837244507 -0.17852449053383931 -0.3856558915607153 -0.21761331992955416 -0.6786367799470115 -0.7455357800523906 -1.50541444064878 -0.13986674497828577 
0.8977779554104389 -0.6786655963742595 0.22844922636065668 -1.4552562574680283 -0.0956851028101321 0.1409403773252126 -0.8083247557574049 -0.714287987902375 
-0.34987179331153023 1.1240302701425386 -0.4419015458597725 -0.776109586765291 -0.5421313652713149 0.8592611735885363 -1.5440446441888322 0.8088921557965241 
0.6896534280760649 0.8466026284652731 -0.7994088399230648 -0.7329929387971295 1.564846003097619 0.4046300145743959 0.22634693042799817 0.2627818269524338 
-0.6220071536263766 0.9758593310165458 0.4499576596354934 1.3112947625501596 -0.4161112701081327 0.6034146452714703 -0.2722852224805978 0.37714448406951195 
-0.9360403980799014 -1.0696746795108194 0.9637187367432601 0.23910621118264178 -0.7649126734797886 0.5063938032585665 0.16526829081258995 -0.4357616206131983 
2.4089642884403997 0.2006818012117455 -0.13787364530439172 -2.1108241062894333 -0.8391591439552767 -1.8023363392798206 -1.5100208947456413 0.1975203902005047 
-0.20984631900068193 -1.821866635857681 0.04427552075857524 -1.5418822029699306 0.7294122830230755 0.327044652901252 0.035860150233325394 -0.30336487985582256 
1.613747181215521 0.6142254362829035 -0.3831474511439196 0.9447975206237486 0.8730345575447508 -1.3582691441166974 0.9084821078009646 0.3486559672834183 
0.5102019502589288 -0.3469121828190966 0.9019715422895525 0.35640028763219195 -0.12635671888887684 0.04003438196658897 -0.7148238899388413 -1.1088267659666373 
0.27267849758376467 0.3069157971495492 0.807563689862013 0.9138369319268618 0.19816088745484184 0.9655834297899216 -0.10573638480661801 -0.11303344959974321 
-1.3155698352216265 -0.2356204806469752 -0.7618199227795434 -0.30054139559495163 -0.7703738565886951 -0.20369121691194894 -1.9695233338526235 0.3834650616421442 
0.5216922111936375 -1.2125328249796223 0.8655445589572449 0.0236926632362947 -0.4008786607619874 0.23147221316514385 -0.41562956333205137 -0.31559327678593824 
1.012541345391785 -0.26040984663322353 -1.0453199815459384 -1.0659439584519899 0.4749590814582207 1.5580896467252372 -1.093260977979283 -0.5577662864659645 
1.9367981192634405 1.3427074716575693 -0.2733555714201707 -0.16691064037841763 -0.8474216441998579 0.13201053726160872 1.2252440267326343 -0.5614424652054281 
-0.36075150487729785 2.2172766987076793 1.1245022319529183 0.5880753521426308 -1.1978424387957773 0.3686793599374295 -1.4563063914647798 1.2845244280816606 -0.3004572182621577 0.5549081921908833 0.01866174318075208 0.7994767605786552 -0.15437922880976593 -0.3446961898070244 -0.9247375212465808 0.2721550829193724 0.9404729874287246 -1.8915346255431262 -0.08052693148203546 -0.20261113526274435 
-0.2237676150058001 -0.6063065019137901 0.85453492485485 -1.1375790613561922 -1.668637345129275 -0.1677644048105548 0.6601182272295615 -1.1758048500308456 1.6555361381535323 -0.569928096998777 -0.7865149977741698 1.3649959443236035 0.5353681261228516 0.1623053133588581 0.2704165540789731 -0.8773874761818026 -0.5443639650148526 0.6800347405270886 0.5759452402261461 -0.0521003317080076 
