1.3509540418850794 -2.187852221061045 1.4097897167501925 0.16012840231346 -0.004878611073760827 -0.8250356435886673 -0.6542213188096067 1.030505505391562 
0.12715518495290287 -0.1932607554518524 0.723671560768088 -0.5618318963118445 -0.9883354135874964 0.6035006978509763 1.8693823985328766 -0.5293702754391116 
-0.35042732010814703 1.002989879877307 -0.42766400491326867 0.5352495895940493 -2.01865026709936 0.03259496672116315 0.6058894824507463 0.8657359014477434 
1.4052184558821081 -1.3154787076819319 -0.3783280362983872 0.2576314597095315 0.5000426242388414 -1.083353236244533 -0.500655223742511 0.3509148335550121 
-0.4089834455676426 0.8304557881330439 -1.0267124848640277 1.825976274070749 -1.9839927027697117 1.0778841541168727 0.6851072004385974 -1.1479671286706161 
0.7116285394318667 -2.461786186904029 0.534180465471624 -1.7771379199767283 1.3989048912812483 -0.05713627215214373 1.3373800576855395 1.292551108182806 
-0.5863428322294693 -0.9877628469536343 -0.12148404853090138 0.43736450386342146 -0.3537942698040119 0.9879062242233498 0.2717546763134431 -1.6428007373977467 
-0.6116455323840181 -1.1513812721010204 -0.3639748830901852 0.1156446725865049 0.3106450552467133 -0.03324576459428382 0.28577122227900653 -1.3313590603997887 
-0.015016083964682871 0.6717370841896703 0.949500886011556 -0.6901317455472711 -0.6155592480300979 -0.9409967036378848 -0.7267948544007911 1.925894464802116 
0.6162383300362138 2.226403553152011 -1.7619896476181982 -0.7210113457232542 0.7230663352899365 -1.8521146554597752 1.652671384922575 -1.462374573520092 
0.6175422752224627 0.9619561833611325 0.7455993020981749 1.0321708796243783 -1.247650262618517 0.7562871533840253 0.12115355302366561 0.25705365864193674 
1.0473981908188152 -2.3262488456892734 -1.3000742720420406 0.7661304525964887 0.5022110884937103 -1.5792407528386108 1.030312819673254 0.2032924536758485 
-0.1905626037118671 0.8692045471232708 -0.27855396624154866 -2.5358300510988974 0.23218580522355595 0.27972905051901237 0.22300223873469313 -0.22887039494605974 
1.6739489245778532 0.2682930073261232 -0.9063351350155511 0.3457106376183537 0.311803961957475 1.029007180194553 -0.1102429389326825 -0.8481492198248584 
-0.7776342735968463 0.533711366552176 -1.5174532218386978 1.417849913283423 -0.4595845723458613 0.006464842789653915 -0.6438564385102261 0.6322598123654128 
0.4850081616854592 0.3609929638896113 0.3612361742324163 1.4015009776538643 -2.0324284350739816 -0.9660339894116639 -1.2062121192449227 1.0443316910040743 
-2.728354656203311 0.1881680070168315 1.126747952376223 -0.28883395851502747 -0.15953896628352032 0.10277283863996356 -0.42905069178030353 -0.033844707689672786 
0.47475543629284755 0.5179061889214258 1.0410753633845058 2.193266650837322 0.6829932356440337 -1.4337015602964778 1.3908518426062857 -0.4408032998839207 
-1.2287674788563976 0.7375060228906526 -1.6927371139351794 0.5765177949109435 -0.545811875685086 0.3889446471255455 0.30707747192746193 -1.3677484152143258 
0.42336085094551396 -1.968160235584252 -0.21483554289875958 0.10933176142160568 2.0038321901774494 -0.9865820935222936 0.9970196175566819 -1.474320503380391 
-1.0947225489540127 -0.9612330807784957 2.5476222533580617 -1.7520880456863357 0.5312482746205109 -1.5908773059507193 -0.6798543122507734 0.055324734479839204 -1.1042830407972044 1.5446028394259765 0.6534541001951786 -0.43747832257030295 -1.572158531358003 -0.8756375169640607 0.12124362009079737 0.6560654938864009 0.9855301092707072 0.5401462721454563 2.6364250222374777 -1.633630283708973 
2.8447030098465436 1.2012319635709259 -1.4057383593444488 0.7571825768885081 -1.449047080598623 3.29641198602481 -0.6094298828832345 0.20609905043106477 -0.8589428418596218 -1.1852634439166616 0.18386040107363602 1.1823442684370546 -2.124992710325608 0.7843857977334054 -1.0730034809402846 0.37432378655160065 -2.054029623346326 -0.7610475668017853 0.862186862999088 0.25821348250106657 
