1.127474310990617 1.1811952127487375 -0.08068697466435429 0.6477694763491266 0.915576568728614 -0.48514098435565545 1.5208694228983997 0.3038989320023407 
1.6750186070573856 1.4737711838566483 0.1420440436252354 -0.6005704437180501 -1.3755270378145938 -0.33960532197752674 0.07048196502854166 3.0958215132693456 
0.03322268878400233 0.5841390302413026 1.6003802588391163 0.38052431064437614 0.3318392317335052 -1.4979966477064044 -0.8736690806340016 0.889505599868421 
-0.5405660228206864 0.4193331168828599 -0.550942858062773 -1.8812473898191504 -1.1323360442820143 1.4581272199061668 1.06864140452087 0.6501794661072239 
1.1621087453355379 0.736416563256875 1.0497858152020167 -0.6062099202991026 -0.509188729476722 -0.729023556841131 -0.6840832380162245 1.787901536283119 
-1.2857766294873605 -0.1962459110247263 -2.7040096821257285 0.6544854629486521 -0.2596380149941601 0.3889061499780229 -1.836020802331398 -0.9933954078130701 
-0.4955091939547625 -0.9515773858737017 -0.8180282619149168 0.888585532486508 1.254525605601409 0.40372085906527133 -2.079462860521061 0.9833158490120464 
1.2471147776479654 -1.5568895226919635 -0.48235480004886894 -2.152343996001719 1.0689603565184347 1.0678135945433274 1.6603365874091833 -0.2034490919610494 
0.9697456612029972 0.8790156202992053 0.41267544469432715 -0.46002026185809114 -0.4774493226880594 -0.16527446877658958 -0.40098013828768025 0.6915018272363137 
-1.9361961348394274 0.9763130885752375 0.43118781419574015 -0.6652883353636168 -0.8266012132470032 0.9416529962466078 1.1773325269631505 -0.4039731429465568 
0.6155436598173699 1.0292932472322194 -0.6683041622893197 0.3146913064234828 -0.2160613155675628 2.064113819191005 -0.453071185922036 -1.006580516025271 
0.2707670502197187 1.385459492130566 -0.33995569234174333 -0.2607329033957358 -0.6139522089925489 0.5132775377475425 -0.9348056163162688 0.3694749137667337 
-0.7599004907485194 -2.1528269378432974 2.035900920644159 -0.7712148079451671 -1.0589467806479183 0.7155783235861658 0.7747595418542896 0.9043355586488865 
-1.0483385486211148 -1.2497146088738014 -0.5428614543596237 0.5171605886395771 -1.9237358346161977 -0.2419078772828274 1.5268092439997145 0.6660289684961327 
1.8274337386539936 -0.8498092775416034 -0.0627057926470899 -0.1613087385604341 0.742502805299753 -1.1684861572293288 1.0021557341491447 0.19517676134736364 
-0.5963854294546624 -1.3889283264463945 0.1379512521014618 0.9566407281130295 0.1811167234875698 1.071893426128265 -1.3356837359325597 0.2494241598573785 
-0.7679552533338596 0.641158967684373 -1.1387700265478826 -1.1198836166455906 0.9910582394110365 -0.5123597796764019 -1.9421392336069638 1.2481371889224577 
-0.21610593450611376 -0.04150087436039149 -1.9503901686584355 1.16475146579486 0.8875673258070356 0.17473082242895957 -0.46029788604538924 1.1871843531587318 
2.0139610162641035 -3.135330401233754 1.719393114674604 -0.25727148685250206 -0.3405089902972274 -1.2715860680609186 -0.03964175100073548 0.2604284989251448 
0.1540541183863885 -0.948323116986942 1.1046902633996813 -1.0107508756231696 -2.2969547231163556 -0.20773844306618736 1.0273861167468386 2.348491471659338 
1.0617580364054637 0.26927669968639795 -0.8670739088188667 1.0184944035801788 -0.9829885042965716 1.7491760127568954 -0.21352449943756574 -2.514815989903693 -1.0631071756519772 0.222833244414088 1.0929178583311332 -0.2961888038048574 -1.6489161798378142 -0.484016107793027 -1.398498362093307 2.709351471232412 -0.5215588750210357 1.7139804498649935 -1.240949154385904 0.8951345106275793 
2.2012105451770014 -1.5946243557494186 0.38050827964183054 0.34960096721487327 -0.45638882001976183 0.2018604248537084 -0.3077524896239576 0.5253019866164031 -0.17473083574110007 -1.8961390892730918 -1.0215765859563828 -2.2352253830719335 -0.23189246532181879 -1.803508408047948 0.8009172365541974 -0.05598992362498838 -0.008744427613895695 1.1260041664814122 2.9543903289948727 1.9012080499956636 
